tree
version=v2
num_class=1
num_tree_per_iteration=1
label_index=0
max_feature_idx=91
objective=binary sigmoid:1
feature_names=('OUT&internal&call',) ('IN&external&0',) ('IN&internal&call',) ('IN&internal&suicide',) ('OUT&internal&create',) Txn_len N_investments N_payments D_index Avg_investment Std_investment Avg_payment Std_payment Investment_times Payment_times Investment_payment_rate Txn_period N_creator N_investor N_other ('OUT&internal&call',_'OUT&internal&call') ('IN&external&0',_'IN&external&0') ('IN&internal&call',_'IN&internal&call') ('IN&internal&call',_'OUT&internal&call') ('IN&external&0',_'IN&external&0',_'IN&external&0') ('OUT&internal&call',_'OUT&internal&call',_'OUT&internal&call') ('IN&internal&call',_'IN&internal&call',_'IN&internal&call') ('IN&internal&call',_'IN&internal&call',_'OUT&internal&call') ('IN&internal&call',_'OUT&internal&call',_'OUT&internal&call') ('IN&external&0',_'IN&external&0',_'IN&external&0',_'IN&external&0') ('OUT&internal&call',_'OUT&internal&call',_'OUT&internal&call',_'OUT&internal&call') ('IN&internal&call',_'IN&internal&call',_'IN&internal&call',_'IN&internal&call') ('IN&internal&call',_'IN&internal&call',_'IN&internal&call',_'OUT&internal&call') ('IN&internal&call',_'IN&internal&call',_'OUT&internal&call',_'OUT&internal&call') ('IN&internal&call',_'OUT&internal&call',_'OUT&internal&call',_'OUT&internal&call') ('IN&external&0',_'IN&external&0',_'IN&external&0',_'IN&external&0',_'IN&external&0') ('OUT&internal&call',_'OUT&internal&call',_'OUT&internal&call',_'OUT&internal&call',_'OUT&internal&call') ('IN&internal&call',_'IN&internal&call',_'IN&internal&call',_'IN&internal&call',_'IN&internal&call') ('IN&internal&call',_'IN&internal&call',_'IN&internal&call',_'IN&internal&call',_'OUT&internal&call') ('IN&internal&call',_'IN&internal&call',_'IN&internal&call',_'OUT&internal&call',_'OUT&internal&call') ('IN&internal&call',_'IN&internal&call',_'OUT&internal&call',_'OUT&internal&call',_'OUT&internal&call') ('IN&internal&call',_'OUT&internal&call',_'OUT&internal&call',_'OUT&internal&call',_'OUT&internal&call') ('IN&external&0',_'IN&external&0',_'IN&external&0',_'IN&external&0',_'IN&external&0',_'IN&external&0') ('OUT&internal&call',_'OUT&internal&call',_'OUT&internal&call',_'OUT&internal&call',_'OUT&internal&call',_'OUT&internal&call') ('IN&internal&call',_'IN&internal&call',_'IN&internal&call',_'IN&internal&call',_'IN&internal&call',_'IN&internal&call') ('IN&internal&call',_'IN&internal&call',_'IN&internal&call',_'IN&internal&call',_'IN&internal&call',_'OUT&internal&call') ('IN&internal&call',_'IN&internal&call',_'IN&internal&call',_'IN&internal&call',_'OUT&internal&call',_'OUT&internal&call') ('IN&internal&call',_'IN&internal&call',_'IN&internal&call',_'OUT&internal&call',_'OUT&internal&call',_'OUT&internal&call') ('IN&internal&call',_'IN&internal&call',_'OUT&internal&call',_'OUT&internal&call',_'OUT&internal&call',_'OUT&internal&call') ('IN&internal&call',_'OUT&internal&call',_'OUT&internal&call',_'OUT&internal&call',_'OUT&internal&call',_'OUT&internal&call') ('IN&external&0',_'IN&external&0',_'IN&external&0',_'IN&external&0',_'IN&external&0',_'IN&external&0',_'IN&external&0') ('OUT&internal&call',_'OUT&internal&call',_'OUT&internal&call',_'OUT&internal&call',_'OUT&internal&call',_'OUT&internal&call',_'OUT&internal&call') ('IN&internal&call',_'IN&internal&call',_'IN&internal&call',_'IN&internal&call',_'IN&internal&call',_'IN&internal&call',_'IN&internal&call') ('IN&internal&call',_'IN&internal&call',_'IN&internal&call',_'IN&internal&call',_'IN&internal&call',_'IN&internal&call',_'OUT&internal&call') ('IN&internal&call',_'IN&internal&call',_'IN&internal&call',_'IN&internal&call',_'IN&internal&call',_'OUT&internal&call',_'OUT&internal&call') ('IN&internal&call',_'IN&internal&call',_'IN&internal&call',_'IN&internal&call',_'OUT&internal&call',_'OUT&internal&call',_'OUT&internal&call') ('IN&internal&call',_'IN&internal&call',_'IN&internal&call',_'OUT&internal&call',_'OUT&internal&call',_'OUT&internal&call',_'OUT&internal&call') ('IN&internal&call',_'IN&internal&call',_'OUT&internal&call',_'OUT&internal&call',_'OUT&internal&call',_'OUT&internal&call',_'OUT&internal&call') ('IN&internal&call',_'OUT&internal&call',_'OUT&internal&call',_'OUT&internal&call',_'OUT&internal&call',_'OUT&internal&call',_'OUT&internal&call') ('IN&external&0',_'IN&external&0',_'IN&external&0',_'IN&external&0',_'IN&external&0',_'IN&external&0',_'IN&external&0',_'IN&external&0') ('OUT&internal&call',_'OUT&internal&call',_'OUT&internal&call',_'OUT&internal&call',_'OUT&internal&call',_'OUT&internal&call',_'OUT&internal&call',_'OUT&internal&call') ('IN&internal&call',_'IN&internal&call',_'IN&internal&call',_'IN&internal&call',_'IN&internal&call',_'IN&internal&call',_'IN&internal&call',_'IN&internal&call') ('IN&internal&call',_'IN&internal&call',_'IN&internal&call',_'IN&internal&call',_'IN&internal&call',_'IN&internal&call',_'IN&internal&call',_'OUT&internal&call') ('IN&internal&call',_'IN&internal&call',_'IN&internal&call',_'IN&internal&call',_'IN&internal&call',_'IN&internal&call',_'OUT&internal&call',_'OUT&internal&call') ('IN&internal&call',_'IN&internal&call',_'IN&internal&call',_'IN&internal&call',_'IN&internal&call',_'OUT&internal&call',_'OUT&internal&call',_'OUT&internal&call') ('IN&internal&call',_'IN&internal&call',_'IN&internal&call',_'IN&internal&call',_'OUT&internal&call',_'OUT&internal&call',_'OUT&internal&call',_'OUT&internal&call') ('IN&internal&call',_'IN&internal&call',_'IN&internal&call',_'OUT&internal&call',_'OUT&internal&call',_'OUT&internal&call',_'OUT&internal&call',_'OUT&internal&call') ('IN&internal&call',_'IN&internal&call',_'OUT&internal&call',_'OUT&internal&call',_'OUT&internal&call',_'OUT&internal&call',_'OUT&internal&call',_'OUT&internal&call') ('IN&internal&call',_'OUT&internal&call',_'OUT&internal&call',_'OUT&internal&call',_'OUT&internal&call',_'OUT&internal&call',_'OUT&internal&call',_'OUT&internal&call') ('IN&external&0',_'IN&external&0',_'IN&external&0',_'IN&external&0',_'IN&external&0',_'IN&external&0',_'IN&external&0',_'IN&external&0',_'IN&external&0') ('OUT&internal&call',_'OUT&internal&call',_'OUT&internal&call',_'OUT&internal&call',_'OUT&internal&call',_'OUT&internal&call',_'OUT&internal&call',_'OUT&internal&call',_'OUT&internal&call') ('IN&internal&call',_'IN&internal&call',_'IN&internal&call',_'IN&internal&call',_'IN&internal&call',_'IN&internal&call',_'IN&internal&call',_'IN&internal&call',_'IN&internal&call') ('IN&internal&call',_'IN&internal&call',_'IN&internal&call',_'IN&internal&call',_'IN&internal&call',_'IN&internal&call',_'IN&internal&call',_'IN&internal&call',_'OUT&internal&call') ('IN&internal&call',_'IN&internal&call',_'IN&internal&call',_'IN&internal&call',_'IN&internal&call',_'IN&internal&call',_'IN&internal&call',_'OUT&internal&call',_'OUT&internal&call') ('IN&internal&call',_'IN&internal&call',_'IN&internal&call',_'IN&internal&call',_'IN&internal&call',_'IN&internal&call',_'OUT&internal&call',_'OUT&internal&call',_'OUT&internal&call') ('IN&internal&call',_'IN&internal&call',_'IN&internal&call',_'IN&internal&call',_'IN&internal&call',_'OUT&internal&call',_'OUT&internal&call',_'OUT&internal&call',_'OUT&internal&call') ('IN&internal&call',_'IN&internal&call',_'IN&internal&call',_'IN&internal&call',_'OUT&internal&call',_'OUT&internal&call',_'OUT&internal&call',_'OUT&internal&call',_'OUT&internal&call') ('IN&internal&call',_'IN&internal&call',_'IN&internal&call',_'OUT&internal&call',_'OUT&internal&call',_'OUT&internal&call',_'OUT&internal&call',_'OUT&internal&call',_'OUT&internal&call') ('IN&internal&call',_'IN&internal&call',_'OUT&internal&call',_'OUT&internal&call',_'OUT&internal&call',_'OUT&internal&call',_'OUT&internal&call',_'OUT&internal&call',_'OUT&internal&call') ('IN&internal&call',_'OUT&internal&call',_'OUT&internal&call',_'OUT&internal&call',_'OUT&internal&call',_'OUT&internal&call',_'OUT&internal&call',_'OUT&internal&call',_'OUT&internal&call') ('IN&external&0',_'IN&external&0',_'IN&external&0',_'IN&external&0',_'IN&external&0',_'IN&external&0',_'IN&external&0',_'IN&external&0',_'IN&external&0',_'IN&external&0') ('OUT&internal&call',_'OUT&internal&call',_'OUT&internal&call',_'OUT&internal&call',_'OUT&internal&call',_'OUT&internal&call',_'OUT&internal&call',_'OUT&internal&call',_'OUT&internal&call',_'OUT&internal&call') ('IN&internal&call',_'IN&internal&call',_'IN&internal&call',_'IN&internal&call',_'IN&internal&call',_'IN&internal&call',_'IN&internal&call',_'IN&internal&call',_'IN&internal&call',_'IN&internal&call') ('IN&internal&call',_'IN&internal&call',_'IN&internal&call',_'IN&internal&call',_'IN&internal&call',_'IN&internal&call',_'IN&internal&call',_'IN&internal&call',_'IN&internal&call',_'OUT&internal&call') ('IN&internal&call',_'IN&internal&call',_'IN&internal&call',_'IN&internal&call',_'IN&internal&call',_'IN&internal&call',_'IN&internal&call',_'IN&internal&call',_'OUT&internal&call',_'OUT&internal&call') ('IN&internal&call',_'IN&internal&call',_'IN&internal&call',_'IN&internal&call',_'IN&internal&call',_'IN&internal&call',_'IN&internal&call',_'OUT&internal&call',_'OUT&internal&call',_'OUT&internal&call') ('IN&internal&call',_'IN&internal&call',_'IN&internal&call',_'IN&internal&call',_'IN&internal&call',_'IN&internal&call',_'OUT&internal&call',_'OUT&internal&call',_'OUT&internal&call',_'OUT&internal&call') ('IN&internal&call',_'IN&internal&call',_'IN&internal&call',_'IN&internal&call',_'IN&internal&call',_'OUT&internal&call',_'OUT&internal&call',_'OUT&internal&call',_'OUT&internal&call',_'OUT&internal&call') ('IN&internal&call',_'IN&internal&call',_'IN&internal&call',_'IN&internal&call',_'OUT&internal&call',_'OUT&internal&call',_'OUT&internal&call',_'OUT&internal&call',_'OUT&internal&call',_'OUT&internal&call') ('IN&internal&call',_'IN&internal&call',_'IN&internal&call',_'OUT&internal&call',_'OUT&internal&call',_'OUT&internal&call',_'OUT&internal&call',_'OUT&internal&call',_'OUT&internal&call',_'OUT&internal&call') ('IN&internal&call',_'IN&internal&call',_'OUT&internal&call',_'OUT&internal&call',_'OUT&internal&call',_'OUT&internal&call',_'OUT&internal&call',_'OUT&internal&call',_'OUT&internal&call',_'OUT&internal&call') ('IN&internal&call',_'OUT&internal&call',_'OUT&internal&call',_'OUT&internal&call',_'OUT&internal&call',_'OUT&internal&call',_'OUT&internal&call',_'OUT&internal&call',_'OUT&internal&call',_'OUT&internal&call')
feature_infos=[0:27851] [0:1372] [0:83] none none [1:27852] [0:10000.24] [0:34778.830690504503] [-34778.830690504503:10000.24] [0:10000] [0:1626.3455967290593] [0:34778.830690504503] [0:2474.8737341529168] [0:1373] [0:27852] [0:1374] [0:46551966] [0:928] [0:193] [0:27852] [0:27850] [0:1371] [0:82] none [0:1370] [0:27849] [0:81] none none [0:1369] [0:27848] [0:80] none none none [0:1368] [0:27847] none none none none none [0:1367] [0:27846] none none none none none none [0:1366] [0:27845] none none none none none none none [0:1365] [0:27844] none none none none none none none none [0:1364] [0:27843] none none none none none none none none none [0:1363] [0:27842] none none none none none none none none none none
tree_sizes=2534 2553 2544 2556 2539 2536 2544 2558 2553 2548 2565 2559 2553 2556 2537 2552 2555 2565 2556 2566 2574 2584 2561 2555 2554 2579 2550 2562 2561 2551 2550 2573 2564 2529 2579 2578 2571 2522 2540 2566 2550 2517 2528 2548 2514 2554 2520 2536 2532 2506 2569 2500 2503 2515 2537 2526 2500 2533 2584 2508 2543 2516 2556 2506 2543 2559 2537 2599 2565 2494 2540 2512 2537 2568 2530 2536 2550 2511 2525 2550 2586 2544 2583 2504 2522 2546 2522 2573 2558 2562 2511 2510 2497 2593 2548 2514 2524 2592 2537 2539 2582 2542 2542 2499 2513 2538 2541 2593 2559 2503 2621 2517 2537 2551 2512 2592 2524 2543 2549 2567 2600 2540 2586 2594 2517 2590 2542 2598 2573 2522 2601 2597 2555 2526 2549 2560 2524 2539 2583 2557 2608 2572 2585 2524 2525 2508 2599 2593 2512 2607 2570 2545 2542 2560 2589 2601 2561 2559 2526 2571 2555 2602 2534 2544 2622 2566 2551 2528 2601 2600 2575 2588 2582 2538 2614 2571 2578 2540 2597 2532 2575 2563 2552 2560 2532 2529 2529 2551 2557 2624 2539 2544 2598 2559 2546 2636 2620 2591 2569 2568 2541 2529 2553 2568 2532 2526 2579 2620 2553 2529 2532 2503 2552 2531 2524 2598 2548 2544 2579 2536 2550 2594 2553 2589 2550 2559 2581 2520 2560 2588 2573 2600 2562 2588 2551 2566 2575 2551 2532 2562 2531 2594 2568 2619 2612 2561 2613 2596 2572 2637 2554 2569 2572 2587 2613 2602 2544 2578 2521 2561 2535 2553 2600 2534 2601 2569 2548 2618 2587 2577 2578 2549 2566 2536 2546 2536 2560 2585 2533 2616 2564 2595 2611 2617 2555 2554 2545 2617 2634 2604 2550 2610 2580 2629 2564 2522 2566 2556 2568 2579 2551 2545 2564 2564 2528 2540 2578 2567 2601 2572 2559 2540 2536 2569 2553 2545 2543 2592 2601 2530 2610 2570 2523 2547 2584 2567 2558 2556 2581 2550 2606 2535 2527 2597 2577 2573 2549 2570 2551 2576 2556 2549 2616 2547 2545 2532 2612 2576 2567 2570 2588 2551 2590 2554 2566 2605 2593 2551 2584 2613 2568 2527 2553 2591 2578 2589 2614 2555 2581 2542 2574 2565 2525 2571 2534 2595 2558 2550 2562 2541 2515 2555 2614 2546 2579 2538 2593 2539 2562 2585 2537 2541 2567 2642 2597 2550 2561 2549 2557 2526 2590 2544 2589 2557 2537 2598 2544 2565 2569 2554 2547 2596 2577 2578 2582 2589 2586 2617 2571 2575 2619 2536 2558 2520 2566 2606 2593 2558 2645 2580 2547 2604 2618 2573 2538 2600 2578 2552 2577 2665 2588 2536 2588 2586 2576 2564 2643 2629 2623 2608 2542 2563 2526 2594 2543 2567 2622 2613 2539 2587 2549 2527 2594 2588 2561 2529 2570 2626 2598 2600 2568 2628 2586 2619 2646 2585 2539 2612 2599 2623 2595 2556 2574 2559 2554 2604 2627 2588 2575 2600 2547 2638 2559 2658 2600 2588 2590 2531 2589 2600

Tree=0
num_leaves=31
num_cat=0
split_feature=12 18 6 7 8 19 14 16 9 11 11 11 7 11 10 6 11 7 11 16 9 16 7 11 19 11 11 0 7 16
split_gain=3609.35 776.802 896.388 625.349 255.287 172.8 932.799 170.801 130.036 87.4554 260.571 75.8243 63.5203 60.972 41.0801 39.3674 36.4346 28.1258 33.4938 27.0692 28.2971 25.6594 24.522 23.7492 20.5303 17.2154 16.5949 16.0299 15.9662 14.7659
threshold=9.9482262251343587e-05 1.0000000180025095e-35 1.0000000180025095e-35 0.012460808701128001 -0.8923400209195268 1.0000000180025095e-35 1.0000000180025095e-35 3617976.5000000005 0.15583333333333335 2.1690708080000005e-06 0.0099994662841666679 0.00020000000039950005 0.00099824973677000014 2.6270367569219446 0.22953482478605022 0.099780000000000021 0.7124336018650913 0.10000489287595803 0.18364530274751104 4624512.0000000009 5.6420833333333347 2784.0000000000005 1.8166900539088364 0.00017482638888875003 1.0000000180025095e-35 0.28181440933197627 0.00020000000039950005 2.5000000000000004 0.010000000005000001 4588.5000000000009
decision_type=2 2 2 2 2 2 2 2 2 2 2 2 2 2 2 2 2 2 2 2 2 2 2 2 2 2 2 2 2 2
left_child=1 2 3 5 22 -1 -7 13 15 -8 12 -6 23 21 -10 29 17 -5 -19 20 -16 -2 -3 -11 -9 -26 -25 -23 -12 -4
right_child=7 4 8 16 11 6 9 24 14 10 28 -13 -14 -15 19 -17 -18 18 -20 -21 -22 27 -24 26 25 -27 -28 -29 -30 -31
leaf_value=-0.2019890256534238 0.064887022601842537 0.004762221387742684 -0.0016599306840069539 -0.044290464581684535 -0.15677123072202787 0.14321337654080635 -0.21265857270847949 0.16705762374331404 -0.08262761064987266 0.036097425246300767 -0.21285360586175467 0.14399860314671073 0.053840419881379997 0.037379553063754054 0.11234311141187329 0.16110488744799525 -0.08179116097579836 0.059390741184504714 -0.023782692450313378 -0.173915111252546 -0.084180024872086354 0.14760552531225885 -0.12980991433215328 -0.2082028723135822 -0.00076608915478285945 -0.12641227561590207 -0.073649385725576472 0.17755438596458822 -0.13457391984229369 0.11054631384642104
leaf_count=2381 99 75 98 757 35 429 1271 21 195 40 752 798 248 156 141 448 439 322 486 20 37 1039 195 70 137 64 77 2292 121 90
internal_value=0 -0.657975 -0.864677 -1.10811 0.92031 -1.46283 -1.14419 1.6458 0.884308 -1.59845 -1.23539 1.46812 0.0292453 1.75119 -0.0201742 1.44321 -0.154219 -0.0113873 0.248138 0.621548 0.869435 1.80681 -0.769781 -0.850911 -0.056625 -0.253221 -1.22272 1.83663 -1.86553 0.675065
internal_count=13333 9525 8422 7393 1103 5389 3008 3808 1029 2579 1308 833 435 3586 393 636 2004 1565 808 198 178 3430 270 187 222 201 147 3331 873 188
shrinkage=1


Tree=1
num_leaves=31
num_cat=0
split_feature=12 18 6 7 11 19 14 16 9 11 11 11 7 11 1 6 11 7 11 7 16 0 11 10 19 0 11 8 1 16
split_gain=2943.98 633.603 731.638 516.118 208.801 142.14 762.724 139.922 106.047 72.6856 215.779 62.4156 56.1016 50.4694 33.5939 32.4256 29.5729 22.7921 27.1572 22.2415 21.7981 19.9418 19.3784 16.9638 16.7383 16.1794 13.7759 13.6951 13.0494 17.2918
threshold=9.9482262251343587e-05 1.0000000180025095e-35 1.0000000180025095e-35 0.012460808701128001 0.79603290713097574 1.0000000180025095e-35 1.0000000180025095e-35 3617976.5000000005 0.15583333333333335 2.1690708080000005e-06 0.0097309634544994177 0.00020000000039950005 0.00099824973677000014 2.4437787746778787 1.0000000180025095e-35 0.099780000000000021 0.7124336018650913 0.10000489287595803 0.18364530274751104 3.2707991525423705 4624512.0000000009 2.5000000000000004 0.00017482638888875003 0.26720098318775914 1.0000000180025095e-35 8.5000000000000018 0.00020000000039950005 -0.097836562593215479 3.5000000000000004 3280336.0000000005
decision_type=2 2 2 2 2 2 2 2 2 2 2 2 2 2 2 2 2 2 2 2 2 2 2 2 2 2 2 2 2 2
left_child=1 2 3 5 11 28 -7 13 15 -8 12 -3 22 21 -10 -4 17 27 -19 -6 23 -2 -11 -16 -9 -26 -24 -5 -1 -30
right_child=7 4 8 16 19 6 9 24 14 10 -12 -13 -14 -15 20 -17 -18 18 -20 -21 -22 -23 26 -25 25 -27 -28 -29 29 -31
leaf_value=-0.17340833186299598 0.14204472242334507 -0.12799527944481764 0.060846081897712505 -0.1430102060341458 -0.0024496786281581352 0.14354616853069357 -0.17957006818620011 0.16543425511373622 -0.062297183054152917 0.046405766076197646 -0.16878654271539162 0.14578565306196037 0.069773283051542928 0.050966014065114487 -0.061121982233423612 0.15995771267113462 -0.059806899866859109 0.067414008663555111 -0.0074994496977397879 -0.11618771623892775 -0.14414926534779302 0.17467029494628161 -0.1754277969202751 0.10352706816329045 -0.070445280813630246 0.044873780331844734 -0.052449708793711226 -0.019781654240218296 -0.041400025041276663 -0.18171039426342006
leaf_count=2239 1122 35 188 38 123 429 1271 21 190 40 884 788 237 166 30 448 439 322 486 157 20 2298 70 153 118 83 77 719 72 70
internal_value=0 -0.596288 -0.783757 -1.00475 0.832253 -1.32955 -1.03939 1.49094 0.799215 -1.45286 -1.12091 1.34153 0.0519895 1.58686 -0.0182091 1.30557 -0.138899 -0.0102526 0.223414 -0.661557 0.548605 1.63947 -0.769644 0.765124 -0.0510629 -0.228227 -1.10721 -0.259675 -1.69661 -1.10567
internal_count=13333 9525 8422 7393 1103 5389 3008 3808 1029 2579 1308 823 424 3586 393 636 2004 1565 808 280 203 3420 187 183 222 201 147 757 2381 142
shrinkage=0.1


Tree=2
num_leaves=31
num_cat=0
split_feature=12 18 6 7 11 19 14 16 9 11 8 11 7 11 6 1 11 16 7 7 11 16 11 11 7 10 9 11 11 0
split_gain=2432.71 522.457 603.995 437.607 172.179 119.399 632.524 117.436 87.7281 62.7164 181.668 51.4361 50.0233 43.416 27.7206 27.3582 24.0563 21.4046 19.1483 18.4874 23.0265 17.8698 15.971 14.9518 14.3267 13.8459 12.321 12.1329 11.8434 11.7757
threshold=9.9482262251343587e-05 1.0000000180025095e-35 1.0000000180025095e-35 0.012460808701128001 0.79603290713097574 1.0000000180025095e-35 1.0000000180025095e-35 3617976.5000000005 0.15583333333333335 2.1690708080000005e-06 -0.0096192342285524989 0.00020000000039950005 0.00099824973677000014 2.6270367569219446 0.099780000000000021 1.0000000180025095e-35 0.7124336018650913 2784.0000000000005 1.8166900539088364 0.10000489287595803 0.116444061340279 4624512.0000000009 0.00017482638888875003 0.29769822582782079 0.010000000005000001 0.26720098318775914 0.024658694173202503 16.69399617603025 0.00020000000039950005 2.5000000000000004
decision_type=2 2 2 2 2 2 2 2 2 2 2 2 2 2 2 2 2 2 2 2 2 2 2 2 2 2 2 2 2 2
left_child=1 2 3 5 11 -1 -7 13 14 -8 24 -3 22 17 26 -10 19 -2 -6 -5 -21 25 -12 -9 -11 -17 -4 -15 -24 -19
right_child=7 4 8 16 18 6 9 23 15 10 12 -13 -14 27 -16 21 -18 29 -20 20 -22 -23 28 -25 -26 -27 -28 -29 -30 -31
leaf_value=-0.15663808388454725 0.058450548691928894 -0.11690982228636755 0.086229307136401451 -0.023395145715124296 0.019158781068133842 0.13129099065311459 -0.16624707531237673 0.029898864829849433 -0.056258384268472697 -0.16495581145012406 0.041825450143918641 0.13339006244776727 0.070589986921384559 0.073667683148940927 0.14688797284741736 -0.055163528123224941 -0.054015204186516723 0.13554820203502146 -0.094841389846271135 0.10628110557247405 0.0068813116163979468 -0.13211268803711324 -0.1622111876292065 -0.083083030848794592 -0.090307516851773836 0.09383486880092505 -0.029116586143578857 -0.057589685878292746 -0.04733470703759559 0.1615261939302107
leaf_count=2381 99 35 137 757 85 429 1271 154 190 774 40 788 225 119 448 30 439 1039 195 108 700 20 70 68 122 153 51 37 77 2292
internal_value=0 -0.545969 -0.717802 -0.920839 0.759619 -1.22564 -0.957062 1.36827 0.727698 -1.33899 -1.02854 1.22738 0.0714022 1.45769 1.19281 -0.016463 -0.125226 1.50584 -0.599359 -0.00923241 0.201373 0.497404 -0.701047 -0.046011 -1.54681 0.693046 0.549053 0.425361 -1.01105 1.53368
internal_count=13333 9525 8422 7393 1103 5389 3008 3808 1029 2579 1308 823 412 3586 636 393 2004 3430 280 1565 808 203 187 222 896 183 188 156 147 3331
shrinkage=0.1


Tree=3
num_leaves=31
num_cat=0
split_feature=12 18 6 7 11 19 14 16 9 11 11 11 11 7 6 1 11 8 11 16 7 7 12 16 19 7 0 7 16 12
split_gain=2029.64 434.235 502.74 378.567 143.249 101.712 530.173 100.598 73.3593 55.5652 155.936 42.7546 39.7887 35.2429 24.2579 22.3419 19.6028 16.1622 15.6634 15.4897 15.8132 20.5138 14.8732 14.7364 13.7136 13.5761 13.0573 12.8408 12.3161 12.0509
threshold=9.9482262251343587e-05 1.0000000180025095e-35 1.0000000180025095e-35 0.012460808701128001 0.79603290713097574 1.0000000180025095e-35 1.0000000180025095e-35 3617976.5000000005 0.15583333333333335 2.1690708080000005e-06 0.0099994662841666679 0.00020000000039950005 0.8790340488980829 0.00099824973677000014 0.099780000000000021 1.0000000180025095e-35 0.7124336018650913 -4.8093889430338601 16.69399617603025 1856.0000000000002 0.10000489287595803 0.13450312844372805 0.40026570470957229 4624512.0000000009 1.0000000180025095e-35 0.00019950000000000005 8.5000000000000018 0.010000000005000001 1469.0000000000002 0.0047656268873030646
decision_type=2 2 2 2 2 2 2 2 2 2 2 2 2 2 2 2 2 2 2 2 2 2 2 2 2 2 2 2 2 2
left_child=1 2 3 5 11 -1 -7 12 14 -8 13 -3 28 25 -4 -10 19 -6 22 20 -5 -22 -14 -17 -9 -11 29 -12 -2 -26
right_child=7 4 8 16 17 6 9 24 15 10 27 -13 18 -15 -16 23 -18 -19 -20 -21 21 -23 -24 -25 26 -27 -28 -29 -30 -31
leaf_value=-0.14620380097817423 0.058305885001019131 -0.10744080853641545 0.049671701367617165 -0.024562439821118564 -0.10347597810870762 0.12104104488902075 -0.15584845596216831 0.15201003265778401 -0.050877216612821699 0.033337266175958218 -0.15674643359658869 0.12305603197057982 -0.065379386231521439 0.052069519067751549 0.13623468388232882 0.063011934963900354 -0.048846667885028644 -0.0064922761404509685 -0.051736223683447505 0.14195914767777973 0.076876905776148946 -0.0010117052259337328 0.098515333764330471 -0.12203909509373277 0.060156327645816382 -0.09489363518584007 0.040724976030300591 -0.08500517631565821 0.1445385402574158 -0.09642142722891002
leaf_count=2381 69 35 188 744 140 429 1271 21 190 44 752 788 25 248 448 183 439 140 37 30 175 616 298 20 25 143 83 121 3157 93
internal_value=0 -0.503634 -0.662336 -0.850447 0.698139 -1.14179 -0.890304 1.26783 0.666518 -1.24708 -0.951995 1.13213 1.35287 0.0270818 1.09819 -0.0148963 -0.112921 -0.544658 0.713153 -0.00829236 -0.0360947 0.161093 0.859082 0.452823 -0.0415776 -0.641784 -0.200963 -1.46497 1.42619 -0.630394
internal_count=13333 9525 8422 7393 1103 5389 3008 3808 1029 2579 1308 823 3586 435 636 393 2004 280 360 1565 1535 791 323 203 222 187 201 873 3226 118
shrinkage=0.1


Tree=4
num_leaves=31
num_cat=0
split_feature=12 18 6 7 8 19 14 16 9 11 8 11 11 7 19 16 16 11 7 16 0 1 16 16 7 11 7 11 6 7
split_gain=1705.37 362.956 420.976 332.159 120.019 87.7657 447.822 87.5056 62.2176 50.3919 135.721 37.3117 35.3938 34.2552 25.0206 44.8192 18.0726 16.8995 22.0834 14.4248 12.7797 12.6926 16.2515 14.703 12.5436 12.3954 12.2683 12.0616 11.683 11.2514
threshold=9.9482262251343587e-05 1.0000000180025095e-35 1.0000000180025095e-35 0.012460808701128001 -0.8923400209195268 1.0000000180025095e-35 1.0000000180025095e-35 4624512.0000000009 1.5200000000000002 2.1690708080000005e-06 -0.0096192342285524989 0.8790340488980829 0.00020000000039950005 0.00099824973677000014 1.0000000180025095e-35 10328.000000000002 3617976.5000000005 0.31421968058831268 0.10000489287595803 6400.5000000000009 2.5000000000000004 3.5000000000000004 3280336.0000000005 729227.00000000012 1.8166900539088364 0.37012892141169357 0.010000000005000001 16.69399617603025 0.010890000000000002 0.00019950000000000005
decision_type=2 2 2 2 2 2 2 2 2 2 2 2 2 2 2 2 2 2 2 2 2 2 2 2 2 2 2 2 2 2
left_child=1 2 3 5 24 21 -7 11 14 -8 26 20 -6 29 15 28 -17 18 -5 -13 -2 -1 23 -23 -3 -14 -11 -21 -4 -12
right_child=7 4 8 17 12 6 9 -9 -10 10 13 19 25 -15 -16 16 -18 -19 -20 27 -22 22 -24 -25 -26 -27 -28 -29 -30 -31
leaf_value=-0.14155115087397213 0.11378547591202262 0.016663340981946974 0.089692186929494266 -0.018932363944964406 -0.099176199669020013 0.11224494048570283 -0.14752590374774419 -0.019669774555545565 -0.056361839917733664 -0.1461420868521324 0.030032922130568924 -0.043665883883099471 0.12183026216385087 0.059049440338604847 0.13438025610634588 0.11493911814538477 -0.043013115718356768 -0.035475441792525951 0.033883808825403226 0.093207537263628973 0.14187519008217839 -0.11624322381895097 -0.15033139053687958 0.073133361688596896 -0.080149927873614468 0.03701449093745781 -0.075654223333133472 -0.033199813353814341 -0.037841251974197597 -0.086991482614998963
leaf_count=2239 1030 75 35 757 35 429 1271 177 155 774 44 45 716 225 280 353 34 697 550 285 2237 31 70 41 195 82 122 34 172 143
internal_value=0 -0.467072 -0.61445 -0.789902 0.644696 -1.07204 -0.834306 1.18319 0.612289 -1.17027 -0.886079 1.25583 1.04051 0.0650097 0.828482 0.593617 1.01217 -0.101885 0.0324136 0.63603 1.32842 -1.37626 -0.768821 -0.0840378 -0.524791 1.13041 -1.36023 0.790694 -0.160431 -0.586061
internal_count=13333 9525 8422 7393 1103 5389 3008 3808 1029 2579 1308 3631 833 412 874 594 387 2004 1307 364 3267 2381 142 72 270 798 896 319 207 187
shrinkage=0.1


Tree=5
num_leaves=31
num_cat=0
split_feature=12 18 6 7 11 16 19 14 9 11 11 11 11 7 6 16 10 0 9 11 16 11 8 1 16 16 7 11 0 7
split_gain=1439.97 304.674 354.176 294.931 101.094 78.3728 76.6237 380.596 53.5592 46.4448 119.482 33.1645 30.5084 24.0421 18.9074 16.3284 16.3198 16.287 14.5643 13.9926 13.4654 12.9259 12.1103 11.6783 14.3874 12.1258 11.5472 11.4843 11.381 11.2265
threshold=9.9482262251343587e-05 1.0000000180025095e-35 1.0000000180025095e-35 0.012460808701128001 0.79603290713097574 3617976.5000000005 1.0000000180025095e-35 1.0000000180025095e-35 0.20190000000000005 2.1690708080000005e-06 0.0099994662841666679 0.7124336018650913 0.00031484350530000001 0.00099824973677000014 0.099780000000000021 2326.0000000000005 0.35340929965686524 2.5000000000000004 5.6420833333333347 6.9171525929862847 4073253.5000000005 0.7124336018650913 -4.8093889430338601 3.5000000000000004 3280336.0000000005 729227.00000000012 0.010000000005000001 0.29769822582782079 2.5000000000000004 0.020003661906182
decision_type=2 2 2 2 2 2 2 2 2 2 2 2 2 2 2 2 2 2 2 2 2 2 2 2 2 2 2 2 2 2
left_child=1 2 3 6 12 11 23 -8 14 -9 13 28 -3 -11 -4 -13 -10 21 20 -17 -18 29 -6 -1 25 -25 -12 -7 -2 -5
right_child=5 4 8 17 22 27 7 9 16 10 26 15 -14 -15 -16 19 18 -19 -20 -21 -22 -23 -24 24 -26 -27 -28 -29 -30 -31
leaf_value=-0.13437463164532057 0.10813727436081298 -0.078245248299881179 0.039066591890627014 -0.049539141168554242 -0.088849469443470497 0.02542383400340964 0.10453234551520151 -0.1407305463786753 -0.04786929831382164 -0.053617619693416878 -0.14149595674709456 -0.074238138675647866 0.10730263291542658 0.043469705737308351 0.11601830785440377 0.0957747264177672 0.091623316638273111 0.16788341635512 -0.072683502572446809 -0.0052870799616072141 -0.092573390646263062 -0.041803585553947434 -0.0039466523603031824 -0.10844296417410691 -0.1433062767018087 0.064562825803105128 -0.071854551017032878 -0.074282011867053716 0.13557053088538104 0.0037135440534377252
leaf_count=2239 1000 41 188 180 140 154 429 1271 182 187 752 32 782 248 474 309 127 21 38 69 20 436 140 31 70 41 121 68 2176 1367
internal_value=0 -0.434842 -0.572226 -0.73675 0.597676 1.10954 -1.01298 -0.786402 0.563417 -1.10486 -0.828574 1.19014 0.979413 0.026079 0.926239 0.63781 -0.0519885 -0.0919069 0.3779 0.761705 0.675372 -0.11043 -0.452286 -1.30472 -0.714226 -0.0771474 -1.30987 -0.0482838 1.26662 -0.0249207
internal_count=13333 9525 8422 7393 1103 3808 5389 3008 1029 2579 1308 3586 823 435 662 410 367 2004 185 378 147 1983 280 2381 142 72 873 222 3176 1547
shrinkage=0.1


Tree=6
num_leaves=31
num_cat=0
split_feature=12 18 6 7 11 16 19 14 9 11 11 11 11 7 6 7 9 0 10 12 16 19 0 12 7 16 7 11 8 1
split_gain=1221.27 256.489 298.842 264.008 87.3251 69.2834 67.6213 324.83 46.1714 43.5092 105.753 30.853 28.4349 19.6488 18.9978 16.0203 14.8871 13.4614 13.0628 12.8815 12.2634 11.2577 14.6758 13.2759 11.256 11.2368 10.8306 16.4976 11.7909 10.8286
threshold=9.9482262251343587e-05 1.0000000180025095e-35 1.0000000180025095e-35 0.012460808701128001 0.37012892141169357 3617976.5000000005 1.0000000180025095e-35 1.0000000180025095e-35 0.15583333333333335 2.1690708080000005e-06 0.0099994662841666679 0.8790340488980829 0.00059657428964350005 0.00099824973677000014 0.099780000000000021 1.8166900539088364 4.9838709677596791 2.5000000000000004 0.26720098318775914 0.40026570470957229 1469.0000000000002 1.5000000000000002 8.5000000000000018 0.0047656268873030646 0.010000000005000001 4073253.5000000005 0.31746249892534201 0.10000489287595803 -0.097836562593215479 3.5000000000000004
decision_type=2 2 2 2 2 2 2 2 2 2 2 2 2 2 2 2 2 2 2 2 2 2 2 2 2 2 2 2 2 2
left_child=1 2 3 6 12 11 29 -8 14 -9 13 20 -3 -11 -4 -6 18 26 -10 -13 -2 -7 23 -23 -12 -20 27 28 -5 -1
right_child=5 4 8 17 15 21 7 9 16 10 24 19 -14 -15 -16 -17 -18 -19 25 -21 -22 22 -24 -25 -26 -27 -28 -29 -30 -31
leaf_value=-0.12827864872661585 0.033134574837409912 -0.059635902453961581 0.035374119585403353 -0.12349696776591297 0.020275753754455544 0.09278969061605491 0.097646267406808485 -0.13509053612187 -0.022558831559348062 -0.048764730023270003 -0.13577414854551134 -0.081702493095660397 0.10915643876527266 0.039368551829970011 0.11394644883177583 -0.06828647200167047 -0.072151417040053567 0.15435522191934392 0.084190559678977706 0.066285582637678017 0.12171455354475554 0.054119513535752353 0.036308768906423046 -0.12017678420050724 -0.066089336872609747 -0.085758776247337659 -0.030347200585674486 0.027806853535922445 -0.012267609521363762 -0.066635255744872751
leaf_count=2239 69 48 188 41 157 41 429 1271 145 187 752 27 703 248 448 195 94 21 134 333 3157 23 83 75 121 20 692 537 713 142
internal_value=0 -0.405982 -0.534438 -0.689092 0.555128 1.04525 -0.9616 -0.744188 0.519992 -1.04738 -0.776599 1.12435 0.980569 0.0236138 0.88382 -0.282898 -0.0213974 -0.0828915 0.204302 0.549189 1.19588 -0.0436976 -0.256416 -0.786541 -1.24894 0.630806 -0.0995906 0.00869131 -0.182446 -1.2437
internal_count=13333 9525 8422 7393 1103 3808 5389 3008 1029 2579 1308 3586 751 435 636 352 393 2004 299 360 3226 222 181 98 873 154 1983 1291 754 2381
shrinkage=0.1


Tree=7
num_leaves=31
num_cat=0
split_feature=12 18 6 7 11 16 19 14 11 8 9 11 11 11 0 6 7 19 9 16 7 11 7 10 10 1 16 16 19 11
split_gain=1038.5 216.456 252.787 237.411 74.4472 61.3274 59.9307 278.222 41.1756 94.9856 39.3025 29.8434 24.3322 19.99 18.4411 17.3309 13.3796 12.6358 12.2009 11.3975 11.3094 11.2836 16.2668 10.887 10.8434 10.4824 13.3301 10.266 9.96681 9.85797
threshold=9.9482262251343587e-05 1.0000000180025095e-35 1.0000000180025095e-35 0.012460808701128001 0.37012892141169357 3617976.5000000005 1.0000000180025095e-35 1.0000000180025095e-35 2.1690708080000005e-06 -0.0096192342285524989 0.15583333333333335 2.4437787746778787 0.00020000000039950005 0.0051797344475578025 2.5000000000000004 0.099780000000000021 3.2707991525423705 1.5000000000000002 4.9838709677596791 1856.0000000000002 0.010000000005000001 0.0047927581250000002 0.00099824973677000014 0.0014338771809002981 0.26720098318775914 3.5000000000000004 3280336.0000000005 729227.00000000012 1.0000000180025095e-35 0.00017482638888875003
decision_type=2 2 2 2 2 2 2 2 2 2 2 2 2 2 2 2 2 2 2 2 2 2 2 2 2 2 2 2 2 2
left_child=1 2 3 6 12 11 25 -8 -9 20 15 14 -3 21 17 23 -6 -2 24 -5 -10 22 29 -4 -12 -1 27 -27 -7 -11
right_child=5 4 10 19 16 28 7 8 9 13 18 -13 -14 -15 -16 -17 -18 -19 -20 -21 -22 -23 -24 -25 -26 26 -28 -29 -30 -31
leaf_value=-0.12300708933252742 0.11284273142765343 -0.081944931834532109 -0.011982588645076333 -0.0094731530808882872 0.0095505423680828892 0.13390487730949038 0.091403915539368871 -0.13034441241930292 -0.12884763491203374 0.042785339141114508 -0.020368682255955936 0.022337475856325572 0.10109077594390742 0.098620817209442949 0.12346301462197991 0.10781927876678284 -0.072237182295408556 0.066223285300422596 -0.065588129067309917 0.10831310381600384 -0.058498100908675035 -0.1477650190875428 0.052102953476819924 0.086577172530662438 0.058171469368818778 -0.097372270991753163 -0.13510543211391715 0.064801267104115975 -0.017366285508012461 -0.07056647759456694
leaf_count=2239 544 35 103 1969 195 21 429 1271 774 40 145 166 716 78 2298 448 157 578 94 35 122 25 122 85 154 31 70 41 201 147
internal_value=0 -0.379804 -0.5002 -0.645896 0.51658 0.987311 -0.915916 -0.706569 -0.996346 -0.729564 0.481039 1.06499 0.921297 0.0594476 1.11462 0.82463 -0.257966 0.886885 -0.0193377 -0.0748173 -1.17718 -0.162122 -0.0529501 0.320337 0.186614 -1.18977 -0.615395 -0.00509568 -0.0399007 -0.443608
internal_count=13333 9525 8422 7393 1103 3808 5389 3008 2579 1308 1029 3586 751 412 3420 636 352 1122 393 2004 896 334 309 188 299 2381 142 72 222 187
shrinkage=0.1


Tree=8
num_leaves=31
num_cat=0
split_feature=12 7 6 18 16 19 14 19 7 11 8 9 11 12 6 16 7 10 12 0 7 9 18 16 1 16 7 7 8 11
split_gain=884.984 189.194 291.902 93.6759 55.5619 50.8619 243.285 43.6169 61.7851 35.1237 93.5368 34.2079 32.1969 18.8185 18.5533 16.7643 16.7216 15.8062 15.1952 12.8581 10.6678 10.4392 10.4161 10.5726 9.87702 11.9517 9.53212 14.0854 20.3089 11.2622
threshold=9.9482262251343587e-05 0.010105000000000001 1.0000000180025095e-35 1.0000000180025095e-35 5303236.0000000009 1.0000000180025095e-35 1.0000000180025095e-35 1.0000000180025095e-35 0.37423425734478954 2.1690708080000005e-06 -0.0096192342285524989 0.10001301113064502 0.7124336018650913 1.2374368808267873e-09 0.099780000000000021 1856.0000000000002 0.0048129537855255006 0.15192972919100195 0.40026570470957229 2.5000000000000004 7.4657936440677899 0.25007692307692314 3.5000000000000004 2490313.0000000005 3.5000000000000004 3280336.0000000005 0.7107092832020897 0.020003661906182 -0.019983090508267496 0.015002045209690418
decision_type=2 2 2 2 2 2 2 2 2 2 2 2 2 2 2 2 2 2 2 2 2 2 2 2 2 2 2 2 2 2
left_child=1 2 3 5 12 24 -7 8 -3 -8 -11 14 19 -5 -4 26 -12 -13 -14 -2 -10 -19 23 -20 -1 -26 27 28 -9 -30
right_child=4 7 11 13 -6 6 9 15 20 10 16 17 18 -15 -16 -17 -18 21 22 -21 -22 -23 -24 -25 25 -27 -28 -29 29 -31
leaf_value=-0.11837285106747249 0.087670314640051594 0.097566114657455696 0.029097474611261078 0.085204560863767001 -0.025710890717513125 0.085672839609800336 -0.12630254602734714 -0.15881590035881499 0.0041496193951790069 -0.122517787329237 -0.017337624957563896 -0.039117893389305596 -0.084728373160773848 -0.13830943540012702 0.1099636053685402 0.10554321097468432 0.081884870813098753 0.12681933843405302 0.050416621763081072 0.11862137514724823 -0.076670304625000962 0.016769721944265709 0.12302783360550043 -0.099754312429148118 -0.00056810987102629982 -0.13066894550855662 -0.038836129115908287 0.0033230158662849079 -0.049337903798590627 0.054037697595478419
leaf_count=2239 1015 532 188 191 153 429 1271 53 250 801 319 207 36 20 402 56 93 53 275 2216 104 178 91 22 72 70 433 1346 158 60
internal_value=0 -0.355688 -0.591727 -0.820374 0.934621 -0.884236 -0.680848 0.0585758 0.472256 -0.973135 -0.706769 0.444047 0.998235 0.632428 0.80094 -0.0915569 0.0543679 0.0140077 0.450128 1.08266 -0.184056 0.399923 0.576242 0.388083 -1.1428 -0.576057 -0.119922 -0.0493049 -0.477972 -0.193372
internal_count=13333 9525 6533 5505 3808 5294 2913 2992 886 2484 1213 1028 3655 211 590 2106 412 438 424 3231 354 231 388 297 2381 142 2050 1617 271 218
shrinkage=0.1


Tree=9
num_leaves=31
num_cat=0
split_feature=12 7 6 18 16 19 14 19 7 11 7 9 11 19 16 11 16 16 11 7 16 0 18 9 7 1 16 10 9 6
split_gain=754.786 165.687 253.174 81.1899 50.0022 45.6165 209.532 36.4741 53.0921 33.869 85.1245 29.6059 27.695 18.0538 26.2617 17.3279 13.971 13.959 13.4425 19.0417 13.3974 12.6379 10.5054 10.4431 9.56855 9.56531 10.6047 9.40241 10.9729 8.83452
threshold=9.9482262251343587e-05 0.010105000000000001 1.0000000180025095e-35 1.0000000180025095e-35 3617976.5000000005 1.0000000180025095e-35 1.0000000180025095e-35 1.0000000180025095e-35 0.37423425734478954 2.1690708080000005e-06 0.0099786457019405018 1.5200000000000002 0.7124336018650913 1.0000000180025095e-35 10328.000000000002 0.00059657428964350005 1856.0000000000002 3617976.5000000005 0.00020000000039950005 0.00019950000000000005 6400.5000000000009 2.5000000000000004 1.0000000180025095e-35 0.099967908041988449 20.975470556709276 1.5000000000000002 3280336.0000000005 2.914749002578545 6.4254925894888819 0.010890000000000002
decision_type=2 2 2 2 2 2 2 2 2 2 2 2 2 2 2 2 2 2 2 2 2 2 2 2 2 2 2 2 2 2
left_child=1 2 3 5 12 25 -7 8 -3 -8 18 13 21 14 29 -5 -9 -16 19 -11 -14 -2 -22 -15 -10 -1 -27 -13 -29 -4
right_child=4 7 11 15 -6 6 9 16 24 10 -12 27 20 23 17 -17 -18 -19 -20 -21 22 -23 -24 -25 -26 26 -28 28 -30 -31
leaf_value=-0.11597783085468437 0.083575868514362425 0.092089395588256351 0.073210085487408358 -0.054874513291895348 -0.0042547348918112902 0.080356048672016234 -0.1228237425979814 -0.010833397869634012 -0.0042508894209639103 0.036266129182354362 -0.12119691751621615 -0.080871058288428013 -0.05466455247345299 -0.037798117090810435 0.086540839430902128 0.095876773536003823 0.098062847797278224 -0.057999535669962771 0.02260646835942702 -0.14167555205206422 0.017378416392235752 0.11534674836181254 0.092303976641711527 0.12083457798307065 -0.11195881211427335 -0.033699117552926858 -0.1267874440499405 0.12867579405538607 -0.050466352581540308 -0.039261502487301536
leaf_count=2096 1000 532 35 48 222 429 1271 2050 310 44 779 96 50 20 353 163 56 34 324 66 154 2176 206 259 44 165 120 25 34 172
internal_value=0 -0.333218 -0.562796 -0.784885 0.885491 -0.846873 -0.649518 0.0535064 0.438581 -0.930697 -0.665784 0.410685 0.962642 0.576871 0.374832 0.588762 -0.0827472 0.731017 0.019865 -0.626968 0.441076 1.045 0.595343 1.07101 -0.167278 -1.10023 -0.698165 -0.408281 0.231605 -0.199599
internal_count=13333 9525 6533 5505 3808 5294 2913 2992 886 2484 1213 1028 3586 873 594 211 2106 387 434 110 410 3176 360 279 354 2381 285 155 59 207
shrinkage=0.1


Tree=10
num_leaves=31
num_cat=0
split_feature=12 7 6 18 16 19 14 8 7 19 7 11 9 0 6 12 16 19 8 10 16 1 16 11 11 11 7 11 7 7
split_gain=644.382 145.732 220.202 70.572 44.9753 40.8234 181.003 32.603 77.6448 30.4604 45.6994 27.0639 25.5258 17.2133 16.0824 15.0108 11.6593 11.1532 11.1344 10.4031 9.68908 9.61026 10.3402 9.59028 9.52022 8.82482 11.2549 8.70703 8.74404 17.004
threshold=9.9482262251343587e-05 0.010105000000000001 1.0000000180025095e-35 1.0000000180025095e-35 3411157.0000000005 1.0000000180025095e-35 1.0000000180025095e-35 -4.5565244274999994e-06 0.0099786457019405018 1.0000000180025095e-35 0.37423425734478954 1.6240206558893293 0.10001301113064502 2.5000000000000004 0.099780000000000021 1.2374368808267873e-09 1856.0000000000002 1.5000000000000002 -0.00069962711864399987 0.15192972919100195 2580252.5000000005 3.5000000000000004 3280336.0000000005 0.28181440933197627 0.00017482638888875003 0.00020000000039950005 0.00039967456029550003 12.636630506561671 0.020003661906182 0.019983090508267503
decision_type=2 2 2 2 2 2 2 2 2 2 2 2 2 2 2 2 2 2 2 2 2 2 2 2 2 2 2 2 2 2
left_child=1 2 3 5 11 21 -7 8 18 10 -3 13 14 17 -4 -5 27 -2 -8 -14 -21 -1 -23 -6 -20 -26 -27 28 29 -11
right_child=4 9 12 15 23 6 7 -9 -10 16 -12 -13 19 -15 -16 -17 -18 -19 24 20 -22 22 -24 -25 25 26 -28 -29 -30 -31
leaf_value=-0.1105409305278134 0.099234695211597584 0.086988405240074632 0.023486697496468246 0.075678147451417502 0.025490746677469173 0.075381962696817517 0.027520345987522746 -0.11976996751864084 -0.11788711774919342 -0.016518275590337458 -0.015166596254013773 0.019835154732505501 -0.032074187621600365 0.11116588863918445 0.10075368871826969 -0.13044177360211867 0.091295902927437139 0.052166476606242296 0.043735792645190744 0.051666760208616075 -0.070569834163709128 0.0028706082197763405 -0.12370756523157711 -0.064581193570150339 -0.12912222515374761 0.10566719654291379 -0.085905693483088852 -0.10333322235486234 -0.0027628390873426154 -0.14550949141486619
leaf_count=2239 534 532 188 191 164 429 268 1271 779 218 354 213 207 2265 402 20 56 560 40 196 35 72 70 72 70 21 35 41 1738 53
internal_value=0 -0.312272 -0.536514 -0.752631 0.839808 -0.812798 -0.621261 -0.892787 -0.628669 0.0488504 0.406885 0.918635 0.381236 0.980342 0.705328 0.552645 -0.074556 0.746628 0.0218597 0.00903599 0.329317 -1.06092 -0.483755 -0.0183715 -0.420278 -0.726841 -0.140659 -0.097585 -0.0790126 -0.42541
internal_count=13333 9525 6533 5505 3808 5294 2913 2484 1213 2992 886 3572 1028 3359 590 211 2106 1094 434 438 231 2381 142 236 166 126 56 2050 2009 271
shrinkage=0.1


Tree=11
num_leaves=31
num_cat=0
split_feature=12 7 6 18 16 19 14 11 8 5 19 11 8 9 12 19 16 7 11 16 11 7 16 16 1 16 8 18 16 8
split_gain=550.395 128.208 191.875 61.4554 41.0912 36.6568 156.618 31.3438 70.4588 28.0461 25.415 39.3761 23.845 22.9057 16.5357 15.1825 20.4554 14.3225 12.5539 11.2134 10.4548 10.4111 9.74588 9.64662 9.46726 9.75049 8.84468 8.81343 10.7522 8.39178
threshold=9.9482262251343587e-05 0.010105000000000001 1.0000000180025095e-35 1.0000000180025095e-35 5303236.0000000009 1.0000000180025095e-35 1.0000000180025095e-35 2.1690708080000005e-06 -0.0096192342285524989 4.5000000000000009 1.0000000180025095e-35 0.37012892141169357 -1.4763900558891896 1.5200000000000002 0.40026570470957229 1.0000000180025095e-35 10328.000000000002 0.00070681880773850023 0.0051797344475578025 3617976.5000000005 0.0047927581250000002 0.00099824973677000014 1856.0000000000002 223.00000000000003 1.5000000000000002 3280336.0000000005 -25.153098692817178 1.5000000000000002 1933881.0000000002 -4.8093889430338601
decision_type=2 2 2 2 2 2 2 2 2 2 2 2 2 2 2 2 2 2 2 2 2 2 2 2 2 2 2 2 2 2
left_child=1 2 3 5 9 24 -7 -8 -9 12 11 -3 14 15 -2 16 -4 -5 20 -18 21 -10 -12 -17 -1 -26 -16 28 -14 -13
right_child=4 10 13 17 -6 6 7 8 18 -11 22 29 27 -15 26 23 19 -19 -20 -21 -22 -23 -24 -25 25 -27 -28 -29 -30 -31
leaf_value=-0.10899260062294065 -0.13453019543358954 0.082195387904735087 -0.018414109353186454 -0.046713603991741889 -0.02264068290696189 0.070697747630210098 -0.11716285557144249 -0.11221719142177569 -0.034453540924924322 0.10577647593686026 -0.0088065115633788309 -0.056584201150915683 0.071773983881267947 -0.037421225514545672 -0.060116212096587601 0.11393744561707637 0.077615655557965679 0.089524781807572049 0.080604724671290429 -0.053511801093458149 -0.13842316335460322 0.044124228659985019 0.08510319378215031 -0.034154978436092748 -0.026575451790266526 -0.12096579871134222 0.045855724086773471 0.1062037248880322 -0.026652202099137531 0.01078118264051043
leaf_count=2096 33 532 207 53 153 429 1271 801 187 2140 2050 139 729 155 40 257 353 158 78 34 25 122 56 22 165 120 209 439 65 215
internal_value=0 -0.292608 -0.511609 -0.722549 0.796867 -0.78126 -0.594994 -0.857777 -0.595578 0.860338 0.0445758 0.376828 0.621875 0.352582 0.0593438 0.505192 0.320225 0.514658 0.0491814 0.649242 -0.12861 -0.0183951 -0.0673142 0.986117 -1.0249 -0.608856 0.259199 0.778975 0.631353 -0.136802
internal_count=13333 9525 6533 5505 3808 5294 2913 2484 1213 3655 2992 886 1515 1028 282 873 594 211 412 387 334 309 2106 279 2381 285 249 1233 794 354
shrinkage=0.1


Tree=12
num_leaves=31
num_cat=0
split_feature=12 7 6 18 16 19 14 11 7 5 11 19 8 9 19 16 11 16 7 11 9 16 1 19 0 12 11 16 7 8
split_gain=470.004 112.773 167.369 53.5664 37.1071 33.0174 135.518 30.3406 64.618 26.1457 22.088 39.802 20.6101 19.1672 13.7025 17.2568 12.436 10.7669 9.97088 14.0651 9.57911 9.46817 9.36217 9.35664 10.2532 10.9322 9.30731 9.20554 9.11784 8.99443
threshold=9.9482262251343587e-05 0.010105000000000001 1.0000000180025095e-35 1.0000000180025095e-35 3411157.0000000005 1.0000000180025095e-35 1.0000000180025095e-35 2.1690708080000005e-06 0.0099786457019405018 4.5000000000000009 0.7124336018650913 1.0000000180025095e-35 -3.214721591746494 1.5200000000000002 1.0000000180025095e-35 10328.000000000002 0.0010967377866395885 1469.0000000000002 0.10000489287595803 0.18364530274751104 0.099967908041988449 3617976.5000000005 1.5000000000000002 1.5000000000000002 8.5000000000000018 0.0047656268873030646 20.969481724683281 3280336.0000000005 68.786700682139738 -0.097836562593215479
decision_type=2 2 2 2 2 2 2 2 2 2 2 2 2 2 2 2 2 2 2 2 2 2 2 2 2 2 2 2 2 2
left_child=1 2 3 5 9 22 -7 -8 -9 12 11 -3 -2 14 15 -4 -5 -14 29 -20 -16 -17 -1 -6 25 -25 -12 -24 -11 -13
right_child=4 10 13 16 23 6 7 8 -10 28 26 18 17 -15 20 21 -18 -19 19 -21 -22 -23 27 24 -26 -27 -28 -29 -30 -31
leaf_value=-0.10588221710758508 -0.011759104690649979 0.070175769914843852 -0.01656546257222782 -0.028040697692368634 0.085660965329842742 0.066264520238187449 -0.11481613822619174 0.0018110886860240748 -0.11234305054306776 0.10667678827048106 -0.019774766456900076 -0.11207036837840996 -0.015742890543373932 -0.033879515716069043 -0.044806896171588576 0.072536697424416235 0.092425558317641321 0.076964907811789995 0.04905142144362476 -0.0051238427598791735 0.10954778560988765 -0.048061394092694519 -0.024229368367609829 0.050087667202291464 0.028463694861120839 -0.10578368967400685 -0.10097059851027919 -0.11857705053982955 -0.0049025826609476611 -0.010515867403465516
leaf_count=2096 156 597 207 70 44 429 1271 434 779 2050 652 38 66 155 20 353 141 1264 328 486 259 34 165 25 91 76 74 120 36 817
internal_value=0 -0.273987 -0.487847 -0.693835 0.756047 -0.751014 -0.569636 -0.82403 -0.562796 0.83504 0.0406943 0.144747 0.599678 0.326547 0.46958 0.29452 0.482667 0.713105 0.00433465 0.163146 0.941757 0.604609 -0.990732 -0.0240285 -0.215909 -0.666448 -0.272379 -0.570364 1.03819 -0.150137
internal_count=13333 9525 6533 5505 3808 5294 2913 2484 1213 3572 2992 2266 1486 1028 873 594 211 1330 1669 814 279 387 2381 236 192 101 726 285 2086 855
shrinkage=0.1


Tree=13
num_leaves=31
num_cat=0
split_feature=12 7 6 18 16 19 14 11 7 5 11 11 19 9 7 6 11 12 12 1 11 16 11 11 16 16 11 7 9 16
split_gain=401.57 98.945 145.88 46.6891 33.1624 29.9872 117.025 29.7118 59.297 25.687 18.6383 18.549 33.0263 17.0525 13.7335 12.7282 12.4102 11.5714 11.5436 9.4382 9.38071 9.32985 9.02029 8.73802 8.51389 8.74398 8.33373 15.6173 7.92351 7.86878
threshold=9.9482262251343587e-05 0.010105000000000001 1.0000000180025095e-35 1.0000000180025095e-35 3411157.0000000005 1.0000000180025095e-35 1.0000000180025095e-35 2.1690708080000005e-06 0.0099786457019405018 5.5000000000000009 0.7124336018650913 0.31421968058831268 1.0000000180025095e-35 0.10001301113064502 0.10000489287595803 0.099780000000000021 0.00075247834785775009 1.2374368808267873e-09 0.53592095097429782 3.5000000000000004 20.969481724683281 2150120.0000000005 8.5323610905072069 0.116444061340279 3280336.0000000005 729227.00000000012 0.00020000000039950005 0.00019950000000000005 0.037750000000000013 2973984.0000000005
decision_type=2 2 2 2 2 2 2 2 2 2 2 2 2 2 2 2 2 2 2 2 2 2 2 2 2 2 2 2 2 2
left_child=1 2 3 5 9 19 -7 -8 26 10 16 12 -3 15 -14 28 -2 -5 -12 -1 -13 -18 -20 -16 25 -21 27 -9 -4 -23
right_child=4 11 13 17 -6 6 7 8 -10 -11 18 20 14 -15 23 -17 21 -19 22 24 -22 29 -24 -25 -26 -27 -28 -29 -30 -31
leaf_value=-0.10098410232033302 -0.12390693193342604 0.073403704611288492 0.036956852485318742 0.064257668113080618 -0.0022095313588759409 0.062053923623568812 -0.11272255133420626 0.03542628731665988 -0.10991746003288404 0.10312355602282236 -0.10912721627993305 -0.013058039545465267 -0.013550330059441987 -0.00017680882621300993 0.079120689011673365 0.089290809787097733 0.079456660883368016 -0.12446825917889265 0.047490632820907812 -0.086548405242127813 -0.094808125353988137 -0.081162001826494051 -0.057307549472931908 0.014977969797414696 -0.11648652985896746 0.066813043575604358 0.017643502331496086 -0.13145603166464123 -0.077308181555310329 0.098106983410180676
leaf_count=2239 20 516 158 191 236 429 1271 44 779 1871 33 991 855 438 115 402 1344 20 192 31 74 44 43 441 70 41 324 66 30 25
internal_value=0 -0.256399 -0.464644 -0.665528 0.717857 -0.721243 -0.544247 -0.789776 -0.529244 0.796104 0.585201 0.0371113 0.164459 0.302222 0.0274599 0.587597 0.717645 0.451227 0.0698402 -0.958288 -0.179685 0.746841 0.247921 0.274465 -0.359081 0.0774542 0.0163003 -0.517786 0.176412 -0.1665
internal_count=13333 9525 6533 5505 3808 5294 2913 2484 1213 3572 1701 2992 1927 1028 1411 590 1433 211 268 2381 1065 1413 235 556 142 72 434 110 188 69
shrinkage=0.1


Tree=14
num_leaves=31
num_cat=0
split_feature=12 7 6 18 18 19 14 8 7 11 16 19 7 16 9 11 7 19 16 5 16 7 16 16 16 16 16 12 10 9
split_gain=342.738 86.8554 127.51 40.7521 32.0537 27.1601 101.353 28.8224 54.5066 24.4743 21.2653 15.9338 24.818 15.2927 14.8287 11.9924 12.0211 11.5395 13.6841 10.6953 12.495 10.4896 9.41844 10.3742 8.76497 8.14595 7.66287 7.5467 7.145 9.09443
threshold=9.9482262251343587e-05 0.010105000000000001 1.0000000180025095e-35 1.0000000180025095e-35 1.5000000000000002 1.0000000180025095e-35 1.0000000180025095e-35 -4.5565244274999994e-06 0.0099786457019405018 0.7124336018650913 8938817.5000000019 1.0000000180025095e-35 0.37423425734478954 2490313.0000000005 1.5200000000000002 3.331666666666667 0.0045273102866384999 1.0000000180025095e-35 10328.000000000002 5.5000000000000009 2150120.0000000005 0.00070681880773850023 1856.0000000000002 3191031.5000000005 223.00000000000003 3617976.5000000005 1856.0000000000002 7.4369849186074122 2.914749002578545 6.4254925894888819
decision_type=2 2 2 2 2 2 2 2 2 2 2 2 2 2 2 2 2 2 2 2 2 2 2 2 2 2 2 2 2 2
left_child=1 2 3 5 9 22 -7 8 -8 10 19 12 -3 -11 17 16 -6 18 -4 20 -2 -5 -1 -24 -19 -20 -13 -17 -16 -30
right_child=4 11 14 21 15 6 7 -9 -10 13 -12 26 -14 -15 28 27 -18 24 25 -21 -22 -23 23 -25 -26 -27 -28 -29 29 -31
leaf_value=-0.10250935462900557 0.058701489279697899 0.069756644533017054 -0.015612395295243532 -0.041995285761930665 -0.091973969749395534 0.058045509244835952 0.0019264201363309243 -0.11076213829823267 -0.10768271095833531 0.009863928265911967 -0.083741076251586291 -0.0070743217421575218 -0.0093102186951334771 -0.1312754680603731 -0.066683702767357619 -0.077927028493288711 0.1049260524456942 0.10416290538826714 0.065559474555115682 0.089489586404450525 -0.03072936907276428 0.078107664932219267 -0.029631748947201525 -0.1150413058451244 -0.039069644204959474 -0.047227038640488855 0.078273772519549256 0.064807855730941374 0.12277651424578306 -0.041919366032467487
leaf_count=1906 840 532 207 53 20 429 434 1271 779 214 41 2050 354 42 96 26 1656 257 353 835 90 158 285 190 22 34 56 44 25 34
internal_value=0 -0.239772 -0.442532 -0.639363 0.680549 -0.693854 -0.521171 -0.759158 -0.498982 0.470256 0.596386 0.0338578 0.31024 -0.153029 0.277912 0.959862 1.02091 0.409405 0.250268 0.653667 0.47559 0.419577 -0.928018 -0.587694 0.869769 0.53794 -0.0526669 0.121748 -0.30655 0.253068
internal_count=13333 9525 6533 5505 3808 5294 2913 2484 1213 2062 1806 2992 886 256 1028 1746 1676 873 594 1765 930 211 2381 475 279 387 2106 70 155 59
shrinkage=0.1


Tree=15
num_leaves=31
num_cat=0
split_feature=12 7 6 18 18 19 14 11 7 11 16 7 19 9 16 11 6 7 5 16 16 16 12 7 8 7 19 16 11 11
split_gain=292.203 76.4426 111.7 35.2998 29.8365 24.1821 88.246 27.364 52.5862 21.0875 17.9326 14.2402 22.473 12.6977 12.6822 11.3332 10.8656 10.57 9.95271 10.6886 9.38073 9.93303 9.37028 8.43879 10.2491 8.01569 7.62319 8.81883 7.373 7.07383
threshold=9.9482262251343587e-05 0.010000000005000001 1.0000000180025095e-35 1.0000000180025095e-35 1.5000000000000002 1.0000000180025095e-35 1.0000000180025095e-35 2.1690708080000005e-06 0.0099786457019405018 0.7124336018650913 8938817.5000000019 2.8471036920475226 1.0000000180025095e-35 0.10001301113064502 2490313.0000000005 3.331666666666667 0.099780000000000021 0.0045273102866384999 5.5000000000000009 1933881.0000000002 1856.0000000000002 3191031.5000000005 1.2374368808267873e-09 2.0030555356360806 -1.9324118903405119 0.37423425734478954 1.0000000180025095e-35 434861.50000000006 0.0031015760625000004 0.0051797344475578025
decision_type=2 2 2 2 2 2 2 2 2 2 2 2 2 2 2 2 2 2 2 2 2 2 2 2 2 2 2 2 2 2
left_child=1 2 3 5 9 20 -7 -8 29 10 18 12 25 16 -11 17 -4 -6 19 -2 -1 -22 -5 24 -14 -3 27 -18 -20 -9
right_child=4 11 13 22 15 6 7 8 -10 14 -12 -13 23 -15 -16 -17 26 -19 28 -21 21 -23 -24 -25 -26 -27 -28 -29 -30 -31
leaf_value=-0.099959361978070704 0.055595746494995983 0.065847495553291877 0.014100017189371768 0.056805082492933173 -0.07850593270352009 0.054224812027860753 -0.10913816056188069 -0.01300088889755957 -0.11010229503713141 0.0089120743812557655 -0.075872596159517969 -0.037938925851103658 -0.13408615201311783 -0.00032581902727597475 -0.12076538974010352 0.011041564534289417 -0.041205658239058994 0.1017258407079368 -0.029355127116254671 -0.023748730419310395 -0.027148181392529676 -0.1134069299283481 -0.11898391686097597 0.088664981256356606 -0.0019696917623481195 0.012173415267129483 0.11645365217668163 0.086924191584505997 0.092118987397649288 0.052442442222479915
leaf_count=1906 827 533 188 190 20 429 1271 339 752 214 41 346 25 438 42 70 59 1656 44 103 285 190 20 43 1889 184 240 103 791 95
internal_value=0 -0.223794 -0.422536 -0.615718 0.644757 -0.668765 -0.500696 -0.73407 -0.475578 0.439902 0.561183 0.0298762 0.0821133 0.257569 -0.13887 0.924718 0.516422 0.988031 0.615884 0.442739 -0.897543 -0.552428 0.389301 -0.0169136 -0.0368 0.466303 0.823038 0.393403 0.85691 0.0135163
internal_count=13333 9525 6505 5477 3808 5267 2886 2457 1186 2062 1806 3020 2674 1028 256 1746 590 1676 1765 930 2381 475 210 1957 1914 717 402 162 835 434
shrinkage=0.1


Tree=16
num_leaves=31
num_cat=0
split_feature=12 7 6 18 18 19 14 7 7 11 16 11 19 11 9 11 16 1 7 5 16 19 16 11 9 7 8 11 8 8
split_gain=248.855 66.8171 97.5405 30.7623 27.7308 21.9221 76.2579 26.9625 43.5635 18.1399 15.1207 12.2065 21.3629 11.8307 11.4776 10.7243 10.5625 9.52428 9.35806 9.24245 9.11293 9.04384 11.1484 8.97941 8.73216 8.26276 15.4956 8.32341 8.82781 8.0739
threshold=9.9482262251343587e-05 0.010000000005000001 1.0000000180025095e-35 1.0000000180025095e-35 1.5000000000000002 1.0000000180025095e-35 1.0000000180025095e-35 1.0000000180025095e-35 0.0099786457019405018 0.7124336018650913 8938817.5000000019 0.7124336018650913 1.0000000180025095e-35 0.00020000000039950005 1.5200000000000002 3.331666666666667 2490313.0000000005 1.5000000000000002 0.0045273102866384999 5.5000000000000009 2150120.0000000005 1.0000000180025095e-35 10328.000000000002 0.0010967377866395885 0.099967908041988449 0.020003661906182 -0.019983090508267496 0.015002045209690418 -0.010895949999998497 -0.0001995
decision_type=2 2 2 2 2 2 2 2 2 2 2 2 2 2 2 2 2 2 2 2 2 2 2 2 2 2 2 2 2 2
left_child=1 2 3 5 9 17 -7 -8 13 10 19 12 -3 29 21 18 -11 -1 -6 20 -2 22 -4 -5 -23 26 -14 28 -28 -9
right_child=4 11 14 23 15 6 7 8 -10 16 -12 -13 25 -15 -16 -17 -18 -19 -20 -21 -22 24 -24 -25 -26 -27 27 -29 -30 -31
leaf_value=-0.095171205946814275 0.051385104463700364 0.055099514041997394 -0.01444642214813871 -0.028789771234523344 -0.067680341841198574 0.050581793226372018 -0.11106355785143258 -0.1273741564671583 -0.10853346556680017 0.0080493217560259726 -0.068901824589312405 -0.020787928997785195 -0.13270097940666231 0.015226814861687782 -0.028072665522953812 0.0099602068045939653 -0.11153778380441076 -0.041188766185447624 0.098646690111907229 0.081993349642794602 -0.024940874369509591 -0.053537673281831816 0.048741247678031646 0.0790270507900213 0.097759978025476035 0.0072565102457560334 -0.054023001969161356 0.055648096871635966 0.065918159878361582 -0.021931497281388993
leaf_count=2096 840 598 207 70 20 429 1147 66 752 214 41 726 53 324 155 70 42 285 1656 835 90 20 387 140 259 1389 149 60 45 168
internal_value=0 -0.208534 -0.401187 -0.590055 0.610223 -0.641822 -0.478072 -0.703697 -0.466589 0.411026 0.527372 0.027169 0.105641 -0.0678284 0.236669 0.890623 -0.126107 -0.86779 0.95637 0.579473 0.411474 0.356599 0.219096 0.361202 0.794601 0.00895903 -0.30971 -0.0851406 -0.318615 -0.568466
internal_count=13333 9525 6505 5477 3808 5267 2886 2457 1310 2062 1806 3020 2294 558 1028 1746 256 2381 1676 1765 930 873 594 210 279 1696 307 254 194 234
shrinkage=0.1


Tree=17
num_leaves=31
num_cat=0
split_feature=12 7 6 18 18 19 14 7 8 11 16 11 11 11 19 11 16 6 19 16 16 16 16 9 11 7 8 10 16 0
split_gain=211.733 58.4047 84.6058 26.9884 25.9524 20.1623 65.3321 26.9381 37.9405 19.632 18.5645 13.6184 11.2 10.9306 12.5341 11.2093 10.1278 10.1102 10.6677 10.1948 9.55378 10.047 8.94923 8.75977 7.82379 7.47702 7.33095 7.12991 7.05592 6.73481
threshold=9.9482262251343587e-05 0.010105000000000001 1.0000000180025095e-35 1.0000000180025095e-35 3.5000000000000004 1.0000000180025095e-35 1.0000000180025095e-35 1.0000000180025095e-35 -0.0096192342285524989 0.2646586112552331 2464638.0000000005 0.0020005989583332506 0.00020000000039950005 20.969481724683281 1.0000000180025095e-35 0.37012892141169357 6400.5000000000009 3.5433637446404451 1.0000000180025095e-35 10328.000000000002 1856.0000000000002 3191031.5000000005 8938817.5000000019 0.099967908041988449 0.00017482638888875003 0.00019950000000000005 -4.5565244274999994e-06 1.340845286083326 3617976.5000000005 2.5000000000000004
decision_type=2 2 2 2 2 2 2 2 2 2 2 2 2 2 2 2 2 2 2 2 2 2 2 2 2 2 2 2 2 2
left_child=1 2 3 5 9 20 -7 -8 -9 11 16 -2 25 14 15 -3 -11 18 19 -4 -1 -22 -13 -20 -5 26 -10 -19 -21 -16
right_child=4 13 17 24 -6 6 7 8 12 10 -12 22 -14 -15 29 -17 -18 27 23 28 21 -23 -24 -25 -26 -27 -28 -29 -30 -31
leaf_value=-0.095194907985913513 -0.035449506886903411 0.058572915630119772 -0.013163285098342468 -0.069851438902005458 0.099362467606053037 0.047109579434818749 -0.10990057325193336 -0.098523801959741253 0.042027742096814945 -0.050393975765846234 -0.088932057062161896 0.068984437166829699 0.01878539854410391 -0.085180104470579165 -0.0042137653058710997 0.0021019603334149709 0.040897238245955835 -0.066691306266746714 -0.047372099684954372 0.05974653569343287 -0.01956526969227157 -0.11125368117215616 -0.03966955244449178 0.10410033772584644 0.058045541674124346 -0.12417602275087017 -0.074355160432031317 0.021772928089647564 -0.048069760664616712 0.10197376436463722
leaf_count=1906 97 532 225 32 1117 429 1147 801 44 72 83 1905 302 74 2041 310 501 92 20 328 285 190 33 254 179 66 124 76 33 35
internal_value=0 -0.194263 -0.379834 -0.562358 0.576842 -0.612684 -0.453599 -0.667848 -0.434488 0.445561 0.0877849 0.597688 -0.0379224 0.0260386 0.0451015 0.308747 0.264339 0.217934 0.336595 0.189573 -0.837924 -0.47819 0.6542 0.837663 0.340377 -0.529109 -0.199213 -0.25179 0.473066 -0.0292626
internal_count=13333 9525 6533 5505 3808 5294 2913 2484 1337 2691 656 2035 536 2992 2918 842 573 1028 860 586 2381 475 1938 274 211 234 168 168 361 2076
shrinkage=0.1


Tree=18
num_leaves=31
num_cat=0
split_feature=12 7 6 18 18 19 14 7 7 11 16 11 11 19 7 1 5 6 19 16 9 11 7 16 8 16 16 12 16 16
split_gain=179.673 51.2195 74.2561 24.8531 23.3487 17.7674 57.0748 25.5121 37.7583 13.7778 10.987 10.2106 9.67015 14.6502 10.4552 9.60243 8.93897 8.62287 10.3953 9.90583 8.50939 8.49229 7.98879 7.92053 7.72361 7.3534 7.23965 7.18186 7.11417 7.23013
threshold=9.9482262251343587e-05 0.010000000005000001 1.0000000180025095e-35 1.5000000000000002 1.0000000180025095e-35 1.0000000180025095e-35 1.0000000180025095e-35 1.0000000180025095e-35 0.0099786457019405018 0.7124336018650913 8938817.5000000019 3.331666666666667 0.31421968058831268 1.0000000180025095e-35 0.10000489287595803 3.5000000000000004 5.5000000000000009 1.8666148343652991 1.0000000180025095e-35 10328.000000000002 0.099967908041988449 0.00020000000039950005 0.0045273102866384999 1933881.0000000002 -0.097836562593215479 2490313.0000000005 4624512.0000000009 1.2374368808267873e-09 3280336.0000000005 729227.00000000012
decision_type=2 2 2 2 2 2 2 2 2 2 2 2 2 2 2 2 2 2 2 2 2 2 2 2 2 2 2 2 2 2
left_child=1 2 4 9 5 15 -7 -8 21 10 16 22 13 -3 24 -1 23 18 19 -4 -20 -9 -5 -2 -15 -11 -24 -6 29 -17
right_child=3 12 17 11 27 6 7 8 -10 25 -12 -13 -14 14 -16 28 -18 -19 20 -21 -22 -23 26 -25 -26 -27 -28 -29 -30 -31
leaf_value=-0.087693680173980854 0.044578454969817508 0.054511289052046878 -0.01401504688992675 -0.057972676683262586 0.047874078768992558 0.043803528966129684 -0.10887015802955423 -0.050019619956325978 -0.1058670022299923 0.005209889930198254 -0.058583462098336786 0.0053552466049076007 -0.013461703021744481 -0.10214096517685456 0.025022208795344322 -0.072519575632419703 0.075721590876818984 -0.015421101496863699 -0.04204438755671587 0.049509093910357203 0.10752728200839204 0.012726335886999014 0.098248461256896708 -0.02445803584887923 -0.0066811875200881235 -0.096867669657825672 0.0037262990164681656 -0.11352573276411654 -0.1100258451445017 0.072782350911827401
leaf_count=2239 827 517 208 20 190 429 1147 234 752 214 41 70 1065 38 556 31 835 236 20 314 250 324 1618 103 844 42 38 20 70 41
internal_value=0 -0.180835 -0.361976 0.543601 -0.54143 -0.590394 -0.436179 -0.647447 -0.415137 0.351816 0.459529 0.82875 0.0228889 0.116872 0.0332557 -0.809005 0.507061 0.20123 0.33788 0.180423 0.852727 -0.0552694 0.900826 0.338108 -0.107522 -0.118951 0.933097 0.31443 -0.160577 0.205654
internal_count=13333 9525 6505 3808 5477 5267 2886 2457 1310 2062 1806 1746 3020 1955 1438 2381 1765 1028 792 522 270 558 1676 930 882 256 1656 210 142 72
shrinkage=0.1


Tree=19
num_leaves=31
num_cat=0
split_feature=12 7 6 18 18 19 14 7 11 11 11 16 11 11 8 11 11 16 16 7 12 16 16 0 16 9 6 19 16 11
split_gain=152.597 45.0142 58.391 28.7813 23.8079 19.845 44.0865 30.49 19.2687 17.8746 15.8642 13.4678 11.9655 11.4311 10.8188 9.7844 11.5461 9.32723 9.45625 8.91881 8.87795 8.20004 7.39866 7.64636 8.0986 7.36301 7.26403 7.38119 7.9056 7.08681
threshold=9.9482262251343587e-05 0.020003661906182 1.0000000180025095e-35 1.0000000180025095e-35 3.5000000000000004 1.0000000180025095e-35 1.0000000180025095e-35 1.0000000180025095e-35 0.0097309634544994177 0.010000000005000001 0.2646586112552331 2464638.0000000005 0.29036688480086731 0.0020005989583332506 -0.019983090508267496 0.0051797344475578025 0.0047927581250000002 1856.0000000000002 3191031.5000000005 0.00099824973677000014 1.2374368808267873e-09 6400.5000000000009 5962543.0000000009 1.5000000000000002 1104700.5000000002 0.10001301113064502 0.099780000000000021 1.0000000180025095e-35 434861.50000000006 0.015002045209690418
decision_type=2 2 2 2 2 2 2 2 2 2 2 2 2 2 2 2 2 2 2 2 2 2 2 2 2 2 2 2 2 2
left_child=1 2 3 5 10 17 -7 -8 15 -10 13 21 -3 -2 -11 16 19 -1 -19 -9 -5 -12 23 24 -15 26 -4 28 -28 -16
right_child=4 12 25 20 -6 6 7 8 9 14 11 -13 -14 22 29 -17 -18 18 -20 -21 -22 -23 -24 -25 -26 -27 27 -29 -30 -31
leaf_value=-0.090282515632060967 -0.033876610612369754 0.017398102600352992 0.010411192638829961 0.048521911654307845 0.094566705697098422 0.040660432377915362 -0.10795517170807581 -0.032886552620424107 -0.10280824727957341 -0.12006991711048642 -0.04731280980862862 -0.078451678093141436 -0.011693806085976508 0.050597568064932347 -0.03047649050564671 0.061781086482640905 -0.1356882206978228 -0.014006245559038337 -0.10915013966197291 0.037771585497317794 -0.12786638301176664 0.035063731057868246 -0.0063326483805331473 0.077932430751116999 -0.048969065338569082 -0.0010625248004036787 -0.049608345679425014 0.1111579849964633 0.077235155832445654 0.050940513529598878
leaf_count=1907 97 1518 188 274 1117 429 1147 311 770 46 72 83 1114 481 183 87 31 285 190 124 21 501 69 1324 64 438 59 240 103 60
internal_value=0 -0.168013 -0.324581 -0.471747 0.512982 -0.529834 -0.388564 -0.542614 -0.354267 -0.625336 0.386488 0.0610047 0.0447885 0.531294 -0.257248 -0.0357867 -0.181659 -0.77888 -0.410269 -0.0645597 0.348615 0.214697 0.587694 0.639642 0.369452 0.185165 0.40083 0.695871 0.269109 -0.0752221
internal_count=13333 9525 6893 5865 3808 5570 3188 2759 1612 1059 2691 656 2632 2035 289 553 466 2382 475 435 295 573 1938 1869 545 1028 590 402 162 243
shrinkage=0.1


Tree=20
num_leaves=31
num_cat=0
split_feature=12 7 6 8 11 11 18 14 19 11 8 16 11 16 16 11 8 11 11 8 16 16 18 8 6 19 9 9 6 16
split_gain=129.199 38.7999 50.5283 25.2721 23.1047 24.2854 22.2775 15.4041 56.9017 13.7822 12.3422 11.0602 9.83262 9.76056 9.74655 9.71424 9.203 9.00792 17.3324 7.40733 7.14932 7.76122 7.01071 6.94346 6.71432 7.42597 6.96119 6.96019 19.9465 6.70818
threshold=9.9482262251343587e-05 0.020003661906182 1.0000000180025095e-35 -4.5565244274999994e-06 0.0099994662841666679 0.010000000005000001 3.5000000000000004 1.0000000180025095e-35 1.0000000180025095e-35 0.2646586112552331 -0.019023325815227497 2464638.0000000005 0.0020005989583332506 9245.0000000000018 3191031.5000000005 0.29036688480086731 -0.015137211163229998 0.0048910289307811253 0.0047927581250000002 -0.010895949999998497 4073253.5000000005 56783.000000000007 1.0000000180025095e-35 -0.00069962711864399987 3.5433637446404451 1.0000000180025095e-35 0.099967908041988449 0.054810859653333342 0.11665500512081901 6400.5000000000009
decision_type=2 2 2 2 2 2 2 2 2 2 2 2 2 2 2 2 2 2 2 2 2 2 2 2 2 2 2 2 2 2
left_child=1 2 3 4 17 -6 9 8 13 12 -7 29 -2 -5 -15 22 -12 18 23 -18 21 -8 -3 -1 25 27 -27 -4 -29 -11
right_child=6 15 24 7 5 10 20 -9 -10 11 16 -13 -14 14 -16 -17 19 -19 -20 -21 -22 -23 -24 -25 -26 26 -28 28 -30 -31
leaf_value=0.032441222490423582 -0.029911612917972282 0.0091197256045995392 0.045129705827065679 -0.089013488952131833 -0.10367770774089763 -0.10174234966603686 -0.072805872932375088 -0.099699696850094 0.037677922472275034 -0.042045822431229521 0.074322786959982595 -0.071450995449202567 0.055402789733665414 -0.0066446090738893947 -0.10820401157697486 -0.010544343943053314 -0.035904857632738409 0.057993584461300055 -0.17920745904765001 0.071664358818013502 -0.0056524917669342131 0.10516172936350109 0.049262543525529966 -0.02500438749139508 -0.021246611529271594 -0.040374250978920882 0.096120997015051404 -0.20532889057380457 0.0097869270493385913 0.032210943237776887
leaf_count=245 97 1090 255 1940 763 63 21 1285 429 72 71 83 1938 248 190 1114 185 168 23 49 31 1065 428 206 168 20 254 20 311 501
internal_value=0 -0.155718 -0.305762 -0.448024 -0.202911 -0.508561 0.482476 -0.627339 -0.501847 0.360124 -0.133398 0.0558785 0.499013 -0.763085 -0.361049 0.0403957 0.0614395 0.108266 -0.0503896 -0.168454 0.918376 0.99848 0.156939 0.0600909 0.169689 0.271811 0.737913 0.154461 -0.0617311 0.19632
internal_count=13333 9525 6893 5865 1773 1131 3808 4092 2807 2691 368 656 2035 2378 438 2632 305 642 474 234 1117 1086 1518 451 1028 860 274 586 331 573
shrinkage=0.1


Tree=21
num_leaves=31
num_cat=0
split_feature=16 11 16 0 6 18 19 14 7 7 19 8 11 11 19 6 19 12 12 18 10 11 16 1 11 7 11 9 11 9
split_gain=109.628 45.701 36.4153 29.621 23.2144 17.7808 19.1413 39.4154 21.1416 31.5495 13.6461 9.97656 9.32749 8.88934 9.04363 7.28357 7.17046 8.50926 7.90617 7.04954 9.29761 7.46263 7.1736 7.07162 6.9629 6.49266 6.30497 5.72613 4.90694 4.80712
threshold=1856.0000000000002 0.010000000005000001 3617976.5000000005 2.5000000000000004 2.0484000000000002e-05 1.0000000180025095e-35 1.0000000180025095e-35 1.0000000180025095e-35 1.0000000180025095e-35 0.0099786457019405018 1.0000000180025095e-35 -0.0021282463482639995 3.331666666666667 20.969481724683281 1.0000000180025095e-35 0.010890000000000002 1.0000000180025095e-35 0.020610939194469383 0.062076208977682353 1.0000000180025095e-35 0.0057059103788609936 9.9119456301623803 1730899.0000000002 1.0000000180025095e-35 0.0010967377866395885 1.32287619971611 0.00059657428964350005 0.0034821820083992916 0.00096804360349850012 0.12831072815257602
decision_type=2 2 2 2 2 2 2 2 2 2 2 2 2 2 2 2 2 2 2 2 2 2 2 2 2 2 2 2 2 2
left_child=1 4 3 19 5 6 -1 -8 -9 28 15 16 26 14 25 -6 -4 -18 -19 20 27 22 -21 -22 -7 -3 -5 -2 -10 -17
right_child=2 13 11 12 10 24 7 8 9 -11 -12 -13 -14 -15 -16 29 17 18 -20 21 23 -23 -24 -25 -26 -27 -28 -29 -30 -31
leaf_value=-0.08609604742678105 0.0038262510770189365 0.03899324186100047 0.12620826290262263 -0.056652402499047905 0.071192956024935236 -0.032343182333130806 0.035402059111305839 -0.10646347761929792 -0.030184252692964882 -0.10462498926219715 0.068203678758029504 -0.086737226147870064 -0.0096267638945071246 -0.080250411843056077 -0.0044110977602356384 -0.081144208545136348 0.040489363898231476 -0.14555564041917765 -0.02067583697764324 0.067947917362144269 -0.074895307697517413 -0.069083559876302283 -0.057685474911618663 0.054617803496999552 0.071383150618068589 -0.0097142895820531566 0.084348043265727868 -0.098816804005793568 0.015267576866014751 -0.013165767649043206
leaf_count=1908 875 663 21 25 33 61 430 1147 284 766 274 224 58 76 2105 61 76 28 107 583 20 20 36 379 139 179 2322 28 243 162
internal_value=0 -0.175902 0.37128 0.473172 -0.400488 -0.496023 -0.54936 -0.394331 -0.593387 -0.378734 0.0783459 -0.294978 0.764808 0.000503597 0.0176381 -0.189454 -0.050021 -0.159693 -0.487442 0.254869 0.151833 0.511998 0.593502 0.456676 0.291972 0.249166 0.819194 -0.00872245 -0.0495869 -0.327652
internal_count=13333 8531 4802 4346 5508 4978 4778 2870 2440 1293 530 456 2405 3023 2947 256 232 211 135 1941 1302 639 619 399 200 842 2347 903 527 223
shrinkage=0.1


Tree=22
num_leaves=31
num_cat=0
split_feature=16 11 18 6 16 8 7 0 14 19 19 5 16 17 11 16 11 7 7 7 19 7 6 9 11 11 8 18 8 11
split_gain=92.3161 38.9176 32.1232 22.3724 20.2093 16.7865 39.2399 13.9816 12.0499 52.1432 11.9211 11.6972 10.1121 8.561 9.26157 7.77053 7.58481 6.87264 6.80663 6.75147 7.39403 8.14808 6.20242 13.8709 5.33849 13.3032 5.15209 5.03609 7.83333 6.54186
threshold=6400.5000000000009 0.010000000005000001 1.5000000000000002 2.0484000000000002e-05 3617976.5000000005 -4.5565244274999994e-06 0.0099786457019405018 11.500000000000002 1.0000000180025095e-35 1.0000000180025095e-35 1.0000000180025095e-35 4.5000000000000009 1015550.5000000001 1.0000000180025095e-35 20.969481724683281 4624512.0000000009 12.636630506561671 68.786700682139738 0.0045273102866384999 0.15035141188487752 16.500000000000004 0.12569092029574103 0.051150897629827018 0.12831072815257602 0.0048910289307811253 0.0047927581250000002 -0.0040737931701634996 1.0000000180025095e-35 -0.8923400209195268 1.0005040321328937
decision_type=2 2 2 2 2 2 2 2 2 2 2 2 2 2 2 2 2 2 2 2 2 2 2 2 2 2 2 2 2 2
left_child=1 3 4 5 11 6 24 -6 9 -7 22 12 -2 14 27 16 18 19 -4 20 21 -13 -5 -24 25 26 -1 -3 29 -29
right_child=2 13 15 10 7 8 -8 -9 -10 -11 -12 17 -14 -15 -16 -17 -18 -19 -20 -21 -22 -23 23 -25 -26 -27 -28 28 -30 -31
leaf_value=0.093219143546320812 0.025278634120769285 -0.0035566437003789913 -0.056565023973520069 0.038060875237050276 -0.060605914633218683 -0.084681587626907154 -0.10060074709894735 0.057556265523610511 -0.097994704015475234 0.032703504333645182 0.06480665325243519 0.049623737627647546 -0.035396932684650738 0.13977460749375903 -0.084315116768552467 -0.010086333483732893 -0.025966555408392662 -0.077002492885944296 0.090714918975139058 0.08320109815120677 -0.11237749364664158 -0.16447282564117111 -0.15913257935385192 -0.0098888974889548165 0.04799668543994616 -0.16122124698167739 2.9298042539647731e-05 -0.10678108022433863 0.038294784791146869 0.0015448848609969906
leaf_count=37 1036 2138 22 67 338 1936 777 62 1275 430 282 469 253 22 76 45 27 22 1650 684 29 25 32 172 162 22 389 27 618 209
internal_value=0 -0.158209 0.35721 -0.369657 0.195139 -0.468682 -0.21225 -0.344282 -0.629617 -0.491987 0.086751 0.300942 0.130078 0.00215669 -0.00724179 0.754882 0.817804 0.532196 0.87017 0.574153 0.359295 0.434297 -0.153897 -0.341754 0.102937 -0.0231857 0.0763323 0.00984778 0.184388 -0.116352
internal_count=13333 8671 4662 5581 2918 5028 1387 400 3641 2366 553 2518 1289 3090 3068 1744 1699 1229 1672 1207 523 494 271 204 610 448 426 2992 854 236
shrinkage=0.1


Tree=23
num_leaves=31
num_cat=0
split_feature=5 7 6 11 7 18 16 14 19 8 7 16 16 11 16 7 7 11 6 19 16 12 12 7 19 7 8 16 0 10
split_gain=80.2857 47.486 24.3577 18.2437 30.4868 15.8852 15.0752 11.5901 42.022 8.95192 8.72448 8.63254 9.56171 10.706 7.46624 7.1713 7.12427 7.03262 6.9024 8.02285 6.66509 6.18007 6.11333 6.05484 7.60044 7.57661 8.28145 5.32333 4.8804 4.71053
threshold=5.5000000000000009 0.010105000000000001 1.0000000180025095e-35 2.1690708080000005e-06 0.0099786457019405018 1.5000000000000002 3411157.0000000005 1.0000000180025095e-35 1.0000000180025095e-35 -0.010895949999998497 0.041598791890538007 2150120.0000000005 2784.0000000000005 0.011000500000000002 456.50000000000006 68.786700682139738 5.538734372881355 0.00096804360349850012 1.9990000000000003 1.0000000180025095e-35 100219.50000000001 5.8175011472475004 2.479848151369453 2.8471036920475226 1.0000000180025095e-35 2.0030555356360806 -1.9324118903405119 5497.5000000000009 1.5000000000000002 1.2494597420120657
decision_type=2 2 2 2 2 2 2 2 2 2 2 2 2 2 2 2 2 2 2 2 2 2 2 2 2 2 2 2 2 2
left_child=1 2 3 7 17 9 10 8 -1 11 20 12 13 -3 23 -12 27 28 19 -4 -2 -18 -14 24 -15 26 -26 -7 -5 -20
right_child=6 5 18 4 -6 16 -8 -9 -10 -11 15 -13 22 14 -16 -17 21 -19 29 -21 -22 -23 -24 -25 25 -27 -28 -29 -30 -31
leaf_value=-0.074420288786625918 -0.056044617902998389 -0.11227954594454395 0.0045821693412912206 -0.013088170307617509 -0.091366511787481341 -0.063121289019985469 -0.00044098788386401507 -0.095655007113095172 0.029589195770150886 0.13917379447266567 0.090091747624954671 -0.058995735200196069 0.0382952985753061 0.030054193278120447 -0.092699806095515661 -0.017846456962301596 -0.10200061069513458 0.024229513229089353 -0.062250551286554295 0.072955777304254579 0.049473793309445256 0.043860394412723297 -0.054867302954460476 -0.025594158912388566 -0.13113355652192699 0.085723834974996901 -0.00082761236555627983 0.0800473738329745 -0.11873082679591636 0.016377196928691572
leaf_count=2277 38 45 390 231 787 24 217 1284 429 27 1734 118 825 700 44 36 27 492 99 266 339 33 36 347 22 42 1781 561 28 54
internal_value=0 -0.0884251 -0.310376 -0.423537 -0.172156 0.0645732 0.576266 -0.588879 -0.469825 0.0252431 0.700568 0.0166911 0.0353838 -0.0108602 0.00433089 0.843667 0.552507 0.0639249 0.0668526 0.198423 0.346172 -0.132182 0.315366 0.0171522 0.0530991 -0.00325667 -0.0230907 0.721025 -0.234546 -0.331577
internal_count=13333 10969 6337 5528 1538 4632 2364 3990 2706 3987 2147 3960 3842 2981 2936 1770 645 751 809 656 377 60 861 2892 2545 1845 1803 585 259 153
shrinkage=0.1


Tree=24
num_leaves=31
num_cat=0
split_feature=0 7 6 8 7 18 14 19 16 1 8 16 16 11 7 16 16 11 7 9 6 10 6 11 19 7 7 11 7 18
split_gain=68.431 32.8728 31.4372 15.0031 27.2025 13.6408 12.1738 33.4872 11.2121 7.89734 7.40927 7.59335 10.596 9.05181 6.52433 6.00055 5.88798 5.63079 5.52513 5.18863 8.32475 6.05333 6.2598 5.13828 5.0889 4.7623 4.75164 5.76012 7.41164 4.70125
threshold=4.5000000000000009 0.010105000000000001 1.0000000180025095e-35 -4.5565244274999994e-06 0.0099786457019405018 1.5000000000000002 1.0000000180025095e-35 1.0000000180025095e-35 8248053.0000000009 1.5000000000000002 -0.010895949999998497 1316255.5000000002 2784.0000000000005 0.011000500000000002 13.933060157866668 3280336.0000000005 456.50000000000006 0.00096804360349850012 68.786700682139738 5.6420833333333347 82.886937032353984 3.3735018032366777 3.5433637446404451 12.636630506561671 1.0000000180025095e-35 0.24142772657819903 0.00019950000000000005 0.00020000000039950005 0.00039967456029550003 3.5000000000000004
decision_type=2 2 2 2 2 2 2 2 2 2 2 2 2 2 2 2 2 2 2 2 2 2 2 2 2 2 2 2 2 2
left_child=1 2 3 4 17 10 7 9 18 -5 11 12 13 -3 -7 -11 23 26 29 21 -21 22 -4 24 25 -15 -1 -28 -29 -2
right_child=8 5 19 6 -6 14 -8 -9 -10 15 -12 -13 -14 16 -16 -17 -18 -19 -20 20 -22 -23 -24 -25 -26 -27 27 28 -30 -31
leaf_value=0.031337339659098636 0.05926950407181375 -0.10523923337043739 0.021684634527609364 -0.077616646386866731 -0.089233598718134799 0.06620852219634786 -0.093506510475452373 0.027232540994165218 -0.028721134068647264 0.0016638788625545184 0.12386635448761361 -0.04566171760594237 0.035276246538407816 0.044646648832769351 -0.026702388157497745 -0.10615575035304088 -0.081287098893742984 0.022038967139439439 -0.011880124774612741 -0.088372183677410759 0.051166712657874147 0.13064409291120144 -0.053210627773188683 -0.051754604551677665 -0.0015431192601687693 0.0044991066829428612 -0.10948027551867645 0.07914539327774435 -0.045228563407693378 0.097039187495791046
leaf_count=62 941 45 861 2093 787 605 1284 429 56 165 28 202 777 463 40 120 44 492 41 54 31 22 61 102 1984 343 69 27 101 1004
internal_value=0 -0.0707266 -0.249571 -0.390509 -0.158508 0.0590689 -0.539958 -0.422884 0.631935 -0.660141 0.0231659 0.0151615 0.0364358 -0.00983672 0.522072 -0.210464 0.00391141 0.0601469 0.711333 0.124977 -0.37443 0.188785 0.151272 0.0154767 0.0311614 0.2141 -0.208882 -0.395487 -0.16619 0.758396
internal_count=13333 11291 6658 5629 1538 4633 4091 2807 2042 2378 3988 3960 3758 2981 645 285 2936 751 1986 1029 85 944 922 2892 2790 806 259 197 128 1945
shrinkage=0.1


Tree=25
num_leaves=31
num_cat=0
split_feature=5 11 6 18 16 11 19 16 19 14 7 7 11 7 8 11 16 12 16 12 18 11 11 11 7 11 16 12 9 6
split_gain=59.0653 34.707 25.8135 17.0299 12.9025 12.5892 9.11591 8.63595 6.86551 27.1768 13.4345 6.83668 6.41272 14.3 13.6168 7.90196 6.46335 6.19844 7.50641 5.30655 5.30505 4.93287 6.29877 5.06403 8.85214 7.1333 5.56567 4.9302 4.92546 6.49083
threshold=5.5000000000000009 0.00075247834785775009 1.0000000180025095e-35 1.0000000180025095e-35 3411157.0000000005 3.0188701400344962 1.0000000180025095e-35 1221573.0000000002 1.0000000180025095e-35 1.0000000180025095e-35 1.0000000180025095e-35 5.0500000000000014e-07 0.0027206436033989649 0.010000000005000001 -0.0096192342285524989 0.0048910289307811253 3617976.5000000005 0.0047656268873030646 864161.50000000012 0.15874855038721017 1.0000000180025095e-35 0.7124336018650913 1.0355040131933391 0.10000489287595803 0.11792887222393851 0.098681222289055251 770318.00000000012 0.0034020862509676441 5.2827042417899177 82.886937032353984
decision_type=2 2 2 2 2 2 2 2 2 2 2 2 2 2 2 2 2 2 2 2 2 2 2 2 2 2 2 2 2 2
left_child=1 2 8 6 7 17 -3 20 -1 -10 -11 -12 -8 14 -14 -16 21 27 -19 -20 -2 23 -23 25 -25 -15 -26 -5 -4 -30
right_child=4 3 28 5 -6 -7 12 -9 9 10 11 -13 13 16 15 -17 -18 18 19 -21 -22 22 -24 24 26 -27 -28 -29 29 -31
leaf_value=-0.064856645800961094 0.014808368432453629 0.12989614897314941 0.012170626752854055 0.027258850785784342 -0.0019517663951503464 -0.024023589409238592 0.043994523169029354 0.08287531807423569 0.025023918618064592 -0.10436033187227799 0.19787287706378631 -0.033665076067696781 -0.092151932369446701 -0.0031829727357099396 -0.051461126249020807 0.042680460285100343 -0.087234427785887636 0.085707247911920525 0.055335932254305435 -0.04892172553624511 0.080286867856692201 -0.061865940787226986 -0.0071789559506418342 0.072178737573572335 0.0035829954537959599 -0.096446114225130275 0.079583340291748267 -0.10909078189967665 -0.088402088071091178 0.056261607908278694
leaf_count=2325 413 27 736 996 217 215 126 1439 429 1147 24 295 775 1214 88 88 45 506 131 72 295 120 446 101 830 38 90 32 53 20
internal_value=0 -0.0759384 -0.319557 0.0300274 0.517915 0.262888 -0.0480305 0.643402 -0.491036 -0.334447 -0.66746 -0.265827 -0.0576751 -0.0761718 -0.495427 -0.0550341 -0.0253959 0.369266 0.624647 0.1185 0.343004 -0.0126594 -0.188882 0.0347613 0.144797 -0.0641821 0.0751311 0.244262 0.0498275 -0.480525
internal_count=13333 10969 5029 5940 2364 1952 3988 2147 4220 1895 1466 319 3961 3835 951 176 2884 1737 709 203 708 2839 566 2273 1021 1252 920 1028 809 73
shrinkage=0.1


Tree=26
num_leaves=31
num_cat=0
split_feature=0 8 6 7 7 14 19 18 16 8 16 16 12 19 7 7 0 16 7 7 16 7 11 7 19 12 18 11 11 16
split_gain=50.8562 23.5202 23.1922 12.9989 20.8971 14.643 25.544 10.4679 9.53205 8.51475 7.51869 7.2668 6.56395 6.6314 6.25386 6.14045 6.06416 5.69751 5.68912 6.08832 5.11623 4.93058 4.83243 5.37191 4.71034 8.08921 4.55206 5.14168 4.88381 4.21719
threshold=4.5000000000000009 -0.010342738994306998 1.0000000180025095e-35 1.0000000180025095e-35 0.0099786457019405018 1.0000000180025095e-35 1.0000000180025095e-35 1.5000000000000002 3411157.0000000005 -0.010895949999998497 1856.0000000000002 3191031.5000000005 0.020974396330279834 5.5000000000000009 0.011000500000000002 2.8471036920475226 12.500000000000002 7646092.5000000009 68.786700682139738 0.041598791890538007 6400.5000000000009 5.538734372881355 0.00096804360349850012 5.0500000000000014e-07 6.5000000000000009 0.00055308589281742972 1.0000000180025095e-35 2.0301853301981976 1.9779012685090673 3617976.5000000005
decision_type=2 2 2 2 2 2 2 2 2 2 2 2 2 2 2 2 2 2 2 2 2 2 2 2 2 2 2 2 2 2
left_child=1 7 3 5 22 6 10 9 18 14 -3 -12 -10 -14 -1 26 -15 -18 19 24 -9 -22 23 -5 -2 -26 27 28 29 -16
right_child=8 2 -4 4 -6 -7 -8 20 12 -11 11 -13 13 16 15 -17 17 -19 -20 -21 21 -23 -24 -25 25 -27 -28 -29 -30 -31
leaf_value=-0.10955370054392509 0.071776704221092141 -0.076637300541820469 0.010317711303234035 0.12481298297653412 -0.083438001286617935 -0.10392822462684428 0.02295946357531314 -0.053122256306855221 0.075316522618605802 0.15210035001105648 -0.0042975459495697794 -0.10530819053947833 0.074820331083489983 -0.16187492046969099 0.0020009247313689071 -0.021829621233843865 0.056620190503591586 -0.087982881492579601 -0.020190879473086058 0.084031656926531972 0.072333055952982603 -0.0055159403410798245 0.019348719712912868 -0.025157232697413847 0.054334441655611479 -0.21311740106851446 0.023003465873647919 0.074502555770293438 -0.10326784450793641 -0.074256359371396824
leaf_count=29 76 1903 1030 30 793 1147 429 34 49 21 285 190 26 20 2446 484 26 25 36 1733 560 51 492 366 20 31 906 39 21 35
internal_value=0 -0.0605796 -0.217989 -0.34692 -0.139736 -0.503911 -0.383615 0.0487925 0.57355 0.0180393 -0.607995 -0.258714 0.069004 -0.25606 0.0104992 0.0180624 -0.586088 -0.196139 0.709104 0.765949 0.471062 0.564347 0.0348785 -0.186423 -0.025771 -0.739256 0.05305 0.0132842 -2.05625e-05 0.00909721
internal_count=13333 11291 6665 5635 1681 3954 2807 4626 2042 3981 2378 475 146 97 3960 3931 71 51 1896 1860 645 611 888 396 127 51 3447 2541 2502 2481
shrinkage=0.1


Tree=27
num_leaves=31
num_cat=0
split_feature=0 8 6 11 11 14 19 7 16 11 18 16 16 7 7 11 11 16 8 11 12 19 16 7 18 16 8 0 11 16
split_gain=43.6504 19.9781 18.0275 14.2992 12.9518 10.7373 22.124 9.18985 8.66916 8.07451 9.47764 7.10796 6.71937 6.59132 10.8603 5.62714 8.75633 6.84076 6.24936 17.3951 5.4506 5.44551 5.35747 6.41122 5.23421 5.29841 5.10901 5.06708 4.70865 4.64978
threshold=4.5000000000000009 -0.015137211163229998 1.0000000180025095e-35 2.1690708080000005e-06 0.0097309634544994177 1.0000000180025095e-35 1.0000000180025095e-35 0.010000000005000001 3411157.0000000005 0.27311477085547742 1.0000000180025095e-35 1856.0000000000002 3191031.5000000005 0.018374126412426504 0.020003661906182 0.10000489287595803 0.039962955444541502 2419071.5000000005 -0.030265191388473996 0.02979974762142467 0.020974396330279834 5.5000000000000009 554181.00000000012 0.11436672139830149 1.0000000180025095e-35 78020.000000000015 -0.010895949999998497 12.500000000000002 20.969481724683281 7646092.5000000009
decision_type=2 2 2 2 2 2 2 2 2 2 2 2 2 2 2 2 2 2 2 2 2 2 2 2 2 2 2 2 2 2
left_child=1 9 3 5 -5 6 11 -6 24 10 13 -3 -13 -1 -15 16 17 18 -16 -20 -10 -22 23 -17 -2 -26 -9 -23 -11 -29
right_child=8 2 -4 4 7 -7 -8 26 20 28 -12 12 -14 14 15 22 -18 -19 19 -21 21 27 -24 -25 25 -27 -28 29 -30 -31
leaf_value=0.079453533225785578 0.046725323231433899 -0.07417129705393205 0.0093097388544129116 0.0073489846471203853 -0.087234613669121733 -0.09004769900494218 0.021034720521051709 -0.031239064793040918 0.069578725941648073 -0.0039473424437785178 0.043364248347233625 -0.0038781540045129343 -0.10477786467323402 -0.079166430908031812 0.055277437881768116 0.070720264350769238 -0.0226391928875876 -0.093433999074749016 0.03393885222085536 -0.14095759076933695 0.068204009111880515 -0.14902897721970729 0.1070886680032665 0.0088787453260367709 -0.071194354723494904 0.098399664203888529 0.059775975622626022 0.051785409791792095 -0.059659186173303125 -0.079488470983918827
leaf_count=54 841 1903 1030 817 770 1284 429 185 49 1538 1029 285 190 72 261 87 498 25 130 29 26 20 66 466 20 1035 49 26 94 25
internal_value=0 -0.0557162 -0.193474 -0.299955 -0.109836 -0.474567 -0.362285 -0.452441 0.546107 0.0520015 0.141989 -0.579727 -0.238994 0.0663888 0.0398706 0.0795245 -0.0336007 0.214166 0.288416 -0.0253261 0.0633206 -0.233493 0.237753 0.188688 0.681764 0.917904 -0.147968 -0.534483 -0.0667593 -0.178015
internal_count=13333 11291 6942 5912 1821 4091 2807 1004 2042 4349 2717 2378 475 1688 1634 1562 943 445 420 159 146 97 619 553 1896 1055 234 71 1632 51
shrinkage=0.1


Tree=28
num_leaves=31
num_cat=0
split_feature=5 11 6 18 18 17 11 16 12 13 7 19 8 11 7 7 7 16 11 7 8 7 7 19 16 16 16 16 5 11
split_gain=37.6668 22.2911 18.2712 10.0314 9.54553 7.84592 7.56723 6.23833 7.35914 5.90029 5.39586 5.32253 5.24993 8.72729 7.39867 6.50189 7.47274 6.47581 5.63247 13.7808 7.42319 6.32 6.64667 5.03509 5.75675 5.09579 4.83373 9.0647 8.52288 10.6214
threshold=5.5000000000000009 0.00020000000039950005 1.0000000180025095e-35 1.0000000180025095e-35 3.5000000000000004 1.0000000180025095e-35 0.35824646026360235 1730899.0000000002 0.0047656268873030646 38.500000000000007 0.00039967456029550003 1.5000000000000002 -0.015137211163229998 0.0097309634544994177 0.010000000005000001 0.018374126412426504 0.020003661906182 2419071.5000000005 0.02979974762142467 0.030041321359174002 -0.039987707399351487 0.050035000000000003 0.047056781906743513 12.500000000000002 118700.50000000001 3145558.5000000005 2774023.5000000005 1316255.5000000002 12.500000000000002 0.08160788614891
decision_type=2 2 2 2 2 2 2 2 2 2 2 2 2 2 2 2 2 2 2 2 2 2 2 2 2 2 2 2 2 2
left_child=1 2 -1 5 9 10 7 8 11 26 -3 -5 15 -14 -15 -12 -17 18 -18 -20 21 22 -21 24 -6 -25 27 -2 29 -28
right_child=4 3 -4 6 23 -7 -8 -9 -10 -11 12 -13 13 14 -16 16 17 -19 19 20 -22 -23 -24 25 -26 -27 28 -29 -30 -31
leaf_value=-0.044858869120131692 0.012102198129293746 0.099062969824751851 0.0025430882122663007 0.032120875972741131 -0.070775787478162294 0.12317341031661609 -0.00020426681344672882 -0.036084050099539876 0.083802309392271179 -0.11339438143863462 0.071918823866305076 -0.11288943141216573 -0.00013602631252223815 -0.089404135586053979 -0.02058553725317264 -0.073303584810819958 0.037534465017632745 -0.071964174238570502 -0.15470972949301795 -0.0038770282345781345 0.053911825948078987 -0.00032043824719727408 -0.11343748558308012 0.10615175726362623 0.10042333030477089 -0.093895505926027203 -0.0015849498662332141 0.076962241830786038 0.047746811872394594 -0.18666938339182834
leaf_count=4121 465 21 809 817 22 27 567 93 479 25 54 27 397 763 185 72 250 70 24 48 97 2006 42 50 936 23 87 620 109 27
internal_value=0 -0.0604063 -0.275346 0.0204191 0.440578 -0.0388083 0.202054 0.363754 0.43105 0.289641 -0.0475902 0.27658 -0.0550323 -0.227157 -0.50102 -0.0110441 -0.027167 -0.00757383 0.0097248 -0.0202898 -0.00126073 -0.0305831 -0.550052 0.812691 0.923654 -0.112532 0.32392 0.446965 -0.00880901 -0.55868
internal_count=13333 10969 4930 6039 2364 4056 1983 1416 1323 1333 4029 844 4008 1345 948 2663 2609 2537 2467 2217 2193 2096 90 1031 958 73 1308 1085 223 114
shrinkage=0.1


Tree=29
num_leaves=31
num_cat=0
split_feature=16 8 14 19 18 16 5 6 17 5 16 16 5 7 12 11 6 8 0 16 16 12 6 6 6 6 8 18 11 7
split_gain=32.2036 15.524 16.0444 31.3695 15.0064 11.5871 11.284 9.11018 7.49002 5.65241 5.48177 5.57521 5.3776 8.84279 8.78693 5.14353 4.85375 4.59109 6.59415 4.45726 17.0039 8.0667 4.39247 5.81589 4.32007 6.12172 4.06262 4.58886 5.63298 6.89518
threshold=1856.0000000000002 -4.5565244274999994e-06 1.0000000180025095e-35 1.0000000180025095e-35 3.5000000000000004 2419071.5000000005 12.500000000000002 2.0484000000000002e-05 1.0000000180025095e-35 102.50000000000001 4073253.5000000005 56783.000000000007 1.5000000000000002 6.8982040266370168 0.0053203723284414297 0.41607901477832482 0.010890000000000002 -13.476503842762417 2.5000000000000004 802990.50000000012 660221.00000000012 0.0020441185079544664 0.27792749748388007 0.051150897629827018 0.049600731224321008 0.33114500000000008 -13.476503842762417 1.0000000180025095e-35 0.00017482638888875003 0.00020150000000000002
decision_type=2 2 2 2 2 2 2 2 2 2 2 2 2 2 2 2 2 2 2 2 2 2 2 2 2 2 2 2 2 2
left_child=1 8 3 7 5 17 -7 -3 12 -8 11 -6 26 14 -14 -16 -9 -2 -19 20 21 -20 23 -18 -5 -26 -1 28 -28 -30
right_child=4 2 -4 24 10 6 9 16 -10 -11 -12 -13 13 -15 15 -17 22 18 19 -21 -22 -23 -24 -25 25 -27 27 -29 29 -31
leaf_value=-0.053704744192240299 -0.020906823116721557 -0.07062379660731978 -0.088452530361669071 0.018111109418139548 -0.068143944588400077 -0.040932457020648794 0.058826727753681154 0.057242365102631615 0.1345922698909322 -0.089570258881235737 -0.010967892456934594 0.094096866179296426 -0.16212625440966999 0.077789172468378562 0.02841677701588731 -0.10627519843239563 0.0016100507356009927 0.019937770644991859 -0.097328140199758051 0.078952537715244422 -0.23130137227780048 0.071989309218670847 -0.0058028759914521694 -0.10994715254263565 0.10800275460069675 -0.016182235332033876 0.081361403010161329 0.015852933666791632 -0.10385800248959648 -0.0046415074189501849
leaf_count=94 111 1904 1272 441 21 483 212 33 22 21 31 1080 44 21 46 20 31 1792 29 644 36 342 141 51 237 26 30 979 61 3078
internal_value=0 -0.0993556 -0.315501 -0.20261 0.227926 0.158806 -0.172821 -0.484705 -0.0279444 0.406472 0.734188 0.860284 -0.0351559 -0.501252 -0.789719 -0.249341 -0.183071 0.251404 0.285206 0.564793 0.257503 0.50013 -0.294357 -0.663729 0.330944 0.730942 -0.0198142 -0.0090261 -0.0474265 -0.0587016
internal_count=13333 8531 4136 2864 4802 3670 716 2160 4395 233 1132 1101 4373 131 110 66 256 2954 2843 1051 407 371 223 82 704 263 4242 4148 3169 3139
shrinkage=0.1


Tree=30
num_leaves=31
num_cat=0
split_feature=0 11 6 18 16 17 7 16 19 11 16 16 11 11 7 11 11 11 11 19 11 16 16 16 16 6 19 9 9 6
split_gain=27.3553 12.2794 16.9784 8.30268 6.59204 6.29575 6.83003 5.96216 7.06773 8.9592 10.1369 9.50059 6.32823 5.22609 6.57783 14.4922 8.0652 6.9989 5.15689 4.43697 7.03181 4.29976 4.14659 6.6343 4.05468 3.90858 4.70123 7.7053 4.95473 12.2024
threshold=4.5000000000000009 0.00075247834785775009 1.0000000180025095e-35 1.5000000000000002 2774023.5000000005 1.0000000180025095e-35 68.786700682139738 1221573.0000000002 6.5000000000000009 0.0058696272754332869 660221.00000000012 881951.50000000012 0.59867445217357285 0.0027206436033989649 0.010000000005000001 0.0099994662841666679 0.0048910289307811253 0.0047927581250000002 0.0040163773617665722 3.5000000000000004 0.28181440933197627 6400.5000000000009 1316255.5000000002 213767.00000000003 3191031.5000000005 1.8666148343652991 1.0000000180025095e-35 0.099967908041988449 0.054810859653333342 0.27003534441518656
decision_type=2 2 2 2 2 2 2 2 2 2 2 2 2 2 2 2 2 2 2 2 2 2 2 2 2 2 2 2 2 2
left_child=1 2 24 5 7 6 13 8 -2 -10 12 -12 -11 -3 15 16 17 18 -15 -6 -21 -5 23 -16 -1 26 28 -28 -4 -30
right_child=4 3 25 21 19 -7 -8 -9 9 10 11 -13 -14 14 22 -17 -18 -19 -20 20 -22 -23 -24 -25 -26 -27 27 -29 29 -31
leaf_value=-0.033130077667392059 0.076911411849776068 0.039959227900760175 0.032996821426875628 -0.043495835047111464 0.11640874087952224 0.1145083172014338 -0.14387254504738842 0.084082719510128232 -0.23656002251159319 0.10684832694906828 -0.34513308018341865 -0.021888858656409715 -0.064173157525242747 -0.047930326517772771 0.00012203118488838535 -0.09588775310855005 0.03849329320844868 -0.14964122762369225 0.06545058961360764 0.025368400283643545 -0.085367914461374164 0.050162302547470485 -0.035487322850562122 0.041020496120461582 -0.10719696752010484 -0.017486980535746044 -0.057392301079137925 0.094189587076438569 -0.09900490148255392 0.015153562134331536
leaf_count=4128 327 185 252 40 38 28 20 1178 20 152 23 44 21 85 3380 754 162 22 36 194 45 640 193 397 193 236 20 250 63 207
internal_value=0 -0.042667 -0.18868 0.022094 0.466462 -0.00198471 -0.00846916 0.620539 0.287447 -0.166199 0.0783463 -1.23632 0.592712 -0.00279539 -0.0182876 -0.303771 -0.00227202 -0.416806 -0.149664 0.0939959 -0.0293619 0.405395 0.0102548 0.0257294 -0.354637 0.0677316 0.1705 0.612774 0.0739739 -0.140142
internal_count=13333 11291 5349 5942 2042 5262 5234 1765 587 260 240 67 173 5214 5029 1059 305 143 121 277 239 680 3970 3777 4321 1028 792 270 522 270
shrinkage=0.1


Tree=31
num_leaves=31
num_cat=0
split_feature=5 11 6 18 18 7 16 11 7 11 12 1 16 19 16 19 14 7 7 12 16 7 16 2 19 9 10 11 19 16
split_gain=23.8676 14.0601 9.64779 7.68577 7.2422 7.92995 5.82534 5.554 7.30626 8.35706 5.24615 4.71259 4.59442 5.3577 4.46652 6.01543 17.3444 12.7445 4.5598 4.42017 5.98911 6.38119 5.13869 4.39578 7.08284 5.02536 5.44071 4.37034 3.95905 3.89003
threshold=5.5000000000000009 0.00096804360349850012 0.0055263125000000008 3.5000000000000004 1.0000000180025095e-35 0.24142772657819903 1421753.5000000002 0.0027206436033989649 0.010000000005000001 0.0099994662841666679 0.0047656268873030646 29.500000000000004 118700.50000000001 12.500000000000002 1856.0000000000002 1.0000000180025095e-35 1.0000000180025095e-35 1.0000000180025095e-35 1.0000000180025095e-35 0.091026761446604168 864161.50000000012 13.933060157866668 3191031.5000000005 1.0000000180025095e-35 1.0000000180025095e-35 0.011021957151240751 0.15192972919100195 0.0048910289307811253 1.0000000180025095e-35 3617976.5000000005
decision_type=2 2 2 2 2 2 2 2 2 2 2 2 2 2 2 2 2 2 2 2 2 2 2 2 2 2 2 2 2 2
left_child=1 2 6 11 7 10 14 -3 9 27 28 -2 -5 -14 15 18 -17 -18 -1 -7 21 -21 -22 24 25 -4 -27 -9 -6 -10
right_child=3 4 23 12 5 19 -8 8 29 -11 -12 -13 13 -15 -16 16 17 -19 -20 20 22 -23 -24 -25 -26 26 -28 -29 -30 -31
leaf_value=-0.063188882369637003 0.027144145179581605 0.049944141244051714 0.070172735796070612 -0.069481860159660694 0.036050929504365413 -0.011803746396484332 -0.1064355925470712 -0.044756850574264435 -0.00023970211673195391 -0.088668869775415354 0.084678655562638969 -0.10114287472603074 0.096891306765431978 -0.016048758299699008 0.0088799461850359428 0.022992705570003796 -0.10273948152174646 -0.01548406206480526 0.016165357734310645 0.084002817561010079 -0.084963135228948231 -0.027812935832297315 0.044295728064296762 -0.090936942533777904 0.06618444150252098 -0.027831327018311858 0.026455615436631053 0.021475312175415991 -0.036638611588113539 -0.0694300984721542
leaf_count=1915 1305 104 42 22 683 485 187 94 2862 754 314 28 936 73 263 437 1147 291 44 235 78 30 30 25 258 302 147 105 91 46
internal_value=0 -0.046756 -0.214353 0.371866 0.0206475 0.180859 -0.329418 -0.0302786 -0.0458452 -0.375808 0.402152 0.237981 0.747236 0.826478 -0.296337 -0.346917 -0.20412 -0.536743 -0.554772 0.0134837 0.289188 0.555089 -0.282926 0.0205203 0.0607922 -0.043946 -0.114284 -0.107044 0.27418 -0.0120042
internal_count=13333 10969 5058 2364 5911 1946 4284 3965 3861 953 1088 1333 1031 1009 4097 3834 1875 1438 1959 858 373 265 108 774 749 491 449 199 774 2908
shrinkage=0.1


Tree=32
num_leaves=31
num_cat=0
split_feature=16 18 8 14 19 16 5 6 17 16 19 5 10 8 16 13 7 8 13 8 12 16 12 11 16 16 16 18 16 12
split_gain=20.0102 10.6803 10.2713 13.4826 21.832 8.31604 8.05506 7.87163 5.45602 5.22404 5.39105 4.67733 4.59131 4.56795 4.23091 4.47512 4.22263 6.11491 4.07891 3.76987 4.14145 4.98912 15.3691 12.0111 5.3755 5.20101 5.03412 4.53145 4.79665 9.49251
threshold=1856.0000000000002 3.5000000000000004 -4.5565244274999994e-06 1.0000000180025095e-35 1.0000000180025095e-35 2419071.5000000005 12.500000000000002 2.0484000000000002e-05 1.0000000180025095e-35 4073253.5000000005 1.0000000180025095e-35 58.500000000000007 0.0070710678118654797 -53.749491158731161 2096645.0000000002 17.500000000000004 1.0000000180025095e-35 -9.9845478999999974e-07 13.500000000000002 -13.476503842762417 0.0049554323538378584 428442.50000000006 0.0013062440313526197 0.0038122245778690008 1697847.0000000002 143685.50000000003 226965.00000000003 1.0000000180025095e-35 864161.50000000012 0.25996161754594466
decision_type=2 2 2 2 2 2 2 2 2 2 2 2 2 2 2 2 2 2 2 2 2 2 2 2 2 2 2 2 2 2
left_child=2 5 8 4 7 14 -7 -4 13 10 -3 -8 -9 -1 15 18 -5 -18 19 -2 21 22 25 -24 -23 -21 -27 -22 -29 -30
right_child=1 9 3 16 -6 6 11 12 -10 -11 -12 -13 -14 -15 -16 -17 17 -19 -20 20 27 24 23 -25 -26 26 -28 28 29 -31
leaf_value=-0.12181514110326611 -0.02471432877185363 -0.014845046838147453 -0.064310718909708395 -0.10247201199155465 0.028995120126802061 -0.035845016563172377 0.058426894404937417 -0.0053007597225728205 0.11966492113388141 -0.016576087104706101 0.096082726337251109 -0.053418464788827169 -0.10844226568686895 -0.0022656745201715652 0.075539053568374703 -0.076163745049735748 -0.089918235878923836 0.099220702850903134 0.11809862829499161 0.028084838828279664 0.021065947209324427 0.050502294709458911 -0.30304476989501017 -0.046776139121817245 -0.033847441313358408 -0.096642457564994927 0.0046371355461604031 0.079907248352006521 0.072038178208438497 -0.14750770190998339
leaf_count=23 101 104 1904 1147 704 483 197 236 22 31 997 36 20 4350 193 33 89 36 30 314 980 333 26 64 94 62 110 471 111 32
internal_value=0 0.186188 -0.0784931 -0.264568 -0.162138 0.130148 -0.156735 -0.41208 -0.0218246 0.65777 0.805552 0.349024 -0.138235 -0.0278215 0.210399 0.182894 -0.843406 -0.162241 0.200527 0.184756 0.218379 0.0871802 -0.0777435 -1.39138 0.338516 0.0832467 -0.323316 0.349443 0.62044 -0.0376097
internal_count=13333 4802 8531 4136 2864 3670 716 2160 4395 1132 1101 233 256 4373 2954 2761 1272 125 2728 2698 2597 1003 576 90 427 486 172 1594 614 143
shrinkage=0.1


Tree=33
num_leaves=31
num_cat=0
split_feature=5 11 6 18 18 7 16 11 7 11 12 19 16 6 19 9 6 9 9 16 16 16 16 5 11 16 1 11 11 16
split_gain=17.3309 10.5597 7.31405 6.43968 5.68972 6.69567 5.21793 4.69333 5.93954 7.98341 4.29204 4.17489 4.9864 3.76253 4.95111 3.6821 4.06304 3.77096 4.28382 4.17492 3.66761 3.98463 4.70322 6.64518 7.08261 6.42206 3.95516 3.66095 3.9671 3.62278
threshold=5.5000000000000009 0.00096804360349850012 0.0055263125000000008 3.5000000000000004 1.0000000180025095e-35 0.24142772657819903 1421753.5000000002 0.0027206436033989649 0.010000000005000001 0.0099994662841666679 0.0047656268873030646 12.500000000000002 118700.50000000001 1.9990000000000003 1.0000000180025095e-35 0.011021957151240751 0.4837217860000001 0.058578431372549027 0.12573080169981901 10328.000000000002 7196625.5000000009 1363957.5000000002 2607250.5000000005 13.500000000000002 0.08160788614891 3280336.0000000005 15.500000000000002 20.969481724683281 30.374397525390965 3145558.5000000005
decision_type=2 2 2 2 2 2 2 2 2 2 2 2 2 2 2 2 2 2 2 2 2 2 2 2 2 2 2 2 2 2
left_child=1 2 6 20 7 10 -1 -3 9 -9 -6 12 -5 14 15 -4 17 -17 19 -19 21 26 -23 24 25 -24 -2 -7 -29 -13
right_child=3 4 13 11 5 27 -8 8 -10 -11 -12 29 -14 -15 -16 16 -18 18 -20 -21 -22 22 23 -25 -26 -27 -28 28 -30 -31
leaf_value=-0.02628378266812182 0.013349709865385535 0.046496176216188581 0.06505118466920673 -0.066917894442975995 0.025863168242337808 0.0056417305203682868 -0.10209927514223141 -0.0088209168882737703 -0.0010663058020960897 -0.087148464708023288 0.080229114631572701 0.10440521980648561 0.094163374473066969 -0.028083511155290689 0.064449591206094822 0.0070814156255328484 0.023024904511388958 -0.16255496981640849 -0.016983814032790739 -0.016476459786980726 -0.029413556905852425 0.069591942210773777 -0.11506463829559539 0.063700067369730579 -0.17861751458627545 0.070298446521698879 -0.099279186249977724 -0.1256002459621233 0.012152252418039069 -0.081677923105936606
