tree
version=v2
num_class=1
num_tree_per_iteration=1
label_index=0
max_feature_idx=91
objective=binary sigmoid:1
feature_names=('OUT&internal&call',) ('IN&external&0',) ('IN&internal&call',) ('IN&internal&suicide',) ('OUT&internal&create',) Txn_len N_investments N_payments D_index Avg_investment Std_investment Avg_payment Std_payment Investment_times Payment_times Investment_payment_rate Txn_period N_owner N_creator N_other ('OUT&internal&call',_'OUT&internal&call') ('IN&external&0',_'IN&external&0') ('IN&internal&call',_'IN&internal&call') ('IN&internal&call',_'OUT&internal&call') ('IN&external&0',_'IN&external&0',_'IN&external&0') ('OUT&internal&call',_'OUT&internal&call',_'OUT&internal&call') ('IN&internal&call',_'IN&internal&call',_'IN&internal&call') ('IN&internal&call',_'IN&internal&call',_'OUT&internal&call') ('IN&internal&call',_'OUT&internal&call',_'OUT&internal&call') ('IN&external&0',_'IN&external&0',_'IN&external&0',_'IN&external&0') ('OUT&internal&call',_'OUT&internal&call',_'OUT&internal&call',_'OUT&internal&call') ('IN&internal&call',_'IN&internal&call',_'IN&internal&call',_'IN&internal&call') ('IN&internal&call',_'IN&internal&call',_'IN&internal&call',_'OUT&internal&call') ('IN&internal&call',_'IN&internal&call',_'OUT&internal&call',_'OUT&internal&call') ('IN&internal&call',_'OUT&internal&call',_'OUT&internal&call',_'OUT&internal&call') ('IN&external&0',_'IN&external&0',_'IN&external&0',_'IN&external&0',_'IN&external&0') ('OUT&internal&call',_'OUT&internal&call',_'OUT&internal&call',_'OUT&internal&call',_'OUT&internal&call') ('IN&internal&call',_'IN&internal&call',_'IN&internal&call',_'IN&internal&call',_'IN&internal&call') ('IN&internal&call',_'IN&internal&call',_'IN&internal&call',_'IN&internal&call',_'OUT&internal&call') ('IN&internal&call',_'IN&internal&call',_'IN&internal&call',_'OUT&internal&call',_'OUT&internal&call') ('IN&internal&call',_'IN&internal&call',_'OUT&internal&call',_'OUT&internal&call',_'OUT&internal&call') ('IN&internal&call',_'OUT&internal&call',_'OUT&internal&call',_'OUT&internal&call',_'OUT&internal&call') ('IN&external&0',_'IN&external&0',_'IN&external&0',_'IN&external&0',_'IN&external&0',_'IN&external&0') ('OUT&internal&call',_'OUT&internal&call',_'OUT&internal&call',_'OUT&internal&call',_'OUT&internal&call',_'OUT&internal&call') ('IN&internal&call',_'IN&internal&call',_'IN&internal&call',_'IN&internal&call',_'IN&internal&call',_'IN&internal&call') ('IN&internal&call',_'IN&internal&call',_'IN&internal&call',_'IN&internal&call',_'IN&internal&call',_'OUT&internal&call') ('IN&internal&call',_'IN&internal&call',_'IN&internal&call',_'IN&internal&call',_'OUT&internal&call',_'OUT&internal&call') ('IN&internal&call',_'IN&internal&call',_'IN&internal&call',_'OUT&internal&call',_'OUT&internal&call',_'OUT&internal&call') ('IN&internal&call',_'IN&internal&call',_'OUT&internal&call',_'OUT&internal&call',_'OUT&internal&call',_'OUT&internal&call') ('IN&internal&call',_'OUT&internal&call',_'OUT&internal&call',_'OUT&internal&call',_'OUT&internal&call',_'OUT&internal&call') ('IN&external&0',_'IN&external&0',_'IN&external&0',_'IN&external&0',_'IN&external&0',_'IN&external&0',_'IN&external&0') ('OUT&internal&call',_'OUT&internal&call',_'OUT&internal&call',_'OUT&internal&call',_'OUT&internal&call',_'OUT&internal&call',_'OUT&internal&call') ('IN&internal&call',_'IN&internal&call',_'IN&internal&call',_'IN&internal&call',_'IN&internal&call',_'IN&internal&call',_'IN&internal&call') ('IN&internal&call',_'IN&internal&call',_'IN&internal&call',_'IN&internal&call',_'IN&internal&call',_'IN&internal&call',_'OUT&internal&call') ('IN&internal&call',_'IN&internal&call',_'IN&internal&call',_'IN&internal&call',_'IN&internal&call',_'OUT&internal&call',_'OUT&internal&call') ('IN&internal&call',_'IN&internal&call',_'IN&internal&call',_'IN&internal&call',_'OUT&internal&call',_'OUT&internal&call',_'OUT&internal&call') ('IN&internal&call',_'IN&internal&call',_'IN&internal&call',_'OUT&internal&call',_'OUT&internal&call',_'OUT&internal&call',_'OUT&internal&call') ('IN&internal&call',_'IN&internal&call',_'OUT&internal&call',_'OUT&internal&call',_'OUT&internal&call',_'OUT&internal&call',_'OUT&internal&call') ('IN&internal&call',_'OUT&internal&call',_'OUT&internal&call',_'OUT&internal&call',_'OUT&internal&call',_'OUT&internal&call',_'OUT&internal&call') ('IN&external&0',_'IN&external&0',_'IN&external&0',_'IN&external&0',_'IN&external&0',_'IN&external&0',_'IN&external&0',_'IN&external&0') ('OUT&internal&call',_'OUT&internal&call',_'OUT&internal&call',_'OUT&internal&call',_'OUT&internal&call',_'OUT&internal&call',_'OUT&internal&call',_'OUT&internal&call') ('IN&internal&call',_'IN&internal&call',_'IN&internal&call',_'IN&internal&call',_'IN&internal&call',_'IN&internal&call',_'IN&internal&call',_'IN&internal&call') ('IN&internal&call',_'IN&internal&call',_'IN&internal&call',_'IN&internal&call',_'IN&internal&call',_'IN&internal&call',_'IN&internal&call',_'OUT&internal&call') ('IN&internal&call',_'IN&internal&call',_'IN&internal&call',_'IN&internal&call',_'IN&internal&call',_'IN&internal&call',_'OUT&internal&call',_'OUT&internal&call') ('IN&internal&call',_'IN&internal&call',_'IN&internal&call',_'IN&internal&call',_'IN&internal&call',_'OUT&internal&call',_'OUT&internal&call',_'OUT&internal&call') ('IN&internal&call',_'IN&internal&call',_'IN&internal&call',_'IN&internal&call',_'OUT&internal&call',_'OUT&internal&call',_'OUT&internal&call',_'OUT&internal&call') ('IN&internal&call',_'IN&internal&call',_'IN&internal&call',_'OUT&internal&call',_'OUT&internal&call',_'OUT&internal&call',_'OUT&internal&call',_'OUT&internal&call') ('IN&internal&call',_'IN&internal&call',_'OUT&internal&call',_'OUT&internal&call',_'OUT&internal&call',_'OUT&internal&call',_'OUT&internal&call',_'OUT&internal&call') ('IN&internal&call',_'OUT&internal&call',_'OUT&internal&call',_'OUT&internal&call',_'OUT&internal&call',_'OUT&internal&call',_'OUT&internal&call',_'OUT&internal&call') ('IN&external&0',_'IN&external&0',_'IN&external&0',_'IN&external&0',_'IN&external&0',_'IN&external&0',_'IN&external&0',_'IN&external&0',_'IN&external&0') ('OUT&internal&call',_'OUT&internal&call',_'OUT&internal&call',_'OUT&internal&call',_'OUT&internal&call',_'OUT&internal&call',_'OUT&internal&call',_'OUT&internal&call',_'OUT&internal&call') ('IN&internal&call',_'IN&internal&call',_'IN&internal&call',_'IN&internal&call',_'IN&internal&call',_'IN&internal&call',_'IN&internal&call',_'IN&internal&call',_'IN&internal&call') ('IN&internal&call',_'IN&internal&call',_'IN&internal&call',_'IN&internal&call',_'IN&internal&call',_'IN&internal&call',_'IN&internal&call',_'IN&internal&call',_'OUT&internal&call') ('IN&internal&call',_'IN&internal&call',_'IN&internal&call',_'IN&internal&call',_'IN&internal&call',_'IN&internal&call',_'IN&internal&call',_'OUT&internal&call',_'OUT&internal&call') ('IN&internal&call',_'IN&internal&call',_'IN&internal&call',_'IN&internal&call',_'IN&internal&call',_'IN&internal&call',_'OUT&internal&call',_'OUT&internal&call',_'OUT&internal&call') ('IN&internal&call',_'IN&internal&call',_'IN&internal&call',_'IN&internal&call',_'IN&internal&call',_'OUT&internal&call',_'OUT&internal&call',_'OUT&internal&call',_'OUT&internal&call') ('IN&internal&call',_'IN&internal&call',_'IN&internal&call',_'IN&internal&call',_'OUT&internal&call',_'OUT&internal&call',_'OUT&internal&call',_'OUT&internal&call',_'OUT&internal&call') ('IN&internal&call',_'IN&internal&call',_'IN&internal&call',_'OUT&internal&call',_'OUT&internal&call',_'OUT&internal&call',_'OUT&internal&call',_'OUT&internal&call',_'OUT&internal&call') ('IN&internal&call',_'IN&internal&call',_'OUT&internal&call',_'OUT&internal&call',_'OUT&internal&call',_'OUT&internal&call',_'OUT&internal&call',_'OUT&internal&call',_'OUT&internal&call') ('IN&internal&call',_'OUT&internal&call',_'OUT&internal&call',_'OUT&internal&call',_'OUT&internal&call',_'OUT&internal&call',_'OUT&internal&call',_'OUT&internal&call',_'OUT&internal&call') ('IN&external&0',_'IN&external&0',_'IN&external&0',_'IN&external&0',_'IN&external&0',_'IN&external&0',_'IN&external&0',_'IN&external&0',_'IN&external&0',_'IN&external&0') ('OUT&internal&call',_'OUT&internal&call',_'OUT&internal&call',_'OUT&internal&call',_'OUT&internal&call',_'OUT&internal&call',_'OUT&internal&call',_'OUT&internal&call',_'OUT&internal&call',_'OUT&internal&call') ('IN&internal&call',_'IN&internal&call',_'IN&internal&call',_'IN&internal&call',_'IN&internal&call',_'IN&internal&call',_'IN&internal&call',_'IN&internal&call',_'IN&internal&call',_'IN&internal&call') ('IN&internal&call',_'IN&internal&call',_'IN&internal&call',_'IN&internal&call',_'IN&internal&call',_'IN&internal&call',_'IN&internal&call',_'IN&internal&call',_'IN&internal&call',_'OUT&internal&call') ('IN&internal&call',_'IN&internal&call',_'IN&internal&call',_'IN&internal&call',_'IN&internal&call',_'IN&internal&call',_'IN&internal&call',_'IN&internal&call',_'OUT&internal&call',_'OUT&internal&call') ('IN&internal&call',_'IN&internal&call',_'IN&internal&call',_'IN&internal&call',_'IN&internal&call',_'IN&internal&call',_'IN&internal&call',_'OUT&internal&call',_'OUT&internal&call',_'OUT&internal&call') ('IN&internal&call',_'IN&internal&call',_'IN&internal&call',_'IN&internal&call',_'IN&internal&call',_'IN&internal&call',_'OUT&internal&call',_'OUT&internal&call',_'OUT&internal&call',_'OUT&internal&call') ('IN&internal&call',_'IN&internal&call',_'IN&internal&call',_'IN&internal&call',_'IN&internal&call',_'OUT&internal&call',_'OUT&internal&call',_'OUT&internal&call',_'OUT&internal&call',_'OUT&internal&call') ('IN&internal&call',_'IN&internal&call',_'IN&internal&call',_'IN&internal&call',_'OUT&internal&call',_'OUT&internal&call',_'OUT&internal&call',_'OUT&internal&call',_'OUT&internal&call',_'OUT&internal&call') ('IN&internal&call',_'IN&internal&call',_'IN&internal&call',_'OUT&internal&call',_'OUT&internal&call',_'OUT&internal&call',_'OUT&internal&call',_'OUT&internal&call',_'OUT&internal&call',_'OUT&internal&call') ('IN&internal&call',_'IN&internal&call',_'OUT&internal&call',_'OUT&internal&call',_'OUT&internal&call',_'OUT&internal&call',_'OUT&internal&call',_'OUT&internal&call',_'OUT&internal&call',_'OUT&internal&call') ('IN&internal&call',_'OUT&internal&call',_'OUT&internal&call',_'OUT&internal&call',_'OUT&internal&call',_'OUT&internal&call',_'OUT&internal&call',_'OUT&internal&call',_'OUT&internal&call',_'OUT&internal&call')
feature_infos=[0:27851] [0:1372] [0:127] none none [1:27852] [0:22220.5] [0:34778.830690504503] [-34778.830690504503:22220.5] [0:11110.25] [0:15711.559124574493] [0:34778.830690504503] [0:2474.8737341529168] [0:1373] [0:27852] [0:1374] [0:45964626] [0:928] [0:193] [0:27852] [0:27850] [0:1371] [0:126] none [0:1370] [0:27849] [0:125] none none [0:1369] [0:27848] [0:124] none none none [0:1368] [0:27847] [0:123] none none none none [0:1367] [0:27846] [0:122] none none none none none [0:1366] [0:27845] none none none none none none none [0:1365] [0:27844] none none none none none none none none [0:1364] [0:27843] none none none none none none none none none [0:1363] [0:27842] none none none none none none none none none none
tree_sizes=2540 2550 2532 2543 2537 2539 2548 2554 2556 2555 2550 2551 2568 2567 2565 2569 2565 2577 2546 2561 2567 2561 2576 2553 2550 2555 2575 2535 2581 2544 2544 2593 2563 2568 2540 2552 2550 2547 2519 2586 2533 2530 2516 2546 2518 2505 2567 2520 2558 2538 2589 2548 2537 2522 2510 2519 2520 2528 2539 2576 2525 2508 2498 2547 2518 2512 2532 2581 2552 2532 2514 2531 2540 2564 2529 2524 2504 2555 2510 2493 2551 2531 2512 2523 2588 2552 2592 2530 2547 2562 2554 2557 2529 2547 2575 2576 2531 2493 2575 2553 2523 2545 2539 2572 2598 2546 2582 2565 2564 2494 2595 2556 2517 2573 2547 2604 2560 2524 2564 2568 2582 2554 2599 2528 2599 2528 2546 2549 2609 2542 2606 2490 2602 2579 2587 2555 2554 2561 2600 2552 2539 2546 2561 2609 2567 2559 2561 2553 2562 2568 2573 2545 2584 2560 2539 2532 2526 2596 2610 2587 2598 2525 2538 2550 2545 2542 2544 2526 2583 2560 2548 2567 2576 2563 2597 2567 2556 2550 2597 2571 2587 2583 2514 2598 2571 2539 2567 2580 2602 2593 2542 2563 2590 2531 2599 2577 2578 2532 2516 2608 2605 2613 2594 2535 2591 2590 2582 2580 2554 2545 2538 2526 2521 2603 2581 2560 2560 2527 2530 2592 2565 2526 2591 2571 2582 2560 2549 2618 2556 2570 2579 2530 2635 2565 2553 2616 2607 2573 2604 2610 2598 2552 2578 2595 2592 2583 2561 2579 2605 2550 2623 2559 2571 2556 2556 2554 2635 2550 2581 2615 2552 2554 2546 2598 2542 2558 2568 2542 2606 2577 2642 2642 2610 2563 2574 2550 2590 2597 2568 2618 2532 2570 2544 2530 2569 2527 2516 2575 2506 2577 2566 2628 2565 2569 2586 2569 2581 2557 2558 2564 2552 2606 2579 2570 2586 2564 2592 2547 2565 2536 2546 2539 2606 2536 2565 2528 2579 2619 2590 2656 2591 2597 2562 2534 2566 2573 2574 2571 2599 2612 2578 2599 2580 2523 2545 2584 2557 2605 2603 2593 2600 2567 2593 2591 2596 2619 2545 2571 2608 2621 2586 2592 2568 2558 2546 2623 2557 2586 2561 2584 2558 2601 2636 2590 2610 2561 2591 2542 2600 2580 2605 2619 2599 2608 2541 2628 2580 2570 2550 2612 2526 2612 2621 2550 2527 2544 2557 2614 2542 2626 2597 2610 2598 2613 2623 2657 2561 2540 2568 2549 2541 2572 2554 2545 2609 2614 2594 2587 2598 2607 2544 2614 2548 2586 2551 2543 2641 2606 2585 2578 2546 2612 2606 2546 2564 2550 2547 2549 2549 2564 2600 2616 2625 2596 2581 2576 2542 2610 2533 2566 2612 2525 2574 2578 2580 2583 2575 2610 2544 2599 2544 2593 2547 2587 2583 2595 2600 2597 2631 2540 2567 2560 2594 2535 2568 2587 2580 2600 2570 2562 2567 2604 2559 2612 2569 2596 2571 2557 2616 2563 2593 2564 2601 2629 2625 2586 2581 2535 2612 2547 2587 2557 2588 2555 2581 2535 2540 2580 2588 2572

Tree=0
num_leaves=31
num_cat=0
split_feature=12 18 6 8 11 19 14 9 16 11 11 7 7 6 11 1 7 11 7 11 11 0 10 16 1 11 16 9 7 8
split_gain=3594.36 721.036 889.015 618.043 250.457 175.727 1024.76 135.987 135.219 105.007 68.8051 222.046 61.3527 44.0025 43.4024 43.3875 42.6016 42.5949 32.9083 29.5155 26.8189 26.2842 23.6951 22.9516 16.9495 16.4376 14.2223 14.1089 13.4154 13.0636
threshold=0.00013601999270832353 1.0000000180025095e-35 1.0000000180025095e-35 -0.012503284828742999 0.99994295292800006 1.0000000180025095e-35 1.0000000180025095e-35 0.15583333333333335 3495503.5000000005 0.00058850000000000016 2.1690708080000005e-06 0.0099630000000000014 0.00096804360349850012 0.099780000000000021 0.71080429604134721 1.0000000180025095e-35 0.10002034888515952 3.0002500000000007 0.00011263971151600001 0.26283806868628218 0.18340907047803015 2.5000000000000004 0.21251439232585115 4287423.5000000009 5.5000000000000009 0.00020000000039950005 3231308.5000000005 5.5587500000000007 0.010000000005000001 -3.1937505318080754
decision_type=2 2 2 2 2 2 2 2 2 2 2 2 2 2 2 2 2 2 2 2 2 2 2 2 2 2 2 2 2 2
left_child=1 2 3 14 9 24 -7 13 17 -3 -8 12 18 -4 16 -9 -1 21 -12 -10 -18 -2 -17 27 -5 -20 -26 -24 -13 -6
right_child=8 4 7 5 29 6 10 15 19 -11 11 28 -14 -15 -16 22 20 -19 25 -21 -22 -23 23 -25 26 -27 -28 -29 -30 -31
leaf_value=-0.040844623205563563 0.14803199925399338 -0.13653139882275203 0.058959901371162471 -0.19439993043265472 -0.12597484997142624 0.15633017583169259 -0.20250352301947325 -0.074312006326880287 0.062211953759824579 0.15441474500546562 0.098993787672968403 -0.20445634211046809 0.055004702520086941 0.17071224709064212 -0.075626726200157784 -0.11874153272358831 0.067909994269873569 0.066513055306119617 -0.1874349615230026 -0.087122291927539328 -0.0044551202077485873 0.18572692025788651 0.12794005485461504 -0.12445585334938029 -0.026677478196939636 -0.062350210758535821 -0.20445634211046809 -0.025144901783891983 -0.13077168140946616 -0.033026723336708516
leaf_count=709 1086 53 205 2307 158 459 1229 209 180 778 29 743 222 451 444 28 351 155 94 75 492 2322 142 20 45 76 30 29 114 98
internal_value=0 -0.657797 -0.85552 -1.10508 0.875241 -1.45953 -1.13464 0.835214 1.63932 1.40809 -1.63766 -1.31274 -0.123317 1.4074 -0.155371 -0.0417791 0.0023728 1.74002 -0.929729 0.232403 0.306257 1.78665 0.580296 0.83218 -1.86408 -1.26565 -0.928389 1.06928 -1.89705 -0.85443
internal_count=13333 9515 8428 7344 1087 5348 2966 1084 3818 831 2507 1278 421 656 1996 428 1552 3563 199 255 843 3408 219 191 2382 170 75 171 857 256
shrinkage=1


Tree=1
num_leaves=31
num_cat=0
split_feature=12 18 6 8 11 19 14 16 9 11 11 8 7 6 11 1 11 7 7 11 11 10 16 16 11 1 11 9 11 8
split_gain=2932.78 587.973 725.311 509.404 204.145 144.209 837.535 111.238 110.947 85.6002 57.0781 183.315 57.4172 36.3529 36.3355 35.2304 35.2177 34.5244 26.8031 23.942 21.7607 19.2653 18.6613 17.64 16.6333 14.0774 13.5986 13.0196 12.6236 12.0935
threshold=0.00013601999270832353 1.0000000180025095e-35 1.0000000180025095e-35 -0.012503284828742999 0.99994295292800006 1.0000000180025095e-35 1.0000000180025095e-35 3495503.5000000005 0.15583333333333335 0.00058850000000000016 2.1690708080000005e-06 -0.0094130045554984988 0.00096804360349850012 0.099780000000000021 0.95928004822626411 1.0000000180025095e-35 0.71080429604134721 0.10002034888515952 0.00011263971151600001 0.26283806868628218 0.18340907047803015 0.21251439232585115 4287423.5000000009 4971.5000000000009 22.513609603612426 5.5000000000000009 0.00020000000039950005 0.044984298112806 0.090462905548239422 -0.00048664012532899993
decision_type=2 2 2 2 2 2 2 2 2 2 2 2 2 2 2 2 2 2 2 2 2 2 2 2 2 2 2 2 2 2
left_child=1 2 3 16 9 25 -7 14 13 -3 -8 -12 18 27 23 -10 17 28 -13 -9 -19 -17 -23 -2 -16 -5 -20 -4 -1 -28
right_child=7 4 8 5 -6 6 10 19 15 -11 11 12 -14 -15 24 21 -18 20 26 -21 -22 22 -24 -25 -26 -27 29 -29 -30 -31
leaf_value=-0.024055964062368183 0.082045224001968176 -0.11899632702234381 0.074605302226732881 -0.17218119867972537 -0.077104919401755304 0.14607190462683214 -0.17969546965179634 0.060505985534389288 -0.062514899042593136 0.14431488385026064 -0.17082801130314168 0.093786366855601419 0.067100664442914945 0.15929134610796086 0.10839743633288995 -0.10278695816836039 -0.063703100958090286 0.065651917187516423 -0.16573709326533759 -0.07410037976553191 0.00044551116093554245 0.096579257122743678 -0.10798753525597166 0.16723599912154974 -0.067593118851662179 -0.083940317542912216 -0.10759699384809998 -0.091688201796463961 -0.11854617546723581 0.062293503799701701
leaf_count=647 101 53 184 2307 256 459 1229 180 209 778 875 29 204 451 332 28 444 351 94 75 492 171 20 3107 23 75 51 21 62 25
internal_value=0 -0.595889 -0.775087 -1.00148 0.791915 -1.32563 -1.03016 1.48603 0.755003 1.27501 -1.48742 -1.19062 -0.0741068 1.27363 1.57795 -0.0376687 -0.139933 0.00213981 -0.841085 0.209419 0.275773 0.524162 0.751672 1.6455 0.969579 -1.69389 -1.14541 0.575704 -0.323189 -0.51712
internal_count=13333 9515 8428 7344 1087 5348 2966 3818 1084 831 2507 1278 403 656 3563 428 1996 1552 199 255 843 219 191 3208 355 2382 170 205 709 76
shrinkage=0.1


Tree=2
num_leaves=31
num_cat=0
split_feature=12 18 6 8 11 19 14 16 9 11 11 7 7 11 6 1 11 7 7 12 19 0 11 10 12 16 0 11 1 16
split_gain=2423.54 484.784 598.723 430.884 168.246 120.787 696.404 95.832 92.8012 70.5837 49.2124 154.883 41.2767 32.8203 29.7841 28.697 28.648 28.0065 22.0387 20.4692 18.566 18.5026 17.7154 15.74 15.5785 15.244 14.7882 12.8336 12.3157 11.9008
threshold=0.00013601999270832353 1.0000000180025095e-35 4.500000000000001e-06 -0.012503284828742999 0.99994295292800006 1.0000000180025095e-35 1.0000000180025095e-35 4470116.5000000009 0.15583333333333335 0.00058850000000000016 2.1690708080000005e-06 0.0099630000000000014 0.00096804360349850012 0.7465034300808987 0.099780000000000021 1.0000000180025095e-35 0.71080429604134721 0.10002034888515952 0.00011263971151600001 0.016055847428178227 1.5000000000000002 7.5000000000000009 0.18340907047803015 0.21251439232585115 0.4915690494604345 4287423.5000000009 2.5000000000000004 22.513609603612426 5.5000000000000009 3231308.5000000005
decision_type=2 2 2 2 2 2 2 2 2 2 2 2 2 2 2 2 2 2 2 2 2 2 2 2 2 2 2 2 2 2
left_child=1 2 3 16 9 28 -7 13 14 -3 -8 12 18 26 -4 -10 17 -1 -12 -9 -21 -22 -19 -17 -15 -25 -2 -26 -5 -30
right_child=7 4 8 5 -6 6 10 19 15 -11 11 -13 -14 24 -16 23 -18 22 -20 20 21 -23 -24 25 27 -27 -28 -29 29 -31
leaf_value=-0.029122024592627027 0.13038080953927081 -0.10841142371915191 0.053288904718358288 -0.15880698803847915 -0.069756513175718723 0.13390393250465724 -0.16621093575228005 0.10814974014026031 -0.056458501737897161 0.13212041802065866 0.085014751611053041 -0.15928175090543592 0.049373036021188171 -0.024981523210187692 0.14637613787710452 -0.093359109599696066 -0.0575390326740466 0.05929193844481611 -0.10463683607516772 0.11268453823179575 -0.14660409615678915 0.0089161825698058101 0.00040095608616219603 0.087583290467344477 0.11334265075084798 -0.098173994538509099 0.16043034492999497 -0.047511058162113338 -0.011205921597158039 -0.17494642534623928
leaf_count=709 964 53 201 2310 256 460 1229 55 209 778 29 857 222 42 451 28 444 351 170 28 61 62 492 171 365 20 2220 21 45 30
internal_value=0 -0.545423 -0.709615 -0.917074 0.722997 -1.22058 -0.94741 1.36407 0.6907 1.16694 -1.37038 -1.09278 -0.0980719 1.44158 1.17219 -0.0340583 -0.126173 0.00193585 -0.767634 0.0350673 -0.346482 -0.681904 0.248577 0.475512 0.91798 0.681814 1.51289 1.04459 -1.56144 -0.760092
internal_count=13333 9515 8428 7348 1087 5352 2967 3818 1080 831 2507 1278 421 3612 652 428 1996 1552 199 206 151 123 843 219 428 191 3184 386 2385 75
shrinkage=0.1


Tree=3
num_leaves=31
num_cat=0
split_feature=12 18 6 8 11 19 14 16 9 11 11 8 7 11 6 1 11 7 16 7 11 11 0 10 16 11 7 18 8 9
split_gain=2021.51 402.903 498.51 372.837 139.796 102.71 581.895 82.5733 76.7196 59.5765 43.7725 133.705 39.1936 29.7381 27.0977 23.4335 23.3467 22.7287 21.9411 18.1475 17.9047 14.4561 13.8618 13.1706 12.1687 12.0372 11.9146 11.6847 11.5981 11.2398
threshold=0.00013601999270832353 1.0000000180025095e-35 1.0000000180025095e-35 -0.012503284828742999 0.99994295292800006 1.0000000180025095e-35 1.0000000180025095e-35 3495503.5000000005 0.15583333333333335 0.00030492539699999993 2.1690708080000005e-06 -0.0094130045554984988 0.00096804360349850012 3.0002500000000007 0.099780000000000021 1.0000000180025095e-35 0.71080429604134721 0.10002034888515952 4971.5000000000009 0.00011263971151600001 0.10660697439149977 0.18340907047803015 2.5000000000000004 0.12098290603664175 4287423.5000000009 0.00020000000039950005 0.010000000005000001 1.5000000000000002 -21.064767312499992 5.5587500000000007
decision_type=2 2 2 2 2 2 2 2 2 2 2 2 2 2 2 2 2 2 2 2 2 2 2 2 2 2 2 2 2 2
left_child=1 2 3 16 9 -5 -7 13 14 -3 -8 26 19 18 -4 -10 17 -1 -2 -13 -9 -19 -20 -17 29 -21 -12 -22 -6 -25
right_child=7 4 8 5 28 6 10 20 15 -11 11 12 -14 -15 -16 23 -18 21 22 25 27 -23 -24 24 -26 -27 -28 -29 -30 -31
leaf_value=-0.026245035358261448 0.054070231200326162 -0.12251698165177838 0.047115818558570902 -0.1457696329196366 -0.15759945192762723 0.12353019811515009 -0.15568344838441964 0.058121920135535757 -0.051061830628724228 0.12067841463594596 -0.15666213872556059 0.07731876208455013 0.05585164814610058 0.048293736869928383 0.13583328600288935 -0.10168315430667224 -0.052048707650698536 0.053634462230397986 0.1216640227053524 -0.14533800661353444 -0.10092965242906665 0.00036087154435723661 0.15077741300503039 0.10008628501701944 -0.089641852123091295 -0.036633449019843931 -0.085405932595384149 0.045889659306998912 -0.043758746495717475 -0.036789584075260187
leaf_count=709 122 44 205 2382 44 459 1229 157 209 787 761 29 204 155 451 23 444 351 984 94 65 492 2302 147 20 76 114 33 212 29
internal_value=0 -0.50298 -0.654602 -0.847259 0.664447 -1.13745 -0.881928 1.26377 0.629836 1.07643 -1.2756 -1.0112 -0.0558519 1.34645 1.07177 -0.0308489 -0.113837 0.0017675 1.38735 -0.701584 0.16042 0.224224 1.41958 0.432938 0.602589 -0.957051 -1.47246 -0.513898 -0.632466 0.771926
internal_count=13333 9515 8428 7344 1087 5348 2966 3818 1084 831 2507 1278 403 3563 656 428 1996 1552 3408 199 255 843 3286 219 196 170 875 98 256 176
shrinkage=0.1


Tree=4
num_leaves=31
num_cat=0
split_feature=12 18 6 8 7 19 14 16 9 11 11 7 7 11 6 1 11 7 16 7 8 0 19 11 1 11 7 0 10 9
split_gain=1698.46 343.735 419.481 325.197 120.688 86.6612 494.008 73.407 64.5017 46.8054 38.096 112.422 28.8273 28.1891 24.151 19.1824 18.6169 19.0939 17.0473 15.7722 15.5254 14.6038 18.7984 12.3343 12.0832 11.7664 11.6674 11.4872 10.9884 10.6915
threshold=4.3167097378767927e-05 1.0000000180025095e-35 1.0000000180025095e-35 -0.012503284828742999 0.5915993666395637 1.0000000180025095e-35 1.0000000180025095e-35 4470116.5000000009 0.15583333333333335 0.00058850000000000016 2.1690708080000005e-06 0.0099630000000000014 0.00096804360349850012 1.23075650540423 0.099780000000000021 1.0000000180025095e-35 0.71080429604134721 0.10002034888515952 4971.5000000000009 0.00011263971151600001 -3.1937505318080754 7.5000000000000009 1.5000000000000002 0.00020000000039950005 5.5000000000000009 0.13467264563248757 0.010000000005000001 2.5000000000000004 0.21251439232585115 0.044984298112806
decision_type=2 2 2 2 2 2 2 2 2 2 2 2 2 2 2 2 2 2 2 2 2 2 2 2 2 2 2 2 2 2
left_child=1 2 3 16 9 24 -7 13 14 -3 -8 12 19 18 29 -10 17 -1 -2 -12 -6 22 -9 -21 -5 -19 -13 -20 -17 -4
right_child=7 4 8 5 20 6 10 21 15 -11 11 26 -14 -15 -16 28 -18 25 27 23 -22 -23 -24 -25 -26 -27 -28 -29 -30 -31
leaf_value=-0.024663561058926795 0.0502169167553837 -0.087435487854545926 0.058225306291098039 -0.13987966851849465 -0.089779531201828564 0.1147607679086057 -0.14725067326975635 0.097213613862785403 -0.04622576311354596 0.11980326607863911 0.070481599536651424 -0.15009603882323275 0.039723460435731973 0.06535610033079052 0.12698073576954907 -0.079653963833154817 -0.047129716556614763 0.061568462997227541 0.11406738363657982 -0.14509346367959383 0.0026119263112474775 0.058501184396144712 -0.096073323644272735 -0.033119974602433336 -0.056298358478986781 0.006501717632483299 -0.07858989107656264 0.141484337994882 0.057027580709720797 -0.092585274734979781
leaf_count=706 107 49 184 2307 158 459 1229 27 209 730 29 743 220 304 451 28 444 209 942 91 143 96 84 76 75 633 114 2274 191 21
internal_value=0 -0.467853 -0.609873 -0.790168 0.626886 -1.07032 -0.830992 1.1757 0.579001 1.06463 -1.2032 -0.952647 -0.0976359 1.2474 0.991406 -0.0279142 -0.107069 -0.00364723 1.30475 -0.675597 -0.459091 0.0105104 -0.488566 -0.921357 -1.3708 0.200495 -1.4022 1.3329 0.395667 0.426044
internal_count=13333 9499 8419 7335 1080 5343 2961 3834 1084 779 2502 1273 416 3627 656 428 1992 1548 3323 196 301 207 111 167 2382 842 857 3216 219 205
shrinkage=0.1


Tree=5
num_leaves=31
num_cat=0
split_feature=12 18 6 7 7 19 14 16 9 11 11 8 7 5 19 16 11 6 7 16 0 6 11 12 19 0 12 11 8 8
split_gain=1434.6 281.913 351.486 289.796 98.6675 78.7222 415.56 65.1227 57.4246 45.5218 39.7834 96.6504 27.1621 26.2266 21.8612 40.2697 20.5548 19.2795 18.1371 17.9571 17.3738 17.0283 16.551 15.3949 15.2485 14.3199 13.0895 12.9984 13.0114 12.9236
threshold=0.00013601999270832353 1.0000000180025095e-35 4.500000000000001e-06 0.015153100596162501 0.5915993666395637 1.0000000180025095e-35 1.0000000180025095e-35 3495503.5000000005 1.1782703679133479 0.00030492539699999993 2.1690708080000005e-06 -0.0094130045554984988 0.00096804360349850012 4.5000000000000009 1.0000000180025095e-35 10580.000000000002 0.7465034300808987 0.099780000000000021 0.010000000005000001 932018.00000000012 2.5000000000000004 0.058079729687775507 0.7465034300808987 0.020557954821811986 1.5000000000000002 7.5000000000000009 0.4915690494604345 0.10002034888515952 -0.089598333426289492 -3.1937505318080754
decision_type=2 2 2 2 2 2 2 2 2 2 2 2 2 2 2 2 2 2 2 2 2 2 2 2 2 2 2 2 2 2
left_child=1 2 3 5 9 -1 -7 13 14 -3 -8 18 -13 16 15 21 -2 -16 -12 26 22 -4 27 -9 -25 -26 -18 28 -5 -6
right_child=7 4 8 20 29 6 10 23 -10 -11 11 12 -14 -15 17 -17 19 -19 -20 -21 -22 -23 -24 24 25 -27 -28 -29 -30 -31
leaf_value=-0.12973024008310272 0.10870030095511836 -0.10826990716799223 0.059124445789304862 -0.10254991553314836 -0.082294981760225649 0.1072321946776143 -0.14035552986955477 0.085994676923940749 -0.049093247178540481 0.10955766845694229 -0.14111892611377277 -0.059633046454397709 0.046758935391219864 0.13402384180907032 -0.067135568078038818 0.094286238818290388 -0.07349960888157521 0.13897990018464598 -0.066109037141362764 -0.11430761776732468 0.17893492197564489 -0.060105424399837896 -0.044723565501560446 0.093903649629481542 -0.122892231893953 0.0077952178504923893 0.080876567252403733 0.016718307980567546 -0.011220303235154445 0.0023507574788545829
leaf_count=2385 1201 44 77 71 158 460 1229 80 184 742 761 199 204 2109 20 388 26 274 172 27 20 137 432 37 64 74 200 837 578 143
internal_value=0 -0.434364 -0.565515 -0.73362 0.566743 -1.00237 -0.77379 1.10598 0.53585 0.969875 -1.11595 -0.866716 -0.042037 1.18459 0.758317 0.536616 0.968401 1.23554 -1.26088 0.4372 -0.0789163 -0.165993 -0.0983171 0.121645 -0.213368 -0.522424 0.628023 0.00167171 -0.211313 -0.417354
internal_count=13333 9515 8428 7348 1087 5410 3025 3818 1080 786 2565 1336 403 3563 896 602 1454 294 933 253 1938 214 1918 255 175 138 226 1486 649 301
shrinkage=0.1


Tree=6
num_leaves=31
num_cat=0
split_feature=12 7 6 18 19 14 19 7 16 9 11 7 11 11 6 16 7 1 16 11 7 11 0 7 1 7 7 7 16 16
split_gain=1216.01 243.701 393.904 97.3717 64.442 361.37 58.7207 84.2546 57.727 47.7759 30.7889 101.506 29.9147 25.5888 23.9505 23.1566 19.4017 19.0727 18.9495 14.6838 18.2989 13.1874 12.8457 12.719 12.4347 12.1134 12.8183 12.8804 11.4259 13.1378
threshold=0.00013601999270832353 0.010155956346450503 1.0000000180025095e-35 1.0000000180025095e-35 1.0000000180025095e-35 1.0000000180025095e-35 1.0000000180025095e-35 0.5915993666395637 3495503.5000000005 0.10001301113064502 2.1690708080000005e-06 0.0099630000000000014 0.00058850000000000016 3.0002500000000007 0.099780000000000021 1791.5000000000002 0.00096804360349850012 1.0000000180025095e-35 4971.5000000000009 0.9101160611646506 0.031569295444053007 0.26283806868628218 2.5000000000000004 0.00011263971151600001 5.5000000000000009 0.03928878643543101 0.10002034888515952 0.18618677014669099 3231308.5000000005 1251306.5000000002
decision_type=2 2 2 2 2 2 2 2 2 2 2 2 2 2 2 2 2 2 2 2 2 2 2 2 2 2 2 2 2 2
left_child=1 2 3 4 24 -6 7 -3 13 14 -7 16 -5 18 -4 19 23 -11 -2 20 -8 -10 -20 -12 -1 -22 -27 -28 29 -26
right_child=8 6 9 12 5 10 15 -9 21 17 11 -13 -14 -15 -16 -17 -18 -19 22 -21 25 -23 -24 -25 28 26 27 -29 -30 -31
leaf_value=-0.12658235073217991 0.035586077983520613 0.1044375876324871 0.034139777463572246 -0.082286030907518709 0.10023688530101629 -0.13462096547130803 -0.046555035621888625 -0.03154015186139246 0.040879713635693808 -0.043101300738032346 0.069532180082834308 -0.13593734146681688 0.10117548470214816 0.030610733600090274 0.1214229396513217 0.12014662918678223 0.034238057609255725 0.039524703875257944 0.099022659936262372 -0.049719330466207065 0.084590205782980057 -0.060812054125141859 0.12866920652554617 -0.076892846143481394 -0.10039240913557697 -0.03228358246439765 0.044309159584613934 -0.0059361095125907044 -0.14515174121759969 0.12270185658181028
leaf_count=2307 122 567 205 53 459 1229 359 305 180 216 29 768 156 155 407 56 222 256 984 387 73 75 2302 170 20 346 340 530 30 25
internal_value=0 -0.405255 -0.651469 -0.903125 -0.963793 -0.743195 0.0711166 0.538219 1.04151 0.491222 -1.09177 -0.847336 0.52663 1.11842 0.892033 -0.106448 -0.062191 0.00907637 1.16071 -0.140962 -0.0584877 0.110728 1.19396 -0.543366 -1.23506 0.0522817 0.00443663 0.134612 -0.398049 0.235488
internal_count=13333 9515 6552 5468 5259 2877 2963 872 3818 1084 2418 1189 209 3563 612 2091 421 472 3408 2035 1648 255 3286 199 2382 1289 1216 870 75 45
shrinkage=0.1


Tree=7
num_leaves=31
num_cat=0
split_feature=12 7 6 18 19 14 16 19 8 9 7 7 11 11 5 16 19 16 11 6 16 8 7 19 11 9 1 16 16 12
split_gain=1033.79 212.172 339.975 84.1839 56.593 310.233 51.8115 49.0155 72.9279 43.2004 29.1353 74.5826 33.3419 26.1395 25.227 19.1144 18.7367 32.4441 17.9099 15.3866 14.7364 12.5084 13.5764 11.8179 14.3433 11.8109 11.7079 13.7321 17.7329 11.2275
threshold=0.00013601999270832353 0.010155956346450503 1.0000000180025095e-35 1.0000000180025095e-35 1.0000000180025095e-35 1.0000000180025095e-35 3495503.5000000005 1.0000000180025095e-35 -0.39858553436744398 1.1782703679133479 1.0000000180025095e-35 0.0099630000000000014 0.00020000000039950005 0.00020000000039950005 4.5000000000000009 1791.5000000000002 1.0000000180025095e-35 10580.000000000002 0.7465034300808987 0.099780000000000021 932018.00000000012 -1.5781019059226182 0.031569295444053007 1.0000000180025095e-35 0.094639365397333156 0.024658694173202503 3.5000000000000004 3231308.5000000005 743489.00000000012 0.4915690494604345
decision_type=2 2 2 2 2 2 2 2 2 2 2 2 2 2 2 2 2 2 2 2 2 2 2 2 2 2 2 2 2 2
left_child=1 2 3 4 26 -6 14 8 -3 16 -7 12 -12 -5 18 21 17 25 -2 -18 29 -9 -23 -8 -25 -4 -1 28 -28 -20
right_child=6 7 9 13 5 10 23 15 -10 -11 11 -13 -14 -15 -16 -17 19 -19 20 -21 -22 22 -24 24 -26 -27 27 -29 -30 -31
leaf_value=-0.12222784612077001 0.095926040953729141 -0.023124013863449006 0.054618827708015051 -0.11097371206705245 0.094041579756581783 -0.13242240033475147 0.13839079206027077 -0.054200836498976314 0.10250022450300694 -0.043840804506835862 -0.088020254234431203 -0.13099488255054501 0.018925208111701668 0.086249709142306175 0.12228679848999149 0.11039976813028185 -0.053435641135863576 0.082665675982808925 -0.074147410997406141 0.12714424227123058 -0.10822382994146612 -0.0422118840400545 0.0021194242310466917 0.036928726557505287 -0.067490119443933433 -0.049397482179502024 -0.11791343499643372 -0.1367150213918685 0.092393957039528476 0.069371961174543181
leaf_count=2245 1201 340 65 38 459 1107 27 264 532 184 245 768 298 171 2109 56 21 389 26 274 27 359 1412 136 92 151 33 62 42 200
internal_value=0 -0.379048 -0.617184 -0.860447 -0.918924 -0.707097 0.983511 0.0650318 0.498846 0.452933 -1.04101 -0.821616 -0.24359 0.492447 1.05962 -0.0963019 0.653296 0.448813 0.841841 1.11725 0.340113 -0.127497 -0.0668477 0.100314 -0.0502432 -0.17758 -1.18085 -0.56121 0.0349178 0.519815
internal_count=13333 9515 6552 5468 5259 2877 3818 2963 872 1084 2418 1311 543 209 3563 2091 900 605 1454 295 253 2035 1771 255 228 216 2382 137 75 226
shrinkage=0.1


Tree=8
num_leaves=31
num_cat=0
split_feature=12 7 6 18 19 14 16 19 11 9 11 7 5 11 19 16 16 11 7 6 12 12 7 1 16 16 11 10 9 11
split_gain=880.482 185.336 294.267 72.9933 50.2359 266.727 46.5508 40.9079 62.6255 36.0787 28.1833 84.0572 24.7587 23.1902 16.8329 27.2034 15.8303 15.768 13.7416 13.4543 11.5819 11.5551 11.5312 11.4828 12.633 11.8543 11.1897 10.486 11.0879 10.4728
threshold=0.00013601999270832353 0.010155956346450503 1.0000000180025095e-35 1.0000000180025095e-35 1.0000000180025095e-35 1.0000000180025095e-35 4470116.5000000009 1.0000000180025095e-35 0.37313904439460055 1.1782703679133479 2.1690708080000005e-06 0.0099630000000000014 4.5000000000000009 0.0010000473867540001 1.0000000180025095e-35 10580.000000000002 1791.5000000000002 0.7465034300808987 0.00096804360349850012 0.099780000000000021 0.4915690494604345 0.016055847428178227 0.00011263971151600001 1.5000000000000002 3231308.5000000005 743489.00000000012 13.545218685622208 2.105741335751588 5.5587500000000007 0.9101160611646506
decision_type=2 2 2 2 2 2 2 2 2 2 2 2 2 2 2 2 2 2 2 2 2 2 2 2 2 2 2 2 2 2
left_child=1 2 3 4 23 -6 12 8 -3 14 -7 18 17 -5 15 -4 29 -2 22 -16 -19 -8 -12 -1 25 -25 -10 -11 -29 -9
right_child=6 7 9 13 5 10 21 16 26 27 11 -13 -14 -15 19 -17 -18 20 -20 -21 -22 -23 -24 24 -26 -27 -28 28 -30 -31
leaf_value=-0.11950546611748479 0.089420043463878884 0.097211419316949571 -0.016050350070924351 -0.05682406055027122 0.088355128524372384 -0.12570485273703694 0.079590810032930559 -0.0045618171532724339 -0.0033100562732797829 -0.078961288325695711 0.071151488373337624 -0.12678766078618373 0.11639963650190116 0.098866523989366503 -0.047804513761327189 0.076498841717161259 0.10186103320312992 -0.086781042827128896 0.029162252900853752 0.12101284957217701 0.04821250945166846 -0.03025223641992102 -0.068518347608996319 -0.085645345956049099 -0.13130471554606832 0.03433314336018372 -0.10271059325299364 0.10831293546737049 -0.051699315982916674 -0.041878485606893043
leaf_count=2097 1213 527 216 68 459 1229 55 1648 285 112 29 768 2141 141 21 389 56 30 222 274 228 151 170 99 115 71 60 33 39 387
internal_value=0 -0.354673 -0.585742 -0.821506 -0.878119 -0.673631 0.930713 0.0594034 0.462207 0.418183 -0.993858 -0.752494 0.997998 0.459095 0.605586 0.412024 -0.0869798 0.780612 -0.0477453 1.05804 0.313328 -0.0103709 -0.461967 -1.13291 -0.702507 -0.320505 -0.201944 -0.396045 0.206227 -0.115118
internal_count=13333 9515 6552 5468 5259 2877 3818 2963 872 1084 2418 1189 3612 209 900 605 2091 1471 421 295 258 206 199 2382 285 170 345 184 72 2035
shrinkage=0.1


Tree=9
num_leaves=31
num_cat=0
split_feature=12 7 6 18 19 14 16 19 7 9 7 7 11 5 11 6 8 16 16 1 16 10 1 16 19 19 12 7 16 18
split_gain=750.888 163.514 255.317 61.1673 45.0381 229.374 43.0909 34.0574 54.1294 32.2459 27.918 64.8088 26.8584 24.7017 23.5733 19.0459 15.6052 14.8296 14.5809 11.1412 11.1455 11.428 11.0482 11.6838 10.4338 17.5034 11.7438 10.2287 10.0517 9.74208
threshold=0.00021591731766778272 0.010155956346450503 1.0000000180025095e-35 1.0000000180025095e-35 1.0000000180025095e-35 1.0000000180025095e-35 3495503.5000000005 1.0000000180025095e-35 0.98978712552000014 0.10001301113064502 1.0000000180025095e-35 0.0099630000000000014 0.00020000000039950005 4.5000000000000009 0.00030492539699999993 0.099780000000000021 -24.698083050847448 2773.5000000000005 1791.5000000000002 1.0000000180025095e-35 4470116.5000000009 0.18505127888048331 1.5000000000000002 3231308.5000000005 1.5000000000000002 4.5000000000000009 0.020915932939776279 69.782803486870321 743489.00000000012 1.0000000180025095e-35
decision_type=2 2 2 2 2 2 2 2 2 2 2 2 2 2 2 2 2 2 2 2 2 2 2 2 2 2 2 2 2 2
left_child=1 2 3 4 22 -6 13 8 -3 15 -7 12 -12 16 -5 -4 -2 -18 -9 -11 21 -21 -1 28 -8 -26 -27 -15 -24 -19
right_child=6 7 9 14 5 10 24 18 -10 19 11 -13 -14 27 -16 -17 17 29 -20 20 -22 -23 23 -25 25 26 -28 -29 -30 -31
leaf_value=-0.11532879035675384 -0.056212332762692302 0.082235856855365885 0.025630301799445965 -0.099760278342135272 0.08307764143658157 -0.12504620992128335 0.095649487321229965 -0.010383189262841751 -0.033632217349063728 -0.034743438929611646 -0.079955788563257135 -0.12316594069465144 0.018196631245382008 0.11597188080183714 0.079944227917461058 0.10634850615658176 -0.0045273620930545233 0.064241266616345716 0.096348920336864666 -0.068406611086391664 -0.11177887664486374 0.062418083085171917 -0.080698040725626682 -0.1274563614848144 -0.09569346258598263 0.11203142876807332 -0.013881965045326579 -0.0028220232894379917 0.03054190854214588 0.10357004278315665
leaf_count=2097 38 613 205 46 459 1107 47 2035 260 216 246 768 303 2063 167 407 92 632 61 34 21 201 99 115 71 50 87 36 71 686
internal_value=0 -0.331376 -0.556895 -0.785699 -0.84009 -0.641679 0.883984 0.0560848 0.429896 0.386498 -0.949014 -0.728159 -0.19632 0.960224 0.395638 0.740288 0.738733 0.781363 -0.0762513 -0.00827048 0.292765 0.429447 -1.08952 -0.659813 0.074192 -0.122716 0.304619 1.13505 -0.295034 0.847204
internal_count=13333 9531 6562 5478 5265 2883 3802 2969 873 1084 2424 1317 549 3547 213 612 1448 1410 2096 472 256 235 2382 285 255 208 137 2099 170 1318
shrinkage=0.1


Tree=10
num_leaves=31
num_cat=0
split_feature=12 7 6 18 19 14 16 11 18 9 7 7 5 11 11 7 11 6 16 11 1 16 16 7 19 16 0 19 16 8
split_gain=641.213 143.478 222.052 53.325 40.2962 197.929 38.6761 28.6907 56.3362 27.7532 27.2573 60.2342 24.467 22.592 19.989 16.9942 14.2835 13.5783 12.4575 11.9817 10.6664 10.8531 9.55282 9.52482 9.15062 12.1263 8.80698 12.4466 8.5274 8.13343
threshold=0.00021591731766778272 0.010155956346450503 1.0000000180025095e-35 1.0000000180025095e-35 1.0000000180025095e-35 1.0000000180025095e-35 3495503.5000000005 0.35505897764058952 1.0000000180025095e-35 0.20106750000000004 1.0000000180025095e-35 0.0099630000000000014 4.5000000000000009 0.00020000000039950005 0.0010000473867540001 0.10002034888515952 0.7465034300808987 0.099780000000000021 1098430.0000000002 13.545218685622208 1.5000000000000002 3231308.5000000005 12337228.500000002 69.782803486870321 1.0000000180025095e-35 313.50000000000006 7.5000000000000009 1.5000000000000002 743489.00000000012 -0.089598333426289492
decision_type=2 2 2 2 2 2 2 2 2 2 2 2 2 2 2 2 2 2 2 2 2 2 2 2 2 2 2 2 2 2
left_child=1 2 3 4 20 -6 12 8 15 17 -7 13 16 -12 -5 29 -2 -4 -18 -9 -1 28 26 -14 25 -19 27 -8 -22 -3
right_child=6 7 9 14 5 10 22 19 -10 -11 11 -13 23 -15 -16 -17 18 24 -20 -21 21 -23 -24 -25 -26 -27 -28 -29 -30 -31
leaf_value=-0.11155956269127679 0.080715795865829665 -0.085630954804981896 0.023191215998547111 -0.057485839934320306 0.078135268260895008 -0.12210218358282721 0.096700226489168276 -0.015133383382013144 0.087671218350233296 -0.0059940941400453418 -0.074598675911097825 -0.12001610294468418 0.11211984889330218 0.016401583715406755 0.089408955751311553 0.026414700715812447 0.040255984442961794 -0.073256928141676711 -0.11271707943681722 -0.088601427209942907 -0.076025666330916411 -0.12417363859474267 -0.07439923172970668 -0.0025369237802792093 0.12379688739984973 0.0791402802476531 0.074860902135008248 -0.054939868067724509 0.027215565406816151 -0.012040413467258848
leaf_count=2097 1195 68 205 71 459 1107 33 905 535 403 246 768 2063 303 142 619 228 27 25 110 99 115 49 36 248 201 90 83 71 732
internal_value=0 -0.310355 -0.530136 -0.752875 -0.805763 -0.613274 0.8388 0.0511924 0.202259 0.357596 -0.909304 -0.688197 0.914356 -0.179678 0.370231 0.0134594 0.691335 0.652684 0.236754 -0.227018 -1.04993 -0.620134 0.0680754 1.09573 0.897196 0.5755 0.266461 -0.116842 -0.271558 -0.182659
internal_count=13333 9531 6562 5478 5265 2883 3802 2969 1954 1084 2424 1317 3547 549 213 1419 1448 681 253 1015 2382 285 255 2099 476 228 206 116 170 800
shrinkage=0.1


Tree=11
num_leaves=31
num_cat=0
split_feature=12 7 6 18 19 14 16 7 8 9 19 11 5 11 12 19 16 6 11 0 9 1 16 16 8 8 11 12 0 18
split_gain=547.621 125.724 193.572 46.6057 36.3457 171.939 34.8796 26.7174 56.4079 25.4184 24.6691 40.6557 24.2264 21.041 18.3741 13.1455 18.0109 12.9173 12.7937 11.82 10.5569 10.2954 10.1479 10.1134 9.70287 21.4155 9.31305 8.68708 8.35234 11.6881
threshold=0.00021591731766778272 0.010155956346450503 4.500000000000001e-06 1.0000000180025095e-35 1.0000000180025095e-35 1.0000000180025095e-35 3495503.5000000005 1.0000000180025095e-35 -0.0094130045554984988 1.0050000000000001 1.0000000180025095e-35 0.37313904439460055 4.5000000000000009 0.00020000000039950005 2.4794887531166467e-17 1.0000000180025095e-35 10580.000000000002 0.099780000000000021 0.7465034300808987 2.5000000000000004 0.010590277777777645 1.5000000000000002 1341019.0000000002 3231308.5000000005 -0.0050526571525414997 -0.0047797227974024992 4.003546703721601 0.4915690494604345 4.5000000000000009 1.5000000000000002
decision_type=2 2 2 2 2 2 2 2 2 2 2 2 2 2 2 2 2 2 2 2 2 2 2 2 2 2 2 2 2 2
left_child=1 2 3 4 21 -6 12 -7 -9 15 11 -3 18 -10 -5 16 20 -17 -2 -12 -4 -1 27 -23 -15 -26 -14 -20 29 -8
right_child=6 10 9 14 5 7 28 8 13 -11 19 -13 26 24 -16 17 -18 -19 22 -21 -22 23 -24 -25 25 -27 -28 -29 -30 -31
leaf_value=-0.10803700472049348 0.076031930018229943 0.082785919875984756 0.069311152264784834 0.063099573527468714 0.073736235291328819 -0.11956170158736797 -0.078406550127404467 -0.11531448985220139 -0.069554342786647502 -0.032940534308575825 -0.0082823579104827107 -0.0152829887707586 0.1088119400619052 0.084360181143452825 -0.13071352948638679 -0.058013916866310716 0.064310976325482799 0.112488669654722 -0.072217722337216114 0.11783663172735433 -0.038922216309407065 -0.024985744345166427 -0.11272316148202155 -0.12135314088731022 -0.18403195502584693 0.021379121756223429 0.0011210295564685741 0.051776545385999087 0.037262185503212204 0.087279177003467073
leaf_count=2100 1195 528 50 183 460 1107 79 786 246 196 2058 345 2060 74 30 20 382 271 27 38 161 170 21 115 24 187 39 205 151 25
internal_value=0 -0.290611 -0.504446 -0.72141 -0.772956 -0.585411 0.796052 -0.872079 -0.650489 0.331968 0.046748 0.376144 0.871263 -0.143121 0.346115 0.506898 0.336207 0.950146 0.646854 -0.0640202 -0.13163 -1.01282 0.215751 -0.582951 0.202907 -0.0208556 1.05961 0.354409 0.0621615 -0.395838
internal_count=13333 9531 6562 5482 5269 2884 3802 2424 1317 1080 2969 873 3547 531 213 884 593 291 1448 2096 211 2385 253 285 285 211 2099 232 255 104
shrinkage=0.1


Tree=12
num_leaves=31
num_cat=0
split_feature=12 7 6 18 16 19 14 7 7 5 11 18 9 11 11 16 7 19 16 16 1 7 11 8 16 16 11 18 11 11
split_gain=467.666 109.665 169.694 46.063 31.6023 31.1325 149.827 24.5531 49.6828 24.4276 22.9192 41.0215 21.2991 15.7657 13.9517 12.9538 14.5304 10.8613 16.9594 15.7161 10.1637 10.1315 11.3665 10.1759 9.51088 8.96594 8.42584 7.83853 9.00564 7.81605
threshold=4.3167097378767927e-05 0.010155956346450503 1.0000000180025095e-35 1.0000000180025095e-35 3495503.5000000005 1.0000000180025095e-35 1.0000000180025095e-35 1.0000000180025095e-35 0.0099630000000000014 5.5000000000000009 1.6353658883642275 1.0000000180025095e-35 1.5925905459409579 0.00020000000039950005 4.8953590751500009e-05 2773.5000000000005 23.720823841240314 1.0000000180025095e-35 64891.500000000007 9348.5000000000018 1.5000000000000002 0.031569295444053007 0.039561143872592248 -0.029969597742620497 3231308.5000000005 4470116.5000000009 0.37313904439460055 1.0000000180025095e-35 0.0019979178435820008 0.26283806868628218
decision_type=2 2 2 2 2 2 2 2 2 2 2 2 2 2 2 2 2 2 2 2 2 2 2 2 2 2 2 2 2 2
left_child=1 2 3 5 9 20 -7 -8 13 15 11 21 17 -9 -5 -2 27 19 -19 -4 -1 23 -23 -3 -22 -21 -13 -17 -29 -6
right_child=4 10 12 14 29 6 7 8 -10 -11 -12 26 -14 -15 -16 16 -18 18 -20 25 24 22 -24 -25 -26 -27 -28 28 -30 -31
leaf_value=-0.10491256013193556 -0.012716593548829286 -0.13291235967568701 -0.012140855560558635 -0.11234438488944294 0.028623655167356252 0.069035568730320879 -0.11735727329094725 -0.067171104927738118 -0.11483719025585931 0.10447935604168 -0.038486598087083428 0.079796594714060962 -0.037260938552590765 0.011264609049404361 0.065996658584203699 0.054527304972328078 -0.051569450415474373 0.10570660116493627 -0.098222391467228443 0.068803753519177141 -0.022750900960909343 0.078253966353746096 0.0010664358961197371 -0.020964688836360164 -0.11891480004777147 -0.054935626103887428 0.019983768423452959 -0.047713739122439952 0.09460013652060173 -0.051818222997969537
leaf_count=2097 102 37 224 28 181 459 1107 242 768 1901 464 536 163 296 175 722 43 277 20 371 170 82 1370 328 115 29 141 27 783 75
internal_value=0 -0.27362 -0.481804 -0.695623 0.750538 -0.748248 -0.569524 -0.848589 -0.632028 0.825035 0.0402641 0.120821 0.304742 -0.172432 0.407682 0.622442 0.682974 0.450544 0.861943 0.301779 -0.97829 -0.0200615 0.0545495 -0.32712 -0.544909 0.586716 0.638358 0.728864 0.896683 0.051881
internal_count=13333 9499 6541 5457 3834 5254 2872 2413 1306 3578 2958 2494 1084 538 203 1677 1575 921 297 624 2382 1817 1452 365 285 400 677 1532 810 256
shrinkage=0.1


Tree=13
num_leaves=31
num_cat=0
split_feature=12 8 6 18 19 14 16 7 11 5 11 18 9 12 6 11 18 7 1 11 7 8 7 8 16 16 11 16 10 7
split_gain=399.193 97.1351 144.236 43.4357 30.3079 125.654 28.4844 27.7267 43.0137 23.7451 20.1954 29.8524 18.2163 16.7757 14.6322 13.6463 12.0689 10.6539 10.1754 9.59066 9.34659 8.74803 8.68837 8.90503 8.61597 10.8477 8.53052 8.5136 11.5561 8.3816
threshold=0.00021591731766778272 -0.012503284828742999 1.0000000180025095e-35 1.0000000180025095e-35 1.0000000180025095e-35 1.0000000180025095e-35 3495503.5000000005 1.0000000180025095e-35 0.0099971718013497687 4.5000000000000009 0.35505897764058952 1.0000000180025095e-35 0.10001301113064502 2.4794887531166467e-17 0.099780000000000021 0.00020000000039950005 1.0000000180025095e-35 0.10002034888515952 3.5000000000000004 13.545218685622208 69.782803486870321 -24.698083050847448 0.010000000005000001 -0.010999499999999999 3231308.5000000005 743489.00000000012 0.7465034300808987 2591909.0000000005 0.18505127888048331 0.00019950000000000005
decision_type=2 2 2 2 2 2 2 2 2 2 2 2 2 2 2 2 2 2 2 2 2 2 2 2 2 2 2 2 2 2
left_child=1 10 3 4 18 -6 9 -7 15 16 11 17 14 -5 -4 29 26 -1 -3 -12 -11 -18 -10 -24 25 -20 -2 28 -14 -9
right_child=6 2 12 13 5 7 -8 8 22 20 19 -13 27 -15 -16 -17 21 -19 24 -21 -22 -23 23 -25 -26 -27 -28 -29 -30 -31
leaf_value=-0.011995028483218512 0.048643657853513649 -0.099668160066738232 0.016237647524219991 0.061359044461382233 0.064825202378593835 -0.11543526522615435 0.0051627896819350545 -0.026841753765254928 -0.11573162542562475 0.10247009755126513 -0.011657074393495174 0.073048450310187016 -0.024260562715875841 -0.12424400203557416 0.091089577697245988 0.012703807571161369 -0.048371952929268242 0.024309900863200729 -0.096743693384701207 -0.078795786309006313 -0.014480522287143947 0.085089178965978146 -0.086458297110005342 0.052228730693652706 -0.11718867323916943 0.076075442201266469 -0.014398104791982492 -0.088197310296995624 0.04562217172280647 -0.12334076355751428
leaf_count=710 593 2245 205 205 459 1107 255 163 743 2063 905 511 222 32 407 304 22 619 33 110 36 703 75 39 62 42 130 44 206 83
internal_value=0 -0.254321 -0.451644 -0.651428 -0.707184 -0.533387 0.716386 -0.784368 -0.569927 0.7912 0.0481475 0.183914 0.281355 0.355099 0.574954 -0.132898 0.564305 0.0490629 -0.944976 -0.183352 0.994487 0.793027 -1.0148 -0.458733 -0.309466 0.119328 0.347403 -0.0127582 0.0801825 -0.603302
internal_count=13333 9531 6676 5592 5355 2973 3802 2514 1407 3547 2855 1840 1084 237 612 550 1448 1329 2382 1015 2099 725 857 114 137 75 723 472 428 246
shrinkage=0.1


Tree=14
num_leaves=31
num_cat=0
split_feature=12 7 6 18 18 19 14 7 7 16 11 9 11 18 11 16 11 11 7 1 11 0 16 16 19 16 16 19 16 12
split_gain=340.861 84.8181 129.662 34.836 27.0769 25.1381 112.344 23.7602 43.5919 21.1871 19.9771 16.3043 16.1881 30.4816 12.2342 11.4026 11.2481 10.8291 13.4578 9.91545 9.80526 9.25134 11.7923 10.6663 9.11264 14.4038 12.1929 9.08506 8.69823 8.60644
threshold=4.3167097378767927e-05 0.010155956346450503 1.0000000180025095e-35 1.0000000180025095e-35 3.5000000000000004 1.0000000180025095e-35 1.0000000180025095e-35 1.0000000180025095e-35 0.0099630000000000014 5725499.5000000009 0.7465034300808987 1.5925905459409579 1.6353658883642275 1.0000000180025095e-35 0.005169486417508049 932018.00000000012 0.0010000473867540001 0.00462823216656619 0.00096804360349850012 1.5000000000000002 0.00050797585160975009 1.5000000000000002 1251306.5000000002 7906.0000000000009 1.0000000180025095e-35 64891.500000000007 10580.000000000002 1.0000000180025095e-35 3231308.5000000005 0.4915690494604345
decision_type=2 2 2 2 2 2 2 2 2 2 2 2 2 2 2 2 2 2 2 2 2 2 2 2 2 2 2 2 2 2
left_child=1 2 3 5 9 19 -7 -8 14 10 20 24 13 -3 17 29 -5 18 -9 -1 -2 22 -22 -23 26 -26 -4 -24 -21 -12
right_child=4 12 11 16 -6 6 7 8 -10 -11 15 -13 -14 -15 -16 -17 -18 -19 -20 28 21 23 27 -25 25 -27 -28 -29 -30 -31
leaf_value=-0.099110674105836169 -0.094348602818880287 -0.0016446125021940775 -0.010912350681125643 -0.041955462749294195 0.1055291872046982 0.06080442544291912 -0.11375249212754085 -0.046002822603455472 -0.11079500071972835 -0.027452647583214664 -0.073449012523792823 -0.033467564030097027 -0.032692707754698916 0.056664405369372367 0.060952853274870704 -0.062857547845596884 0.077915490147610428 -0.13696593797167911 0.04137926163931905 -0.017158344587741858 0.061515547668169468 -0.041577414859320427 0.098204562498003925 0.088848785650166323 0.099098628509340647 -0.089769020130893315 0.052118950422136594 -0.08982619510013766 -0.11505387273767108 0.049441346959751262
leaf_count=2097 20 1817 227 64 1120 459 1107 318 768 128 28 163 464 677 76 80 139 35 109 170 533 39 22 1565 277 20 397 59 115 240
internal_value=0 -0.239666 -0.437281 -0.641644 0.67405 -0.691703 -0.522908 -0.783718 -0.566736 0.545383 0.607996 0.259431 0.0340371 0.102245 -0.146893 0.116693 0.346691 -0.296599 -0.184701 -0.913923 0.714044 0.732803 0.477725 0.849114 0.392305 0.791409 0.25703 -0.400918 -0.469877 0.341462
internal_count=13333 9499 6541 5457 3834 5254 2872 2413 1306 2714 2586 1084 2958 2494 538 348 203 462 427 2382 2238 2218 614 1604 921 297 624 81 285 268
shrinkage=0.1


Tree=15
num_leaves=31
num_cat=0
split_feature=12 7 6 18 18 19 14 7 8 11 16 9 16 11 18 8 6 11 16 16 11 8 11 7 0 19 8 11 16 12
split_gain=290.347 74.2898 113.3 30.4241 25.7773 22.7662 97.8376 23.4662 41.034 18.4866 22.5068 13.905 13.7796 13.3277 27.7083 13.1803 12.3463 11.1232 10.5486 9.89968 9.88528 9.28954 12.8129 9.03353 8.11544 8.36691 8.58059 7.89662 7.79272 9.21826
threshold=4.3167097378767927e-05 0.010155956346450503 4.500000000000001e-06 1.0000000180025095e-35 3.5000000000000004 1.0000000180025095e-35 1.0000000180025095e-35 1.0000000180025095e-35 -0.0094130045554984988 0.26283806868628218 2471482.0000000005 0.10001301113064502 5419733.5000000009 0.35505897764058952 1.0000000180025095e-35 -0.0050526571525414997 0.099780000000000021 0.10002034888515952 1791.5000000000002 3124237.0000000005 4.8953590751500009e-05 -0.0047797227974024992 0.0010000473867540001 0.022465726133921504 1.5000000000000002 1.5000000000000002 -0.065501977274017492 0.090462905548239422 7906.0000000000009 2.0909265012440073
decision_type=2 2 2 2 2 2 2 2 2 2 2 2 2 2 2 2 2 2 2 2 2 2 2 2 2 2 2 2 2 2
left_child=1 2 3 5 9 18 -7 -8 -9 12 28 16 23 14 17 -10 -4 27 -1 -20 -5 -17 -23 -2 25 -25 -27 -3 29 -11
right_child=4 13 11 20 -6 6 7 8 15 10 -12 -13 -14 -15 -16 21 -18 -19 19 -21 -22 22 -24 24 -26 26 -28 -29 -30 -31
leaf_value=-0.098868731342072275 0.030407274196446211 -0.0083301661026282236 0.013292619605708881 -0.10453679628889601 0.1025204332005883 0.057242248662532996 -0.11227380486527574 -0.10644894508229508 0.070530185776856477 -0.094805583789160722 -0.084414527974443612 -0.0014305025825525894 -0.0073070792575672984 -0.015951417579412385 0.068006214226471559 -0.14734069332921418 0.084449891774841718 0.022163663909256396 -0.025514388828142793 -0.11370318754736625 0.054395332249156873 -0.042827742175583619 0.046810815944916241 0.087606324664946542 0.092565297320174295 -0.022214603209930583 0.092756922596759106 -0.083330519474079129 0.048544992663300063 0.063677113559016493
leaf_count=1916 287 740 201 28 1120 460 1107 786 72 45 90 472 103 1015 532 24 407 606 298 171 175 330 94 199 1240 132 59 65 529 30
internal_value=0 -0.223654 -0.415717 -0.614898 0.637815 -0.663666 -0.498935 -0.752354 -0.534951 0.511533 0.17756 0.24114 0.650828 0.0309399 0.138057 -0.112973 0.511291 0.0157925 -0.882451 -0.516489 0.323942 -0.270585 -0.180458 0.718708 0.803685 0.490973 0.127054 -0.142598 0.365903 -0.294163
internal_count=13333 9499 6541 5461 3834 5258 2873 2413 1306 2714 694 1080 2020 2958 1943 520 608 1411 2385 469 203 448 424 1917 1630 390 191 805 604 75
shrinkage=0.1


Tree=16
num_leaves=31
num_cat=0
split_feature=12 7 6 18 18 19 14 7 7 11 16 9 11 19 8 16 16 11 11 16 0 16 16 0 16 16 0 7 11 19
split_gain=247.232 64.776 99.8708 28.4864 23.8898 19.4234 85.5119 21.7713 39.2801 16.6428 15.467 12.5406 12.1911 15.906 12.6787 10.8865 9.85865 9.69482 9.22232 9.14814 8.56936 10.0648 9.53563 8.51681 8.38707 8.13319 8.12319 7.61998 14.0227 7.58041
threshold=1.716833306181985e-06 0.010000000005000001 1.0000000180025095e-35 1.0000000180025095e-35 3.5000000000000004 1.0000000180025095e-35 1.0000000180025095e-35 1.0000000180025095e-35 0.0099630000000000014 0.7465034300808987 5419733.5000000009 1.5925905459409579 13.545218685622208 1.0000000180025095e-35 -0.39858553436744398 932018.00000000012 1791.5000000000002 0.00050797585160975009 0.00020000000039950005 3124237.0000000005 1.5000000000000002 1251306.5000000002 7906.0000000000009 2.5000000000000004 53802.500000000007 3948246.5000000005 7.5000000000000009 0.00019950000000000005 2.1690708080000005e-06 1.0000000180025095e-35
decision_type=2 2 2 2 2 2 2 2 2 2 2 2 2 2 2 2 2 2 2 2 2 2 2 2 2 2 2 2 2 2
left_child=1 2 3 5 9 16 -7 -8 18 10 17 29 13 14 -3 -11 -1 -2 27 -18 21 -19 -22 -15 -6 -26 -12 28 -9 -4
right_child=4 12 11 -5 24 6 7 8 -10 15 26 -13 -14 23 -16 -17 19 20 -20 -21 22 -23 -24 -25 25 -27 -28 -29 -30 -31
leaf_value=-0.096059931969499079 -0.071791263674646971 0.0022520721513130536 0.021837475674726336 0.035212555533840742 -0.069302608961499923 0.053258985515535345 -0.11097032110976042 -0.07851989194413346 -0.111276242027169 0.028443069360421194 -0.062860475549561451 -0.030154019665782544 -0.069780262164541293 -0.0046231561299832418 0.062946677830075168 -0.059282679897353675 -0.024519635307622946 0.055561449304085714 0.0080232553232711633 -0.11223110451829946 -0.039584209055745084 -0.03870209257620616 0.083452956700209802 0.12534655810251641 0.10999402861523666 0.004571111235174845 0.045732880515345881 -0.12133639177469971 0.083362482074482047 0.072525583689309808
leaf_count=1914 28 280 624 193 21 459 1107 122 743 268 65 163 110 2031 533 99 297 535 294 171 39 81 1557 28 1067 35 55 80 37 297
internal_value=0 -0.209397 -0.396554 -0.594575 0.600697 -0.643124 -0.485599 -0.735347 -0.519984 0.479112 0.577012 0.219165 0.0259823 0.0518436 0.350947 0.0382862 -0.852272 0.645808 -0.133428 -0.49295 0.670512 0.421475 0.792253 -0.0327241 0.988626 1.02989 -0.135449 -0.549422 -0.223455 0.339989
internal_count=13333 9483 6501 5417 3850 5224 2842 2383 1276 2727 2360 1084 2982 2872 813 367 2382 2240 533 468 2212 616 1596 2059 1123 1102 120 239 159 921
shrinkage=0.1


Tree=17
num_leaves=31
num_cat=0
split_feature=12 11 6 18 18 19 14 7 11 11 16 11 7 11 9 11 16 16 11 11 16 18 11 0 19 6 19 11 11 10
split_gain=210.373 56.7804 82.596 38.1868 22.9189 18.9919 71.6973 24.2162 26.89 15.0855 16.8293 12.2578 17.3928 12.872 10.7438 10.6935 10.2779 10.2593 9.20835 9.17865 8.95743 8.94756 8.77539 9.69335 9.97836 8.32174 8.35022 8.22608 9.24654 7.94733
threshold=1.716833306181985e-06 0.015002045209690418 4.500000000000001e-06 1.0000000180025095e-35 3.5000000000000004 1.0000000180025095e-35 1.0000000180025095e-35 1.0000000180025095e-35 0.0099971718013497687 0.26283806868628218 2471482.0000000005 0.01882211553945233 0.020004136520521503 0.28634439839821174 0.20106750000000004 0.010000000005000001 1791.5000000000002 5419733.5000000009 0.005169486417508049 0.0010000473867540001 3124237.0000000005 1.0000000180025095e-35 0.0030112135593217504 1.5000000000000002 1.5000000000000002 0.099780000000000021 1.0000000180025095e-35 0.00462823216656619 0.0010000473867540001 0.010907786242077158
decision_type=2 2 2 2 2 2 2 2 2 2 2 2 2 2 2 2 2 2 2 2 2 2 2 2 2 2 2 2 2 2
left_child=1 2 3 5 9 16 -7 -8 18 17 -11 -3 -13 21 25 -10 -1 22 27 -5 -18 -14 -2 24 -24 -4 29 28 -9 -27
right_child=4 11 14 19 -6 6 7 8 15 10 -12 12 13 -15 -16 -17 20 -19 -20 -21 -22 -23 23 -25 -26 26 -28 -29 -30 -31
leaf_value=-0.093812468742158317 0.0084971035101689841 0.097291650281145725 0.0093541963473436907 -0.035294400660668697 0.096436058743541178 0.050031959098269789 -0.10981805894951902 -0.03645141830762369 -0.10908098169136214 0.031065082208840179 -0.074750281252186843 -0.11651923245923899 0.0098640732121462269 -0.012564976040835871 -0.005255062789879264 -0.039610572036412994 -0.021195075336676177 -0.0039717696371766786 0.054282191178774912 0.075084766236052924 -0.1109331822569595 0.053968182029035229 0.082112360345257193 0.086351081317919992 0.0065001306635751798 -0.060998918568489359 0.10960058581968812 -0.11527604640199832 0.040703141167791647 0.058055865880799841
leaf_count=1916 175 69 201 55 1123 460 1107 330 752 604 90 51 1090 1116 403 166 298 104 77 194 171 420 238 1270 246 33 248 37 94 195
internal_value=0 -0.194921 -0.365109 -0.541315 0.567846 -0.602993 -0.456576 -0.667435 -0.47436 0.448437 0.142536 0.0385416 0.0167688 0.0417603 0.202009 -0.850003 -0.821606 0.580995 -0.118324 0.440489 -0.450969 0.175106 0.644675 0.711279 0.408597 0.417415 0.659523 -0.253254 -0.146577 0.344512
internal_count=13333 9483 6737 5657 3850 5408 3023 2563 1456 2727 694 2746 2677 2626 1080 918 2385 2033 538 249 469 1510 1929 1754 484 677 476 461 424 228
shrinkage=0.1


Tree=18
num_leaves=31
num_cat=0
split_feature=12 8 6 18 5 19 14 7 8 16 16 16 7 11 1 9 19 11 11 16 8 12 19 7 8 11 16 10 9 0
split_gain=178.42 49.4218 73.8397 27.7023 22.0934 16.5131 62.2051 22.8397 26.9175 16.4456 11.1532 10.153 10.3102 10.0398 9.94703 9.4283 9.41434 9.24072 8.35947 8.63433 8.27018 7.79884 7.7594 7.63456 9.09984 7.5444 7.27447 7.1613 8.80458 7.07712
threshold=1.716833306181985e-06 -0.012503284828742999 1.0000000180025095e-35 1.0000000180025095e-35 5.5000000000000009 1.0000000180025095e-35 1.0000000180025095e-35 1.0000000180025095e-35 -0.0094130045554984988 2194076.0000000005 3495503.5000000005 2773.5000000000005 23.720823841240314 13.545218685622208 1.5000000000000002 1.5925905459409579 1.0000000180025095e-35 0.005169486417508049 4.003546703721601 25858.500000000004 -0.39858553436744398 0.020915932939776279 6.5000000000000009 0.010000000005000001 -0.010999499999999999 0.0010000473867540001 3231308.5000000005 2.4420207498828455 5.5587500000000007 2.5000000000000004
decision_type=2 2 2 2 2 2 2 2 2 2 2 2 2 2 2 2 2 2 2 2 2 2 2 2 2 2 2 2 2 2
left_child=1 13 3 5 9 14 -7 -8 23 11 18 -2 -13 16 -3 -4 20 -10 19 -6 -1 -12 -23 -9 -25 -5 -16 -17 -29 -18
right_child=4 2 15 25 10 6 7 8 17 -11 21 12 -14 -15 26 27 29 -19 -20 -21 -22 22 -24 24 -26 -27 -28 28 -30 -31
leaf_value=0.0032708051992396182 -0.023996028019544938 -0.088732064194724361 0.029156206392481 -0.031951288835079632 -0.053307316338524063 0.046349917507183404 -0.10879695034536688 -0.10521202429400317 -0.021839788153780602 -0.030922352719257102 0.097040012449774352 0.055216382228343013 -0.058357774394053263 -0.063952360020494786 -0.006994481011381554 -0.06280509887919071 -0.0025447222265682526 0.067122939988114361 -0.037043240164773547 0.095037456573762308 0.053667922800465034 0.077151124927577489 -0.046805911427625968 -0.07727149695510635 0.06801146229548713 0.071840206570281978 -0.10958246590232618 0.12237636829096575 -0.034527230544412917 0.11990080249771846
leaf_count=280 102 2097 921 55 30 459 1107 761 453 183 52 1469 38 110 170 100 1915 62 28 1845 512 34 69 75 39 161 115 25 38 28
internal_value=0 -0.181219 -0.350333 -0.529802 0.534947 -0.582736 -0.438117 -0.652143 -0.450983 0.337426 0.776 0.437144 0.505005 0.029066 -0.792331 0.18381 0.0533071 -0.0929897 0.877134 0.915342 0.290979 0.24829 -0.0730516 -0.872816 -0.352464 0.377899 -0.321533 -0.267878 0.265014 -0.0129554
internal_count=13333 9483 6638 5554 3850 5338 2956 2497 1390 1792 2058 1609 1507 2845 2382 1084 2735 515 1903 1875 792 155 103 875 114 216 285 163 63 1943
shrinkage=0.1


Tree=19
num_leaves=31
num_cat=0
split_feature=12 7 6 18 11 11 5 16 16 19 14 11 16 11 7 11 11 18 16 9 6 11 19 16 10 19 11 11 19 1
split_gain=151.763 43.6901 65.4 24.1586 15.8141 47.9186 14.7427 17.2189 11.0542 10.9481 68.0412 10.0079 9.84741 9.30527 18.1581 9.02686 8.85373 13.7109 8.45357 8.36829 10.4288 7.61595 7.45846 7.34281 8.14304 7.26395 7.09675 9.26555 6.49369 6.07604
threshold=0.00030366690730603663 0.010155956346450503 4.500000000000001e-06 1.5000000000000002 0.0099971718013497687 0.00020000000039950005 5.5000000000000009 1251306.5000000002 4287423.5000000009 1.0000000180025095e-35 1.0000000180025095e-35 0.23787573985745633 4284.5000000000009 2.1690708080000005e-06 0.00019950000000000005 6.3568931163626212 1.6353658883642275 1.0000000180025095e-35 3124237.0000000005 0.10001301113064502 0.099780000000000021 4.003546703721601 5.5000000000000009 2591909.0000000005 0.18505127888048331 1.0000000180025095e-35 0.013502375517934239 0.0058949408563749644 1.0000000180025095e-35 1.0000000180025095e-35
decision_type=2 2 2 2 2 2 2 2 2 2 2 2 2 2 2 2 2 2 2 2 2 2 2 2 2 2 2 2 2 2
left_child=1 2 4 6 5 9 7 -2 15 12 -11 26 -1 -12 -15 -5 17 -3 -14 20 -4 -8 -10 24 25 -21 27 -9 -22 -26
right_child=3 16 19 8 -6 -7 21 11 22 10 13 -13 18 14 -16 -17 -18 -19 -20 23 28 -23 -24 -25 29 -27 -28 -29 -30 -31
leaf_value=-0.08839171737698949 0.031636435843414627 2.8200063705117727e-05 0.0055838553924873642 0.092063505183166194 -0.10180668115962435 0.018252703126668181 0.067852318558975319 0.016601933997628219 0.049590755212936363 0.043451447625414835 -0.10256200907705018 -0.12137935306352204 -0.014870913912421083 0.070084467879354059 -0.11425433225455167 -0.011554763623067205 -0.024664911609728425 0.041323494966783308 -0.10883840096672681 -0.037519112757885713 0.034192220957023144 -0.07095390686560632 -0.1142471871250208 -0.083846816940090857 -0.069042582473940906 0.066515096539827845 0.024954657116242222 -0.18603210732064254 0.11139910189979818 0.05218614135180441
leaf_count=1950 866 1828 201 1643 773 483 930 26 33 460 1238 64 284 46 87 42 464 683 171 187 160 21 20 44 20 35 115 26 247 186
internal_value=0 -0.165937 -0.333769 0.512402 -0.512904 -0.454421 0.317865 0.129712 0.79793 -0.611237 -0.423491 -0.448428 -0.762713 -0.884805 -0.293715 0.864674 0.0248214 0.0758839 -0.381388 0.16914 0.394128 0.620764 -0.14178 -0.0259346 0.0625563 -0.209518 -0.112656 -0.836512 0.742293 0.387548
internal_count=13333 9547 6572 3786 5492 4719 2048 1097 1738 4236 1831 231 2405 1371 133 1685 2975 2511 455 1080 608 951 53 472 428 222 167 52 407 206
shrinkage=0.1


Tree=20
num_leaves=31
num_cat=0
split_feature=0 7 6 18 7 7 8 14 19 16 11 11 18 1 12 7 11 19 1 16 19 16 16 10 16 12 9 7 9 9
split_gain=130.828 42.3335 55.4785 22.3455 16.3301 14.0965 25.8679 16.2323 58.6581 13.8104 11.0823 11.0247 20.8339 10.0545 9.31385 8.73344 9.12306 8.65393 7.5547 8.69405 9.18178 13.766 8.13442 7.91751 7.42964 9.10966 7.33119 6.15314 5.8497 5.71261
threshold=1.5000000000000002 0.010000000005000001 1.0000000180025095e-35 1.0000000180025095e-35 0.0044965307563605006 0.0099630000000000014 -2.9299999999999995e-06 1.0000000180025095e-35 1.0000000180025095e-35 3495503.5000000005 0.51752282757500023 1.6353658883642275 1.0000000180025095e-35 3.5000000000000004 0.020557954821811986 0.00011263971151600001 0.00020000000039950005 1.5000000000000002 5.5000000000000009 2591909.0000000005 1.0000000180025095e-35 64891.500000000007 10580.000000000002 0.025083057392117924 38300.500000000007 0.012666950331261707 0.010590277777777645 0.00039967456029550003 0.0081500000000000027 0.099967908041988449
decision_type=2 2 2 2 2 2 2 2 2 2 2 2 2 2 2 2 2 2 2 2 2 2 2 2 2 2 2 2 2 2
left_child=1 2 3 5 -2 6 15 8 13 10 24 12 -3 -8 -11 -1 -17 -16 19 20 22 29 26 -24 25 -6 28 -18 -4 -22
right_child=4 11 18 -5 9 -7 7 -9 -10 14 -12 -13 -14 -15 17 16 27 -19 -20 -21 21 -23 23 -25 -26 -27 -28 -29 -30 -31
leaf_value=0.1084698151846677 -0.071707361508514922 -0.00072846238281672475 -0.0099138407733370473 0.034042451167456536 -0.1318503890297312 -0.1052567181197831 -0.081745362480073247 -0.099501624241394124 0.040050448890232154 0.077876135928889312 0.027922962714484807 -0.024476804408623268 0.044002913191758808 -0.0049606052051617486 0.11106555316481925 -0.091829173552848226 0.11062296523165197 -0.038810984364243004 0.062720028300715283 -0.087931264513228857 -0.029831264223359601 -0.096679978910230349 -0.042785488530472364 0.055573393315756781 0.08498240136898029 0.056840564111512143 -0.038807283626032418 -0.0039382389720173921 0.13318388217681981 0.094580121473035877
leaf_count=32 60 2134 31 216 21 745 2242 1221 459 75 361 556 970 137 22 92 21 126 181 41 20 24 52 189 2370 85 246 304 21 279
internal_value=0 -0.13177 -0.309378 -0.48236 0.574754 -0.536273 -0.478521 -0.606208 -0.481709 0.61413 0.703032 0.0352276 0.0887537 -0.743478 0.115505 -0.00207079 -0.091492 -0.182377 0.154306 0.0692977 0.126834 0.549597 -0.0177792 0.315251 0.801933 0.0782608 -0.236049 0.0413921 0.477324 0.786754
internal_count=13333 10213 6553 5469 3120 5253 4508 4059 2838 3060 2837 3660 3104 2379 223 449 417 148 1084 903 862 323 539 241 2476 106 298 325 52 299
shrinkage=0.1


Tree=21
num_leaves=31
num_cat=0
split_feature=0 7 6 18 7 7 11 14 19 16 16 11 11 18 7 16 16 12 16 6 6 9 7 11 19 16 16 16 10 9
split_gain=111.51 36.4615 48.1029 19.3365 14.1801 13.5928 23.4997 15.4851 50.9261 13.2554 10.8262 11.0767 10.1883 13.6796 10.4718 10.0129 7.79893 7.50999 7.43109 7.288 7.11351 10.7804 7.09152 7.96655 6.49892 12.142 9.90765 7.12474 7.87365 6.38077
threshold=1.5000000000000002 0.010000000005000001 1.0000000180025095e-35 1.0000000180025095e-35 0.0024065966798105004 0.0099630000000000014 2.1690708080000005e-06 1.0000000180025095e-35 1.0000000180025095e-35 4287423.5000000009 882.00000000000011 0.30931578960864836 13.545218685622208 1.0000000180025095e-35 0.23148430140326207 313.50000000000006 2194076.0000000005 0.020557954821811986 3124237.0000000005 103.83152980177213 79.99525861735809 5.332815010500001 0.00011263971151600001 0.00020000000039950005 1.0000000180025095e-35 64891.500000000007 10580.000000000002 4470116.5000000009 0.010907786242077158 0.099967908041988449
decision_type=2 2 2 2 2 2 2 2 2 2 2 2 2 2 2 2 2 2 2 2 2 2 2 2 2 2 2 2 2 2
left_child=1 2 3 5 -2 6 7 8 15 10 -6 -12 13 16 -15 -1 -3 -11 -17 20 21 24 -8 -24 26 29 -4 28 -28 -26
right_child=4 12 19 -5 9 -7 22 -9 -10 17 11 -13 -14 14 -16 18 -18 -19 -20 -21 -22 -23 23 -25 25 -27 27 -29 -30 -31
leaf_value=-0.08619678894646475 -0.092305311331208562 -0.00093617021990132854 -0.019636304812918958 0.031111663949862117 -0.080652793486051658 -0.1043200151287212 0.096965682136648981 -0.098040822048999887 0.037139099804360282 0.066937475194933177 0.081141297719194302 0.033363544533947014 -0.060796810636514959 0.059000821596315894 0.0084555003168145133 -0.015447751966564272 -0.10429853617724223 -0.024673035748186217 -0.1075179594919089 -0.11155508107219812 0.13869254146889304 -0.072907836845229987 -0.088521800063987202 0.0037103900253863502 -0.026625446814319415 -0.086642758945932541 -0.025053833710940561 -0.057261764569775365 0.063932142423729937 0.10620128374207416
leaf_count=1861 41 2352 255 216 25 745 28 1225 459 67 2322 539 125 631 514 347 38 126 171 20 21 59 92 325 20 22 60 35 329 263
internal_value=0 -0.121966 -0.291802 -0.458916 0.544509 -0.511365 -0.454346 -0.582592 -0.459199 0.57607 0.65981 0.688351 0.0319674 0.0537296 0.304047 -0.713848 -0.0235103 0.0479026 -0.347011 0.142299 0.173735 0.141127 -0.00172493 -0.0834018 0.211873 0.609272 0.11089 0.360604 0.467777 0.860022
internal_count=13333 10213 6553 5469 3120 5253 4508 4063 2838 3079 2886 2861 3660 3535 1145 2379 2390 193 518 1084 1064 1043 445 417 984 305 679 424 389 283
shrinkage=0.1


Tree=22
num_leaves=31
num_cat=0
split_feature=0 7 6 18 18 7 8 14 19 16 16 7 11 8 7 7 18 7 16 16 16 12 16 7 11 16 6 19 6 1
split_gain=94.8152 31.3867 41.4395 16.8687 13.6606 11.2864 21.2885 14.7281 44.185 10.2221 9.73509 8.81547 8.95948 8.62545 9.03227 8.54365 9.91807 9.57317 7.98967 7.54291 7.53107 7.92617 7.40316 6.36968 10.1438 6.16887 6.07304 6.79471 10.4139 10.1191
threshold=1.5000000000000002 0.010155956346450503 1.0000000180025095e-35 1.0000000180025095e-35 3.5000000000000004 0.0099630000000000014 -2.9299999999999995e-06 1.0000000180025095e-35 1.0000000180025095e-35 53802.500000000007 1791.5000000000002 0.0024065966798105004 0.26283806868628218 -0.010999499999999999 0.011000500000000002 23.720823841240314 1.0000000180025095e-35 0.36798472222222006 5419733.5000000009 3124237.0000000005 932018.00000000012 0.2378789353290697 3948246.5000000005 0.00019950000000000005 0.00020000000039950005 2471482.0000000005 3.5836960065724499 1.0000000180025095e-35 0.099780000000000021 5.5000000000000009
decision_type=2 2 2 2 2 2 2 2 2 2 2 2 2 2 2 2 2 2 2 2 2 2 2 2 2 2 2 2 2 2
left_child=1 2 3 5 11 6 23 8 10 -6 -8 -2 18 14 -3 16 25 -18 -13 -12 -14 -22 -11 -1 -25 -16 27 29 -29 -4
right_child=4 13 26 -5 9 -7 7 -9 -10 22 19 12 20 -15 15 -17 17 -19 -20 -21 21 -23 -24 24 -26 -27 -28 28 -30 -31
leaf_value=0.082254967376841917 -0.08393066011440406 -0.13479973246620347 -0.0018805835652331811 0.028762476539098348 -0.096601295724053154 -0.097333374049495158 -0.083049864274360063 -0.096512680316352462 0.03437747946127117 0.10226491148776309 -0.0094139162027987548 0.065236891593572974 0.037102938232573671 0.13881541658197519 -0.00070310452025089442 -0.066174943396792238 0.051078661796032369 0.0029973431630153781 -0.00088784859935217293 -0.10675192831680375 0.10460582039091681 -0.058493503130019081 -0.0014813672536124448 -0.11337459268186179 0.0033411666418369478 -0.097063535524847297 -0.0211400573903354 -0.064296783598078167 0.09413771304523133 0.077960712215314476
leaf_count=44 36 25 460 217 23 770 1911 1221 459 1080 297 1395 283 28 2301 92 717 437 98 171 33 137 35 80 325 34 189 21 273 141
internal_value=0 -0.112793 -0.274288 -0.434084 0.514554 -0.485044 -0.43109 -0.559216 -0.437183 0.857157 -0.684678 0.378279 0.412867 0.0296929 0.0209308 0.0300947 0.047361 0.260832 0.551689 -0.300091 0.0957938 -0.345668 0.924495 -0.000396699 -0.0879033 -0.0192211 0.131323 0.229389 0.663535 0.117991
internal_count=13333 10213 6579 5495 3120 5278 4508 4059 2838 1138 2379 1982 1946 3634 3606 3581 3489 1154 1493 468 453 170 1115 449 405 2335 1084 895 294 601
shrinkage=0.1


Tree=23
num_leaves=31
num_cat=0
split_feature=12 8 6 11 11 11 18 14 19 8 5 16 1 11 11 16 11 11 11 8 0 16 6 6 9 16 16 11 11 0
split_gain=81.011 24.2302 32.1463 17.8377 18.1318 20.2909 17.0644 14.4246 38.2894 12.6447 9.97682 10.8875 9.50605 8.5472 8.47901 8.25739 8.10149 7.38902 6.78708 6.08352 5.94104 5.91665 5.75849 5.91522 8.32063 5.74925 5.90376 5.68673 6.7213 5.66605
threshold=0.0014440802497517689 -0.021556120246398497 1.0000000180025095e-35 2.1690708080000005e-06 0.0099971718013497687 0.010000000005000001 1.5000000000000002 1.0000000180025095e-35 1.0000000180025095e-35 -0.019983090508267496 5.5000000000000009 1251306.5000000002 1.5000000000000002 0.015002045209690418 0.28634439839821174 4287423.5000000009 0.23787573985745633 6.3568931163626212 0.51752282757500023 -0.010999499999999999 2.5000000000000004 3231308.5000000005 103.83152980177213 79.99525861735809 12.500000000000002 743489.00000000012 80652.500000000015 0.0010000473867540001 0.00095810655737675013 1.0000000180025095e-35
decision_type=2 2 2 2 2 2 2 2 2 2 2 2 2 2 2 2 2 2 2 2 2 2 2 2 2 2 2 2 2 2
left_child=1 14 3 7 27 -6 10 8 12 -7 11 -2 -3 19 20 17 -13 -8 -12 -11 29 25 23 24 -4 26 -14 28 -5 -1
right_child=6 2 22 4 5 9 15 -9 -10 13 18 16 21 -15 -16 -17 -18 -19 -20 -21 -22 -23 -24 -25 -26 -27 -28 -29 -30 -31
leaf_value=0.013778723115652904 0.024655148986934244 -0.077584362390484274 0.01617163036676459 -0.0034066720711410908 -0.10613099635942097 -0.097410640526282732 0.083702520339198533 -0.094812818893047629 0.031764730676198859 -0.036555368258644493 0.066049691387632212 -0.0064628386430393972 0.033115855579764243 0.071265609550283091 -0.010340316870285714 -0.011117563197189852 -0.10935147430765475 -0.011199350644685753 -0.012680745362356863 0.069291384711858126 0.10320773886104935 -0.10599443730915006 -0.10134835899632699 0.12442974411875861 -0.10118556248196951 0.046924990593656013 -0.10614045437428105 0.026154096094872993 -0.11120306265988474 -0.10557917746780593
leaf_count=1459 814 2094 1014 293 753 63 1568 1250 459 166 804 155 46 79 1118 53 64 42 94 45 83 115 20 21 30 71 53 451 30 26
internal_value=0 -0.120821 -0.245385 -0.371216 -0.167729 -0.477817 0.419586 -0.540041 -0.415488 -0.145707 0.245899 0.0848951 -0.655691 0.0830398 0.0334312 0.695854 -0.398543 0.77039 0.529693 -0.176575 0.143419 -0.172598 0.120797 0.14925 0.118216 0.0318137 -0.463926 0.0806185 -0.159797 0.122014
internal_count=13333 9739 7053 5968 1880 1106 3594 4088 2838 353 1931 1033 2379 290 2686 1663 219 1610 898 211 1568 285 1085 1065 1044 170 99 774 323 1485
shrinkage=0.1


Tree=24
num_leaves=31
num_cat=0
split_feature=5 7 6 11 7 18 16 16 14 19 7 9 16 16 16 19 16 6 10 19 13 18 19 16 1 11 11 7 19 11
split_gain=69.6727 38.5757 20.4793 14.0813 29.2012 13.7893 12.4169 11.8249 11.3123 38.3246 10.1295 10.1152 8.61875 8.36418 9.5004 6.60249 11.8207 6.91554 6.99757 5.94672 5.66879 5.96562 6.811 5.52648 5.3281 5.58456 5.1903 5.12675 8.89265 9.57507
threshold=4.5000000000000009 0.010155956346450503 1.0000000180025095e-35 2.1690708080000005e-06 0.0099630000000000014 1.5000000000000002 3495503.5000000005 840696.50000000012 1.0000000180025095e-35 1.0000000180025095e-35 0.047302041388054009 0.0015822343749998336 6951.5000000000009 1251306.5000000002 4284.5000000000009 1.0000000180025095e-35 429.50000000000006 0.00089500000000000007 1.9498726144874634 3.5000000000000004 15.500000000000002 1.0000000180025095e-35 7.5000000000000009 1742271.0000000002 22.500000000000004 3.3185957806742166 0.23787573985745633 0.39346340845683353 1.0000000180025095e-35 0.10002034888515952
decision_type=2 2 2 2 2 2 2 2 2 2 2 2 2 2 2 2 2 2 2 2 2 2 2 2 2 2 2 2 2 2
left_child=1 2 3 8 23 13 7 10 9 -1 11 19 -7 14 27 17 -17 -4 -19 -2 21 -8 -23 -5 25 -9 -15 28 -3 -30
right_child=6 5 15 4 -6 12 20 24 -10 -11 -12 -13 -14 26 -16 16 -18 18 -20 -21 -22 22 -24 -25 -26 -27 -28 -29 29 -31
leaf_value=-0.071247178237209316 -0.062142950566743543 0.042483258715407139 0.10426933355748354 0.0095368567029285312 -0.095957949544443685 -0.082110795605387477 0.033366158961216107 0.084698733812009805 -0.093033683802005829 0.029299527139496476 0.057674574669952898 0.029162115925812523 0.063744035731348708 -0.022593270517342848 0.034994064846255613 0.06935045770746788 -0.11140042238234721 -0.022136959592837235 0.070728780444332839 -0.25134909016717055 -0.14459204014466831 0.014038351393456923 -0.14571713449038032 -0.10624943199526703 -0.048473314005127562 -0.037734066990703349 -0.11307497887521241 -0.012983856034920405 -0.0152992503078459 0.017887297901409197
leaf_count=2242 61 524 23 689 776 29 189 1739 1246 459 515 88 496 126 675 290 20 439 39 20 23 31 20 23 25 20 53 990 803 660
internal_value=0 -0.090151 -0.295118 -0.405921 -0.175419 0.0497946 0.497682 0.606807 -0.5545 -0.434108 0.248975 -0.245595 0.524687 0.0134616 0.0350774 0.0436041 0.449015 -0.0774822 -0.137093 -1.00159 0.01796 0.106058 -0.526114 0.0556607 0.777821 0.810098 -0.507763 -0.00725177 0.0593059 -0.000433656
internal_count=13333 10602 6246 5435 1488 4356 2731 2468 3947 2701 684 169 525 3831 3652 811 310 501 478 81 263 240 51 712 1784 1759 179 2977 1987 1463
shrinkage=0.1


Tree=25
num_leaves=31
num_cat=0
split_feature=0 7 6 7 11 14 19 18 16 18 16 16 16 16 18 16 11 16 16 16 16 19 6 9 6 9 10 6 16 9
split_gain=60.1162 25.1145 26.5586 12.2224 24.6329 12.6685 29.2433 11.687 9.42715 8.03684 7.17551 6.78243 7.90264 6.61441 6.55215 22.7222 5.79427 5.73098 5.64446 5.01135 5.54308 5.78556 7.94533 7.20799 6.74308 6.815 9.03316 9.39464 8.70272 5.43601
threshold=3.5000000000000004 0.010155956346450503 4.500000000000001e-06 0.0099630000000000014 2.1690708080000005e-06 1.0000000180025095e-35 1.0000000180025095e-35 1.5000000000000002 313.50000000000006 3.5000000000000004 6951.5000000000009 1251306.5000000002 4284.5000000000009 3124237.0000000005 1.0000000180025095e-35 2327129.0000000005 0.51752282757500023 3948246.5000000005 80652.500000000015 4470116.5000000009 1438839.0000000002 1.0000000180025095e-35 0.099780000000000021 6.2333333333333334 92.019429188139284 0.00072500000000000006 0.029942615366908704 2.9825000000000004 10580.000000000002 0.0050328602597088578
decision_type=2 2 2 2 2 2 2 2 2 2 2 2 2 2 2 2 2 2 2 2 2 2 2 2 2 2 2 2 2 2
left_child=1 2 3 4 5 6 8 11 -1 14 -9 12 -3 -10 16 -16 -2 18 -11 20 21 24 -23 -24 25 -4 27 29 -28 -27
right_child=9 7 19 -5 -6 -7 -8 10 13 17 -12 -13 -14 -15 15 -17 -18 -19 -20 -21 -22 22 23 -25 -26 26 28 -29 -30 -31
leaf_value=-0.077476053099937381 0.059277937700739004 -0.00065046565154025472 0.10592788538980807 -0.094234829540319892 0.005018548943725388 -0.091360124078270002 0.027408094074578056 -0.071004529624541179 -0.0059729110346413584 -0.06104936317510682 0.060008537926543717 -0.04568169376018507 0.032269305326270148 -0.10529138072598528 0.064322638506529292 -0.24368511336515192 -0.0060033586824173564 6.5416239647331857e-05 0.10023196403136508 -0.06578468899523246 0.061172296172584108 -0.073207366980049926 0.089703498908088319 -0.052470361891670939 0.1150466816194772 -0.11444047382327108 -0.07949118465915124 -0.13483683081258022 0.04435661489912518 -0.011768502596419067
leaf_count=1863 967 2977 23 776 712 1246 460 29 348 21 496 179 675 171 110 22 116 33 1051 40 145 20 277 20 20 27 30 44 209 226
internal_value=0 -0.0707771 -0.227533 -0.365849 -0.314462 -0.492791 -0.374452 0.0453869 -0.601547 0.561925 0.491025 0.0122813 0.0318889 -0.231466 0.387484 -0.341394 0.474862 0.835311 0.939909 0.0995569 0.137481 0.0671315 0.449754 0.666339 -0.0373788 -0.0873314 -0.141832 -0.374329 0.231367 -0.223968
internal_count=13333 11013 6657 5576 4800 4088 2842 4356 2382 2320 525 3831 3652 519 1215 132 1083 1105 1072 1081 1041 896 317 297 579 559 536 297 239 253
shrinkage=0.1


Tree=26
num_leaves=31
num_cat=0
split_feature=0 8 6 18 11 18 19 14 7 11 11 16 18 11 11 8 11 11 11 11 11 11 8 8 16 7 19 16 7 11
split_gain=51.352 21.3557 19.3872 14.6886 9.32341 10.4632 7.81485 16.3324 22.0079 10.6889 14.0677 8.27307 7.71588 7.5842 7.39181 7.016 7.15417 6.73715 7.88298 7.29419 10.7758 7.44207 6.85139 6.63305 6.59575 5.76476 5.52821 6.96107 5.50211 13.8051
threshold=3.5000000000000004 -0.021556120246398497 4.500000000000001e-06 1.0000000180025095e-35 0.23194362853829212 1.0000000180025095e-35 1.0000000180025095e-35 1.0000000180025095e-35 1.0000000180025095e-35 0.0099971718013497687 0.010000000005000001 1791.5000000000002 3.5000000000000004 1.9207456000000004e-08 0.0012076498686125002 -0.019983090508267496 0.015002045209690418 0.20057933531482902 0.18340907047803015 0.1007897713257257 0.046790591004811012 0.050051425277777568 -0.089598333426289492 -0.010999499999999999 3124237.0000000005 0.10791427813002101 11.500000000000002 3192447.5000000005 0.031569295444053007 0.029829337940357501
decision_type=2 2 2 2 2 2 2 2 2 2 2 2 2 2 2 2 2 2 2 2 2 2 2 2 2 2 2 2 2 2
left_child=1 4 3 6 5 17 11 -8 -9 13 -11 -3 -2 -10 -5 -12 23 18 19 20 28 -22 -23 -17 -13 -21 -14 -28 29 -1
right_child=12 2 -4 14 -6 -7 7 8 9 10 15 24 26 -15 -16 16 -18 -19 -20 25 21 22 -24 -25 -26 -27 27 -29 -30 -31
leaf_value=0.031592078401790617 0.036142684090203811 -0.071404969322008474 0.009162882297306163 -0.03623534184025369 -0.0063633221016488571 0.049532504616291703 0.025204868778870706 -0.10401398682146219 0.21795148390961902 -0.10655111067034194 -0.0830176297630668 -0.00081481205178241054 0.09152007707851309 -0.0058914746101285014 0.049564490071921596 -0.048618530663202063 0.063028641728292478 0.066711293986025752 -0.068081617109048323 0.096337360033324423 -0.10459687531540028 -0.051897272696583396 0.0074404160790554202 0.069727302239420058 -0.10476291993422782 0.021345044749350815 0.1062391199283635 -0.10475491642144408 0.043536162960115303 -0.1180055939624724
leaf_count=108 1215 1917 1081 85 1709 800 460 1107 23 749 61 299 1025 630 307 126 50 85 65 50 47 187 193 39 171 352 59 21 276 36
internal_value=0 -0.0650552 -0.196583 -0.30064 0.0545829 0.165555 -0.358908 -0.264646 -0.374442 -0.235205 -0.497345 -0.552621 0.532988 -0.0275528 0.230108 -0.212078 -0.0156378 0.0790011 0.0395489 0.0797641 -0.0397864 -0.274102 -0.168674 -0.268236 -0.186789 0.316504 0.813086 -0.074548 0.228765 -0.104997
internal_count=13333 11013 7105 6024 3908 2199 5632 3245 2785 1678 1025 2387 2320 653 392 276 215 1399 1314 1249 847 427 380 165 470 402 1105 80 420 144
shrinkage=0.1


Tree=27
num_leaves=31
num_cat=0
split_feature=5 7 7 11 6 18 18 16 7 13 18 16 16 13 16 11 16 11 8 6 6 6 19 14 7 11 11 11 7 16
split_gain=44.2909 25.5211 13.7247 12.724 17.9055 11.5673 8.37 6.91998 6.8914 6.82415 6.57148 10.0923 8.35663 7.14103 6.40611 6.39833 5.54727 6.25502 5.33472 5.2466 6.80864 5.35804 5.05366 18.5448 14.835 5.67454 5.02228 4.50984 4.47047 4.8214
threshold=5.5000000000000009 0.010155956346450503 0.0099630000000000014 0.0010000473867540001 0.0053985000000000005 1.5000000000000002 3.5000000000000004 126142.50000000001 0.22737030356633506 43.000000000000007 1.0000000180025095e-35 2061476.0000000002 1223332.0000000002 16.500000000000004 3948246.5000000005 17.915000000000003 2471482.0000000005 0.14312927480827453 -0.0027666571807494996 0.13902064085000004 0.099780000000000021 0.050675450000000011 1.0000000180025095e-35 1.0000000180025095e-35 1.0000000180025095e-35 1.9207456000000004e-08 0.005169486417508049 0.00462823216656619 0.010666963315280003 3495503.5000000005
decision_type=2 2 2 2 2 2 2 2 2 2 2 2 2 2 2 2 2 2 2 2 2 2 2 2 2 2 2 2 2 2
left_child=1 2 3 4 22 15 9 -8 -7 10 12 -12 13 -2 -9 28 -14 -18 26 20 21 -6 -1 -24 -25 -26 27 -5 -3 -30
right_child=6 5 -4 18 19 8 7 14 -10 -11 11 -13 16 -15 -16 -17 17 -19 -20 -21 -22 -23 23 24 25 -27 -28 -29 29 -31
leaf_value=-0.05501942366506668 0.014554468430230675 0.11424400997574453 -0.091403474483123401 0.0030351316663861979 0.026099223937731116 0.089692115938509176 -0.10486900656516468 0.10044459176929948 0.019538009311475875 -0.12309127163470486 0.0699878652099718 -0.19813078894886585 0.083821873211537112 -0.14989928853286494 -0.0013228489316593802 -0.056273582277739924 0.051717990159215493 -0.047939156494400191 0.069611194700056764 -0.011548167665970428 0.079682838426662961 -0.0712283848415 0.020054175757254215 -0.10361745457906674 0.14580641963790522 -0.027766063800925285 0.04275963689008333 -0.076690606627225363 0.003250043157945766 -0.054936956411794885
leaf_count=2370 395 20 776 171 98 310 22 988 329 23 46 20 529 20 33 106 288 54 96 410 267 34 467 1107 24 353 119 46 3738 74
internal_value=0 -0.0662182 -0.241505 -0.201342 -0.270192 0.0450325 0.459341 0.792099 0.472899 0.321696 0.355697 -0.700678 0.404873 0.0267392 0.862402 0.0112641 0.587709 0.315926 0.184085 0.0384475 0.303562 0.0112852 -0.412798 -0.28061 -0.552392 -0.21402 0.040715 -0.187936 0.0262862 0.0207473
internal_count=13333 10915 6338 5562 5130 4577 2418 1043 639 1375 1352 66 1286 415 1021 3938 871 342 432 809 399 132 4321 1951 1484 377 336 217 3832 3812
shrinkage=0.1


Tree=28
num_leaves=31
num_cat=0
split_feature=0 8 6 8 19 14 19 11 11 16 11 18 7 16 8 11 16 8 18 16 11 11 12 6 11 7 16 11 7 7
split_gain=37.6824 15.5085 14.4896 11.7179 12.851 10.7467 19.1659 9.7107 10.8117 8.14472 7.2887 8.12815 7.20587 7.65076 6.57258 5.81695 5.74769 5.32893 5.22317 4.96962 5.77995 6.81222 6.99297 4.84824 4.49485 5.33491 4.43396 4.8485 8.97962 6.54382
threshold=3.5000000000000004 -0.021556120246398497 4.500000000000001e-06 -2.9299999999999995e-06 1.0000000180025095e-35 1.0000000180025095e-35 1.0000000180025095e-35 0.0093961860834260811 0.010000000005000001 313.50000000000006 1.6353658883642275 1.0000000180025095e-35 69.782803486870321 12337228.500000002 -0.019983090508267496 0.015002045209690418 3124237.0000000005 -0.010999499999999999 3.5000000000000004 1180098.0000000002 0.005169486417508049 0.00462823216656619 0.0025495729776825204 103.83152980177213 0.097267270359848432 1.5007203765442798 3948246.5000000005 0.028375608793592671 0.030041321359174002 0.03928878643543101
decision_type=2 2 2 2 2 2 2 2 2 2 2 2 2 2 2 2 2 2 2 2 2 2 2 2 2 2 2 2 2 2
left_child=1 10 3 4 -3 6 9 19 -9 -5 11 26 13 18 -10 17 -11 -16 -2 20 21 22 -6 -4 -13 -26 27 -1 -29 -30
right_child=12 2 23 5 7 -7 -8 8 14 16 -12 24 -14 -15 15 -17 -18 -19 -20 -21 -22 -23 -24 -25 25 -27 -28 28 29 -31
leaf_value=0.045383755266623332 0.043317528056433498 0.044258053278386507 0.010476203520934512 -0.070571155552717965 0.011680695540724503 -0.086772117431609341 0.021475080891869235 -0.096604234372436634 -0.080911478554930208 -0.0022410320793968862 -0.017155409803343954 0.056300629611859054 -0.041970327159218307 -0.046592718753506401 -0.044919896391427475 0.056028757936469525 -0.10417786502168978 0.060710555314081788 0.084445890105827467 -0.073622352697556889 0.058897056577002387 -0.085732595242686296 -0.15689733956801669 -0.097968765359961699 0.0072195299312834502 0.079797170815850166 -0.090791803161423781 -0.097445186747253401 0.057896284943193155 0.00062004555494829625
leaf_count=174 1151 314 1061 1863 376 1239 460 766 63 348 626 530 48 35 126 50 171 39 1086 50 97 40 22 20 555 83 25 38 85 1792
internal_value=0 -0.0552154 -0.171106 -0.265643 -0.105378 -0.429445 -0.318366 -0.209325 -0.458763 -0.522501 0.0461527 0.0936957 0.477677 0.532108 -0.209817 -0.0188531 -0.173417 -0.249474 0.587222 -0.00404182 0.061204 -0.0534536 0.054541 0.0777256 0.314011 0.174977 0.0298639 0.0404145 0.0139502 0.0357634
internal_count=13333 11013 7105 6024 1943 4081 2842 1629 1044 2382 3908 3282 2320 2272 278 215 519 165 2237 585 535 438 398 1081 1168 638 2114 2089 1915 1877
shrinkage=0.1


Tree=29
num_leaves=31
num_cat=0
split_feature=5 7 6 8 18 11 11 14 19 18 7 16 16 13 18 16 16 16 7 8 11 11 16 2 19 9 9 10 10 9
split_gain=32.7531 18.7746 9.5924 9.31241 9.04588 8.60441 14.1294 9.4166 16.6722 7.13762 6.74516 6.07085 6.57705 5.3454 5.8031 7.9039 7.65243 5.51615 5.33073 8.59731 5.1777 5.05029 4.76151 4.6561 10.8359 7.54681 15.1953 5.10915 4.609 6.88516
threshold=5.5000000000000009 0.011000500000000002 0.0053985000000000005 -0.011594270833332499 1.5000000000000002 2.1690708080000005e-06 0.0099971718013497687 1.0000000180025095e-35 1.0000000180025095e-35 3.5000000000000004 0.22737030356633506 126142.50000000001 3948246.5000000005 30.500000000000004 1.0000000180025095e-35 2061476.0000000002 1223332.0000000002 2471482.0000000005 0.010000000005000001 -0.010999499999999999 0.14312927480827453 22.513609603612426 1098430.0000000002 1.0000000180025095e-35 1.0000000180025095e-35 0.058986764705882364 0.11971178168556158 0.084175802581675396 1.9498726144874634 1.5017366081887229
decision_type=2 2 2 2 2 2 2 2 2 2 2 2 2 2 2 2 2 2 2 2 2 2 2 2 2 2 2 2 2 2
left_child=1 2 5 4 21 7 -7 8 -1 13 -6 -11 -13 14 16 -16 22 -18 -8 -20 -19 -3 -2 24 25 -4 27 -27 29 -28
right_child=9 3 23 -5 10 6 18 -9 -10 11 -12 12 -14 -15 15 -17 17 20 19 -21 -22 -23 -24 -25 -26 26 28 -29 -30 -31
leaf_value=-0.052788106027457218 0.0090381906343301645 0.0014669752176957223 0.039085879267245542 0.16712690540527819 0.089575050062697961 0.0034883389716965567 -0.099716496655118336 -0.085278442293077947 0.01649831461155879 -0.09716717379836487 0.016053408038316456 0.098586901952314621 -0.0063837124833041915 -0.077683473612475615 0.065355820652544361 -0.17723092388858119 0.082401970388321991 0.047685044716908882 -0.12636445272345428 0.057779412533716074 -0.043656510316018887 -0.058415732551378864 -0.15204077098490201 -0.091942146668568814 0.072302310777858689 -0.20380106710812146 0.0041631965343883011 -0.043385999314348861 0.058876111965718826 -0.073334940317235156
leaf_count=2316 391 3777 133 24 296 746 747 1249 467 22 329 988 33 36 46 20 523 283 25 45 54 85 22 26 277 25 202 26 41 79
internal_value=0 -0.0567166 -0.209895 0.039509 0.0322139 -0.292417 -0.116443 -0.426625 -0.319721 0.410021 0.427076 0.743327 0.819188 0.284403 0.325085 -0.684839 0.373275 0.55789 -0.708758 -0.132556 0.283451 0.00279908 0.00906256 0.0266363 0.0653558 -0.069573 -0.23134 -1.47347 -0.068185 -0.174045
internal_count=13333 10915 6404 4511 4487 5595 1563 4032 2783 2418 625 1043 1021 1375 1339 66 1273 860 817 70 337 3862 413 809 783 506 373 51 322 281
shrinkage=0.1


Tree=30
num_leaves=31
num_cat=0
split_feature=5 11 6 18 7 19 18 19 16 16 11 7 8 7 11 7 12 16 8 13 18 16 16 13 6 12 16 11 12 16
split_gain=27.6276 15.8715 11.8122 8.30453 9.72631 7.1513 6.73518 5.61185 6.41509 5.52706 5.08648 7.60288 8.96897 8.13224 5.32327 7.70131 4.55224 5.54475 5.67042 4.51903 4.7037 6.34315 6.26699 5.25287 4.56799 5.13918 5.31226 4.18285 4.25454 4.10857
threshold=5.5000000000000009 0.0010000473867540001 1.0000000180025095e-35 1.0000000180025095e-35 0.36798472222222006 1.0000000180025095e-35 3.5000000000000004 11.500000000000002 126142.50000000001 3192447.5000000005 0.0025647268607021669 0.020004136520521503 -0.019983090508267496 0.015153100596162501 0.0099971718013497687 0.010000000005000001 0.78608232344487927 1341019.0000000002 -21.064767312499992 43.000000000000007 1.0000000180025095e-35 1223332.0000000002 2061476.0000000002 16.500000000000004 8.2835000000000019 0.020915932939776279 2681879.5000000005 2.1966764468326967 8.2359694128780614 2851660.0000000005
decision_type=2 2 2 2 2 2 2 2 2 2 2 2 2 2 2 2 2 2 2 2 2 2 2 2 2 2 2 2 2 2
left_child=1 2 -1 5 -5 -3 19 8 -8 -9 -7 12 -12 14 -14 -16 17 18 -6 20 21 23 -22 -2 25 -23 -27 -18 -29 -28
right_child=6 3 -4 4 16 10 7 9 -10 -11 11 -13 13 -15 15 -17 27 -19 -20 -21 22 24 -24 -25 -26 26 29 28 -30 -31
leaf_value=-0.035692690369136228 0.011187471106694097 0.11321210063977563 0.0012466885127732032 0.041041802796661031 -0.093405844073154665 0.053846391126539356 -0.088764105495736295 0.10453445187238009 0.095240821873643355 -0.10372689145974348 -0.11865380036775952 -0.00051229224253311427 -0.0049359294502254302 0.051985315155377056 -0.10271234328069064 -0.022420681752700122 0.098165349873270608 -0.10165934810027227 0.0032732895568598087 -0.09706929457896124 0.062511862649893155 0.07876067143951454 -0.15602617693599394 -0.12889116626524405 -0.045855243835757675 0.074027384051290446 -0.18396418475365875 -0.042014159036941896 0.079041639110284723 0.00056106019925527737
leaf_count=4278 395 25 852 1186 44 80 21 59 942 21 46 2556 217 61 743 169 69 56 466 23 46 526 20 20 22 220 20 45 22 83
internal_value=0 -0.051861 -0.223999 0.021357 0.190863 -0.0340962 0.383612 0.721066 0.855941 -0.234971 -0.0433075 -0.0565447 -0.285491 -0.201452 -0.305517 -0.525005 -0.0125497 -0.106107 -0.0405276 0.262463 0.292693 0.336111 -0.622883 0.00655548 0.506491 0.570055 0.23194 0.417862 0.0503099 -0.150106
internal_count=13333 10915 5130 5785 1888 3897 2418 1043 963 80 3872 3792 1236 1190 1129 912 702 566 510 1375 1352 1286 66 415 871 849 323 136 67 103
shrinkage=0.1


Tree=31
num_leaves=31
num_cat=0
split_feature=0 7 11 11 6 7 14 19 19 16 18 11 11 16 19 16 11 11 12 8 16 11 7 11 8 16 11 18 11 7
split_gain=23.5972 9.63957 11.2373 10.6422 7.39404 11.5891 14.0183 15.0788 9.60906 6.39251 5.64135 5.58147 5.83421 5.27631 4.94389 4.64918 4.55524 11.4104 4.77264 4.20435 4.15086 4.09757 5.4813 4.29465 6.06137 4.07546 3.9561 5.74928 5.54274 7.60735
threshold=3.5000000000000004 0.031569295444053007 0.029829337940357501 0.039561143872592248 1.0000000180025095e-35 1.0000000180025095e-35 1.0000000180025095e-35 1.0000000180025095e-35 1.0000000180025095e-35 313.50000000000006 3.5000000000000004 0.024089216525618774 1.9207456000000004e-08 3124237.0000000005 11.500000000000002 3192447.5000000005 0.0099971718013497687 0.010000000005000001 0.006061710686156181 -0.0036865736644019998 80652.500000000015 2.1690708080000005e-06 0.00011263971151600001 0.00020000000039950005 -0.00048664012532899993 4470116.5000000009 2.8590359929806177 1.0000000180025095e-35 0.10002034888515952 0.10791427813002101
decision_type=2 2 2 2 2 2 2 2 2 2 2 2 2 2 2 2 2 2 2 2 2 2 2 2 2 2 2 2 2 2
left_child=1 2 4 -3 5 6 7 9 19 -1 -2 12 -10 -11 20 -16 18 -18 21 -7 -12 -14 -23 -24 -25 -6 27 28 -5 -30
right_child=10 3 -4 26 25 8 -8 -9 11 13 14 -13 16 -15 15 -17 17 -19 -20 -21 -22 22 23 24 -26 -27 -28 -29 29 -31
leaf_value=-0.063834082848888987 0.025659124981924682 0.050126432494338763 -0.12498275815062927 -0.021736235589556493 0.0098267286338636281 0.068493783087943183 -0.10264960068361118 0.020833183679290542 0.15980208073037511 3.1978945233530856e-05 -0.049275068251875609 0.055770872676952334 -0.089921903614597468 -0.10373721551508946 0.10410187475152524 -0.09238647289502043 -0.10505748197991241 -0.016427571701450292 0.10228840497913305 0.0021490657485890145 0.09040261085155904 0.08028031586454315 -0.072299800637743591 -0.010720043426727085 0.092909783846106347 -0.062244128267683288 -0.018664819571894503 0.023749693061643665 0.074141092649239654 0.0015474569082355131
leaf_count=1861 1215 384 43 480 1045 254 1107 459 24 347 21 46 103 171 59 21 749 340 32 122 1004 30 98 427 25 40 457 970 65 1334
internal_value=0 -0.0426872 -0.132438 0.0414038 -0.116161 -0.184028 -0.37114 -0.258068 -0.0437351 -0.458456 0.402653 -0.127645 -0.16589 -0.143559 0.697029 -0.215566 -0.18229 -0.357289 -0.052027 0.410144 0.821537 -0.0907855 -0.0449453 -0.106738 -0.035282 0.0627509 0.00630837 0.0397737 -0.0159195 0.0516259
internal_count=13333 11013 7323 3690 7280 6195 3945 2838 2250 2379 2320 1874 1828 518 1105 80 1804 1089 715 376 1025 683 580 550 452 1085 3306 2849 1879 1399
shrinkage=0.1


Tree=32
num_leaves=31
num_cat=0
split_feature=5 11 6 18 16 18 17 8 11 7 11 7 11 19 8 16 19 19 16 9 9 10 16 16 16 1 16 19 14 7
split_gain=20.2625 11.4825 8.37705 6.16259 6.49616 5.70435 5.58899 5.3744 4.08437 4.28261 9.2545 8.28029 4.62202 4.54547 4.23533 4.05562 4.87891 3.84411 9.6362 6.13744 12.0585 4.08518 3.83173 4.70415 7.84508 4.78272 3.98385 3.91442 12.157 11.5272
threshold=5.5000000000000009 0.0010000473867540001 0.0053985000000000005 1.5000000000000002 6951.5000000000009 4.5000000000000009 1.0000000180025095e-35 -0.0027666571807494996 22.513609603612426 0.031569295444053007 0.029829337940357501 0.03928878643543101 0.024089216525618774 1.0000000180025095e-35 -0.037767737744812992 126142.50000000001 12.500000000000002 1.0000000180025095e-35 429.50000000000006 0.058986764705882364 0.11971178168556158 0.084175802581675396 1601973.5000000002 1791.5000000000002 80652.500000000015 1.5000000000000002 767088.00000000012 1.0000000180025095e-35 1.0000000180025095e-35 1.0000000180025095e-35
decision_type=2 2 2 2 2 2 2 2 2 2 2 2 2 2 2 2 2 2 2 2 2 2 2 2 2 2 2 2 2 2
left_child=1 2 22 6 -5 -2 7 8 9 10 12 14 13 -3 -11 -7 -17 19 -19 -4 21 -21 23 27 25 -25 -26 -1 -29 -30
right_child=5 3 17 4 -6 15 -8 -9 -10 11 -12 -13 -14 -15 -16 16 -18 18 -20 20 -22 -23 -24 24 26 -27 -28 28 29 -31
leaf_value=-0.049583679806235133 0.023616598981668416 0.035990616316136009 0.034871992617960382 -0.075231294751882019 0.045032642221438386 -0.072407460803612197 0.10302620098492349 0.059246340800525467 -0.057143968843798465 0.14665369313644089 -0.11598218057508569 0.00038460204975055416 0.045859782568386707 -0.020515133881527332 0.039814570135663058 0.093138443014492076 -0.018627814305405992 0.064924789530918112 -0.1015310938929853 -0.18123916130217732 -0.006885540954749492 -0.039243326434629397 -0.092035128082159579 0.044001470869794751 -0.055501846653560817 0.20873705332531767 0.048028283208528671 0.016261359591661948 -0.10239111212525126 -0.016696824412677152
leaf_count=1977 1463 174 133 35 639 20 25 94 84 27 43 3082 74 1395 113 865 70 282 21 25 322 26 175 81 134 21 47 467 1107 312
internal_value=0 -0.0440906 -0.193336 0.0182865 0.342367 0.339307 -0.00357406 -0.0102082 -0.0212217 -0.0118863 -0.149149 0.0280168 -0.0971534 -0.146808 0.593516 0.695684 0.777691 0.0160433 0.368557 -0.0710202 -0.216594 -1.31102 -0.303385 -0.277323 0.103847 0.838195 -0.27283 -0.331299 -0.212517 -0.491133
internal_count=13333 10915 5130 5785 674 2418 5111 5086 4992 4908 1686 3222 1643 1569 140 955 935 809 303 506 373 51 4321 4146 283 102 181 3863 1886 1419
shrinkage=0.1


Tree=33
num_leaves=31
num_cat=0
split_feature=16 16 17 18 8 14 19 6 10 9 6 9 9 11 16 12 19 11 8 12 7 11 8 16 6 16 16 16 11 8
split_gain=17.3289 10.2157 10.012 9.4535 8.15015 12.898 19.668 5.80544 6.06904 5.41531 4.76302 4.83935 4.6434 4.56197 5.77958 7.90284 6.53382 5.76854 7.61339 6.24108 4.29271 4.6005 5.78536 4.21263 4.10918 3.88553 4.85264 4.83795 3.61697 5.59564
threshold=1791.5000000000002 12337228.500000002 1.0000000180025095e-35 3.5000000000000004 -2.9299999999999995e-06 1.0000000180025095e-35 1.0000000180025095e-35 4.500000000000001e-06 0.0038831818840657554 0.010590277777777645 0.17978276576093302 0.058986764705882364 0.40794000000000002 3.0002500000000007 145186.50000000003 5.6046402738530459 1.0000000180025095e-35 0.0030112135593217504 -0.014014999999999998 0.0022233553742825626 0.00011263971151600001 0.00020000000039950005 -0.00048664012532899993 3948246.5000000005 0.099780000000000021 53802.500000000007 2274868.0000000005 2316401.0000000005 0.0010000473867540001 -0.0027666571807494996
decision_type=2 2 2 2 2 2 2 2 2 2 2 2 2 2 2 2 2 2 2 2 2 2 2 2 2 2 2 2 2 2
left_child=2 3 4 13 20 6 7 -6 9 -9 11 -11 -12 17 16 -16 -15 18 -2 23 -1 -22 28 -20 -8 -5 -27 -28 -23 -30
right_child=1 -3 -4 25 5 -7 24 8 -10 10 12 -13 -14 14 15 -17 -18 -19 19 -21 21 22 -24 -25 -26 26 27 -29 29 -31
leaf_value=0.077466941364013747 -0.19775893890497712 -0.068861889270144694 0.1443745034069924 -0.057359140103053277 -0.058556393586992883 -0.08424013530121055 0.012982396928946011 0.060252985333277144 -0.12644482981299673 -0.0082940763226796877 0.080412971482294732 -0.12857681669392151 -0.018326997833755555 -0.068321416082571973 -0.15159262022195819 0.0048833384302208304 0.084174332379858233 0.028785355182272727 0.013489701806584249 -0.14774341197764002 -0.077958370856485978 -0.047997201254199734 0.080432187930380469 -0.047054761444838722 0.06807673225819609 0.10053137537988424 -0.26957725286737028 0.037164251540594627 -0.0040138590674991424 0.060421565203960075
