tree
version=v2
num_class=1
num_tree_per_iteration=1
label_index=0
max_feature_idx=18
objective=binary sigmoid:1
feature_names=Column_0 Column_1 Column_2 Column_3 Column_4 Column_5 Column_6 Column_7 Column_8 Column_9 Column_10 Column_11 Column_12 Column_13 Column_14 Column_15 Column_16 Column_17 Column_18
feature_infos=[0:27851] [0:6315] none none [1:27852] [0:22220.5] [0:34778.830690504503] [-34778.830690504503:22220.5] [0:11110.25] [0:15711.559124574493] [0:34778.830690504503] [0:2474.8737341529168] [0:6316] [0:27852] [0:6317] [0:29986870] [0:1202] [0:193] [0:27852]
tree_sizes=2518 2523 2516 2532 2538 2556 2534 2548 2550 2556 2566 2554 2556 2557 2545 2549 2556 2541 2555 2544 2563 2555 2556 2565 2539 2566 2531 2536 2569 2568 2568 2585 2570 2577 2573 2555 2563 2529 2547 2568 2500 2555 2567 2556 2488 2566 2577 2546 2488 2497 2545 2539 2513 2539 2522 2512 2564 2520 2559 2564 2565 2589 2508 2518 2512 2507 2538 2584 2545 2535 2535 2522 2542 2547 2546 2525 2545 2546 2476 2563 2539 2558 2556 2569 2526 2562 2515 2532 2518 2601 2518 2515 2570 2560 2500 2545 2633 2532 2500 2509 2518 2540 2574 2510 2568 2555 2593 2634 2525 2533 2520 2537 2522 2551 2553 2564 2559 2552 2568 2591 2574 2594 2541 2580 2482 2523 2577 2554 2557 2535 2542 2543 2550 2530 2546 2533 2568 2587 2552 2581 2566 2549 2554 2567 2551 2552 2659 2603 2541 2573 2539 2586 2517 2519 2536 2544 2527 2522 2529 2539 2568 2560 2533 2545 2542 2568 2582 2571 2551 2535 2588 2545 2583 2563 2568 2560 2639 2544 2582 2551 2535 2580 2576 2665 2555 2544 2553 2653 2602 2596 2521 2547 2535 2540 2531 2564 2567 2585 2553 2528 2511 2532 2564 2520 2590 2569 2619 2555 2575 2574 2547 2550 2548 2547 2594 2531 2574 2576 2568 2577 2557 2556 2563 2566 2583 2570 2537 2545 2554 2539 2559 2531 2557 2542 2561 2570 2582 2558 2553 2565 2542 2577 2561 2550 2587 2615 2560 2558 2588 2543 2561 2563 2580 2649 2595 2600 2547 2546 2587 2558 2594 2564 2566 2538 2522 2538 2547 2567 2611 2566 2543 2540 2581 2544 2553 2578 2547 2556 2552 2571 2527 2547 2540 2545 2567 2540 2583 2599 2573 2570 2567 2615 2591 2595 2553 2540 2593 2582 2577 2578 2554 2574 2562 2552 2609 2597 2561 2563 2549 2551 2611 2553 2656 2558 2564 2556 2558 2543 2584 2559 2607 2590 2566 2557 2550 2532 2551 2551 2548 2570 2578 2545 2578 2597 2550 2564 2642 2576 2585 2619 2548 2580 2575 2578 2613 2562 2569 2554 2635 2582 2539 2574 2576 2560 2554 2592 2580 2550 2547 2593 2549 2550 2565 2554 2593 2618 2560 2580 2589 2550 2576 2568 2575 2600 2587 2564 2552 2618 2540 2562 2561 2641 2542 2545 2569 2573 2570 2596 2549 2564 2613 2577 2576 2539 2569 2548 2567 2541 2554 2582 2604 2586 2593 2556 2562 2545 2583 2584 2571 2574 2598 2572 2587 2586 2570 2576 2550 2573 2553 2565 2566 2648 2574 2585 2625 2614 2567 2564 2605 2548 2582 2546 2577 2610 2625 2562 2553 2556 2563 2613 2561 2591 2539 2571 2562 2571 2586 2640 2552 2544 2551 2573 2557 2549 2593 2567 2598 2568 2593 2566 2578 2558 2595 2558 2564 2593 2649 2541 2591 2529 2606 2613 2542 2626 2578 2568 2581 2621 2599 2588 2562 2590 2543 2564 2569 2586 2543 2585 2512 2560 2587 2544 2560 2588 2534 2580 2572 2648 2621 2565

Tree=0
num_leaves=31
num_cat=0
split_feature=11 13 6 18 15 17 10 5 10 6 10 7 6 10 6 15 10 6 4 6 10 17 15 15 5 8 17 7 15 8
split_gain=3469.56 1021.87 884.796 360.527 313.179 225.466 388.333 109.283 79.7463 76.7947 61.0671 227.347 98.1558 40.3383 86.6334 39.1711 36.6373 30.2822 26.7576 24.4343 20.4791 17.9595 20.161 16.8968 16.5624 28.4562 15.4826 14.4063 13.3403 12.2052
threshold=7.295414820808527e-05 1.0000000180025095e-35 0.010100500000000002 1.0000000180025095e-35 3453925.5000000005 1.0000000180025095e-35 0.89296772281721914 11.445000000000002 2.1816061174006669 0.00063359378338100015 2.1690708080000005e-06 -0.009974724571158498 0.0009627263638810001 0.73007882961815407 0.10000679119918553 4917.0000000000009 0.082863306828885652 2.9473619557694519 5.5000000000000009 0.3712570479284486 0.13261290237911208 2.5000000000000004 993142.00000000012 2717.5000000000005 0.065000000000000016 3.2380883301214295e-05 3.5000000000000004 -0.0096192342285524989 6273420.0000000009 0.15000000000000005
decision_type=2 2 2 2 2 2 2 2 2 2 2 2 2 2 2 2 2 2 2 2 2 2 2 2 2 2 2 2 2 2
left_child=1 7 3 9 8 13 19 23 15 -3 -5 -12 -13 14 -4 -2 28 -8 -17 -7 -16 22 -10 24 25 -1 -18 -14 -6 -26
right_child=4 2 5 10 16 6 17 -9 21 -11 11 12 27 -15 20 18 26 -19 -20 -21 -22 -23 -24 -25 29 -27 -28 -29 -30 -31
leaf_value=0.14280582642248166 0.072202449173310701 -0.11025542579373822 -0.075358920598666071 -0.19385760985468456 0.098493778935626511 0.15473270859601429 -0.032146368951657081 -0.16113310246724227 0.068472809986248911 0.158199321967293 -0.19180671078764272 -0.12034017385875397 -0.098465840026636609 -0.093737993041430642 0.054275107870795217 0.16169762404402607 -0.12985075378576152 -0.14861651443457569 0.19641380068017805 0.055108269565944182 -0.012091340843555169 0.16109218313161658 -0.080179951898070825 -0.020552055826660663 0.20407183471585238 -0.071388659528568044 0.034106848905465309 0.060653782950381194 -0.012322163920971241 0.067604704313398309
leaf_count=542 138 57 1209 1970 71 622 138 48 143 169 1203 286 25 687 238 1615 130 253 1973 117 851 54 49 23 273 26 28 254 112 29
internal_value=0 -0.705492 -0.935234 -1.6096 1.47543 -0.285618 0.47527 1.26698 1.63334 0.843415 -1.75791 -1.48806 -0.441553 -0.57366 -0.446537 1.70616 -0.363925 -1.1366 1.74637 1.3281 -0.0373718 0.53044 0.243852 1.42499 1.46973 1.26851 -1.06945 0.402456 0.245218 1.84817
internal_count=13333 9020 8079 3964 4313 4115 1130 941 3972 226 3738 1768 565 2985 2298 3726 341 391 3588 739 1089 246 192 893 870 568 158 279 183 302
shrinkage=1


Tree=1
num_leaves=31
num_cat=0
split_feature=11 13 6 18 15 10 17 5 7 10 10 10 6 6 15 10 6 0 10 10 18 7 17 15 15 5 8 6 0 6
split_gain=2831.35 830.692 728.305 328.974 256.851 180.035 314.785 89.1286 66.8833 66.4524 58.3355 181.812 85.602 48.3174 31.4205 30.0192 27.8239 23.575 20.9829 19.596 16.3138 15.5823 14.6952 16.3541 13.8412 13.8594 23.194 13.6156 13.2285 12.6591
threshold=0.00013944933502463316 1.0000000180025095e-35 0.012254300377988503 1.0000000180025095e-35 3453925.5000000005 0.9868460453800002 1.0000000180025095e-35 11.445000000000002 -0.00021374999999999999 2.1816061174006669 2.1690708080000005e-06 0.0095236047551962421 0.0009627263638810001 0.10000679119918553 2122.0000000000005 0.26772483557793669 0.3712570479284486 2.5000000000000004 0.18281143008474554 2.8960920561095072 1.5000000000000002 -1.0145985779192377 2.5000000000000004 993142.00000000012 2717.5000000000005 0.065000000000000016 3.2380883301214295e-05 1.7647201968587425 7.5000000000000009 0.00019265000000000002
decision_type=2 2 2 2 2 2 2 2 2 2 2 2 2 2 2 2 2 2 2 2 2 2 2 2 2 2 2 2 2 2
left_child=1 7 3 8 9 6 13 24 -3 14 -5 12 29 -4 -2 20 -8 -16 -15 21 -6 27 23 -11 25 26 -1 -7 -22 -12
right_child=4 2 5 10 15 19 16 -9 -10 22 11 -13 -14 18 17 -17 -18 -19 -20 -21 28 -23 -24 -25 -26 -27 -28 -29 -30 -31
leaf_value=0.12364125022441384 0.036508587908088773 0.1326486453501444 -0.066763317033226577 -0.18176263694642836 0.1460794104427966 -0.0100572536064115 0.13319937229502921 -0.15156771474345612 -0.14290740923311959 0.056158229110912096 -0.032731482026252465 -0.17225173285333212 0.044907933420969569 0.027035294483797295 0.13425713674022424 -0.11846975013008094 0.032713418253676074 0.16917319224161442 -0.028449247771692627 -0.12310697540054866 -0.064586047792601617 -0.14687126252593616 0.14038795474403473 -0.077825534003866548 -0.024034356012094128 0.16798625528649117 -0.069876191688209799 -0.087378040310229999 0.038888265440057988 -0.13348343383320477
leaf_count=542 87 199 1065 1970 30 182 606 48 43 143 64 1367 268 434 1134 111 135 2489 734 538 98 79 54 49 23 302 26 183 100 230
internal_value=0 -0.636532 -0.843635 -1.43307 1.34224 -0.230154 0.0151616 1.14786 0.835667 1.48632 -1.57424 -1.32638 -0.368408 -0.359239 1.55351 -0.329969 1.14813 1.58225 -0.0783475 -0.973782 0.0853338 -0.662669 0.478632 0.219755 1.29101 1.33175 1.14751 -0.488217 -0.123061 -1.11552
internal_count=13333 9038 8097 4141 4295 3956 2974 941 242 3956 3899 1929 562 2233 3710 339 741 3623 1168 982 228 444 246 192 893 870 568 365 198 294
shrinkage=0.1


Tree=2
num_leaves=31
num_cat=0
split_feature=11 13 6 18 15 17 10 5 10 6 10 7 6 0 15 10 10 10 6 4 6 6 18 0 17 15 15 5 8 8
split_gain=2336.62 683.625 614.805 243.786 215.151 148.122 261.255 73.4718 55.3886 53.1499 45.5369 164.88 64.3244 34.5963 27.4091 26.8618 56.2196 26.2671 22.1357 18.3818 16.4325 12.407 12.1418 13.1074 11.9865 12.2104 11.5267 12.1175 19.0828 10.6118
threshold=0.00013944933502463316 1.0000000180025095e-35 0.010100500000000002 1.0000000180025095e-35 3639650.0000000005 1.0000000180025095e-35 0.89296772281721914 11.445000000000002 2.1816061174006669 0.00063359378338100015 2.1690708080000005e-06 -0.009974724571158498 0.0009627263638810001 2.5000000000000004 4917.0000000000009 0.73007882961815407 0.10000679119918553 0.26772483557793669 2.9473619557694519 5.5000000000000009 0.3712570479284486 0.18680282307518603 1.5000000000000002 6.5000000000000009 2.5000000000000004 993142.00000000012 2717.5000000000005 0.065000000000000016 3.2380883301214295e-05 0.15000000000000005
decision_type=2 2 2 2 2 2 2 2 2 2 2 2 2 2 2 2 2 2 2 2 2 2 2 2 2 2 2 2 2 2
left_child=1 7 3 9 8 13 20 26 14 -3 -5 -12 -13 15 -2 16 -4 22 -8 -16 -7 -18 -6 -24 25 -10 27 28 -1 -29
right_child=4 2 5 10 17 6 18 -9 24 -11 11 12 -14 -15 19 -17 21 -19 -20 -21 -22 -23 23 -25 -26 -27 -28 29 -30 -31
leaf_value=0.11275904616660837 0.054354186561205789 -0.098523884218683258 -0.067567430304378048 -0.16805543522380101 0.12901851679101281 0.12274285013015969 -0.029519438938578092 -0.13899202696131513 0.05068638032559375 0.12641748250257673 -0.16644032243625934 -0.10144475702313048 0.032709606116068227 0.18845712131962222 0.1297463171946098 -0.083239966504076932 0.021821645549193996 -0.11612708558736687 -0.12950515475519558 0.15893631723838225 0.040874833399283224 -0.022123808598912997 -0.072034442609582 0.034680065103303855 0.12851024403546776 -0.064465845839826869 -0.021639804370239501 0.16741492624991611 -0.063133964729378073 0.039156573813868605
leaf_count=542 137 57 1208 1970 28 625 138 48 143 169 1204 294 283 25 1605 683 429 107 253 1984 117 642 83 104 54 50 23 273 26 29
internal_value=0 -0.581388 -0.770348 -1.34269 1.23117 -0.229793 0.391831 1.05022 1.36154 0.693013 -1.46676 -1.23264 -0.353228 -0.462951 1.42376 -0.48278 -0.37853 -0.344953 -0.93853 1.45813 1.09629 -0.0452608 0.0573033 -0.12648 0.441031 0.209102 1.18105 1.21882 1.04609 1.54868
internal_count=13333 9038 8097 3977 4295 4120 1133 941 3973 226 3751 1781 577 2987 3726 2962 2279 322 391 3589 742 1071 215 187 247 193 893 870 568 302
shrinkage=0.1


Tree=3
num_leaves=31
num_cat=0
split_feature=11 13 6 18 15 17 7 5 10 7 7 7 10 0 4 7 10 10 17 6 6 10 6 15 11 17 17 15 7 15
split_gain=1945.73 568.361 529.737 206.652 181.714 121.313 216.147 61.068 49.1761 44.6475 39.1114 139.92 56.3615 28.2199 22.4705 22.2571 34.2038 21.8708 20.9738 18.9775 18.6469 14.7666 14.6316 13.3533 12.9139 12.8554 12.0907 11.0201 10.1078 9.72523
threshold=7.295414820808527e-05 1.0000000180025095e-35 0.010100500000000002 1.0000000180025095e-35 3453925.5000000005 1.0000000180025095e-35 -0.91218322649590888 11.445000000000002 0.73007882961815407 -0.00021374999999999999 -3.2322812344999996e-06 -0.009974724571158498 0.0010363288583880002 2.5000000000000004 5.5000000000000009 -1.8611580255835314 0.10000679119918553 0.082863306828885652 3.5000000000000004 0.18680282307518603 1.9792179041400002 0.00070305336687411033 0.3712570479284486 2450884.0000000005 0.38249662652216282 1.5000000000000002 3.5000000000000004 12370700.000000002 -0.0096192342285524989 2717.5000000000005
decision_type=2 2 2 2 2 2 2 2 2 2 2 2 2 2 2 2 2 2 2 2 2 2 2 2 2 2 2 2 2 2
left_child=1 7 3 9 8 13 20 29 14 -3 11 -5 -13 15 21 -4 -17 27 23 -18 -7 -2 -8 24 -10 -23 -19 -6 -14 -1
right_child=4 2 5 10 17 6 22 -9 18 -11 -12 12 28 -15 -16 16 19 26 -20 -21 -22 25 -24 -25 -26 -27 -28 -29 -30 -31
leaf_value=0.11242091058475075 -0.015064703032120118 0.10780360501601338 -0.087959546091177898 -0.15597954928510044 0.040653595644841459 -0.0094247602163977963 0.11336789210768568 -0.12859231246740152 -0.067431772370076706 -0.12238535803630848 -0.1574773152150353 -0.092083807635571308 -0.086419642972798666 0.17053766870602161 0.15021645265368758 -0.061640950924071784 0.01965269536193277 -0.10884475984008267 0.14598565287244389 -0.031340287466743326 -0.11192136261707389 0.1057582766025647 0.036431391532865356 -0.094526671588429492 0.066383748929609451 0.14406288282915053 0.036968153379190752 -0.095937967258973425 0.048054308357934263 -0.019488109453458864
leaf_count=870 34 183 404 1203 155 95 622 48 33 43 1964 312 25 25 1882 1206 429 130 108 921 294 984 119 27 319 585 28 28 234 23
internal_value=0 -0.536517 -0.710641 -1.25481 1.13557 -0.209917 0.359215 0.968306 1.26146 0.636796 -1.37207 -1.15213 -0.336384 -0.420442 1.34789 -0.438403 -0.369571 -0.273051 0.656565 -0.151007 -0.862847 1.17092 1.00616 0.434535 0.539577 1.20007 -0.826618 0.19692 0.351442 1.08873
internal_count=13333 9020 8079 3964 4313 4115 1130 941 3972 226 3738 1774 571 2985 3485 2960 2556 341 487 1350 389 1603 741 379 352 1569 158 183 259 893
shrinkage=0.1


Tree=4
num_leaves=31
num_cat=0
split_feature=11 13 6 18 15 17 10 5 10 6 10 7 7 4 15 10 6 10 6 15 6 6 10 6 8 8 8 15 17 15
split_gain=1629.06 473.306 461.128 176.074 154.933 99.3034 179.249 50.9157 45.6111 37.9744 36.1744 125.777 46.392 26.5551 23.7242 19.9436 39.797 18.034 16.8421 16.1321 12.3778 11.7714 14.2574 10.6457 10.3551 21.4062 17.9063 10.0896 10.0559 10.0003
threshold=7.295414820808527e-05 1.0000000180025095e-35 0.010100500000000002 1.0000000180025095e-35 3453925.5000000005 1.0000000180025095e-35 0.89296772281721914 11.445000000000002 2.1816061174006669 0.00063359378338100015 2.1690708080000005e-06 -0.009974724571158498 -0.00063484139159949982 5.5000000000000009 3946.5000000000005 0.73007882961815407 0.10000679119918553 0.082863306828885652 2.9473619557694519 4917.0000000000009 0.3712570479284486 0.00019265000000000002 0.00020150000000000002 0.10911149081585651 0.037497872048836513 3.2380883301214295e-05 0.15000000000000005 6273420.0000000009 3.5000000000000004 2205590.0000000005
decision_type=2 2 2 2 2 2 2 2 2 2 2 2 2 2 2 2 2 2 2 2 2 2 2 2 2 2 2 2 2 2
left_child=1 7 3 9 8 14 20 24 13 -3 -5 -12 -13 19 15 16 -4 27 -8 -2 -7 -14 -23 -18 25 -1 -26 -6 -19 -21
right_child=4 2 5 10 17 6 18 -9 -10 -11 11 12 21 -15 -16 -17 23 28 -20 29 -22 22 -24 -25 26 -27 -28 -29 -30 -31
leaf_value=0.094006222975256556 0.035475178106191753 -0.084933643126551203 -0.056688599082727602 -0.14893687526430069 0.077171472335628544 0.10486247696011192 -0.022827065537275412 -0.11975482323355638 0.033251542710448813 0.10847582708428756 -0.14734864828921435 0.022728449717468055 -0.017110000147077749 0.14043550781829733 0.11103863480792567 -0.07075756992767232 0.068513988074101875 -0.099910671331184822 -0.11092575767633935 0.1144929520098914 0.033361743260505519 -0.16056909463153846 -0.045523885023701915 -0.0088278510410781073 0.15051800102525467 -0.077569995936680375 0.0047600093074167196 -0.019675243777662083 0.033230558509874046 0.039183205730640831
leaf_count=543 126 57 1194 1970 71 622 138 48 246 169 1203 307 62 1985 43 680 77 130 253 1535 117 125 71 991 279 31 40 112 28 80
internal_value=0 -0.495822 -0.656579 -1.17826 1.05651 -0.190795 0.33044 0.894867 1.17608 0.587271 -1.28967 -1.07454 -0.296772 1.23551 -0.380821 -0.402475 -0.312214 -0.248123 -0.78667 1.05046 0.929486 -0.940919 -1.18895 -0.0325993 1.00579 0.842501 1.3102 0.177633 -0.756105 1.10765
internal_count=13333 9020 8079 3964 4313 4115 1130 941 3972 226 3738 1768 565 3726 2985 2942 2262 341 391 1741 739 258 196 1068 893 574 319 183 158 1615
shrinkage=0.1


Tree=5
num_leaves=31
num_cat=0
split_feature=11 13 7 18 15 7 17 10 8 10 7 10 10 6 0 6 17 8 8 10 10 10 10 10 18 10 7 18 7 11
split_gain=1370.95 394.184 406.476 159.792 133.939 85.4792 148.873 43.1088 42.8204 38.2445 110.832 38.5448 33.4412 25.6813 19.7505 18.5182 18.2139 17.9497 16.3923 15.4698 14.4967 11.9649 13.6112 11.7394 11.4535 11.1598 11.1609 10.7827 10.104 9.80049
threshold=0.0002135395179296984 1.0000000180025095e-35 -0.011217763478563998 1.0000000180025095e-35 3453925.5000000005 -1.8611580255835314 1.0000000180025095e-35 0.73007882961815407 0.15000000000000005 2.1690708080000005e-06 -0.009974724571158498 0.0010363288583880002 0.00070305336687411033 0.3712570479284486 2.5000000000000004 0.10000679119918553 3.5000000000000004 0.058304850000000012 3.2380883301214295e-05 0.26772483557793669 0.13261290237911208 0.01183420334743321 0.012172936338548502 20.106683647056631 1.5000000000000002 0.043973887075191169 -0.031498485390499993 1.5000000000000002 -0.029948398852499999 0.76856660579282876
decision_type=2 2 2 2 2 2 2 2 2 2 2 2 2 2 2 2 2 2 2 2 2 2 2 2 2 2 2 2 2 2
left_child=1 8 5 12 7 -3 15 14 17 -5 -11 -12 -4 -8 24 21 23 18 -1 27 -17 -7 -23 29 -2 26 -24 -6 -28 -9
right_child=4 2 3 9 19 6 13 16 -10 10 11 -13 -14 -15 -16 20 -18 -19 -20 -21 -22 22 25 -25 -26 -27 28 -29 -30 -31
leaf_value=0.086833008278131049 0.11991650743303339 -0.081271944357201545 -0.070066218035576167 -0.14203134880927143 0.12049120633870883 0.073717210301860223 0.096747977489669373 -0.029158775279509844 -0.055488868555450405 -0.13626188014494925 -0.075439004142533822 0.029226968721277082 0.10661357677552957 0.01462580785360019 0.13096486529080109 0.034017382397589231 0.13166637108321871 0.14374849262153835 -0.053647723024196549 -0.086471664496531153 -0.020369935483730398 -0.14958508570285986 0.019951675507049592 -0.0857216418862385 0.076859232086919985 -0.068628342204638537 -0.12579411968580201 -0.010064207694306909 -0.031513843705253362 0.060268079330693815
leaf_count=543 506 708 63 1970 30 34 616 64 87 1284 325 264 171 211 2353 240 108 275 36 111 1127 54 158 31 592 445 53 198 392 284
internal_value=0 -0.457138 -0.604992 -1.09677 0.994048 -0.159386 -0.0249368 1.10949 0.832317 -1.20501 -0.990535 -0.272618 0.577487 0.743634 1.19607 -0.264951 0.535906 0.977451 0.774805 -0.227015 -0.108311 -0.457185 -0.493465 0.330992 0.965515 -0.442795 -0.263119 0.0685616 -0.427481 0.440552
internal_count=13333 9056 8115 4077 4277 4038 3330 3938 941 3843 1873 589 234 827 3451 2503 487 854 579 339 1367 1136 1102 379 1098 1048 603 228 445 348
shrinkage=0.1


Tree=6
num_leaves=31
num_cat=0
split_feature=11 13 6 18 15 6 17 5 10 7 7 10 7 0 6 6 10 15 10 18 17 15 8 8 8 15 10 10 10 7
split_gain=1157.29 332.373 360.778 130.658 115.276 68.0678 131.459 38.1263 38.061 32.4555 103.801 38.8256 28.0938 24.3469 22.602 18.6323 14.5518 14.5207 11.9347 9.53329 9.47248 14.3217 9.43775 15.2051 13.4808 9.34295 8.97162 18.0019 8.93692 7.96091
threshold=7.295414820808527e-05 1.0000000180025095e-35 0.010100500000000002 1.0000000180025095e-35 3639650.0000000005 1.7647201968587425 1.0000000180025095e-35 11.445000000000002 1.5001000000000002 -3.2322812344999996e-06 -0.0096192342285524989 0.0010363288583880002 -0.00021374999999999999 2.5000000000000004 0.3712570479284486 0.10000679119918553 0.26772483557793669 8169.0000000000009 0.27656599579800006 1.5000000000000002 3.5000000000000004 993142.00000000012 0.037497872048836513 3.2380883301214295e-05 0.15000000000000005 8398849.5000000019 0.0051388061655486929 0.004696942127679001 15.828276269894706 -0.095139489116653472
decision_type=2 2 2 2 2 2 2 2 2 2 2 2 2 2 2 2 2 2 2 2 2 2 2 2 2 2 2 2 2 2
left_child=1 7 3 12 8 6 15 22 13 10 -5 -12 -3 19 -8 29 25 -15 -17 -2 21 -10 23 -1 -24 -6 27 -13 -7 -4
right_child=4 2 5 9 16 28 14 -9 20 -11 11 26 -14 17 -16 18 -18 -19 -20 -21 -22 -23 24 -25 -26 -27 -28 -29 -30 -31
leaf_value=0.080353813576985095 0.10610840237486913 0.087008073486443419 -0.11220618403115581 -0.13328314600577817 0.041108863713067614 -0.062378088850639668 0.090684168496771772 -0.1086577173108428 0.045091899571326116 -0.13640408103574383 -0.071794842237090914 0.048033796849630855 -0.1020417104878544 -0.050521971744805598 0.013135146740228601 0.0092166229739311985 -0.087742484596963127 0.12435731914815451 -0.02856221918143367 0.067990255640937802 0.11318032185289778 -0.069229938677726963 0.13691455988676957 -0.065065369884128615 0.009791664593865353 -0.043716647934094521 0.094763005857111698 -0.11421082836308283 -0.12021273467618168 -0.04037438698076589
leaf_count=543 553 183 68 1228 126 576 622 48 191 1964 312 121 43 21 209 668 107 2460 683 646 59 59 279 31 40 91 77 36 148 1141
internal_value=0 -0.42776 -0.565917 -1.0583 0.926289 -0.157361 -0.0381473 0.775511 1.03354 -1.16118 -0.9515 -0.22601 0.503292 1.09874 0.69369 -0.258918 -0.238966 1.22704 -0.0980019 0.852899 0.342429 0.177633 0.874944 0.717491 1.18157 0.054207 0.384532 0.108312 -0.739897 -0.444158
internal_count=13333 9020 8079 3964 4313 4115 3391 941 3989 3738 1774 546 226 3680 831 2560 324 2481 1351 1199 309 250 893 574 319 217 234 157 724 1209
shrinkage=0.1


Tree=7
num_leaves=31
num_cat=0
split_feature=11 13 6 18 15 10 17 10 10 7 5 10 10 6 6 4 15 6 0 15 11 18 10 10 17 8 8 5 15 15
split_gain=980.177 278.071 322.033 112.694 101.142 57.5202 107.72 37.4826 33.0662 96.7747 32.1703 28.6476 23.6748 20.6099 20.1782 19.6598 18.6216 15.9299 15.6202 13.9033 13.5537 13.0363 12.0286 11.1271 10.9259 8.94684 12.5823 10.928 8.06843 8.7095
threshold=0.0002135395179296984 1.0000000180025095e-35 0.010100500000000002 1.0000000180025095e-35 3453925.5000000005 1.8970983373963406 1.0000000180025095e-35 0.73007882961815407 2.1690708080000005e-06 -0.009974724571158498 11.445000000000002 0.00020150000000000002 0.00070305336687411033 0.00019265000000000002 0.3712570479284486 5.5000000000000009 87191.500000000015 0.10000679119918553 3.5000000000000004 880574.00000000012 0.73032527168013561 1.0000000180025095e-35 0.082863306828885652 0.50022384050065616 1.5000000000000002 0.058304850000000012 0.15000000000000005 1.0000000180025095e-35 2148726.5000000005 3946.5000000000005
decision_type=2 2 2 2 2 2 2 2 2 2 2 2 2 2 2 2 2 2 2 2 2 2 2 2 2 2 2 2 2 2
left_child=1 10 3 12 7 6 16 15 -5 -10 25 13 -3 -11 -8 24 17 -4 19 20 -9 -6 -23 -19 28 27 -27 -1 29 -2
right_child=4 2 5 8 21 -7 14 18 9 11 -12 -13 -14 -15 -16 -17 -18 23 -20 -21 -22 22 -24 -25 -26 26 -28 -29 -30 -31
leaf_value=0.074790429717801157 0.020424060194809333 -0.061530642536616803 -0.04260890485142018 -0.13155835506938515 0.12282817072958736 -0.069525252636830223 0.084252453842948077 -0.068120913845442957 -0.12927667202173804 0.0060226981484265661 -0.10218775057737822 0.0084258934214915624 0.091560493346978578 -0.13835391575669206 0.011080630850712769 0.12348482084927868 0.11501723277025211 0.0015203652740208905 0.090468618056751271 -0.096429829404366729 0.056672911464110534 0.0057003246519374898 -0.075070042238684867 -0.038222546818033332 0.11386161100766397 0.13245264333007742 0.0088219057202914616 -0.038018871708016239 -0.00048444146693272388 0.088217048256768751
leaf_count=540 90 63 1196 1970 26 697 627 46 1204 64 48 390 163 133 212 1871 41 941 205 41 195 167 146 414 586 275 40 38 60 844
internal_value=0 -0.395961 -0.523435 -1.00387 0.877203 -0.139832 -0.0332434 0.985172 -1.1026 -0.889044 0.724944 -0.228698 0.467408 -0.893331 0.635672 1.07179 -0.230795 -0.252222 0.44202 0.133921 0.326387 -0.190605 -0.304654 -0.104373 0.896327 0.81762 1.12927 0.665492 0.760085 0.809873
internal_count=13333 9056 8115 3987 4277 4128 3431 3938 3761 1791 941 587 226 197 839 3451 2592 2551 487 282 241 339 313 1355 1580 893 315 578 994 934
shrinkage=0.1


Tree=8
num_leaves=31
num_cat=0
split_feature=11 13 6 18 15 7 17 0 7 7 5 10 7 7 10 6 0 6 10 18 18 10 6 0 7 15 5 8 8 7
split_gain=830.883 234.033 287.731 98.304 88.1676 48.1432 89.6507 35.2474 32.4881 89.2647 27.1852 24.9188 22.4112 20.7363 17.8207 17.0771 15.5566 14.2017 13.1922 10.6724 10.6001 10.0234 9.21693 9.1552 9.00924 8.83891 8.65689 14.6343 11.4689 7.89918
threshold=0.0002135395179296984 1.0000000180025095e-35 0.010100500000000002 1.0000000180025095e-35 3453925.5000000005 -1.8611580255835314 1.0000000180025095e-35 2.5000000000000004 -3.2322812344999996e-06 -0.009974724571158498 11.445000000000002 0.00030778576947983329 -4.706842847498895 -0.00021374999999999999 7.5504789491525441 0.3712570479284486 2.5000000000000004 0.00019265000000000002 0.10000679119918553 1.0000000180025095e-35 1.5000000000000002 0.082863306828885652 0.18680282307518603 1.0000000180025095e-35 -0.20116343377100648 8169.0000000000009 0.03450000000000001 3.2380883301214295e-05 0.15000000000000005 -0.095139489116653472
decision_type=2 2 2 2 2 2 2 2 2 2 2 2 2 2 2 2 2 2 2 2 2 2 2 2 2 2 2 2 2 2
left_child=1 10 3 13 7 -4 16 12 9 -5 26 17 -2 -3 25 -8 18 23 29 -6 -14 -21 -20 -11 -24 -9 27 -1 -28 -7
right_child=4 2 5 8 19 6 15 14 -10 11 -12 -13 20 -15 -16 -17 -18 -19 22 21 -22 -23 24 -25 -26 -27 28 -29 -30 -31
leaf_value=0.069025891866361683 -0.012087445461524668 0.07604835796234348 -0.063666534014175408 -0.12496811147749901 0.1116581366675997 -0.10425344697310164 0.078598415789571371 -0.0072274608419633304 -0.12759199848082051 0.063316124975359878 -0.096307703726599844 0.010827498708615588 0.098215883157617381 -0.091056753882012398 -0.035265386586226272 0.010831653600956434 0.15072773695242694 -0.11441070685786235 0.015400246944012526 0.0051314609790959259 0.056751058790046542 -0.069018296576304247 -0.015384007053442847 -0.091656409540534001 -0.10210229530011222 0.11381426630900743 0.12620641926795148 -0.090076544877066553 0.007947687510253822 -0.033939046041644973
leaf_count=543 139 183 708 1204 26 73 627 27 1964 40 48 363 559 43 36 211 24 160 429 167 644 146 870 30 51 2533 285 25 40 1135
internal_value=0 -0.36912 -0.487627 -0.959231 0.826418 -0.127354 -0.0288952 0.931335 -1.05538 -0.84067 0.678523 -0.212875 0.651131 0.434778 1.0967 0.59041 -0.208827 -0.778665 -0.223368 -0.173391 0.753958 -0.277035 -0.0882436 0.0039385 -0.202453 1.1224 0.764971 0.61026 1.07245 -0.381303
internal_count=13333 9056 8115 3987 4277 4128 3420 3938 3761 1797 941 593 1342 226 2596 838 2582 230 2558 339 1203 313 1350 70 921 2560 893 568 325 1208
shrinkage=0.1


Tree=9
num_leaves=31
num_cat=0
split_feature=15 13 10 18 15 10 7 18 7 7 0 10 10 6 10 15 17 18 6 7 10 10 6 10 10 8 5 8 11 18
split_gain=709.141 218.443 246.619 100.024 79.5458 65.5026 45.6183 59.8488 32.0319 84.9884 30.4266 23.7931 16.5673 15.2333 15.1545 9.57857 10.587 9.23924 9.00062 13.353 8.64198 8.39253 8.66093 7.50365 8.41276 7.4706 13.9141 7.44643 7.41607 7.31892
threshold=2122.0000000000005 1.0000000180025095e-35 0.012172936338548502 1.0000000180025095e-35 3453925.5000000005 0.00051729764000000005 -1.8611580255835314 1.0000000180025095e-35 -3.2322812344999996e-06 -0.0096192342285524989 2.5000000000000004 0.0010363288583880002 0.00070305336687411033 0.39772217886378752 3.0000384329577821 1356274.5000000002 1.5000000000000002 5.5000000000000009 0.00019265000000000002 -0.00021374999999999999 7.5504789491525441 0.26772483557793669 0.0054605837354790012 0.010000000050000001 0.010999500000000002 0.15000000000000005 0.065000000000000016 3.2380883301214295e-05 0.00095792321351725201 1.5000000000000002
decision_type=2 2 2 2 2 2 2 2 2 2 2 2 2 2 2 2 2 2 2 2 2 2 2 2 2 2 2 2 2 2
left_child=1 25 3 12 5 17 -4 13 9 23 14 18 -3 -8 15 -7 -17 -2 -11 -20 -12 22 -6 -5 -25 26 27 -1 -24 -30
right_child=4 2 6 8 21 10 7 -9 -10 11 20 -13 -14 -15 -16 16 -18 -19 19 -21 -22 -23 28 24 -26 -27 -28 -29 29 -31
leaf_value=0.064619145441517548 -0.10744432295851419 -0.048704856557002768 -0.061111877186815315 -0.12228108346817479 -0.11398957228434861 0.080242659734801519 0.069593829500461668 -0.01721155283768435 -0.12411117088670012 0.025777065259514703 0.1099058380708004 0.036176033410864082 0.083622284292083293 0.0039998662705712368 -0.013057166348852811 -0.020031905580011434 0.10657927349660086 0.03632242511261264 -0.024941644147865177 -0.13216285308129483 0.0076852756909320738 -0.064981320438536758 0.13672152639628488 -0.0091895139554082541 -0.106724315804672 -0.012035696741785897 0.12407800291822942 -0.047504764760478366 0.10228032273302233 -0.0089000560884421286
leaf_count=542 92 59 733 1197 25 1054 599 2421 1953 48 2584 234 179 203 94 99 51 27 111 109 36 111 20 71 121 45 273 26 30 186
internal_value=0 -0.353482 -0.46708 -0.907174 0.763446 0.868816 -0.122459 -0.0200925 -1.00797 -0.801619 0.923731 -0.0962386 0.482391 0.502031 0.653588 0.726782 0.202437 -0.732983 -0.547463 -0.740199 1.08017 -0.144953 0.047498 -1.14275 -0.749072 0.715489 0.767212 0.58666 0.164131 0.0558826
internal_count=13333 8924 8038 4082 4409 4037 3956 3223 3844 1891 3918 502 238 802 1298 1204 150 119 268 220 2620 372 261 1389 192 886 841 568 236 216
shrinkage=0.1


Tree=10
num_leaves=31
num_cat=0
split_feature=15 13 10 18 15 6 6 18 7 7 17 10 10 6 15 10 10 6 7 6 6 10 7 0 11 18 10 15 6 7
split_gain=601.96 183.959 221.927 87.4808 69.5222 56.7728 38.8398 53.059 31.7497 76.9111 27.0679 26.3623 19.73 14.1303 11.5474 11.1336 10.9672 9.04493 8.91226 8.59151 17.8438 14.0962 12.1648 8.05905 9.83363 10.0942 7.90518 7.80502 7.64935 12.2534
threshold=2122.0000000000005 1.0000000180025095e-35 0.012172936338548502 1.0000000180025095e-35 3453925.5000000005 0.0049779723353885015 0.74953373269217161 1.0000000180025095e-35 -3.2322812344999996e-06 -0.0096192342285524989 2.5000000000000004 0.73007882961815407 0.0010363288583880002 0.0009627263638810001 2450884.0000000005 15.828276269894706 0.10000679119918553 0.046655315342313521 -0.031498485390499993 0.019982322950817501 0.020003661906182 0.015098913999626502 -0.028702733576179498 3.5000000000000004 0.014097342643091842 3.5000000000000004 0.010000000050000001 4256335.0000000009 0.00019265000000000002 -0.00021374999999999999
decision_type=2 2 2 2 2 2 2 2 2 2 2 2 2 2 2 2 2 2 2 2 2 2 2 2 2 2 2 2 2 2
left_child=1 -1 3 13 5 -2 7 -4 9 26 11 -7 28 -3 -13 -8 17 18 -9 21 -21 -20 -22 27 -25 -26 -5 -6 -11 -30
right_child=4 2 6 8 23 10 15 16 -10 12 -12 14 -14 -15 -16 -17 -18 -19 19 20 22 -23 -24 24 25 -27 -28 -29 29 -31
leaf_value=0.067040863561247679 -0.03976728771805426 -0.037182055543976224 0.056576000889210977 -0.11867909198138776 0.064304625223254683 0.085160537773592337 -0.036820321889450509 0.026593870453004362 -0.12111103932644018 0.023051956768261953 0.11622339525417461 0.031325885662322826 0.032753433864990522 0.081724771987321573 -0.11291567531383416 -0.10136103442106247 0.00087533978213819507 -0.051356076972503141 -0.041797465664525274 -0.14229415296687906 -0.090011674132338876 0.078324800579629011 0.016286084341043745 0.079033662685375719 0.08882251803091995 -0.040665686883054553 -0.069245409961182391 -0.07509212742128224 -0.022600034936862547 -0.1272964285546837
leaf_count=886 180 68 691 1197 21 2075 976 176 1953 48 1453 302 234 170 27 151 1084 435 100 68 71 71 133 62 33 138 192 118 111 109
internal_value=0 -0.329501 -0.435051 -0.869745 0.720564 0.823131 -0.111228 0.0168054 -0.968272 -0.759514 0.888672 0.741737 -0.0887028 0.449416 0.194033 -0.446979 -0.130964 -0.283275 -0.123981 -0.280802 -0.50924 0.0810213 -0.202741 -0.132149 0.100352 -0.162232 -1.09996 -0.538283 -0.506781 -0.690198
internal_count=13333 8924 8038 4082 4409 4037 3956 2829 3844 1891 3857 2404 502 238 329 1127 2138 1054 619 443 272 171 204 372 233 171 1389 139 268 220
shrinkage=0.1


Tree=11
num_leaves=31
num_cat=0
split_feature=15 13 10 18 15 10 6 18 7 7 0 10 15 7 6 17 10 6 10 10 15 7 7 18 10 0 18 5 5 10
split_gain=510.797 154.425 199.666 76.7391 60.8724 50.3486 32.669 41.333 31.5039 69.9997 30.3139 14.1365 12.6915 12.4984 12.2435 10.9492 8.73625 8.71166 8.2907 8.20692 8.51123 7.92036 7.74922 7.7112 7.41722 7.25302 8.6805 6.88402 10.4243 6.63884
threshold=2122.0000000000005 1.0000000180025095e-35 0.012172936338548502 1.0000000180025095e-35 3453925.5000000005 0.00051729764000000005 1.9792179041400002 1.0000000180025095e-35 -3.2322812344999996e-06 -0.009974724571158498 2.5000000000000004 0.00059107428964350007 1356274.5000000002 -0.00021374999999999999 0.074669079530834001 1.5000000000000002 0.010000000050000001 0.00019265000000000002 0.73007882961815407 1.5001000000000002 2307003.0000000005 -0.93316220442752795 -0.00021374999999999999 5.5000000000000009 0.010999500000000002 9.5000000000000018 1.5000000000000002 4.8117254942999104 0.065000000000000016 15.828276269894706
decision_type=2 2 2 2 2 2 2 2 2 2 2 2 2 2 2 2 2 2 2 2 2 2 2 2 2 2 2 2 2 2
left_child=1 27 3 13 5 23 7 14 9 16 12 17 18 -3 -4 21 -5 -11 -7 -12 -21 -14 -19 -2 -18 26 -6 28 -1 -8
right_child=4 2 6 8 25 10 29 -9 -10 11 19 -13 15 -15 -16 -17 24 22 -20 20 -22 -23 -24 -25 -26 -27 -28 -29 -30 -31
leaf_value=0.049096795366897837 -0.096823683645141864 0.065663364830799473 0.081551672484075494 -0.11724987051363314 0.046693741293068573 0.074434088426992492 -0.042458734081514134 -0.01406891762205046 -0.11850150326424763 0.020634556531280199 0.10396272609264633 0.016862455795209185 -0.15376639064107056 -0.073614992543668809 0.023509325227982436 0.085743376621834344 -0.0015471899827730184 -0.024654852550234967 0.025557326172722796 0.072044909804518095 -0.077434593657740747 -0.0097028138108459176 -0.12309078556603457 0.035400096998078605 -0.095217868430086963 0.026043792301622039 -0.054635734224740641 -0.065759184373862939 0.10570956560044908 -0.095703220183952761
leaf_count=568 92 199 289 1175 48 935 571 2429 1953 48 2479 304 21 39 516 56 71 63 196 119 22 90 109 27 121 135 189 20 298 151
internal_value=0 -0.307147 -0.405403 -0.834885 0.679473 0.779502 -0.101235 -0.0157644 -0.931541 -0.720273 0.831729 -0.102361 0.556237 0.418028 0.428004 -0.0196378 -1.07334 -0.54949 0.645188 1.00036 0.48406 -0.396228 -0.811284 -0.645655 -0.641877 -0.120116 -0.345336 0.62288 0.656174 -0.52842
internal_count=13333 8924 8038 4082 4409 4037 3956 3234 3844 1891 3918 524 1298 238 805 167 1367 220 1131 2620 141 111 172 119 192 372 237 886 866 722
shrinkage=0.1


Tree=12
num_leaves=31
num_cat=0
split_feature=11 13 6 18 15 4 10 7 10 17 5 10 10 11 7 0 10 15 10 10 17 10 7 5 8 8 10 7 15 10
split_gain=433.743 117.223 190.83 58.2777 52.9863 31.9073 29.9013 66.9538 25.6932 45.3304 17.2109 16.7389 13.7683 12.1489 11.6194 11.3908 11.9962 10.1559 9.20627 12.904 9.15896 8.86469 8.69449 8.6415 10.51 9.70045 8.12268 7.2613 7.07727 6.77415
threshold=0.0002135395179296984 1.0000000180025095e-35 0.010100500000000002 1.0000000180025095e-35 3639650.0000000005 5.5000000000000009 2.1690708080000005e-06 -0.009974724571158498 0.76770781366981544 1.0000000180025095e-35 11.445000000000002 0.73007882961815407 0.0051388061655486929 0.73032527168013561 -0.00021374999999999999 2.5000000000000004 0.10000679119918553 1021509.5000000001 0.004696942127679001 0.0010363288583880002 1.5000000000000002 15.828276269894706 -61.362341525423723 0.03450000000000001 3.2380883301214295e-05 0.15000000000000005 0.26772483557793669 -0.095139489116653472 8398849.5000000019 0.065331987762283009
decision_type=2 2 2 2 2 2 2 2 2 2 2 2 2 2 2 2 2 2 2 2 2 2 2 2 2 2 2 2 2 2
left_child=1 10 3 14 5 11 -5 -8 9 15 23 20 18 -13 -3 16 27 -15 19 -9 -2 -10 -7 24 -1 -25 28 -4 -6 -11
right_child=4 2 8 6 26 22 7 12 21 29 -12 13 -14 17 -16 -17 -18 -19 -20 -21 -22 -23 -24 25 -26 -27 -28 -29 -30 -31
leaf_value=0.050649454498132296 0.052098218181902092 0.057847732938181011 -0.093004863533851415 -0.11622703793630468 0.038701259215594606 0.0022403276150492284 -0.11265956224536489 -0.045647122887816582 -0.030258232284933025 0.079992522816388648 -0.085623457091454636 -0.080548476447453943 0.055361154367022374 0.048210436733957897 -0.074537601023829544 0.13719143764835032 0.0018930932831230625 -0.067464925973749035 -0.12125400323200003 0.033510858700855843 0.090891136973606471 -0.091193036236142652 0.10221870751928348 0.11495331990227982 -0.085372007471363975 0.0025665922227398942 -0.065950868346781641 -0.023789196488835908 -0.036317936066138659 0.03464085461167548
leaf_count=543 998 183 73 1970 124 46 1204 325 935 301 48 55 96 218 43 27 1079 40 41 125 586 148 2012 285 25 40 107 1135 91 430
internal_value=0 -0.279755 -0.368596 -0.819862 0.655882 0.749162 -0.908857 -0.687983 -0.085747 0.011372 0.513958 0.540998 -0.153183 0.0981554 0.316942 -0.117922 -0.131868 0.295181 -0.304644 -0.208906 0.65209 -0.373611 0.991491 0.589018 0.431454 0.934706 -0.148871 -0.278327 0.068088 0.521568
internal_count=13333 9056 8115 3987 4277 3955 3761 1791 4128 3045 941 1897 587 313 226 2314 2287 258 491 450 1584 1083 2058 893 568 325 322 1208 215 731
shrinkage=0.1


Tree=13
num_leaves=31
num_cat=0
split_feature=15 13 7 18 15 10 7 7 6 17 10 10 15 10 10 10 0 6 6 7 7 18 10 0 10 5 8 6 6 10
split_gain=370.896 109.785 166.152 48.4118 47.372 47.0815 68.1027 41.0044 40.395 27.4812 20.71 13.1 12.7499 9.98538 8.28391 9.69818 7.42603 7.36301 22.7753 6.9236 6.86086 6.44876 6.42411 6.69209 6.01492 5.82021 13.5977 5.65181 5.60783 5.59598
threshold=2122.0000000000005 1.0000000180025095e-35 -0.00021374999999999999 1.0000000180025095e-35 3453925.5000000005 0.014122628741545925 -0.0096192342285524989 -0.91218322649590888 0.0049779723353885015 2.5000000000000004 0.26772483557793669 0.010000000050000001 2425212.0000000005 0.73007882961815407 0.0051388061655486929 0.004696942127679001 3.5000000000000004 0.019982322950817501 0.020003661906182 -0.032587381492880492 -7.9436499999999982e-11 1.0000000180025095e-35 0.26772483557793669 6.5000000000000009 5.1887080836800008 0.065000000000000016 0.15000000000000005 0.074669079530834001 22.471126050000006 0.10000679119918553
decision_type=2 2 2 2 2 2 2 2 2 2 2 2 2 2 2 2 2 2 2 2 2 2 2 2 2 2 2 2 2 2
left_child=1 25 3 7 8 6 11 28 -2 10 19 -5 16 17 15 -8 24 -7 -19 -10 -4 -6 23 -23 -12 -1 -27 -9 -3 -20
right_child=4 2 20 5 21 13 14 27 9 -11 12 -13 -14 -15 -16 -17 -18 18 29 -21 -22 22 -24 -25 -26 26 -28 -29 -30 -31
leaf_value=0.041852573669265147 -0.035238648547587424 -0.028051619518309243 -0.075754867968111525 -0.11066040240970815 0.092218528447341991 0.045142694189940963 0.012383161091352011 0.065911658327066733 0.083356860815511635 0.10734566985914418 0.030992815022998582 -0.052200911215957095 -0.093319200982424327 -0.037342166178389806 0.073020165094939152 -0.099954759211944841 0.078476302554015623 -0.13124871702676982 -0.020171576957690344 0.041894690827287168 -0.11550140467335482 -0.035043544631210614 -0.066290571883323865 0.033298696057488829 -0.044242163844521148 0.11453458145771021 -0.019434547515205361 0.029336668960079051 -0.10347553510242058 0.0023451243719736854
leaf_count=568 180 329 361 1197 27 105 232 488 1513 1453 328 259 44 704 77 36 168 68 815 297 1789 123 102 120 54 273 45 419 68 1091
internal_value=0 -0.267507 -0.352397 -0.192109 0.606977 -0.297198 -0.640246 0.198867 0.702853 0.765152 0.611524 -0.954343 0.250279 -0.149409 0.135181 -0.0375285 0.345984 -0.08073 -0.108584 0.759568 -1.07186 -0.101255 -0.177005 -0.0063006 0.183478 0.545215 0.850488 0.478717 -0.38814 -0.0685066
internal_count=13333 8924 8038 5888 4409 4584 1801 1304 4037 3857 2404 1456 594 2783 345 268 550 2079 1974 1810 2150 372 345 243 382 886 318 907 397 1906
shrinkage=0.1


Tree=14
num_leaves=31
num_cat=0
split_feature=15 13 7 15 10 7 0 10 6 18 10 6 15 6 7 7 7 10 17 10 18 7 6 18 0 11 5 8 8 5
split_gain=314.441 92.1883 153.113 41.4318 40.8947 76.1728 38.5413 24.5563 20.8756 22.5554 17.4781 14.489 11.5561 10.4443 8.38126 16.2372 10.671 7.58892 8.29032 7.21969 6.68723 6.49157 6.32825 5.9451 7.53238 9.48957 5.59941 12.5478 5.58392 5.51394
threshold=2122.0000000000005 1.0000000180025095e-35 -3.2322812344999996e-06 3453925.5000000005 0.012172936338548502 -0.009974724571158498 4.5000000000000009 0.00051729764000000005 2.9473619557694519 1.0000000180025095e-35 0.0010363288583880002 0.010000000050000001 1739654.0000000002 0.3712570479284486 -0.011990116862656998 -0.011217763478563998 -0.010999499999999999 5.1887080836800008 1.5000000000000002 2.3212637005547259 1.0000000180025095e-35 -61.362341525423723 0.010100500000000002 1.5000000000000002 3.5000000000000004 0.014097342643091842 0.065000000000000016 0.15000000000000005 3.2380883301214295e-05 0.10292500000000006
decision_type=2 2 2 2 2 2 2 2 2 2 2 2 2 2 2 2 2 2 2 2 2 2 2 2 2 2 2 2 2 2
left_child=1 26 4 6 5 11 7 29 9 13 -7 -3 17 -6 -13 -16 -17 18 -9 -14 -19 -8 -18 -5 -25 -26 28 -28 -1 -2
right_child=3 2 -4 23 8 10 21 12 -10 -11 -12 14 19 -15 15 16 22 20 -20 -21 -22 -23 -24 24 25 -27 27 -29 -30 -31
leaf_value=0.044315894252118578 -0.10283113730371829 -0.11189499733462074 -0.11090989043123665 0.057018040167387478 0.050671674431190472 -0.036922222056054187 0.010580156719456954 0.048326188776378662 -0.048793643661358022 -0.010754943432513358 0.0328676340637147 -0.1049935508744697 0.014597827482906771 -0.0014303106916064806 0.16530438834478905 -0.11969988030265853 -0.051807583650276989 -0.096776190038514065 0.085848893657562209 -0.11577233678466535 0.042331811200347527 0.098300218482594917 0.090489100615988999 -0.069412798423732616 0.069090606387597661 -0.02707647102226704 0.11240172621974354 -0.017486550843727182 -0.053212100960191001 0.0063430006350800212
leaf_count=542 70 1161 1975 55 590 320 46 987 564 2544 402 73 167 257 22 54 46 25 616 22 37 2030 30 101 62 154 273 45 26 37
internal_value=0 -0.248802 -0.327561 0.572012 -0.187656 -0.495383 0.665306 0.437124 -0.0757661 -0.0176173 0.032077 -0.951379 0.50716 0.310954 -0.442334 -0.114426 -0.450667 0.574499 0.613702 -0.0517045 -0.131873 0.953441 0.172204 -0.0922753 -0.201282 0.0149055 0.508329 0.819346 0.384733 -0.634675
internal_count=13333 8924 8038 4409 6063 2108 4037 1961 3955 3391 722 1386 1854 847 225 152 130 1665 1603 189 62 2076 76 372 317 216 886 318 568 107
shrinkage=0.1


Tree=15
num_leaves=31
num_cat=0
split_feature=15 13 7 17 10 7 15 10 7 18 10 6 10 7 15 10 15 6 7 7 7 0 15 11 0 18 4 18 18 5
split_gain=266.287 77.3651 141.389 37.6131 35.6753 68.5933 30.7832 22.7836 17.4491 19.6991 15.0102 14.4844 14.3268 11.1369 8.9041 8.61228 8.01416 7.74577 7.12788 13.0419 9.24467 7.12017 6.82774 7.83575 6.23227 6.57472 5.98401 5.96046 6.20137 5.36429
threshold=2122.0000000000005 1.0000000180025095e-35 -3.2322812344999996e-06 3.5000000000000004 0.012172936338548502 -0.009974724571158498 2726834.5000000005 0.00051729764000000005 -1.8611580255835314 1.0000000180025095e-35 0.26772483557793669 0.010000000050000001 0.0010363288583880002 -0.032587381492880492 2368484.0000000005 0.26772483557793669 3453925.5000000005 0.074669079530834001 -0.011990116862656998 -0.011217763478563998 -0.010999499999999999 3.5000000000000004 1021509.5000000001 0.54332145307717761 8.5000000000000018 1.5000000000000002 5.5000000000000009 1.0000000180025095e-35 2.5000000000000004 0.03450000000000001
decision_type=2 2 2 2 2 2 2 2 2 2 2 2 2 2 2 2 2 2 2 2 2 2 2 2 2 2 2 2 2 2
left_child=1 29 4 6 5 11 7 26 -6 17 13 -3 -7 -9 21 24 -5 -10 -13 -20 -21 22 -12 -24 25 -8 -2 -15 -29 -1
right_child=3 2 -4 16 8 12 15 10 9 -11 14 18 -14 27 -16 -17 -18 -19 19 20 -22 -23 23 -25 -26 -27 -28 28 -30 -31
leaf_value=0.035209425332689628 -0.081381687219484661 -0.11008020283929457 -0.10913607465213138 0.10478952522401164 -0.039110875952513197 -0.033656913530744043 0.089535074357685068 0.080736187585591854 0.065127022497962136 -0.009088519013660484 0.027999604864960503 -0.098328196583410979 0.029876290880098483 0.10230419492713863 -0.12228897094455966 -0.068636697112898201 0.022308391075445494 0.016268911873119421 0.14534670196883195 -0.11401884757292079 0.015489800406370614 0.075611975792194738 0.045981904242602185 -0.13017100380878038 0.045267167605243977 -0.034968906921102036 0.042982769834906093 -0.0097013282911946157 0.061485573614279615 0.078542663400574642
leaf_count=564 87 1161 1975 1213 733 320 24 1594 289 2420 365 73 402 70 22 116 55 513 22 54 76 182 25 30 121 161 24 182 138 322
internal_value=0 -0.231037 -0.303894 0.538627 -0.172239 -0.467063 0.40478 0.519143 -0.0686779 -0.00609282 0.573965 -0.922149 0.0291697 0.699384 0.263628 -0.143325 0.977002 0.31473 -0.410433 -0.106954 -0.418796 0.317593 0.166003 -0.586515 0.0437428 -0.197953 -0.503695 0.323851 0.184864 0.474732
internal_count=13333 8924 8038 4409 6063 2108 3141 2719 3955 3222 2608 1386 722 1984 624 422 1268 802 225 152 130 602 420 55 306 185 111 390 320 886
shrinkage=0.1


Tree=16
num_leaves=31
num_cat=0
split_feature=11 13 10 17 15 18 6 10 7 10 6 5 0 7 15 11 7 6 7 5 8 10 10 15 18 15 10 5 10 6
split_gain=225.857 58.2331 134.046 33.7059 28.5476 27.5906 35.6859 47.5258 26.7289 20.4542 12.1452 11.8857 10.6853 8.98419 8.57359 10.397 7.89925 7.77614 20.3778 7.48873 8.0333 7.4231 11.1664 7.32934 6.68629 8.54059 6.56206 6.0234 5.78817 6.3967
threshold=7.295414820808527e-05 1.0000000180025095e-35 0.00020150000000000002 3.5000000000000004 5902398.5000000009 1.0000000180025095e-35 0.014065000000000003 0.0095236047551962421 -0.91218322649590888 0.45972158356032305 0.010000000050000001 11.445000000000002 2.5000000000000004 -0.032587381492880492 993142.00000000012 0.1510324081593177 -7.9436499999999982e-11 0.019982322950817501 -0.020003661906181993 0.065000000000000016 0.15000000000000005 0.0051388061655486929 0.004696942127679001 3453925.5000000005 11.500000000000002 2726834.5000000005 0.00019950000000000005 1.0000000180025095e-35 0.73007882961815407 1.0178319589960767
decision_type=2 2 2 2 2 2 2 2 2 2 2 2 2 2 2 2 2 2 2 2 2 2 2 2 2 2 2 2 2 2
left_child=1 11 16 4 9 8 7 21 -4 13 -9 19 17 24 15 -11 26 -8 28 27 -21 22 -7 -5 25 -2 -3 -1 -19 -30
right_child=3 2 5 23 -6 6 12 10 -10 14 -12 -13 -14 -15 -16 -17 -18 18 -20 20 -22 -23 -24 -25 -26 -27 -28 -29 29 -31
leaf_value=0.037764433562236244 0.065293661163992253 -0.045267357454985134 -0.032295295394705652 0.10241161243032942 -0.041935593186547493 0.0090915194792913472 0.043681313539577743 -0.10455444982730351 0.039807251866338877 -0.1130938116030773 -0.044132020452640142 -0.079272692166787256 0.11586829769317686 0.027158334995979024 -0.040857981701838145 0.034768159171626289 -0.11107470087592582 -0.0045376603964724259 -0.12412485501491609 0.10827853853882592 0.0019550525065696986 0.064226918057084151 -0.10495808709282209 0.022625381453782525 0.1014942994336511 -0.013239483789429258 -0.12081775139459157 -0.055742891258415653 -0.06773259895948483 -0.016406642131044823
leaf_count=540 1415 295 392 1196 187 242 106 1178 913 25 252 48 41 437 146 364 1791 1882 77 281 40 78 41 54 410 79 114 32 137 540
internal_value=0 -0.211529 -0.277663 0.514402 0.386268 -0.137907 -0.219338 -0.546369 0.166025 0.462245 -0.865826 0.383906 -0.0952269 0.585112 0.0716417 0.246703 -0.998288 -0.108597 -0.131206 0.452238 0.8258 0.0686984 -0.087826 0.950282 0.673495 0.59607 -0.673396 0.308755 -0.100889 -0.27779
internal_count=13333 9020 8079 4313 3063 5879 4574 1791 1305 2876 1430 941 2783 2341 535 389 2200 2742 2636 893 321 361 283 1250 1904 1494 409 572 2559 677
shrinkage=0.1


Tree=17
num_leaves=31
num_cat=0
split_feature=15 13 7 17 10 7 15 6 10 6 6 18 15 10 15 6 7 7 7 0 0 15 17 7 10 0 6 15 11 10
split_gain=192.116 54.4051 120.553 32.6025 26.3316 56.7201 22.684 17.6392 18.2854 14.487 13.8609 12.5841 10.5629 10.4329 7.8529 7.26607 6.2654 10.5476 8.24436 6.05097 5.68204 8.61622 5.45028 5.34642 5.53147 5.31207 5.09213 5.07145 5.72866 4.92774
threshold=2122.0000000000005 1.0000000180025095e-35 -3.2322812344999996e-06 3.5000000000000004 0.012172936338548502 -0.009974724571158498 5491375.5000000009 0.0049779723353885015 0.26772483557793669 0.010000000050000001 2.9473619557694519 1.0000000180025095e-35 2425212.0000000005 0.0010363288583880002 3453925.5000000005 0.074669079530834001 -0.011990116862656998 -0.011217763478563998 -0.010999499999999999 3.5000000000000004 1.5000000000000002 1375036.0000000002 1.0000000180025095e-35 -3.0474611280525239 15.828276269894706 7.5000000000000009 0.010100500000000002 1021509.5000000001 0.54332145307717761 0.049634098457128011
decision_type=2 2 2 2 2 2 2 2 2 2 2 2 2 2 2 2 2 2 2 2 2 2 2 2 2 2 2 2 2 2
left_child=1 -1 4 6 5 9 7 -2 20 -3 11 15 19 -7 -5 -6 -11 -18 -19 27 21 22 -9 24 -12 -8 -20 -10 -29 -16
right_child=3 2 -4 14 10 13 25 8 12 16 23 -13 -14 -15 29 -17 17 18 26 -21 -22 -23 -24 -25 -26 -27 -28 28 -30 -31
leaf_value=0.040996886611311845 -0.027758173862406067 -0.10703686845998382 -0.10607760061692616 0.10017157492068905 0.058425851236276576 -0.028454281976335361 -0.057503187011512039 0.026743194113974824 0.02282284670738649 -0.090847631976787899 -0.019893992951813058 -0.0077539445896708283 -0.066965692810542918 0.026558414715089719 -0.060675972906360745 0.010572163035830523 0.13342175144578569 -0.10753493366919109 -0.046588840032293216 0.068032093522474052 0.073362881474993966 -0.036121156396958259 0.082668683333085038 -0.121122613447815 -0.075664699636298904 0.010990648268919901 0.082427243814011383 0.040002867124576069 -0.11231524446677113 0.066581771648576468
leaf_count=886 181 1161 1975 1213 289 320 139 218 365 73 374 2544 72 402 21 558 22 54 46 186 1509 67 264 40 150 85 30 25 30 34
internal_value=0 -0.199383 -0.261795 0.478216 -0.145519 -0.41177 0.353512 0.428449 0.488794 -0.866971 -0.0582138 -0.0111962 0.161155 0.0336883 0.920277 0.241411 -0.352148 -0.0647031 -0.356574 0.269129 0.635119 0.416351 0.551715 -0.403797 -0.338982 -0.302722 0.180078 0.127914 -0.523841 0.179248
internal_count=13333 8924 8038 4409 6063 2108 3141 2917 2736 1386 3955 3391 678 722 1268 847 225 152 130 606 2058 549 482 564 524 224 76 420 55 55
shrinkage=0.1


Tree=18
num_leaves=31
num_cat=0
split_feature=15 13 7 17 10 7 15 6 10 6 6 18 15 7 10 15 17 18 6 11 10 10 11 0 11 17 11 18 15 6
split_gain=162.225 45.2901 111.016 30.2387 22.8354 50.974 19.1997 15.5469 16.3951 14.2612 11.5546 10.3081 9.35195 9.05241 12.6474 7.75218 7.07532 6.76405 6.455 5.98503 5.80169 5.79454 6.6827 5.22225 5.18631 5.39986 8.64426 5.60646 5.53426 7.46038
threshold=2122.0000000000005 1.0000000180025095e-35 -3.2322812344999996e-06 3.5000000000000004 0.012172936338548502 -0.009974724571158498 7234641.0000000009 0.0049779723353885015 0.26772483557793669 0.010000000050000001 2.9473619557694519 1.0000000180025095e-35 2425212.0000000005 -0.00021374999999999999 0.00019950000000000005 3453925.5000000005 1.0000000180025095e-35 11.500000000000002 0.3712570479284486 0.090756762864860424 0.01183420334743321 0.070325623828801517 0.010124388589470228 3.5000000000000004 0.028644271894804788 1.5000000000000002 0.012123990888826061 2.5000000000000004 45069.500000000007 0.1756000585430415
decision_type=2 2 2 2 2 2 2 2 2 2 2 2 2 2 2 2 2 2 2 2 2 2 2 2 2 2 2 2 2 2
left_child=1 -1 4 6 5 9 7 -2 17 -3 11 18 23 -7 16 -5 -15 19 -6 21 -11 24 -23 -10 25 26 27 -9 -28 -30
right_child=3 2 -4 15 10 13 -8 8 12 20 -12 -13 -14 14 -16 -17 -18 -19 -20 -21 -22 22 -24 -25 -26 -27 28 -29 29 -31
leaf_value=0.037773205108065859 -0.026930054643545975 -0.10558428069117409 -0.10465767636856359 0.097891377284308745 0.038561954232091938 0.015656349541838182 -0.039046573663020119 0.014712260194482289 0.011640299046187892 -0.0099067144335739932 -0.037195577515303654 -0.0069893316733019078 -0.058031625527753421 0.058352824982448662 -0.11823082256087575 0.016044533468062391 -0.10311774330956756 0.095244617483455224 -0.0032651636603615573 0.083571486523566524 -0.099394943209610453 -0.14199934680517004 0.017825213335389011 0.063767890918145262 0.088904710288198296 0.077979803860119545 0.095800136511092815 0.076719493179296994 -0.061961822693933799 0.07636837904681322
leaf_count=886 184 1161 1975 1213 590 547 165 153 420 166 564 2544 86 51 103 55 21 406 257 362 59 20 194 186 232 257 26 269 135 46
internal_value=0 -0.18444 -0.24205 0.448872 -0.133261 -0.387042 0.328837 0.388461 0.445635 -0.840517 -0.0527294 -0.0100549 0.136467 0.0305959 -0.482303 0.891562 0.171694 0.585061 0.220198 0.514824 -0.327254 0.430068 0.00543157 0.246836 0.508457 0.415726 0.290205 0.50528 -0.167207 -0.342228
internal_count=13333 8924 8038 4409 6063 2108 3141 2976 2792 1386 3955 3391 692 722 175 1268 72 2100 847 1694 225 1332 214 606 1118 886 629 422 207 181
shrinkage=0.1


Tree=19
num_leaves=31
num_cat=0
split_feature=11 7 13 7 7 17 15 10 10 15 8 10 18 6 18 10 15 11 15 18 10 8 8 18 6 15 11 0 11 15
split_gain=137.023 36.6924 84.3864 39.7227 41.0112 27.415 18.3723 15.9875 15.2446 10.3679 9.73758 9.53544 9.17921 9.17615 9.12871 7.09294 6.87491 8.65193 6.81701 6.78444 6.78281 6.49596 9.5705 6.44419 6.20412 5.78697 6.01503 7.15947 6.41755 5.92926
threshold=0.0002135395179296984 -0.011217763478563998 1.0000000180025095e-35 -7.9436499999999982e-11 -0.009974724571158498 3.5000000000000004 7234641.0000000009 0.45972158356032305 0.00020150000000000002 3946.5000000000005 10.95126474312613 2.8960920561095072 1.0000000180025095e-35 0.010000000050000001 11.500000000000002 0.00019950000000000005 993142.00000000012 0.38249662652216282 25553.000000000004 1.5000000000000002 0.010999500000000002 0.037497872048836513 0.15000000000000005 19.500000000000004 0.074669079530834001 2611886.5000000005 0.027234793593488873 1.5000000000000002 0.20009654677823027 3034472.0000000005
decision_type=2 2 2 2 2 2 2 2 2 2 2 2 2 2 2 2 2 2 2 2 2 2 2 2 2 2 2 2 2 2
left_child=1 9 10 4 13 6 7 14 15 11 21 12 24 -4 19 -6 17 18 -9 -2 -15 -3 -23 -7 -1 26 -21 28 -28 -27
right_child=5 2 3 -5 8 23 -8 16 -10 -11 -12 -13 -14 20 -16 -17 -18 -19 -20 25 -22 22 -24 -25 -26 29 27 -29 -30 -31
leaf_value=0.052959389168174976 0.068564095624290819 0.021638460638760154 -0.10342043968129958 -0.10776790390579538 -0.031893943232443794 0.092343088937837797 -0.043367745063750129 -0.16200897216845711 0.011105976161557694 0.082174523188980927 -0.10755914329540456 -0.03588138701155906 -0.0071152003175122477 0.015746389331953981 0.092487985240551573 -0.11617515937474049 -0.039159144061448235 0.033096910928992689 0.0037163596860856855 0.02002197347485982 -0.10004827055312181 0.1058283221892878 -0.0034386602373759727 -0.029616684792112293 0.0078578162007384 -0.12695099573054183 0.04285352530461211 0.078717585278983315 -0.081625148854466797 0.0078608892660399429
leaf_count=294 554 575 1162 1793 304 1212 146 20 570 85 30 533 2574 81 428 114 156 336 33 625 53 279 57 34 552 28 98 481 33 93
internal_value=0 -0.167081 -0.372687 -0.60687 -0.393908 0.429669 0.313742 0.371925 -0.0878126 -0.0382133 0.302677 -0.052376 -0.0152205 -0.885064 0.490472 -0.543944 0.0278538 0.19104 -0.664053 0.418387 -0.297606 0.354106 0.710264 0.873503 0.204502 0.316857 0.385522 0.591116 0.103222 -0.148267
internal_count=13333 9056 5018 4077 2284 4277 3031 2885 988 4038 941 3953 3420 1296 2340 418 545 389 53 1912 134 911 336 1246 846 1358 1237 612 131 121
shrinkage=0.1


Tree=20
num_leaves=31
num_cat=0
split_feature=11 7 13 10 7 17 15 10 10 6 0 8 10 10 10 15 18 10 7 18 15 8 8 10 6 11 15 18 18 6
split_gain=115.307 32.2344 72.7947 38.7021 42.4276 25.1696 15.617 13.8681 9.1311 9.10689 8.43083 8.30589 8.15923 15.7474 7.28256 6.95145 6.92711 6.7726 6.56246 6.08241 6.02931 5.91695 8.93432 5.89618 5.73436 5.49561 6.11054 4.77924 4.77754 8.19225
threshold=0.0002135395179296984 -0.011217763478563998 1.0000000180025095e-35 2.1690708080000005e-06 -0.009974724571158498 3.5000000000000004 8398849.5000000019 0.45972158356032305 15.828276269894706 0.010000000050000001 2.5000000000000004 10.95126474312613 0.0048482728009257335 0.004696942127679001 20.106683647056631 3453925.5000000005 11.500000000000002 0.0010363288583880002 -0.011990116862656998 1.5000000000000002 47601.000000000007 0.037497872048836513 0.15000000000000005 0.010999500000000002 0.012254300377988503 0.76856660579282876 934439.00000000012 1.0000000180025095e-35 1.0000000180025095e-35 0.29333572333651664
decision_type=2 2 2 2 2 2 2 2 2 2 2 2 2 2 2 2 2 2 2 2 2 2 2 2 2 2 2 2 2 2
left_child=1 8 11 27 9 6 7 16 10 -5 18 21 13 17 25 20 19 -6 24 -2 -7 -3 -23 -11 -1 -9 -27 -4 29 -26
right_child=5 2 3 4 12 15 -8 14 -10 23 -12 -13 -14 -15 -16 -17 -18 -19 -20 -21 -22 22 -24 -25 28 26 -28 -29 -30 -31
leaf_value=-0.084133750103888294 0.06471346242908696 0.019713710169957151 0.028814885273315244 -0.10199498596248008 -0.024401936848492942 -0.074112930804096352 -0.048420896583814724 -0.02690531367811427 -0.068630745357936992 0.014083281608332582 0.11255761119596766 -0.10344926480359205 0.042295861307430266 -0.16532495344982673 -0.089884101857307219 0.014224371074896542 0.083525787892247363 0.026670095266132367 0.11989073190717309 0.029313590150793312 0.097846533515517808 0.10391947323704853 -0.0030949339656369439 -0.095680958334045829 0.034596292112983054 0.046200943698652276 -0.020826423231508344 -0.10511628040488248 -0.0065720306334359074 -0.0083910790072989575
leaf_count=56 558 575 21 1162 380 21 120 168 147 81 49 30 168 27 37 53 435 215 22 1367 1172 279 57 53 560 244 102 1970 2751 453
internal_value=0 -0.154214 -0.352831 -0.578384 -0.346773 0.401624 0.290855 0.33981 -0.0345612 -0.860531 -0.0180095 0.280083 -0.0126412 -0.137716 0.0206872 0.842934 0.452065 -0.0484112 -0.0269403 0.388943 0.938967 0.327242 0.678866 -0.274016 -0.0334761 0.0993042 0.260062 -1.02286 -0.0247639 0.119953
internal_count=13333 9056 5018 4077 2086 4277 3031 2911 4038 1296 3891 941 790 622 551 1246 2360 595 3842 1925 1193 911 336 134 3820 514 346 1991 3764 1013
shrinkage=0.1


Tree=21
num_leaves=31
num_cat=0
split_feature=15 13 7 0 15 15 10 7 6 10 6 10 10 10 15 10 6 10 15 17 17 5 18 11 10 10 10 7 6 11
split_gain=97.6328 26.4316 86.4268 23.6482 18.7467 15.8005 14.9988 30.8126 20.0153 13.0921 9.94824 9.73202 8.67791 7.67781 7.43578 7.39547 7.11238 6.685 9.67336 6.45715 5.98276 5.76841 5.63294 7.45219 5.54519 18.1586 7.92528 7.33325 7.00431 5.50538
threshold=2122.0000000000005 1.0000000180025095e-35 -3.2322812344999996e-06 4.5000000000000009 3126467.5000000005 1739654.0000000002 0.015098913999626502 -0.009974724571158498 0.010000000050000001 0.018450659275837607 0.020003661906182 0.014922729637952369 0.4736138604461177 0.014122628741545925 203.50000000000003 0.00030778576947983329 0.019982322950817501 0.0024214126703239621 1171670.5000000002 1.0000000180025095e-35 1.5000000000000002 0.10292500000000006 2.5000000000000004 0.0087438528656514584 0.10000679119918553 0.099991964871194314 0.039828206842027501 -0.037880221317011999 0.10911149081585651 0.32255129732626936
decision_type=2 2 2 2 2 2 2 2 2 2 2 2 2 2 2 2 2 2 2 2 2 2 2 2 2 2 2 2 2 2
left_child=1 -1 6 5 17 15 7 8 -3 -8 16 13 24 19 -9 21 -11 18 -5 -10 -7 -2 -6 -24 25 26 27 -12 -26 -19
right_child=3 2 -4 4 22 20 9 14 11 10 12 -13 -14 -15 -16 -17 -18 29 -20 -21 -22 -23 23 -25 28 -27 -28 -29 -30 -31
leaf_value=0.02994212832522173 -0.088075894915224717 -0.10159760522763971 -0.10094927586956658 -0.14795270660716361 0.11762626881964747 -0.042756795467660091 0.085206282067706904 0.0070743357633836108 -0.035176806132870379 0.024036228193614784 0.12033465185307386 -0.15237978233578919 -0.017753507932798344 0.10200800761277229 -0.13018466836056722 0.035137645981478359 -0.11541758411085859 0.093639108602883853 0.069062846458576965 0.082887055994036937 0.030186268826874665 0.039812203815682651 0.07121192926194421 -0.023394847956649499 0.069349980345942849 -0.15408350673767626 -0.017585452736338141 0.013034234905959344 0.0092852465825681556 0.046249821903136298
leaf_count=886 60 1161 1975 27 25 264 78 702 276 24 34 25 1352 28 20 1670 68 1618 63 37 101 32 62 190 89 41 632 388 1108 297
internal_value=0 -0.145699 -0.190862 0.368542 0.624449 0.18853 -0.102418 -0.306181 -0.645323 -0.0340907 -0.0524035 -0.244144 -0.0350248 -0.126489 0.0296587 0.306097 -0.776615 0.790746 -0.0359709 -0.239608 -0.25743 -0.378736 0.0926732 -0.0102649 0.0438617 -0.0737153 -0.0179488 0.216785 0.138781 0.84082
internal_count=13333 8924 8038 4409 2282 2127 6063 2249 1527 3814 3736 366 3644 341 722 1762 92 2005 90 313 365 92 277 252 2292 1095 1054 422 1197 1915
shrinkage=0.1


Tree=22
num_leaves=31
num_cat=0
split_feature=0 6 13 7 7 6 15 6 17 10 17 15 17 10 10 10 5 11 7 7 17 8 8 15 15 6 15 15 11 15
split_gain=83.0268 24.9009 51.6042 39.0266 43.4113 20.0025 15.4589 11.9764 10.5393 10.3767 10.2616 10.0175 9.55411 9.06251 8.61621 9.17469 7.11372 6.33896 5.91905 11.4759 6.75042 5.58099 8.76485 5.08345 5.05766 6.29377 6.31911 8.94399 5.90923 4.97009
threshold=1.5000000000000002 0.010100500000000002 1.0000000180025095e-35 -7.9436499999999982e-11 -0.009974724571158498 0.0049779723353885015 5491375.5000000009 22.471126050000006 1.0000000180025095e-35 0.36802885505056854 2.5000000000000004 23209.000000000004 1.0000000180025095e-35 0.26772483557793669 0.00020150000000000002 0.00019950000000000005 56.305000000000007 0.69186210901834688 -9.9845478999999974e-07 -3.2322812344999996e-06 1.0000000180025095e-35 0.058304850000000012 0.15000000000000005 2611886.5000000005 893920.00000000012 0.029014472800000003 697080.00000000012 804149.00000000012 0.0029786531245429722 3349217.5000000005
decision_type=2 2 2 2 2 2 2 2 2 2 2 2 2 2 2 2 2 2 2 2 2 2 2 2 2 2 2 2 2 2
left_child=1 2 16 4 -4 12 10 8 23 -10 13 -12 -2 24 15 18 21 -11 19 20 -6 -1 -23 -3 25 28 -27 -28 -7 -13
right_child=5 7 3 -5 14 6 -8 -9 9 17 11 29 -14 -15 -16 -17 -18 -19 -20 -21 -22 22 -24 -25 -26 26 27 -29 -30 -31
leaf_value=0.015591742039582522 0.0045235239209590501 -0.005228580186224698 -0.095489599775383835 -0.10586145777475651 0.065133065552447592 0.035820240902943938 -0.0071091643464729669 -0.075185975561189999 0.038489760485098799 -0.012641742928982428 -0.075700367236087682 0.091195934590102112 -0.1571483171275066 0.008854226004913689 0.011547798868066984 -0.11393652730680233 -0.10031564287713123 0.063814949352597503 0.1235184895776371 -0.10819774893393296 -0.094901626330676531 0.10452492352740339 -0.004656090781482547 -0.084486504587302197 0.073142173857997483 0.063234671324154931 -0.20764709753513053 0.035247165183168193 -0.13193672042485363 -0.011288760918341433
leaf_count=579 45 3290 1207 1788 58 32 213 143 897 477 31 1415 39 371 629 114 31 64 34 154 22 275 56 42 803 394 22 48 30 30
internal_value=0 -0.108948 -0.301521 -0.51191 -0.294539 0.429741 0.478681 -0.01869 -0.00194377 0.184389 0.560698 0.80483 -0.713476 0.419806 -0.0147677 -0.415579 0.23498 -0.0403645 -0.102434 -0.259046 0.292285 0.279594 0.642622 -0.0612534 0.564428 0.334422 0.476975 -0.388628 -0.462681 0.863582
internal_count=13333 9860 4947 4006 2218 3473 3389 4913 4770 1438 3176 1476 84 1700 1011 382 941 541 268 234 80 910 331 3332 1329 526 464 70 62 1445
shrinkage=0.1


Tree=23
num_leaves=31
num_cat=0
split_feature=0 6 13 7 7 6 15 17 6 17 10 17 10 10 10 8 10 7 11 7 8 8 15 18 7 7 17 15 15 17
split_gain=70.1114 21.6573 44.4529 37.3855 39.3207 16.7926 13.5406 10.1869 10.0896 8.66073 8.70035 7.96474 7.91021 7.3169 8.4203 6.18259 5.63615 13.7391 5.41968 5.20783 5.05621 8.14834 4.99463 4.73729 4.48688 10.2418 5.54913 4.42282 4.37118 4.37731
threshold=1.5000000000000002 0.010100500000000002 1.0000000180025095e-35 -7.9436499999999982e-11 -0.009974724571158498 0.0049779723353885015 5491375.5000000009 5.5000000000000009 22.471126050000006 1.0000000180025095e-35 0.36802885505056854 1.0000000180025095e-35 0.50022384050065616 0.00020150000000000002 0.00019950000000000005 10.95126474312613 0.50022384050065616 -0.49780997296364854 0.38249662652216282 -0.91218322649590888 0.058304850000000012 0.15000000000000005 961478.00000000012 1.0000000180025095e-35 -9.9845478999999974e-07 -3.2322812344999996e-06 1.0000000180025095e-35 3639650.0000000005 1436219.0000000002 1.5000000000000002
decision_type=2 2 2 2 2 2 2 2 2 2 2 2 2 2 2 2 2 2 2 2 2 2 2 2 2 2 2 2 2 2
left_child=1 2 15 4 -4 11 7 12 9 27 -11 -2 -7 14 24 20 17 -12 19 -18 -1 -22 -14 -15 25 26 -6 -3 -24 -30
right_child=5 8 3 -5 13 6 -8 -9 -10 10 16 -13 22 23 -16 -17 18 -19 -20 -21 21 -23 28 -25 -26 -27 -28 -29 29 -31
leaf_value=0.014160472562466463 0.004072035122234959 -0.0048481116207058396 -0.093698930214077214 -0.10527279900893012 0.057212936982007502 0.053760449575072637 -0.0064048157337679244 0.091373709286934737 -0.070176171593906475 0.0355780576693401 -0.22329304918098788 -0.14429908113174827 0.034151319217545648 0.044660297283438594 -0.11243630135839858 -0.097714161683252906 -0.018363393180767473 0.0029134317798580616 0.061193151569195248 0.044104415952709156 0.10317257697582115 -0.0038509570232924985 -0.13999457550844513 -0.00071383666259928016 0.10061149206210639 -0.10736906780639484 -0.090923040365341976 -0.096698957522288007 -0.034527126668676918 0.09145644366995849
leaf_count=579 45 3303 1207 1788 58 1944 213 901 143 897 20 39 209 198 114 30 335 37 79 70 275 57 20 431 34 154 22 29 77 25
internal_value=0 -0.100223 -0.284627 -0.486766 -0.275451 0.402955 0.44929 0.529198 -0.0168743 -0.00169373 0.168818 -0.648615 0.436454 -0.0143152 -0.392633 0.216733 -0.0364179 -0.664124 0.046653 -0.0537881 0.257822 0.6149 0.0966391 0.104198 -0.0970264 -0.24372 0.260518 -0.0551934 -0.289745 -0.0974713
internal_count=13333 9860 4947 4006 2218 3473 3389 3176 4913 4770 1438 84 2275 1011 382 941 541 57 484 405 911 332 331 629 268 234 80 3332 122 102
shrinkage=0.1


Tree=24
num_leaves=31
num_cat=0
split_feature=4 6 13 7 7 15 17 15 15 15 6 11 10 15 10 18 15 16 6 17 7 11 10 6 11 7 10 15 5 8
split_gain=60.4191 26.081 36.1654 36.3929 34.4708 15.9413 15.282 8.75705 8.73528 10.7471 8.40446 11.8288 8.17517 6.40799 6.37117 5.86084 5.73225 5.68084 6.65515 5.95236 4.97739 4.65074 7.86764 5.39452 4.46522 4.45319 5.02943 4.45123 4.2459 7.9328
threshold=5.5000000000000009 0.010100500000000002 1.0000000180025095e-35 -7.9436499999999982e-11 -0.009974724571158498 2765980.0000000005 1.5000000000000002 7163.5000000000009 1356274.5000000002 3946.5000000000005 12.146721281993512 8.1620756462807957 0.00059107428964350007 1201634.5000000002 1.7576111772935386 6.5000000000000009 132405.50000000003 1.0000000180025095e-35 2.9473619557694519 1.0000000180025095e-35 -3.0474611280525239 0.093223952118066403 0.043973887075191169 0.15027560768491852 0.80971141842014271 -9.9845478999999974e-07 2.1690708080000005e-06 20254.000000000004 0.065000000000000016 0.15000000000000005
decision_type=2 2 2 2 2 2 2 2 2 2 2 2 2 2 2 2 2 2 2 2 2 2 2 2 2 2 2 2 2 2
left_child=1 2 7 4 -4 13 8 28 9 17 -8 -12 25 15 24 -2 -17 18 19 -3 -20 22 23 -18 -7 26 -6 -11 -1 -30
right_child=5 6 3 -5 12 14 10 -9 -10 27 11 -13 -14 -15 -16 16 21 -19 20 -21 -22 -23 -24 -25 -26 -27 -28 -29 29 -31
leaf_value=0.013711552035884894 0.078700885505159343 -0.0055683561700343755 -0.091456052661791257 -0.10476028442480233 -0.1073353628541734 0.01110559189776006 0.05652629177399246 -0.13933723396804445 -0.044955401063263276 0.080813999243833659 -0.1564607237128374 0.060083947156486496 0.011924350174189729 0.088282150994032665 -0.093647337996003235 0.059582179369919788 -0.11730057527344673 0.10858611129203542 -0.023431205992598514 0.017110727810537619 -0.11235671745781287 0.018318479485765593 -0.30217478746392962 0.10725408936371261 0.11780423145156647 0.07329294359491495 -0.027040043264805746 0.021301188699876489 0.10160040348139286 -0.011968025667649285
leaf_count=569 344 2720 1210 1791 163 339 672 21 264 98 26 25 609 1299 30 123 25 21 507 848 41 89 21 27 27 36 308 757 274 49
internal_value=0 -0.0679638 -0.275348 -0.45248 -0.258538 0.526192 0.0143968 0.195047 -0.018507 0.00147101 0.439355 -0.410525 -0.0375841 0.716174 0.0908704 0.429622 0.0972749 -0.0374831 -0.0434136 -0.0131583 -0.302731 -0.352436 -0.998386 -0.360258 0.196767 -0.330614 -0.39813 0.286057 0.241479 0.594143
internal_count=13333 11009 5030 4117 2326 2324 5979 913 5256 4992 723 51 1116 1928 396 629 285 4137 4116 3568 548 162 73 52 366 507 471 855 892 323
shrinkage=0.1


Tree=25
num_leaves=31
num_cat=0
split_feature=4 6 13 7 7 15 17 15 6 11 15 15 10 15 17 11 0 10 18 16 6 17 18 7 10 7 7 7 17 18
split_gain=51.2661 22.2716 30.9353 34.8127 31.1705 14.5361 12.8451 7.55122 7.08697 9.30402 7.07149 9.48958 6.93151 6.15912 5.87076 5.584 7.62378 5.39273 5.25476 4.55946 5.51573 4.84811 4.55157 4.48586 3.96137 5.37366 5.48573 5.71493 3.89591 5.40102
threshold=5.5000000000000009 0.010100500000000002 1.0000000180025095e-35 -7.9436499999999982e-11 -0.009974724571158498 2765980.0000000005 1.5000000000000002 7163.5000000000009 12.146721281993512 8.1620756462807957 1271976.5000000002 3946.5000000000005 0.0010363288583880002 1201634.5000000002 1.5000000000000002 7.295414820808527e-05 1.0000000180025095e-35 2.4921425427628026 4.5000000000000009 1.0000000180025095e-35 2.9473619557694519 1.0000000180025095e-35 1.0000000180025095e-35 -3.0474611280525239 9.9845479000000017e-07 -3.2322812344999996e-06 -0.00010920991107549999 -0.00021374999999999999 6.5000000000000009 18.500000000000004
decision_type=2 2 2 2 2 2 2 2 2 2 2 2 2 2 2 2 2 2 2 2 2 2 2 2 2 2 2 2 2 2
left_child=1 2 7 4 -4 13 10 -1 -8 -10 11 19 14 18 15 16 24 28 -2 20 21 -3 -14 -22 -6 26 27 -26 -7 -30
right_child=5 6 3 -5 12 17 8 -9 9 -11 -12 -13 22 -15 -16 -17 -18 -19 -20 -21 23 -23 -24 -25 25 -27 -28 -29 29 -31
leaf_value=0.02220269410333214 0.088299713843880079 -0.0050178202978505993 -0.089457348771843082 -0.10428702394466816 0.089418277638677823 0.0014681986763924262 0.052984425782296868 -0.13479412422397125 -0.13636884057056317 0.054412858389924559 -0.038932750792826903 0.027659068357207231 0.053696103443393386 0.085677602329820676 -0.13943712389171078 0.06385053588427872 -0.12020350898944571 -0.10323587507393497 0.017355208167331788 0.096787065236408815 -0.021374822802467504 0.015506812211850275 0.0025279467802077514 -0.10848085596567157 0.0016518708906895715 -0.10598025681487211 0.069732174688476908 -0.075518605042181122 0.09846329435660843 -0.057297648552776803
leaf_count=892 257 2720 1210 1791 31 238 672 21 26 25 289 830 168 1299 26 35 70 24 372 21 507 848 351 41 133 136 36 130 114 20
internal_value=0 -0.0624224 -0.258403 -0.427179 -0.24001 0.495286 0.0131361 0.179563 0.409404 -0.364133 -0.0167255 0.00207553 -0.0344559 0.685301 -0.252211 -0.187894 -0.277205 0.0820143 0.402043 -0.0338975 -0.0392544 -0.0118607 0.146095 -0.27751 -0.156472 -0.218902 -0.106803 -0.242427 0.165016 0.642612
internal_count=13333 11009 5030 4117 2326 2324 5979 913 723 51 5256 4967 1116 1928 597 571 536 396 629 4137 4116 3568 519 548 466 435 299 263 372 134
shrinkage=0.1


Tree=26
num_leaves=31
num_cat=0
split_feature=4 6 13 7 7 15 17 15 10 10 7 6 11 10 15 15 18 10 17 11 0 6 6 10 15 17 11 11 6 15
split_gain=43.4692 19.0431 26.509 33.0751 28.0383 13.0631 10.7777 6.5203 6.12442 6.03434 8.84814 5.97202 7.38212 5.77158 5.722 7.33549 5.0414 6.72531 5.02086 4.62358 6.81476 4.36738 4.5202 4.23358 4.22803 4.99792 4.14337 6.10951 4.00567 3.9474
threshold=5.5000000000000009 0.010100500000000002 1.0000000180025095e-35 -7.9436499999999982e-11 -0.009974724571158498 2765980.0000000005 1.5000000000000002 7163.5000000000009 0.50022384050065616 0.0024214126703239621 -0.013773248073313 12.146721281993512 8.1620756462807957 0.0010363288583880002 1356274.5000000002 3946.5000000000005 2.5000000000000004 1.7576111772935386 1.5000000000000002 7.295414820808527e-05 1.0000000180025095e-35 0.95407175510251474 0.15027560768491852 0.095027231198154025 40836.000000000007 2.5000000000000004 0.010458059351437232 0.0038292785799698809 0.010666963315280003 20254.000000000004
decision_type=2 2 2 2 2 2 2 2 2 2 2 2 2 2 2 2 2 2 2 2 2 2 2 2 2 2 2 2 2 2
left_child=1 2 7 4 -4 8 14 -1 9 10 -2 -8 -13 18 15 28 -7 -18 19 20 -6 22 26 -24 -10 -26 27 -16 -3 -17
right_child=5 6 3 -5 13 16 11 -9 24 -11 -12 12 -14 -15 21 29 17 -19 -20 -21 -22 -23 23 -25 25 -27 -28 -29 -30 -31
leaf_value=0.020251645769916629 -0.17879999185949927 0.09566867820414289 -0.087391775846939523 -0.10386262851280521 -0.014422864110955877 0.10626305685508829 0.049561325337434237 -0.13085410549215387 -0.089692694036561493 0.084431397572263409 0.049070642458406775 -0.11993366652226685 0.049303587910601139 0.013290851845193633 -0.086051555226518139 0.074943544499223774 0.0097082973873636753 -0.11615088394825535 -0.13134485825220682 0.058251606586981974 -0.11649033935111253 -0.086852260094358272 0.10674989869796117 -0.013813275448253623 -0.0051547263870814382 0.10697227757094073 -0.089275099527544227 0.074131464560367247 -0.0035436688350922183 0.017200063314655595
leaf_count=892 34 20 1210 1791 466 34 672 21 20 1616 72 26 25 519 24 98 334 28 26 35 70 76 29 48 78 108 57 30 4117 757
internal_value=0 -0.0573718 -0.242647 -0.40416 -0.223723 0.466038 0.0119655 0.163934 0.653987 0.756424 0.0667384 0.38087 -0.324575 -0.0320157 -0.0151191 0.00127326 0.0748923 -0.0136093 -0.233462 -0.174013 -0.256466 -0.362484 -0.1719 0.298184 0.155843 0.352028 -0.464212 0.0124748 -0.0306454 0.240764
internal_count=13333 11009 5030 4117 2326 2324 5979 913 1928 1722 106 723 51 1116 5256 4992 396 362 597 571 536 264 188 77 206 186 111 54 4137 855
shrinkage=0.1


Tree=27
num_leaves=31
num_cat=0
split_feature=0 6 13 7 7 15 15 0 15 6 15 15 17 10 17 0 18 7 7 15 18 5 8 8 11 10 15 15 15 10
split_gain=36.8953 13.1336 23.3769 31.6346 25.8295 11.0513 14.4739 8.72121 9.60165 8.06871 9.16535 6.94184 6.8979 5.82531 6.70674 5.47766 5.02197 4.88227 9.31574 4.87617 4.82296 4.81273 4.96658 6.20315 4.76368 4.37397 4.26076 4.20752 4.19427 4.1071
threshold=2.5000000000000004 0.010100500000000002 1.0000000180025095e-35 -7.9436499999999982e-11 -0.009974724571158498 2283697.0000000005 804149.00000000012 8.5000000000000018 3034472.0000000005 0.029014472800000003 697080.00000000012 3126467.5000000005 3.5000000000000004 20.106683647056631 1.5000000000000002 3.5000000000000004 3.5000000000000004 -0.0049282117533344999 -0.0046569549058514993 1271976.5000000002 10.500000000000002 56.305000000000007 0.058304850000000012 0.15000000000000005 0.22951625607455903 0.24678143059799665 23209.000000000004 431021.00000000006 3946.5000000000005 0.00059107428964350007
decision_type=2 2 2 2 2 2 2 2 2 2 2 2 2 2 2 2 2 2 2 2 2 2 2 2 2 2 2 2 2 2
left_child=1 2 21 4 -4 6 9 8 -7 15 16 -9 -12 14 19 -2 26 27 -19 28 -13 22 -1 -24 -8 -16 -11 -6 -3 -20
right_child=5 13 3 -5 17 7 24 11 -10 10 12 20 -14 -15 25 -17 -18 18 29 -21 -22 -23 23 -25 -26 -27 -28 -29 -30 -31
leaf_value=0.0076809313116763013 0.016751318403911395 -0.0018512710906185264 -0.085252206134402778 -0.10347878238056599 0.016839502128141375 -0.13437541175821943 0.095297309659593155 0.081966917339701073 -0.0035725041346596122 -0.039308896660596927 -0.25217338467850869 0.06586924831697108 0.036727152573568837 -0.055742051056750855 0.065537784114466924 -0.14235578451722306 0.019004284305689664 -0.12400874168847774 -0.024520741474522698 -0.039077664232028977 -0.017096248812258606 -0.094343936866069802 0.10004499198671442 0.0014486300548443233 0.038566937352375333 0.0038959084368353439 0.102500683103756 0.11911604443346191 0.021332418341316883 0.013088629443627237
leaf_count=579 31 4011 1210 1790 208 79 1125 354 147 22 20 72 30 142 295 40 389 31 492 183 130 31 275 56 220 131 266 27 630 317
internal_value=0 -0.0623271 -0.218458 -0.380179 -0.201998 0.368142 0.537786 0.08736 -0.308356 0.179503 0.322373 0.339577 -1.27529 -0.00241541 0.00792861 -0.711865 0.427429 -0.0157512 -0.116417 -0.0102347 0.0686346 0.152791 0.18995 0.574095 0.817111 0.378613 0.840319 0.276877 0.00325926 -0.0491881
internal_count=13333 10408 5016 4075 2285 2925 2143 782 226 798 727 556 50 5392 5250 71 677 1075 840 4824 202 941 910 331 1345 426 288 235 4641 809
shrinkage=0.1


Tree=28
num_leaves=31
num_cat=0
split_feature=4 7 7 13 7 15 17 7 15 15 18 15 10 10 10 10 10 6 6 10 6 7 18 6 10 7 7 15 10 10
split_gain=31.8915 13.8745 21.5508 11.8651 40.6852 10.8149 7.47299 5.82355 5.46049 4.77376 5.17586 6.0055 4.62664 10.0321 4.54271 5.49432 7.99664 5.06425 5.47131 6.05461 4.56513 16.1968 6.75401 6.02314 5.66587 10.2392 7.48373 6.28687 6.07539 8.08025
threshold=5.5000000000000009 -0.010000000049999997 -0.009974724571158498 1.0000000180025095e-35 -7.9436499999999982e-11 2765980.0000000005 1.5000000000000002 -61.362341525423723 7163.5000000000009 1201634.5000000002 6.5000000000000009 294144.50000000006 0.0048482728009257335 0.004696942127679001 0.73007882961815407 1.0000145217500001 0.9868460453800002 1.7647201968587425 2.0775921073619781 2.8960920561095072 0.10000679119918553 -0.09997628503437149 1.0000000180025095e-35 0.10911149081585651 0.042907565807456007 -0.031498485390499993 -0.029948398852499999 1940467.0000000002 0.050038476104339757 0.058793462469733361
decision_type=2 2 2 2 2 2 2 2 2 2 2 2 2 2 2 2 2 2 2 2 2 2 2 2 2 2 2 2 2 2
left_child=1 6 -3 8 12 7 14 -2 -4 10 -9 -12 13 -5 20 16 -16 -17 -19 -20 21 -1 -23 -22 25 27 -27 -24 -26 -30
right_child=5 2 3 4 -6 -7 -8 9 -10 -11 11 -13 -14 -15 15 17 -18 18 19 -21 23 22 24 -25 28 26 -28 -29 29 -31
leaf_value=-0.14792877508846317 -0.042115512842721345 -0.091080321043556012 0.016953803342786584 -0.0044537740397536758 -0.10315323224352822 0.0062331090067743343 0.032679359560857012 0.077763534192618264 -0.12762630817134166 0.082234555580964555 0.05705568938808904 -0.049301340285866253 0.031816601304267909 -0.12841217366505647 -0.01488809417699892 0.023535484770323994 -0.10156977311226245 -0.066688592434898539 0.029159463280005318 -0.019948008414164942 0.059511614459806073 0.033260644890726797 0.046030358930559595 0.0068469214602042659 -0.071610938526809012 -0.087518702465923359 -0.0062503328348122392 -0.061197754232083262 0.055131440074031417 -0.030464861400901183
leaf_count=42 40 1162 892 919 1792 396 723 332 21 1289 135 132 166 31 150 196 72 88 182 626 105 354 323 1909 116 60 732 31 63 254
internal_value=0 -0.048498 -0.214147 -0.131614 -0.264495 0.415695 0.009318 0.601355 0.134836 0.654057 0.378038 0.0452854 -0.0272798 -0.105701 -0.0126012 -0.131122 -0.433401 -0.056822 -0.14509 -0.0755604 0.0255541 -0.0566662 -0.0248242 0.0986206 -0.0788553 0.0118274 -0.129787 0.354765 -0.284517 -0.133097
internal_count=13333 11009 4983 3821 2908 2324 6026 1928 913 1888 599 267 1116 950 5303 1314 222 1092 896 808 3989 1975 1933 2014 1579 1146 792 354 433 317
shrinkage=0.1


Tree=29
num_leaves=31
num_cat=0
split_feature=4 7 7 13 7 15 17 10 10 11 18 15 6 11 18 10 10 10 17 15 15 15 15 17 10 11 11 0 18 5
split_gain=26.8544 11.6945 19.6441 9.90422 37.693 9.6944 6.19327 5.54417 5.87435 7.95428 12.4674 4.74806 4.62431 6.06218 4.2017 5.63467 4.13391 4.01778 4.33936 3.83406 6.00963 5.79493 3.87554 4.73773 5.12854 4.08008 3.82203 6.24934 3.80266 3.47508
threshold=5.5000000000000009 -0.010000000049999997 -0.009974724571158498 1.0000000180025095e-35 -7.9436499999999982e-11 2765980.0000000005 1.5000000000000002 0.50022384050065616 0.0024214126703239621 0.00054034638723284955 5.5000000000000009 7163.5000000000009 12.146721281993512 8.1620756462807957 2.5000000000000004 1.7576111772935386 26.043478260869566 0.0010363288583880002 1.5000000000000002 1271976.5000000002 785152.00000000012 697080.00000000012 3946.5000000000005 1.0000000180025095e-35 0.056892322237242506 0.0047948025280857677 7.295414820808527e-05 1.0000000180025095e-35 1.0000000180025095e-35 0.065000000000000016
decision_type=2 2 2 2 2 2 2 2 2 2 2 2 2 2 2 2 2 2 2 2 2 2 2 2 2 2 2 2 2 2
left_child=1 6 -3 11 17 7 16 8 9 -2 -11 29 -8 -14 -7 -16 19 18 26 20 21 22 -1 24 -24 -25 27 -5 -19 -4
right_child=5 2 3 4 -6 14 12 -9 -10 10 -12 -13 13 -15 15 -17 -18 28 -20 -21 -22 -23 23 25 -26 -27 -28 -29 -30 -31
leaf_value=-0.0015921250185865811 0.056365055973128235 -0.089445389391147018 0.0060997770193932689 -0.011154481307805327 -0.10284442753358941 0.097610876285095377 0.041053518737857092 0.0085438237302644347 0.078494474898650149 0.11109544613596506 -0.28423049661870287 -0.1245989495600584 -0.11054665636019423 0.043143274180506008 0.0075825309652004505 -0.11024705219088134 -0.058199277709111367 0.048315064474863861 -0.12310206958427095 -0.028043957962306378 0.055957996631915009 -0.10422665320174107 0.045235658387030905 -0.044387904277351876 -0.01582383106601392 0.08031866441252565 0.055060942619291668 -0.11283315701039942 0.00042874144452360364 0.050023523518657791
leaf_count=4086 58 1162 569 466 1792 34 672 206 1616 21 27 21 26 25 334 28 104 168 26 286 160 39 183 26 264 155 35 70 351 323
internal_value=0 -0.0444794 -0.198969 -0.121605 -0.244992 0.387994 0.00836777 0.571062 0.682073 -0.000110605 -1.28643 0.122709 0.300467 -0.317697 0.0561454 -0.0243575 -0.011498 -0.0246012 -0.195268 -0.00424693 0.00982077 -0.00182122 0.00423611 0.214552 0.0689228 0.621447 -0.140305 -0.216728 0.113576 0.154175
internal_count=13333 11009 4983 3821 2908 2324 6026 1928 1722 106 48 913 723 51 396 362 5303 1116 597 5199 4913 4753 4714 628 447 181 571 536 519 892
shrinkage=0.1


Tree=30
num_leaves=31
num_cat=0
split_feature=4 7 7 15 13 7 15 17 15 15 15 11 10 6 7 11 15 10 7 11 0 18 10 10 7 10 10 7 6 10
split_gain=22.6326 9.90537 17.8266 8.60988 8.31534 34.7874 5.68299 5.15656 5.11632 4.14031 3.93946 4.05293 6.65703 3.58532 8.13904 5.522 5.32233 5.17178 16.5205 6.06387 6.5615 5.98673 5.7147 4.67372 6.84785 6.68999 6.5214 6.34953 5.39279 4.66817
threshold=5.5000000000000009 -0.010000000049999997 -0.009974724571158498 2765980.0000000005 1.0000000180025095e-35 -7.9436499999999982e-11 804149.00000000012 1.5000000000000002 747204.50000000012 7163.5000000000009 43150.500000000007 0.027234793593488873 4.6220108008890461 0.92749620861011717 -1.0145985779192377 0.031115483428498323 1271976.5000000002 0.10000679119918553 -0.09997628503437149 0.0019614402554619815 1.5000000000000002 1.0000000180025095e-35 0.10792020123550762 0.042907565807456007 -0.031498485390499993 0.050038476104339757 0.058793462469733361 -0.029948398852499999 0.046655315342313521 0.9868460453800002
decision_type=2 2 2 2 2 2 2 2 2 2 2 2 2 2 2 2 2 2 2 2 2 2 2 2 2 2 2 2 2 2
left_child=1 7 -3 6 9 -6 8 13 -2 -4 11 -9 -13 15 16 17 -15 18 19 -1 -21 -20 -19 24 -23 28 -27 -26 -25 -16
right_child=3 2 4 -5 5 -7 -8 10 -10 -11 -12 12 -14 14 29 -17 -18 22 21 20 -22 23 -24 25 27 26 -28 -29 -30 -31
leaf_value=-0.15803635153621579 0.027933612404662158 -0.087740320571971939 0.014007873855282788 0.0050834223747203908 -0.0022475903636748301 -0.10256664259015701 0.070873863540836163 -0.11874068212323084 -0.17102331438798146 -0.1219397228468246 0.042744387563379671 0.064084024113850613 -0.07040988253607347 -0.0014569543388542341 -0.0067415915069295694 0.032965441515737208 -0.070986674274017253 0.062668972840286843 0.030559006288513341 0.063327657988647007 -0.11394248341236886 0.028797980841671705 0.0056563265249212295 0.0011906453627585009 -0.081550298208658639 0.048828892032376288 -0.027603605596888299 -0.0055815198881493163 -0.10600224505637973 -0.095578773188184918
leaf_count=52 467 1162 892 396 1116 1792 1441 30 20 21 581 84 28 1144 46 435 76 82 353 27 39 330 1422 30 60 63 254 732 79 79
internal_value=0 -0.040598 -0.185245 0.36247 -0.112688 -0.228093 0.541316 0.00767597 0.195482 0.111581 0.277661 -0.118856 0.0897039 -0.0102813 -0.117087 0.0233793 -0.0525917 -0.000397338 -0.0840833 -1.01952 -0.416828 -0.0350699 0.0874288 -0.0863981 -0.00315489 -0.27509 -0.119129 -0.117078 -0.74603 -0.645146
internal_count=13333 11009 4983 2324 3821 2908 1928 6026 487 913 723 142 112 5303 1345 3958 1220 3523 2019 118 66 1901 1504 1548 1122 426 317 792 109 125
shrinkage=0.1


Tree=31
num_leaves=31
num_cat=0
split_feature=17 6 18 12 10 10 10 10 6 10 10 11 10 6 10 7 6 7 16 6 17 10 10 15 10 11 11 15 6 11
split_gain=19.7637 9.47296 11.1713 13.1668 25.3463 9.42305 8.57914 12.0651 7.39798 10.5859 9.6542 6.45506 6.28665 6.50072 9.5376 9.34893 7.66365 6.28274 5.90758 6.17336 5.83935 6.75299 5.75118 5.42374 5.18881 5.11706 6.88347 6.71786 5.92918 4.97972
threshold=4.5000000000000009 0.022105550000000005 1.0000000180025095e-35 1.0000000180025095e-35 2.1690708080000005e-06 0.039828206842027501 0.0095236047551962421 0.010000000050000001 0.019982322950817501 0.020003661906182 0.015098913999626502 0.0051989358132036728 26.043478260869566 0.10000679119918553 0.18281143008474554 -0.09997628503437149 0.20001992203389554 -0.19761490528199996 1.0000000180025095e-35 0.26866409045072553 1.0000000180025095e-35 0.00012207531269500002 0.00020150000000000002 3453925.5000000005 0.014922729637952369 0.093223952118066403 0.070901059755430831 804149.00000000012 0.22642216695499803 15.355688290056104
decision_type=2 2 2 2 2 2 2 2 2 2 2 2 2 2 2 2 2 2 2 2 2 2 2 2 2 2 2 2 2 2
left_child=1 2 -1 4 -4 -3 11 -8 10 -10 24 20 13 15 25 -7 17 -16 19 -18 21 -6 -23 -2 -9 26 -15 28 -28 -21
right_child=23 5 3 -5 6 12 7 8 9 -11 -12 -13 -14 14 16 -17 18 -19 -20 29 -22 22 -24 -25 -26 -27 27 -29 -30 -31
leaf_value=0.032191137605279453 0.079363066295855808 0.02577709213215968 -0.096592065209208725 0.010499160155062859 0.085069749271730138 -0.13247608191787319 -0.085141820041479466 -0.011743083441606184 -0.11799679054031192 0.015526484185376258 0.065282453452541134 0.10807651402195213 -0.063234191707192938 0.020758981870558 -0.15975396313757853 -0.013808329057290748 0.032331454982723155 -0.029054782110871015 0.13255473310139473 -0.0063616361305933056 -0.066724189284808805 -0.066076159967362449 0.0033696102290125592 -0.0022306547529539248 -0.12570778990951556 0.06109259177478113 -0.031052335666810288 0.012690033054997147 -0.26282320736954823 0.10142861841652862
leaf_count=374 1031 1363 1967 944 44 42 1188 266 80 44 71 33 126 1031 23 647 217 57 20 2484 106 138 527 45 20 315 22 53 33 22
internal_value=0 -0.0214148 -0.137392 -0.188081 -0.292045 0.0328349 -0.174131 -0.364981 -0.168314 -0.635725 0.00792447 -0.00854882 -0.00800372 0.00359455 0.0406936 -0.201988 -0.0308499 -0.679627 -0.00815079 -0.0169604 -0.0493144 0.0181274 -0.0460769 0.622697 -0.221617 0.225325 0.159516 -0.671745 -1.56497 -0.0532812
internal_count=13333 12257 5802 5428 4484 6455 2517 1669 481 124 357 848 5092 4966 4277 689 2823 80 2743 2723 815 709 665 1076 286 1454 1139 108 55 2506
shrinkage=0.1


Tree=32
num_leaves=31
num_cat=0
split_feature=17 6 18 12 10 10 10 10 6 10 10 6 10 11 18 7 15 11 6 7 10 11 11 15 11 10 10 10 6 15
split_gain=17.0225 7.90082 9.25961 11.0559 23.7412 7.69022 7.28707 11.0663 6.21061 9.1997 7.77019 5.59681 5.5816 5.51392 5.25929 4.6676 5.36888 12.2572 4.71976 4.5202 9.60845 5.61194 6.5592 8.40418 6.82927 4.48336 4.38461 5.72654 4.26041 10.0827
threshold=4.5000000000000009 0.022105550000000005 1.0000000180025095e-35 1.0000000180025095e-35 2.1690708080000005e-06 0.039828206842027501 0.0095236047551962421 0.010000000050000001 0.019982322950817501 0.020003661906182 0.015098913999626502 0.040001933824005013 20.106683647056631 0.0051989358132036728 19.500000000000004 -0.013773248073313 422404.00000000006 0.0018269334387086137 0.017030156347621003 -0.031498485390499993 0.029984446969696443 0.012422935164730543 0.025137738394554656 2796805.5000000005 0.023853101732952669 0.014922729637952369 0.0051388061655486929 0.004696942127679001 0.0054605837354790012 1739654.0000000002
decision_type=2 2 2 2 2 2 2 2 2 2 2 2 2 2 2 2 2 2 2 2 2 2 2 2 2 2 2 2 2 2
left_child=1 2 -1 4 -4 19 13 -8 10 -10 25 -7 -13 15 -2 18 17 26 -6 21 -21 -3 24 -24 -23 -9 27 -17 29 -18
right_child=14 5 3 -5 6 11 7 8 9 -11 -12 12 -14 -15 -16 16 28 -19 -20 20 -22 22 23 -25 -26 -27 -28 -29 -30 -31
leaf_value=0.029440659413501033 0.069206528000434447 0.053624208445617362 -0.09572401227560802 0.0095044007758602941 -0.15457606905575716 -0.11387984267581741 -0.0825665426732312 -0.01063201165855545 -0.11162315694012254 0.013906537840981309 0.058059873719248548 0.0010897932675983347 -0.052713091295600416 0.10254924543150293 -0.056175217365475066 -0.002940782138502249 0.10833158479751875 -0.20695317553311465 0.00075759195474057431 0.021972513930080761 -0.081146390258087273 -0.0069447208212878048 0.10378227031183712 -0.071407678727165233 -0.17114863618680948 -0.11888830206132064 0.044332195908317364 -0.084119217572466667 0.088712625226626318 -0.1094032738668098
leaf_count=374 1042 620 1967 944 29 20 1188 266 80 44 71 4913 159 33 34 478 24 21 34 258 61 232 148 21 23 20 82 40 86 21
internal_value=0 -0.0196296 -0.126847 -0.173557 -0.270723 0.0297447 -0.159555 -0.338847 -0.153664 -0.588782 0.00684524 -0.00714846 -0.00143333 -0.00774577 0.594366 -0.0445559 -0.000101071 -0.0844863 -0.794596 0.233726 -0.00193305 0.356277 0.0534329 0.588268 -0.266098 -0.201625 -0.029573 -0.11431 0.48133 -0.0513541
internal_count=13333 12257 5802 5428 4484 6455 2517 1669 481 124 357 5092 5072 848 1076 815 752 621 63 1363 319 1044 424 169 255 286 600 518 131 45
shrinkage=0.1


Tree=33
num_leaves=31
num_cat=0
split_feature=17 16 6 6 10 18 12 10 10 10 11 15 10 6 10 10 15 11 15 10 18 10 11 15 11 10 10 10 10 11
split_gain=14.5287 6.97176 7.05113 6.32794 7.03894 6.65661 9.2613 22.1609 6.20097 10.0861 5.70008 6.03771 8.16795 5.21191 7.99649 6.26996 5.09593 5.01282 8.25733 5.90998 4.9551 4.8151 4.70472 4.5452 5.21642 4.37895 10.6154 4.96686 4.75584 7.34207
threshold=4.5000000000000009 1.0000000180025095e-35 3.4340645827239595 0.022105550000000005 0.26772483557793669 1.0000000180025095e-35 1.0000000180025095e-35 2.1690708080000005e-06 0.0095236047551962421 0.010000000050000001 0.028644271894804788 2726834.5000000005 0.055570639217134406 0.019982322950817501 0.020003661906182 0.015098913999626502 3453925.5000000005 0.093223952118066403 912224.00000000012 0.11279637432569951 11.500000000000002 26.043478260869566 0.0051989358132036728 5902398.5000000009 15.355688290056104 0.10000679119918553 0.096955247489357757 0.039828206842027501 0.0066846928084933659 0.0029786531245429722
decision_type=2 2 2 2 2 2 2 2 2 2 2 2 2 2 2 2 2 2 2 2 2 2 2 2 2 2 2 2 2 2
left_child=1 3 -3 5 10 -1 7 -7 22 -10 20 12 -12 15 -15 -11 -2 18 19 -14 25 23 -9 24 -6 26 27 28 29 -5
right_child=16 2 -4 4 21 6 -8 8 9 13 11 -13 17 14 -16 -17 -18 -19 -20 -21 -22 -23 -24 -25 -26 -27 -28 -29 -30 -31
leaf_value=0.024462742391546541 0.074753895631809175 0.021464099407742677 0.21543772111292478 0.048289059742848209 -0.0049616360330152695 -0.094826546942771206 0.0085992656036177773 -0.0039583009350196213 -0.079911156346909276 -0.018340067317310652 0.11258300336638692 -0.013513007552252189 -0.017658131680703824 -0.10562804813334468 0.012463117911003338 0.051799787496241083 -0.0057690394991835236 0.055279081002824075 0.065918285594221776 -0.16952657935746027 0.058416452154051661 -0.063978934645483154 0.097320489640458224 -0.078362629520564317 0.11014074054827452 0.014885143934251164 -0.096635996952470216 -0.014795727489979893 0.016288297220982281 -0.24348854134788464
leaf_count=368 1031 33 20 32 2252 1967 944 815 1188 286 213 118 113 80 44 71 45 402 159 36 268 123 33 60 20 855 73 715 946 23
internal_value=0 -0.0179055 0.902163 -0.0230218 0.0211917 -0.120196 -0.159812 -0.2505 -0.145852 -0.31422 0.095768 0.3275 0.473654 -0.140312 -0.545188 0.00591493 0.562551 0.289088 -0.0703284 -0.576031 0.0520332 -0.0720498 -0.00629781 -0.0531961 -0.0389038 0.0323521 -0.0500302 -0.00668492 0.131086 -1.02658
internal_count=13333 12257 53 12204 6408 5796 5428 4484 2517 1669 3953 1041 923 481 124 357 1076 710 308 149 2912 2455 848 2332 2272 2644 1789 1716 1001 55
shrinkage=0.1


Tree=34
num_leaves=31
num_cat=0
split_feature=17 16 6 6 10 18 12 7 10 10 15 10 6 10 10 9 18 15 17 10 10 6 15 11 15 10 11 17 10 10
split_gain=12.4533 5.73113 5.92948 5.27422 5.90168 5.50036 7.74406 20.6161 5.24622 9.14097 4.63077 4.43149 4.37225 6.94583 5.06638 4.10976 4.03499 6.25529 4.38985 5.6948 5.03022 6.89059 5.24365 6.28508 7.06237 5.52171 4.0198 4.2936 5.44742 4.92044
threshold=4.5000000000000009 1.0000000180025095e-35 3.4340645827239595 0.022105550000000005 0.4736138604461177 1.0000000180025095e-35 1.0000000180025095e-35 -3.2322812344999996e-06 0.0095236047551962421 0.010000000050000001 3453925.5000000005 0.00070305336687411033 0.019982322950817501 0.020003661906182 0.015098913999626502 5.6942151711027265 11.500000000000002 7234641.0000000009 1.0000000180025095e-35 0.0091406131619661286 0.0340159626530585 0.041749497685181512 7234641.0000000009 0.090756762864860424 2194076.0000000005 0.065331987762283009 0.0051989358132036728 1.0000000180025095e-35 0.00012207531269500002 0.00020150000000000002
decision_type=2 2 2 2 2 2 2 2 2 2 2 2 2 2 2 2 2 2 2 2 2 2 2 2 2 2 2 2 2 2
left_child=1 3 -3 5 16 11 7 8 26 -10 -2 -1 14 -14 -11 -8 18 -18 -5 -20 -21 -22 23 24 25 -23 27 28 -7 -30
right_child=10 2 -4 4 -6 6 15 -9 9 12 -12 -13 13 -15 -16 -17 17 -19 19 20 21 22 -24 -25 -26 -27 -28 -29 29 -31
leaf_value=-0.035346756523977924 0.072153993698582664 0.019443274309336601 0.19891933102353543 0.0013408990219839787 -0.0086534043777883214 0.076596309826116565 0.010615302440717822 -0.093952718728609885 -0.077180861615607499 -0.016662240376057 -0.0051883675458725487 0.039536978565305012 -0.099923462252346482 0.011175311901566884 0.046326591569330111 -0.12210513332626372 0.072733624311826992 -0.024257093998590946 -0.13812718728207393 0.065160638458933814 -0.12701926234543578 0.067032433462418245 -0.085214566126691774 0.076773187862663683 -0.16934750731498893 0.0035536721900526064 0.092341284576290927 -0.055383196891148304 -0.061898578848084335 0.0037590620797601526
leaf_count=62 1031 33 20 2690 1902 47 923 1962 1188 286 45 306 80 44 71 21 430 45 35 313 30 204 24 236 20 479 33 108 138 527
internal_value=0 -0.0163125 0.823139 -0.0209628 0.0193467 -0.110578 -0.146987 -0.231356 -0.133314 -0.29096 0.534517 0.222928 -0.128022 -0.504509 0.00524623 0.0777651 0.0746945 0.426466 0.0573505 0.215855 0.241919 0.150704 0.194752 0.241658 0.124764 0.171212 -0.00572394 -0.0357363 0.02361 -0.0349582
internal_count=13333 12257 53 12204 6408 5796 5428 4484 2522 1669 1076 368 481 124 357 944 4506 475 4031 1341 1306 993 963 939 703 683 853 820 712 665
shrinkage=0.1


Tree=35
num_leaves=31
num_cat=0
split_feature=17 16 6 10 6 8 8 18 18 10 6 6 6 7 6 10 6 7 7 6 10 11 11 15 15 10 15 11 11 17
split_gain=10.6464 4.71297 5.01167 4.59504 5.03809 4.80788 9.12781 5.4443 4.34015 4.05268 4.62203 6.01112 6.62976 5.87718 4.59831 6.90852 6.53998 6.47118 5.21046 4.99748 3.68844 3.61738 4.96203 4.18405 3.68397 3.51463 3.45013 3.38455 3.36159 3.33056
threshold=4.5000000000000009 1.0000000180025095e-35 1.8409801864131727 26.043478260869566 0.022105550000000005 0.025350000000000004 0.15000000000000005 1.0000000180025095e-35 19.500000000000004 0.039828206842027501 0.052035703649838512 0.046655315342313521 0.040001933824005013 -0.058806655367999991 0.10000679119918553 0.18281143008474554 0.20001992203389554 -0.09997628503437149 -0.19761490528199996 0.21972820700445003 0.00070305336687411033 0.093223952118066403 0.070901059755430831 804149.00000000012 5902398.5000000009 0.19280327890013402 120805.50000000001 0.1306913382759238 15.355688290056104 1.0000000180025095e-35
decision_type=2 2 2 2 2 2 2 2 2 2 2 2 2 2 2 2 2 2 2 2 2 2 2 2 2 2 2 2 2 2
left_child=1 3 -3 4 5 7 -7 20 26 -6 11 12 -11 14 17 21 18 -12 -17 -18 -1 22 -16 -24 27 -21 -2 -23 -27 -19
right_child=8 2 -4 -5 9 6 -8 -9 -10 10 13 -13 -14 -15 15 16 19 29 -20 25 -22 24 23 -25 -26 28 -28 -29 -30 -31
leaf_value=-0.032138997099199609 -0.073885740370497305 0.016402651237328439 0.18199940308661447 -0.059113769372233942 0.017725377760419787 0.088847226752990657 -0.025567964811014393 -0.016780633223979002 -0.055160265820846689 -0.10169785761240205 -0.1207379741619318 -0.072380939148279533 0.040567854412815525 0.06833307692212541 0.017764744626891576 -0.14747774702360808 0.054029394478874386 -0.025630671870505148 -0.027922534419504815 -0.12679392878353699 0.036658243904290726 0.1148421976771553 -0.11786718872099587 0.011978288440192983 -0.023206662530569223 -0.0030639366042133189 0.067826470509593617 0.035269595161119681 0.087062506620449981 0.027306580879630483
leaf_count=62 30 31 22 123 1351 282 87 5059 34 20 41 104 71 67 1027 23 74 266 57 26 306 130 55 53 23 2601 1012 158 22 116
internal_value=0 -0.0148418 0.751298 -0.0190679 -0.0135194 -0.101896 0.29989 -0.128794 0.506578 0.0262414 -0.0008977 -0.341609 0.0721625 0.0152864 0.00429226 0.0293672 -0.031589 -0.228648 -0.631933 -0.0104027 0.205886 0.188828 0.135041 -0.550614 0.530987 -0.0286745 0.608502 0.711801 -0.0227747 -0.142229
internal_count=13333 12257 53 12204 12081 5796 369 5427 1076 6285 4934 195 91 4739 4672 4249 2803 423 80 2723 368 1446 1135 108 311 2649 1042 288 2623 382
shrinkage=0.1


Tree=36
num_leaves=31
num_cat=0
split_feature=17 10 15 18 15 16 10 11 6 7 7 12 7 6 7 7 18 7 7 15 11 10 10 10 17 6 15 8 15 6
split_gain=9.08989 6.72069 4.35121 6.23075 9.82254 4.20569 3.42208 4.00115 3.37703 11.5716 5.10635 6.59061 19.3769 6.15279 3.83739 6.56727 3.76806 4.05945 4.55344 3.99283 4.94731 3.95361 3.69782 6.04999 4.19967 4.24375 4.29277 3.62216 3.3982 5.99006
threshold=3.5000000000000004 0.0015024115788931252 3453925.5000000005 1.0000000180025095e-35 1739654.0000000002 2.5000000000000004 20.106683647056631 4.6169671720902503 0.010000000050000001 -0.009974724571158498 -0.0049282117533344999 1.0000000180025095e-35 -7.9436499999999982e-11 0.0046569549058515011 -12.529139311399996 -11.397127195383545 11.500000000000002 -9.0826844763533305 -10.244938107215413 7234641.0000000009 0.016815249771746768 0.0028881226729011666 0.0048482728009257335 0.0058116931848249311 1.5000000000000002 0.11679923025139653 8169.0000000000009 50.000000000000007 2570929.5000000005 1.0178319589960767
decision_type=2 2 2 2 2 2 2 2 2 2 2 2 2 2 2 2 2 2 2 2 2 2 2 2 2 2 2 2 2 2
left_child=5 -2 3 4 -3 6 7 8 9 -1 -11 12 13 -12 -10 -16 17 18 -17 -18 -21 -19 -23 -24 28 -26 -27 -13 -25 -30
right_child=1 2 -4 -5 -6 -7 -8 -9 14 10 11 27 -14 -15 15 16 19 21 -20 20 -22 22 23 24 25 26 -28 -29 29 -31
leaf_value=-0.079514783182298834 -0.11458041271189007 0.03198467621402655 -0.0022709704030538526 0.085585072350323949 -0.33201416160098723 0.12515392894613572 -0.044979745570971112 0.049850155236728769 -0.040204417307688388 0.025811796245706477 -0.001957469386221794 0.010200770127944609 -0.10155893068891804 -0.096873806965879439 0.11566639552893275 0.037432505883968382 0.059932689487170968 -0.10681897179513405 -0.10147430899057804 0.065285192455385041 -0.08339791072899537 0.075923306581119496 -0.11650490428229239 0.0009787608239392911 0.082687982228989432 -0.11561707317781876 0.022799994587885689 -0.11854531228500079 -0.0088344531575675813 -0.11317396246876597
leaf_count=1162 28 93 52 1077 21 29 158 80 151 272 835 923 1789 34 29 22 437 34 47 20 22 68 39 5135 189 20 367 21 126 53
internal_value=0 0.422874 0.510289 0.686137 -0.365591 -0.0150572 -0.0173654 -0.0118542 -0.0173837 -0.10663 -0.055009 -0.108853 -0.246808 -0.0764946 0.00959349 0.0182487 0.0127801 0.00246089 -0.596059 0.360594 -0.192301 0.00911301 0.0127524 0.00782334 0.0129899 0.308867 0.129853 0.076008 -0.00128943 -0.324807
internal_count=13333 1271 1243 1191 114 12062 12033 11875 11795 5036 3874 3602 2658 869 6759 6608 6579 6100 69 479 42 6031 5997 5929 5890 576 387 944 5314 179
shrinkage=0.1


Tree=37
num_leaves=31
num_cat=0
split_feature=17 15 16 15 0 15 15 4 15 15 11 7 15 15 6 7 8 8 11 10 7 11 10 11 10 11 6 6 10 6
split_gain=7.84781 3.92478 3.7127 3.49719 3.28009 3.07765 4.73294 4.61229 5.02835 6.69589 4.42037 6.16847 4.44518 4.33297 3.85297 3.45992 7.65242 5.00694 3.45139 3.80923 3.70991 3.8853 4.08228 6.21191 3.39925 4.26322 3.35442 5.54792 3.46314 4.76441
threshold=4.5000000000000009 3453925.5000000005 2.5000000000000004 120805.50000000001 4.5000000000000009 2122.0000000000005 2368484.0000000005 3.5000000000000004 804149.00000000012 697080.00000000012 0.012123990888826061 -0.0054015895469134998 2450884.0000000005 203.50000000000003 7.3378352757622034 0.065000000000000016 0.15000000000000005 3.2380883301214295e-05 3.6789121385546792e-16 0.0024214126703239621 -35.012499999999996 0.35165576060471321 0.055570639217134406 0.047221507323231403 0.50022384050065616 0.0053735025062300375 1.9204378472222159 2.2523423027577363 0.0028881226729011666 0.012254300377988503
decision_type=2 2 2 2 2 2 2 2 2 2 2 2 2 2 2 2 2 2 2 2 2 2 2 2 2 2 2 2 2 2
left_child=2 3 5 -2 -5 13 7 -7 9 18 11 -8 -12 15 24 17 -17 -1 -9 -20 -21 22 -22 -24 25 -15 28 -28 29 -10
right_child=1 -3 -4 4 -6 6 10 8 26 -11 12 -13 -14 14 -16 16 -18 -19 19 20 21 -23 23 -25 -26 -27 27 -29 -30 -31
leaf_value=-0.0032895444941323329 -0.068998253759805173 -0.0075990797994900383 0.12274716789064617 -0.10940314169553866 0.082389357760425191 0.003632134174336386 0.042410735555983237 0.11234534294051171 0.057593999411097579 -0.11518795637619608 -0.17691911679759731 -0.078224458279172113 -0.024237106903488168 -0.093906069414772461 0.041362941594246611 0.094867483577478859 -0.036118441525325014 -0.094479572651304883 -0.086577254800230666 -0.070168876446989464 0.052532218210683296 0.099019928435564911 -0.22105894369780399 -0.00090341922955084147 -0.14069041199326379 0.017160197812947014 -0.17364112532084475 0.03579907178827773 0.090111840473595814 -0.14483355489061098
leaf_count=8459 30 45 29 21 980 1321 185 26 42 37 21 33 378 53 21 272 39 26 26 25 214 82 21 156 20 31 28 118 574 20
internal_value=0 0.455089 -0.0122053 0.655588 0.752722 -0.0142851 0.0699263 0.138973 0.319018 0.0833911 -0.135702 0.193602 -0.295892 -0.0397072 -0.473627 -0.0306642 0.400168 -0.0380885 0.20306 0.112254 0.215874 0.334839 0.137787 -0.317618 -0.666263 -0.418465 0.554516 0.147936 0.736557 0.0643116
