tree
version=v2
num_class=1
num_tree_per_iteration=1
label_index=0
max_feature_idx=91
objective=binary sigmoid:1
feature_names=('OUT&internal&call',) ('IN&external&0',) ('IN&internal&call',) ('IN&internal&suicide',) ('OUT&internal&create',) Txn_len N_investments N_payments D_index Avg_investment Std_investment Avg_payment Std_payment Investment_times Payment_times Investment_payment_rate Txn_period N_owner N_creator N_other ('OUT&internal&call',_'OUT&internal&call') ('IN&external&0',_'IN&external&0') ('IN&internal&call',_'IN&internal&call') ('IN&internal&call',_'OUT&internal&call') ('IN&external&0',_'IN&external&0',_'IN&external&0') ('OUT&internal&call',_'OUT&internal&call',_'OUT&internal&call') ('IN&internal&call',_'IN&internal&call',_'IN&internal&call') ('IN&internal&call',_'IN&internal&call',_'OUT&internal&call') ('IN&internal&call',_'OUT&internal&call',_'OUT&internal&call') ('IN&external&0',_'IN&external&0',_'IN&external&0',_'IN&external&0') ('OUT&internal&call',_'OUT&internal&call',_'OUT&internal&call',_'OUT&internal&call') ('IN&internal&call',_'IN&internal&call',_'IN&internal&call',_'IN&internal&call') ('IN&internal&call',_'IN&internal&call',_'IN&internal&call',_'OUT&internal&call') ('IN&internal&call',_'IN&internal&call',_'OUT&internal&call',_'OUT&internal&call') ('IN&internal&call',_'OUT&internal&call',_'OUT&internal&call',_'OUT&internal&call') ('IN&external&0',_'IN&external&0',_'IN&external&0',_'IN&external&0',_'IN&external&0') ('OUT&internal&call',_'OUT&internal&call',_'OUT&internal&call',_'OUT&internal&call',_'OUT&internal&call') ('IN&internal&call',_'IN&internal&call',_'IN&internal&call',_'IN&internal&call',_'IN&internal&call') ('IN&internal&call',_'IN&internal&call',_'IN&internal&call',_'IN&internal&call',_'OUT&internal&call') ('IN&internal&call',_'IN&internal&call',_'IN&internal&call',_'OUT&internal&call',_'OUT&internal&call') ('IN&internal&call',_'IN&internal&call',_'OUT&internal&call',_'OUT&internal&call',_'OUT&internal&call') ('IN&internal&call',_'OUT&internal&call',_'OUT&internal&call',_'OUT&internal&call',_'OUT&internal&call') ('IN&external&0',_'IN&external&0',_'IN&external&0',_'IN&external&0',_'IN&external&0',_'IN&external&0') ('OUT&internal&call',_'OUT&internal&call',_'OUT&internal&call',_'OUT&internal&call',_'OUT&internal&call',_'OUT&internal&call') ('IN&internal&call',_'IN&internal&call',_'IN&internal&call',_'IN&internal&call',_'IN&internal&call',_'IN&internal&call') ('IN&internal&call',_'IN&internal&call',_'IN&internal&call',_'IN&internal&call',_'IN&internal&call',_'OUT&internal&call') ('IN&internal&call',_'IN&internal&call',_'IN&internal&call',_'IN&internal&call',_'OUT&internal&call',_'OUT&internal&call') ('IN&internal&call',_'IN&internal&call',_'IN&internal&call',_'OUT&internal&call',_'OUT&internal&call',_'OUT&internal&call') ('IN&internal&call',_'IN&internal&call',_'OUT&internal&call',_'OUT&internal&call',_'OUT&internal&call',_'OUT&internal&call') ('IN&internal&call',_'OUT&internal&call',_'OUT&internal&call',_'OUT&internal&call',_'OUT&internal&call',_'OUT&internal&call') ('IN&external&0',_'IN&external&0',_'IN&external&0',_'IN&external&0',_'IN&external&0',_'IN&external&0',_'IN&external&0') ('OUT&internal&call',_'OUT&internal&call',_'OUT&internal&call',_'OUT&internal&call',_'OUT&internal&call',_'OUT&internal&call',_'OUT&internal&call') ('IN&internal&call',_'IN&internal&call',_'IN&internal&call',_'IN&internal&call',_'IN&internal&call',_'IN&internal&call',_'IN&internal&call') ('IN&internal&call',_'IN&internal&call',_'IN&internal&call',_'IN&internal&call',_'IN&internal&call',_'IN&internal&call',_'OUT&internal&call') ('IN&internal&call',_'IN&internal&call',_'IN&internal&call',_'IN&internal&call',_'IN&internal&call',_'OUT&internal&call',_'OUT&internal&call') ('IN&internal&call',_'IN&internal&call',_'IN&internal&call',_'IN&internal&call',_'OUT&internal&call',_'OUT&internal&call',_'OUT&internal&call') ('IN&internal&call',_'IN&internal&call',_'IN&internal&call',_'OUT&internal&call',_'OUT&internal&call',_'OUT&internal&call',_'OUT&internal&call') ('IN&internal&call',_'IN&internal&call',_'OUT&internal&call',_'OUT&internal&call',_'OUT&internal&call',_'OUT&internal&call',_'OUT&internal&call') ('IN&internal&call',_'OUT&internal&call',_'OUT&internal&call',_'OUT&internal&call',_'OUT&internal&call',_'OUT&internal&call',_'OUT&internal&call') ('IN&external&0',_'IN&external&0',_'IN&external&0',_'IN&external&0',_'IN&external&0',_'IN&external&0',_'IN&external&0',_'IN&external&0') ('OUT&internal&call',_'OUT&internal&call',_'OUT&internal&call',_'OUT&internal&call',_'OUT&internal&call',_'OUT&internal&call',_'OUT&internal&call',_'OUT&internal&call') ('IN&internal&call',_'IN&internal&call',_'IN&internal&call',_'IN&internal&call',_'IN&internal&call',_'IN&internal&call',_'IN&internal&call',_'IN&internal&call') ('IN&internal&call',_'IN&internal&call',_'IN&internal&call',_'IN&internal&call',_'IN&internal&call',_'IN&internal&call',_'IN&internal&call',_'OUT&internal&call') ('IN&internal&call',_'IN&internal&call',_'IN&internal&call',_'IN&internal&call',_'IN&internal&call',_'IN&internal&call',_'OUT&internal&call',_'OUT&internal&call') ('IN&internal&call',_'IN&internal&call',_'IN&internal&call',_'IN&internal&call',_'IN&internal&call',_'OUT&internal&call',_'OUT&internal&call',_'OUT&internal&call') ('IN&internal&call',_'IN&internal&call',_'IN&internal&call',_'IN&internal&call',_'OUT&internal&call',_'OUT&internal&call',_'OUT&internal&call',_'OUT&internal&call') ('IN&internal&call',_'IN&internal&call',_'IN&internal&call',_'OUT&internal&call',_'OUT&internal&call',_'OUT&internal&call',_'OUT&internal&call',_'OUT&internal&call') ('IN&internal&call',_'IN&internal&call',_'OUT&internal&call',_'OUT&internal&call',_'OUT&internal&call',_'OUT&internal&call',_'OUT&internal&call',_'OUT&internal&call') ('IN&internal&call',_'OUT&internal&call',_'OUT&internal&call',_'OUT&internal&call',_'OUT&internal&call',_'OUT&internal&call',_'OUT&internal&call',_'OUT&internal&call') ('IN&external&0',_'IN&external&0',_'IN&external&0',_'IN&external&0',_'IN&external&0',_'IN&external&0',_'IN&external&0',_'IN&external&0',_'IN&external&0') ('OUT&internal&call',_'OUT&internal&call',_'OUT&internal&call',_'OUT&internal&call',_'OUT&internal&call',_'OUT&internal&call',_'OUT&internal&call',_'OUT&internal&call',_'OUT&internal&call') ('IN&internal&call',_'IN&internal&call',_'IN&internal&call',_'IN&internal&call',_'IN&internal&call',_'IN&internal&call',_'IN&internal&call',_'IN&internal&call',_'IN&internal&call') ('IN&internal&call',_'IN&internal&call',_'IN&internal&call',_'IN&internal&call',_'IN&internal&call',_'IN&internal&call',_'IN&internal&call',_'IN&internal&call',_'OUT&internal&call') ('IN&internal&call',_'IN&internal&call',_'IN&internal&call',_'IN&internal&call',_'IN&internal&call',_'IN&internal&call',_'IN&internal&call',_'OUT&internal&call',_'OUT&internal&call') ('IN&internal&call',_'IN&internal&call',_'IN&internal&call',_'IN&internal&call',_'IN&internal&call',_'IN&internal&call',_'OUT&internal&call',_'OUT&internal&call',_'OUT&internal&call') ('IN&internal&call',_'IN&internal&call',_'IN&internal&call',_'IN&internal&call',_'IN&internal&call',_'OUT&internal&call',_'OUT&internal&call',_'OUT&internal&call',_'OUT&internal&call') ('IN&internal&call',_'IN&internal&call',_'IN&internal&call',_'IN&internal&call',_'OUT&internal&call',_'OUT&internal&call',_'OUT&internal&call',_'OUT&internal&call',_'OUT&internal&call') ('IN&internal&call',_'IN&internal&call',_'IN&internal&call',_'OUT&internal&call',_'OUT&internal&call',_'OUT&internal&call',_'OUT&internal&call',_'OUT&internal&call',_'OUT&internal&call') ('IN&internal&call',_'IN&internal&call',_'OUT&internal&call',_'OUT&internal&call',_'OUT&internal&call',_'OUT&internal&call',_'OUT&internal&call',_'OUT&internal&call',_'OUT&internal&call') ('IN&internal&call',_'OUT&internal&call',_'OUT&internal&call',_'OUT&internal&call',_'OUT&internal&call',_'OUT&internal&call',_'OUT&internal&call',_'OUT&internal&call',_'OUT&internal&call') ('IN&external&0',_'IN&external&0',_'IN&external&0',_'IN&external&0',_'IN&external&0',_'IN&external&0',_'IN&external&0',_'IN&external&0',_'IN&external&0',_'IN&external&0') ('OUT&internal&call',_'OUT&internal&call',_'OUT&internal&call',_'OUT&internal&call',_'OUT&internal&call',_'OUT&internal&call',_'OUT&internal&call',_'OUT&internal&call',_'OUT&internal&call',_'OUT&internal&call') ('IN&internal&call',_'IN&internal&call',_'IN&internal&call',_'IN&internal&call',_'IN&internal&call',_'IN&internal&call',_'IN&internal&call',_'IN&internal&call',_'IN&internal&call',_'IN&internal&call') ('IN&internal&call',_'IN&internal&call',_'IN&internal&call',_'IN&internal&call',_'IN&internal&call',_'IN&internal&call',_'IN&internal&call',_'IN&internal&call',_'IN&internal&call',_'OUT&internal&call') ('IN&internal&call',_'IN&internal&call',_'IN&internal&call',_'IN&internal&call',_'IN&internal&call',_'IN&internal&call',_'IN&internal&call',_'IN&internal&call',_'OUT&internal&call',_'OUT&internal&call') ('IN&internal&call',_'IN&internal&call',_'IN&internal&call',_'IN&internal&call',_'IN&internal&call',_'IN&internal&call',_'IN&internal&call',_'OUT&internal&call',_'OUT&internal&call',_'OUT&internal&call') ('IN&internal&call',_'IN&internal&call',_'IN&internal&call',_'IN&internal&call',_'IN&internal&call',_'IN&internal&call',_'OUT&internal&call',_'OUT&internal&call',_'OUT&internal&call',_'OUT&internal&call') ('IN&internal&call',_'IN&internal&call',_'IN&internal&call',_'IN&internal&call',_'IN&internal&call',_'OUT&internal&call',_'OUT&internal&call',_'OUT&internal&call',_'OUT&internal&call',_'OUT&internal&call') ('IN&internal&call',_'IN&internal&call',_'IN&internal&call',_'IN&internal&call',_'OUT&internal&call',_'OUT&internal&call',_'OUT&internal&call',_'OUT&internal&call',_'OUT&internal&call',_'OUT&internal&call') ('IN&internal&call',_'IN&internal&call',_'IN&internal&call',_'OUT&internal&call',_'OUT&internal&call',_'OUT&internal&call',_'OUT&internal&call',_'OUT&internal&call',_'OUT&internal&call',_'OUT&internal&call') ('IN&internal&call',_'IN&internal&call',_'OUT&internal&call',_'OUT&internal&call',_'OUT&internal&call',_'OUT&internal&call',_'OUT&internal&call',_'OUT&internal&call',_'OUT&internal&call',_'OUT&internal&call') ('IN&internal&call',_'OUT&internal&call',_'OUT&internal&call',_'OUT&internal&call',_'OUT&internal&call',_'OUT&internal&call',_'OUT&internal&call',_'OUT&internal&call',_'OUT&internal&call',_'OUT&internal&call')
feature_infos=[0:27851] [0:1372] [0:127] none none [1:27852] [0:22220.5] [0:12661.700700700381] [-12661.700700700381:22220.5] [0:11110.25] [0:15711.559124574493] [0:2150] [0:2474.8737341529168] [0:1373] [0:27852] [0:1374] [0:45964626] [0:1202] [0:193] [0:27852] [0:27850] [0:1371] [0:126] none [0:1370] [0:27849] [0:125] none none [0:1369] [0:27848] [0:124] none none none [0:1368] [0:27847] [0:123] none none none none [0:1367] [0:27846] none none none none none none [0:1366] [0:27845] none none none none none none none [0:1365] [0:27844] none none none none none none none none [0:1364] [0:27843] none none none none none none none none none [0:1363] [0:27842] none none none none none none none none none none
tree_sizes=2529 2532 2552 2539 2553 2553 2539 2554 2558 2554 2552 2555 2560 2557 2559 2563 2555 2568 2550 2557 2566 2563 2570 2566 2575 2538 2523 2560 2573 2566 2550 2537 2565 2553 2545 2548 2551 2561 2534 2592 2567 2530 2520 2566 2549 2517 2507 2532 2543 2508 2519 2540 2577 2535 2523 2521 2509 2540 2504 2547 2532 2548 2523 2568 2543 2511 2539 2563 2559 2516 2553 2533 2547 2538 2558 2544 2531 2504 2518 2549 2559 2533 2556 2555 2522 2575 2509 2537 2515 2520 2516 2520 2537 2528 2588 2544 2575 2553 2572 2512 2519 2520 2496 2511 2541 2561 2504 2548 2522 2533 2560 2550 2585 2558 2589 2578 2568 2547 2535 2535 2538 2498 2538 2551 2539 2526 2536 2621 2571 2564 2514 2559 2533 2527 2544 2534 2522 2580 2538 2600 2534 2552 2497 2582 2532 2552 2582 2512 2566 2565 2552 2558 2521 2525 2544 2585 2575 2543 2607 2511 2522 2527 2526 2585 2583 2544 2520 2576 2523 2555 2558 2528 2599 2635 2577 2549 2574 2545 2592 2528 2545 2592 2590 2569 2555 2587 2590 2536 2576 2591 2511 2597 2543 2595 2521 2586 2538 2597 2509 2553 2557 2576 2558 2557 2531 2554 2579 2530 2621 2517 2560 2512 2518 2606 2555 2530 2545 2596 2585 2519 2515 2575 2518 2558 2565 2583 2498 2560 2531 2573 2586 2538 2539 2578 2577 2586 2585 2586 2543 2561 2552 2535 2613 2619 2555 2577 2526 2556 2592 2557 2533 2540 2556 2535 2572 2577 2547 2605 2596 2536 2592 2545 2594 2599 2579 2528 2543 2598 2558 2561 2530 2561 2557 2559 2633 2527 2528 2549 2549 2599 2589 2583 2596 2609 2601 2571 2573 2558 2578 2586 2565 2551 2568 2540 2558 2534 2525 2549 2611 2613 2523 2570 2605 2551 2576 2575 2587 2571 2546 2627 2605 2591 2556 2632 2574 2590 2565 2522 2599 2604 2564 2574 2539 2562 2533 2585 2565 2577 2620 2544 2558 2559 2563 2544 2562 2540 2587 2524 2579 2549 2564 2621 2580 2600 2530 2531 2626 2566 2585 2535 2591 2543 2552 2563 2541 2541 2573 2524 2577 2593 2562 2551 2559 2582 2588 2538 2603 2565 2552 2553 2616 2596 2555 2546 2532 2614 2545 2561 2550 2580 2612 2577 2577 2595 2540 2567 2563 2545 2566 2586 2583 2558 2527 2647 2605 2553 2612 2554 2572 2612 2582 2557 2629 2568 2572 2631 2554 2579 2561 2601 2650 2550 2556 2574 2553 2604 2564 2569 2548 2593 2574 2568 2618 2561 2560 2578 2555 2574 2565 2591 2550 2575 2566 2582 2594 2598 2555 2570 2574 2571 2590 2648 2622 2585 2576 2582 2580 2584 2548 2611 2584 2614 2566 2561 2598 2569 2608 2593 2565 2574 2599 2620 2562 2653 2580 2619 2555 2567 2568 2575 2634 2576 2637 2561 2537 2549 2574 2602 2578 2561 2560 2570 2626 2544 2571 2535 2579 2568 2596 2562 2561 2596 2576 2602 2583 2554 2548 2591 2581 2573

Tree=0
num_leaves=31
num_cat=0
split_feature=12 18 6 8 7 19 14 16 9 11 11 11 11 11 6 11 7 1 11 7 16 16 10 7 0 8 11 9 8 1
split_gain=3584.79 731.088 908.086 640.57 256.434 182.856 972.599 159.078 130.745 81.8086 78.1941 237.713 63.9943 40.7851 39.451 37.1926 44.939 33.6591 31.6963 31.3358 23.869 22.8873 22.0033 17.5426 16.923 15.3336 13.6906 13.0243 12.8835 12.2139
threshold=4.6314313838445612e-05 1.0000000180025095e-35 1.0000000180025095e-35 -0.012165187915359497 1.7701460957509336 1.0000000180025095e-35 1.0000000180025095e-35 4651336.5000000009 0.16833333333333336 0.00032442470981100004 2.2174093220000003e-06 0.0099994662841666679 0.00096804360349850012 2.2058592132505184 0.099870325000000024 0.47739251593262738 0.10002034888515952 1.0000000180025095e-35 0.083065713841452227 0.59468510901512117 3358.5000000000005 4367932.0000000009 0.24890346997964272 0.010105000000000001 2.5000000000000004 -0.089943447232897988 0.18377753275763639 5.5587500000000007 -0.0096192342285524989 5.5000000000000009
decision_type=2 2 2 2 2 2 2 2 2 2 2 2 2 2 2 2 2 2 2 2 2 2 2 2 2 2 2 2 2 2
left_child=1 2 3 15 9 29 -7 13 14 -3 -8 12 -12 20 -4 16 25 -10 -9 -11 -2 22 -19 -13 -22 -1 -18 -24 -14 -5
right_child=7 4 8 5 -6 6 10 18 17 19 11 23 28 -15 -16 -17 26 21 -20 -21 24 -23 27 -25 -26 -27 -28 -29 -30 -31
leaf_value=-0.13017510257601378 0.070123386671440663 -0.13793742707385437 0.056219526516021114 -0.20039210790472062 -0.12431912997892204 0.14951728503525891 -0.20743217150447077 0.050750044827512386 -0.07035336283884619 0.15350970932858887 -0.10297030641667757 -0.20696694939121862 -0.094761732747155714 0.072037849468866072 0.1643496592658549 -0.06787029683433303 0.057232054034300643 -0.12904831353600466 -0.11602472858520156 0.037684872169270023 0.15007156594274426 -0.15190603406190392 0.11742850375246079 -0.11543094811631997 0.18085498883800177 -0.032558211722393531 0.0014233033501201801 -0.042379456541969875 0.069297712962927846 -0.11838137729058497
leaf_count=71 96 45 190 2310 203 444 1236 97 199 737 181 768 21 185 466 578 341 20 86 107 1037 21 136 94 2296 689 363 24 217 75
internal_value=0 -0.654396 -0.853543 -1.10151 0.885531 -1.46548 -1.13351 1.64349 0.881285 1.34867 -1.61494 -1.26867 -0.03291 1.73561 1.43082 -0.148621 0.0209798 -0.0199502 -0.175746 1.48876 1.78496 0.557328 0.787848 -1.86935 1.81328 -0.316273 0.38506 1.03508 0.648722 -1.87763
internal_count=13333 9536 8444 7388 1092 5346 2961 3797 1056 889 2517 1281 419 3614 656 2042 1464 400 183 844 3429 201 180 862 3333 760 704 160 238 2385
shrinkage=1


Tree=1
num_leaves=31
num_cat=0
split_feature=12 18 6 8 7 19 14 16 9 11 11 11 11 11 11 7 6 11 7 10 16 12 11 9 10 9 7 11 16 8
split_gain=2924.46 596.225 740.949 528.214 208.826 150.364 794.972 130.306 107.395 67.357 64.9898 195.711 51.9519 33.8865 31.0296 29.0141 27.204 25.7464 25.2823 20.4095 25.6309 19.1567 17.9338 17.2301 27.0297 15.4067 14.7229 14.2149 14.2081 12.505
threshold=4.6314313838445612e-05 1.0000000180025095e-35 1.0000000180025095e-35 -0.012165187915359497 1.7701460957509336 1.0000000180025095e-35 1.0000000180025095e-35 4651336.5000000009 0.28903479829655132 0.00020150000000000002 2.2174093220000003e-06 0.0099994662841666679 0.00096804360349850012 0.74277412313142865 0.74277412313142865 0.10002034888515952 0.099870325000000024 0.083065713841452227 0.59468510901512117 0.62583827503838774 2582177.5000000005 0.45108320442672351 0.27620771081800854 0.10001301113064502 0.12047173141514647 5.5587500000000007 0.010105000000000001 22.650240224362069 942.50000000000011 -0.089943447232897988
decision_type=2 2 2 2 2 2 2 2 2 2 2 2 2 2 2 2 2 2 2 2 2 2 2 2 2 2 2 2 2 2
left_child=1 2 3 14 9 -5 -7 13 16 -3 -8 12 -12 28 15 29 -4 -9 -11 -10 25 -15 -17 -18 -25 -21 -13 -23 -2 -1
right_child=7 4 8 5 -6 6 10 17 19 18 11 26 -14 21 -16 22 23 -19 -20 20 -22 27 -24 24 -26 -27 -28 -29 -30 -31
leaf_value=-0.10858632811051282 0.064498330193932196 -0.13558895116813638 0.059689826946301622 -0.17071458405054474 -0.10325293384265527 0.14443886589057484 -0.17963124429434121 0.054755142709031736 -0.053437739871206535 0.14701363774789553 -0.08385659525268728 -0.17919891969876345 0.058460766578905657 -0.035876878563677515 -0.059655905910247123 0.048616944491757824 0.16645165000397968 -0.095708643575340924 0.042976187424115957 0.12428452917378992 -0.13177434921561423 0.12600943289711872 -0.011980325139903386 -0.071323819796912671 0.1470023245832312 -0.043010486091244748 -0.095168994631534248 -0.047261932208522484 0.16620259135952067 -0.02026217086098794
leaf_count=71 56 39 190 2385 203 444 1236 97 199 743 181 768 238 36 452 515 416 86 107 92 27 367 315 34 69 29 94 20 3135 689
internal_value=0 -0.592895 -0.773431 -0.998443 0.801051 -1.33146 -1.02927 1.48935 0.796478 1.22029 -1.4671 -1.15055 -0.0297023 1.57321 -0.133861 -0.0024033 1.24416 -0.158527 1.33854 -0.115846 0.447545 1.04023 0.25618 1.48243 0.748491 0.841097 -1.69975 1.17028 1.64407 -0.284839
internal_count=13333 9536 8444 7388 1092 5346 2961 3797 1056 889 2517 1281 419 3614 2042 1590 709 183 850 347 148 423 830 519 103 121 862 387 3191 760
shrinkage=0.1


Tree=2
num_leaves=31
num_cat=0
split_feature=12 18 6 8 7 19 14 16 9 11 8 11 11 11 11 6 7 11 11 0 9 10 16 11 7 19 10 7 11 1
split_gain=2416.61 491.551 611.495 447.418 171.738 126.262 659.023 109.043 88.8531 56.1763 165.789 56.1514 49.2833 31.1465 25.2235 24.2724 23.5358 23.4609 20.9997 18.9118 18.7568 15.8718 15.8056 15.4865 13.6198 12.8392 29.8525 11.9048 15.4552 11.3796
threshold=4.6314313838445612e-05 1.0000000180025095e-35 1.0000000180025095e-35 -0.012165187915359497 1.7701460957509336 1.0000000180025095e-35 1.0000000180025095e-35 4651336.5000000009 0.25007692307692314 2.2174093220000003e-06 -0.0096192342285524989 0.00060017361111100009 0.00096804360349850012 2.2058592132505184 0.74277412313142865 0.099870325000000024 0.10002034888515952 0.37449489032901273 0.083065713841452227 2.5000000000000004 4.5276767723001647 0.62583827503838774 3038353.5000000005 0.18377753275763639 0.010105000000000001 1.0000000180025095e-35 0.01156546884671558 0.00014515725576700003 0.00020150000000000002 1.5000000000000002
decision_type=2 2 2 2 2 2 2 2 2 2 2 2 2 2 2 2 2 2 2 2 2 2 2 2 2 2 2 2 2 2
left_child=1 2 3 14 11 -5 -7 13 15 -8 24 -3 27 19 16 29 -1 -13 -9 -2 21 -10 -23 -18 -11 26 -17 -12 -29 -4
right_child=7 4 8 5 -6 6 9 18 20 10 12 17 -14 -15 -16 25 23 -19 -20 -21 -22 22 -24 -25 -26 -27 -28 28 -30 -31
leaf_value=-0.025674202943251484 0.12730954207849321 -0.085901504327869443 0.02257173604160434 -0.15756159290620361 -0.093815693331811265 0.13218776328846391 -0.16622531891281073 0.049390257895268255 -0.022118593094794366 -0.16397817651803814 0.049830066034560069 0.14022684733145366 0.065850499478038643 0.064269906349573067 -0.053854680523287526 -0.063445158677557345 0.055856789536701215 0.051279117300523702 -0.086848308180363265 0.15940797507504989 -0.080616844222113626 0.11544022989411969 -0.082847597498802314 0.00027541681271694459 -0.083265164276386139 0.17055596676083093 0.13436289759158782 -0.16172186157427754 -0.034838265678883609 0.13067813440733661
leaf_count=760 1116 55 135 2385 203 444 1236 97 147 788 26 689 217 185 452 36 341 145 86 2313 103 89 20 489 95 252 219 76 79 55
internal_value=0 -0.54271 -0.708113 -0.914704 0.731351 -1.22697 -0.947354 1.36704 0.725579 -1.35142 -1.05519 1.11515 0.0152491 1.44504 -0.120689 1.14753 -0.00217874 1.24566 -0.143492 1.48915 -0.0842386 0.207443 0.791112 0.230817 -1.55098 1.38072 1.06097 -0.759531 -0.970522 0.538657
internal_count=13333 9536 8444 7388 1092 5346 2961 3797 1056 2517 1281 889 398 3614 2042 697 1590 834 183 3429 359 256 109 830 883 507 255 181 155 190
shrinkage=0.1


Tree=3
num_leaves=31
num_cat=0
split_feature=12 18 6 8 7 19 14 16 9 11 11 11 11 11 16 6 1 7 7 7 0 10 16 19 11 7 7 1 16 8
split_gain=2016.47 403.085 507.129 387.909 140.223 109.165 549.969 95.762 74.7345 52.3607 51.612 146.79 35.3766 28.1334 26.628 26.071 23.3669 21.7817 21.2753 18.8236 17.8192 16.1682 15.6166 14.6146 17.7198 11.9389 11.375 11.3189 13.43 10.6099
threshold=0.00011789951492906289 1.0000000180025095e-35 1.0000000180025095e-35 -0.012165187915359497 1.7701460957509336 1.0000000180025095e-35 1.0000000180025095e-35 3557451.0000000005 0.14928571428571433 0.00020150000000000002 2.2174093220000003e-06 0.0099994662841666679 0.00096804360349850012 2.2058592132505184 4713.5000000000009 0.099870325000000024 1.0000000180025095e-35 0.67611762462232872 0.10002034888515952 0.59468510901512117 2.5000000000000004 0.13239559269696347 4367932.0000000009 1.0000000180025095e-35 0.083065713841452227 0.010105000000000001 0.17635842860508755 5.5000000000000009 3270976.0000000005 -0.089943447232897988
decision_type=2 2 2 2 2 2 2 2 2 2 2 2 2 2 2 2 2 2 2 2 2 2 2 2 2 2 2 2 2 2
left_child=1 2 3 14 9 27 -7 13 15 -3 -8 12 -12 20 17 -4 -10 18 29 -11 -2 -18 -23 -9 -25 -13 -20 -5 -29 -1
right_child=7 4 8 5 -6 6 10 23 16 19 11 25 -14 -15 -16 -17 21 -19 26 -21 -22 22 -24 24 -26 -27 -28 28 -30 -31
leaf_value=-0.10117198177788055 0.1185024179821822 -0.12317805553350443 0.048714924883011677 -0.14966175686598637 -0.085578325145325929 0.12195072611033819 -0.15576038840984574 0.16857275923761125 -0.048247962797798305 0.12375245711366452 -0.067525824506209253 -0.15544168241413628 0.049811688129132808 0.058524443141854232 0.16336318354006724 0.13806460099970821 -0.12455646167879311 -0.051484296881328377 0.050862290188986303 0.033619915021978551 0.15041119393297697 0.085514721733153803 -0.099708138538184263 0.041623905775330372 -0.07463431420887677 -0.078884978341103071 0.0016578366260977214 0.010287882727353311 -0.163976295094967 -0.01873207100059052
leaf_count=70 1090 41 190 2310 203 444 1236 20 203 747 184 768 241 182 35 450 20 469 309 107 2274 172 21 113 102 94 485 41 34 678
internal_value=0 -0.49908 -0.650991 -0.84174 0.662252 -1.14037 -0.877104 1.27053 0.664815 1.01175 -1.2526 -0.966988 -0.00728024 1.35604 -0.105659 1.10624 0.00301398 -0.135718 -0.0209647 1.12038 1.39954 0.473217 0.654121 0.0215159 -0.131339 -1.46689 0.207403 -1.47067 -0.687119 -0.263366
internal_count=13333 9552 8454 7398 1098 5352 2967 3781 1056 895 2523 1287 425 3546 2046 640 416 2011 1542 854 3364 213 193 235 215 862 794 2385 75 748
shrinkage=0.1


Tree=4
num_leaves=31
num_cat=0
split_feature=12 18 6 8 7 19 14 16 9 11 11 11 11 11 16 11 7 6 11 12 9 0 19 10 19 11 10 7 11 8
split_gain=1694.06 336.934 424.609 339.925 116.73 94.4317 464.334 83.0331 63.8498 46.9177 127.794 43.9992 28.8938 26.6926 22.1244 19.2116 21.5604 18.4273 18.1744 14.9571 14.0698 12.6985 12.1874 24.5495 12.0956 14.45 11.8144 11.2806 10.9942 10.4905
threshold=0.00011789951492906289 1.0000000180025095e-35 1.0000000180025095e-35 -0.012165187915359497 1.7701460957509336 1.0000000180025095e-35 1.0000000180025095e-35 3557451.0000000005 0.28903479829655132 2.2174093220000003e-06 0.0099994662841666679 0.00060017361111100009 0.00096804360349850012 0.74277412313142865 278.00000000000006 0.47739251593262738 0.10002034888515952 0.099870325000000024 0.37449489032901273 0.40163053921059072 4.5276767723001647 2.5000000000000004 1.0000000180025095e-35 0.01156546884671558 1.0000000180025095e-35 0.083065713841452227 0.62583827503838774 0.010105000000000001 22.650240224362069 -0.011990116862656998
decision_type=2 2 2 2 2 2 2 2 2 2 2 2 2 2 2 2 2 2 2 2 2 2 2 2 2 2 2 2 2 2
left_child=1 2 3 14 11 -5 -7 13 17 -8 12 -3 -11 21 15 16 -1 -4 -13 -15 26 -2 23 -19 -9 -26 -10 -12 -21 -29
right_child=7 4 8 5 -6 6 9 24 20 10 27 18 -14 19 -16 -17 -18 22 -20 28 -22 -23 -24 -25 25 -27 -28 29 -30 -31
leaf_value=-0.023762683357817005 0.11396006838866801 -0.080172816404512709 0.044061191555395514 -0.13849131723396185 -0.078280690750969731 0.11317254038613658 -0.14738102361389482 0.15501274657394029 -0.02125860794075041 -0.061387408035550421 -0.14702834977300203 0.12005185568000157 0.045050598760885061 -0.053168021491063137 0.1372947160921307 -0.043842596291462192 0.025404973344364104 -0.059990956532406915 0.041002284453825387 0.097944145472117133 -0.071801085991955546 0.14263933592592409 0.15143738378205487 0.11421135321110035 0.037648694365664502 -0.067636079271343436 0.068897193732206111 -0.16888373248662369 -0.055028817513770506 -0.024292791284075604
leaf_count=748 977 57 190 2385 203 444 1236 20 138 184 768 693 241 33 41 568 689 39 145 360 103 2156 252 228 113 102 106 31 20 63
internal_value=0 -0.462811 -0.603873 -0.781718 0.611557 -1.07064 -0.821569 1.1855 0.611044 -1.17479 -0.89949 0.936004 -0.0066672 1.26768 -0.095395 -0.125064 -0.00190535 0.971534 1.05697 0.778505 -0.0947867 1.33509 1.18049 0.874246 0.0195746 -0.118926 0.17133 -1.38184 0.894951 -0.71977
internal_count=13333 9552 8454 7398 1098 5352 2967 3781 1056 2523 1287 895 425 3546 2046 2005 1437 709 838 413 347 3133 519 267 235 215 244 862 380 94
shrinkage=0.1


Tree=5
num_leaves=31
num_cat=0
split_feature=12 7 6 18 19 14 16 19 11 9 11 8 11 16 11 0 11 6 11 7 11 9 16 1 16 11 11 11 12 19
split_gain=1430.89 287.738 463.752 128.701 80.3939 397.709 72.7116 62.7532 97.5795 53.994 40.5406 117.374 33.9262 29.2506 27.7293 25.5105 20.8646 17.9077 15.8045 16.3622 13.3155 12.3812 12.3668 11.0979 12.1351 10.9481 10.7092 23.8359 10.4057 10.9898
threshold=0.00011789951492906289 0.011010027201988003 1.0000000180025095e-35 1.0000000180025095e-35 1.0000000180025095e-35 1.0000000180025095e-35 3557451.0000000005 1.0000000180025095e-35 0.89950000000000008 0.24680895005503728 2.2174093220000003e-06 -0.0096192342285524989 0.00020150000000000002 4713.5000000000009 0.00096804360349850012 3.5000000000000004 0.74277412313142865 0.099870325000000024 0.89950000000000008 0.10002034888515952 4.8400886433795227 4.5276767723001647 938531.00000000012 5.5000000000000009 3270976.0000000005 0.27620771081800854 0.0051536313168126522 0.0047951047188406438 0.0204485751345404 1.5000000000000002
decision_type=2 2 2 2 2 2 2 2 2 2 2 2 2 2 2 2 2 2 2 2 2 2 2 2 2 2 2 2 2 2
left_child=1 2 3 4 23 -6 15 8 -3 17 -7 -12 -5 18 -13 16 -2 -4 19 -9 -10 -11 -18 -1 -25 -21 27 -16 -8 -30
right_child=6 7 9 12 5 10 28 13 20 21 11 14 -14 -15 26 -17 22 -19 -20 25 -22 -23 -24 24 -26 -27 -28 -29 29 -31
leaf_value=-0.13399911929778185 0.10971820963508978 0.10548465398411638 0.0398756151753175 -0.10769634883801438 0.1054804125098034 -0.14053411290204348 0.064108483545780956 -0.025945943008710039 -0.0011506994106461168 0.017563970093518077 -0.13391792322697368 -0.055868681127429487 0.10217395953774196 0.13622353318928168 0.059916458199955419 0.13476430418841603 0.059813809978923042 0.11386698701433094 -0.049822468311741364 0.033284941163733033 -0.09061632248750047 -0.065207633654100025 -0.088158838514498197 0.023659081357582448 -0.14727800160631499 -0.012673944585321964 0.12224670868627262 -0.14592871892387277 0.089177953328670206 -0.052204903731239274
leaf_count=2310 1222 592 190 41 444 1236 75 789 149 265 834 184 180 57 128 2077 220 497 398 502 131 103 27 41 34 357 62 28 28 132
internal_value=0 -0.430784 -0.689442 -0.947382 -1.01623 -0.778421 1.11233 0.0852212 0.560616 0.562572 -1.12121 -0.853601 0.622659 -0.0981586 0.0267691 1.19207 0.980912 0.917405 -0.136717 -0.0503329 -0.424722 -0.0577379 0.436189 -1.3126 -0.514825 0.141207 0.512026 0.229581 0.0178784 -0.277221
internal_count=13333 9552 6577 5522 5301 2916 3781 2975 872 1055 2472 1236 221 2103 402 3546 1469 687 2046 1648 280 368 247 2385 75 859 218 156 235 160
shrinkage=0.1


Tree=6
num_leaves=31
num_cat=0
split_feature=12 7 6 18 19 14 16 19 11 9 11 11 11 16 11 11 6 7 1 12 11 10 16 16 7 0 1 16 0 1
split_gain=1212.91 249.11 397.951 110.611 70.8079 339.561 64.6588 52.3434 82.2609 47.1456 38.0178 104.827 29.6684 24.465 24.0553 20.2996 19.522 17.5678 15.2559 14.2943 13.7909 12.9865 12.9955 12.451 12.1831 10.9531 10.296 10.573 9.8895 9.64189
threshold=0.00011789951492906289 0.011010027201988003 1.0000000180025095e-35 1.0000000180025095e-35 1.0000000180025095e-35 1.0000000180025095e-35 4186423.0000000005 1.0000000180025095e-35 0.89950000000000008 0.14928571428571433 2.2174093220000003e-06 0.0099994662841666679 0.00060017361111100009 4713.5000000000009 0.74277412313142865 0.00020150000000000002 0.099870325000000024 0.00014515725576700003 1.0000000180025095e-35 0.45108320442672351 17.573520802440274 0.13239559269696347 4367932.0000000009 4713.5000000000009 21.329713673023484 8.5000000000000018 5.5000000000000009 3270976.0000000005 40.500000000000007 1.5000000000000002
decision_type=2 2 2 2 2 2 2 2 2 2 2 2 2 2 2 2 2 2 2 2 2 2 2 2 2 2 2 2 2 2
left_child=1 2 3 4 26 -6 14 8 -3 16 -7 15 -5 20 23 17 29 -12 -11 -16 -9 -20 -23 -2 -10 -8 -1 -28 -27 -4
right_child=6 7 9 12 5 10 25 13 24 18 11 -13 -14 -15 19 -17 -18 -19 21 -21 -22 22 -24 -25 -26 28 27 -29 -30 -31
leaf_value=-0.12787559203168092 0.0466685749372584 0.098438661916248393 0.0072574384059861871 -0.070189769618448333 0.098615508717624395 -0.134845158652455 -0.048235419836957116 -0.010030310866813288 -0.021439881828365568 -0.039934599157532724 0.064308651065861908 -0.13001626112728346 0.10582292725332476 0.12699922078602913 -0.057010336254833455 0.024635290280315806 0.11538449152859093 -0.12870404819132633 -0.11719581826993462 0.077315093308921029 -0.13032651586092628 0.073536042398329934 -0.096665110724367384 0.12139837294556217 -0.14536972821178337 0.095869760979723259 0.021147739377144131 -0.14080346810723207 -0.057398653833403881 0.10813921440816716
leaf_count=2310 104 592 135 57 444 1236 117 2006 240 203 26 812 164 57 36 319 449 79 20 384 40 172 21 3058 40 57 41 34 25 55
internal_value=0 -0.401998 -0.650896 -0.898881 -0.964887 -0.736847 1.04736 0.077784 0.519103 0.517451 -1.06328 -0.80062 0.580141 -0.0886718 1.1192 -0.00636938 0.891609 -0.793763 -0.00650478 0.65073 -0.123474 0.381113 0.546926 1.18761 -0.386859 -0.0799669 -1.25117 -0.475068 0.489142 0.360999
internal_count=13333 9552 6577 5522 5301 2916 3781 2975 872 1055 2472 1236 221 2103 3582 424 639 105 416 420 2046 213 193 3162 280 199 2385 75 82 190
shrinkage=0.1


Tree=7
num_leaves=31
num_cat=0
split_feature=12 8 6 18 19 14 16 11 18 9 8 11 12 0 11 7 6 11 1 7 8 11 10 16 0 16 1 16 19 0
split_gain=1030.89 217.266 340.825 101.32 64.3709 288.459 57.9867 46.1047 75.5529 40.379 38.4253 89.2133 26.9717 25.9775 18.8535 18.1668 17.8659 12.9013 12.4953 10.8467 11.168 10.8392 10.713 10.7068 10.6435 10.1829 9.61984 9.27894 9.16739 11.1411
threshold=0.00011789951492906289 -0.012165187915359497 1.0000000180025095e-35 1.0000000180025095e-35 1.0000000180025095e-35 1.0000000180025095e-35 3557451.0000000005 1.7600102477120916 1.0000000180025095e-35 0.14928571428571433 -2.8767592589999998e-06 0.0099994662841666679 2.4794887531166467e-17 3.5000000000000004 2.2058592132505184 0.0010095975365525002 0.099870325000000024 0.37449489032901273 1.0000000180025095e-35 0.010105000000000001 -0.011990116862656998 17.573520802440274 0.13239559269696347 4367932.0000000009 2.5000000000000004 3358.5000000000005 5.5000000000000009 3270976.0000000005 1.0000000180025095e-35 11.500000000000002
decision_type=2 2 2 2 2 2 2 2 2 2 2 2 2 2 2 2 2 2 2 2 2 2 2 2 2 2 2 2 2 2
left_child=1 7 3 4 26 -6 13 8 24 16 11 15 -5 14 25 -7 -4 -10 -11 -13 -21 -9 -20 -24 -1 -2 -3 -28 -8 -30
right_child=6 2 9 12 5 10 28 21 17 18 -12 19 -14 -15 -16 -17 -18 -19 22 20 -22 -23 23 -25 -26 -27 27 -29 29 -31
leaf_value=-0.0030838398443198208 0.020207323469358381 -0.12257338308239592 0.032760883788803076 0.084843223378307325 0.092393631305385027 -0.049121646018253834 0.13848336792392565 -0.036927896459454428 0.099283662734713451 -0.036143570654316559 -0.13023612497489515 -0.12993783209172258 -0.1425246523661928 0.12333867696550677 0.0040762723973846683 0.035774737567765717 0.10938899926921447 0.02908843409184235 -0.10752433599668164 -0.15612381039161938 -0.0031744237365024875 -0.11736013708666074 0.067214906529803359 -0.088580189913793295 0.1525377772175468 0.097375727018648134 0.018921118097195648 -0.13544434119126134 -0.045005133390873614 0.052879998626832174
leaf_count=1776 82 2310 190 201 444 192 20 362 522 203 1229 768 27 2077 113 240 450 145 20 31 63 91 172 21 20 1274 41 34 141 74
internal_value=0 -0.375772 -0.613363 -0.849174 -0.914892 -0.696046 0.988901 0.0778984 0.188191 0.479202 -0.999773 -0.742553 0.567816 1.06635 0.846463 -0.010945 0.833697 0.822195 -0.00584265 -1.19951 -0.538282 -0.525479 0.348531 0.500035 -0.015259 0.923103 -1.19777 -0.439395 0.0078279 -0.111402
internal_count=13333 9552 6636 5580 5352 2967 3781 2916 2463 1056 2523 1294 228 3546 1469 432 640 667 416 862 94 453 213 193 1796 1356 2385 75 235 215
shrinkage=0.1


Tree=8
num_leaves=31
num_cat=0
split_feature=12 7 6 18 19 14 16 11 18 9 8 8 0 11 7 6 11 8 11 11 1 16 16 10 16 0 11 12 7 1
split_gain=878.235 190.211 296.669 82.6852 55.9409 250.184 51.8419 37.0092 67.6733 34.4621 34.3549 84.5204 25.3462 23.2835 21.5581 18.3999 16.6298 11.9841 15.1946 11.9003 11.8258 10.3339 10.1844 11.7416 10.4543 9.58377 9.44765 9.30507 9.14746 9.03849
threshold=0.00011789951492906289 0.011010027201988003 1.0000000180025095e-35 1.0000000180025095e-35 1.0000000180025095e-35 1.0000000180025095e-35 3557451.0000000005 1.7600102477120916 1.0000000180025095e-35 0.10001301113064502 -2.8767592589999998e-06 -0.0096192342285524989 3.5000000000000004 0.00060017361111100009 0.0048129537855255006 0.099870325000000024 0.74277412313142865 -0.0046292411198934989 0.00096804360349850012 0.37449489032901273 1.0000000180025095e-35 938531.00000000012 2582177.5000000005 0.12047173141514647 11224.500000000002 2.5000000000000004 17.573520802440274 0.72195670129747802 62.044000000000004 5.5000000000000009
decision_type=2 2 2 2 2 2 2 2 2 2 2 2 2 2 2 2 2 2 2 2 2 2 2 2 2 2 2 2 2 2
left_child=1 2 3 4 29 -6 12 8 25 15 11 -7 16 -5 17 -4 -2 -13 -19 -10 -11 27 23 -22 -25 -3 -9 -18 -14 -1
right_child=6 7 9 13 5 10 -8 26 19 20 -12 14 28 -15 -16 -17 21 18 -20 -21 22 -23 -24 24 -26 -27 -28 -29 -30 -31
leaf_value=-0.11790557074537483 0.090681538165669651 -0.0038329377707266889 0.02966312467226679 -0.064171387226813703 0.08668125762763762 -0.11838243856525719 0.0007320018197614713 -0.033511329846578376 0.094135550028084686 -0.032972317105223768 -0.12612455803906314 -0.16840765037669725 0.12068760219079716 0.094923338476046226 0.09797260435879214 0.10949450236956991 -0.045467508021461836 -0.048292816876043726 0.045424769220633238 0.026330218036126188 -0.094324147391298824 -0.090951621194306734 -0.066531553384230821 -0.063544347466777784 0.088859701315540274 0.14463627862715611 -0.10978075109285522 0.066215197640030546 0.013436524427626911 -0.04070207082439669
leaf_count=2310 1222 1827 190 57 444 834 235 362 529 207 1229 21 2039 164 79 415 40 189 120 145 21 27 37 22 163 21 91 180 38 75
internal_value=0 -0.35179 -0.58609 -0.817557 -0.879224 -0.667016 0.935856 0.0655275 0.162547 0.442669 -0.966201 -0.710963 1.01256 0.500816 0.0197884 0.799802 0.792439 -0.213914 -0.108435 0.773431 0.0209726 0.298231 0.342338 0.526927 0.699508 -0.0240016 -0.479823 0.452981 1.18382 -1.15055
internal_count=13333 9552 6577 5522 5301 2916 3781 2975 2522 1055 2472 1243 3546 221 409 605 1469 330 309 674 450 247 243 206 185 1848 453 220 2077 2385
shrinkage=0.1


Tree=9
num_leaves=31
num_cat=0
split_feature=12 7 6 18 19 14 16 19 7 11 11 9 0 12 16 11 11 7 6 18 19 10 11 11 7 7 7 1 16 16
split_gain=749.078 167.387 259.611 67.363 48.7545 217.538 47.0196 33.0744 52.8835 31.0917 82.6605 29.8869 23.6374 19.9865 16.7025 15.0702 13.027 16.4951 12.3337 11.9165 11.3417 17.6751 10.8321 9.71112 9.20177 9.0938 18.46 8.84667 11.1539 19.9282
threshold=0.00011789951492906289 0.010105000000000001 1.0000000180025095e-35 1.0000000180025095e-35 1.0000000180025095e-35 1.0000000180025095e-35 4651336.5000000009 1.0000000180025095e-35 0.59468510901512117 2.2174093220000003e-06 0.0099994662841666679 0.25007692307692314 3.5000000000000004 2.4794887531166467e-17 4713.5000000000009 2.2058592132505184 0.00020150000000000002 0.00019950000000000005 0.099870325000000024 1.5000000000000002 1.0000000180025095e-35 0.01156546884671558 0.070272993893308752 4.8400886433795227 62.044000000000004 0.47809098085272261 0.10002034888515952 3.5000000000000004 3270976.0000000005 1071313.5000000002
decision_type=2 2 2 2 2 2 2 2 2 2 2 2 2 2 2 2 2 2 2 2 2 2 2 2 2 2 2 2 2 2
left_child=1 2 3 4 27 -6 12 8 -3 -7 16 18 15 -5 25 19 17 -11 -4 -2 21 -20 -8 -10 -14 26 -9 -1 29 -29
right_child=6 7 11 13 5 9 22 14 23 10 -12 -13 24 -15 -16 -17 -18 -19 20 -21 -22 -23 -24 -25 -26 -27 -28 28 -30 -31
leaf_value=-0.1146987993951967 0.065602658665855837 0.086510062397573625 0.02685558332161761 0.070836466223066746 0.081380448121947724 -0.12246601613508941 0.03527580997023546 -0.022121467650073303 0.0056142456329803204 0.036239983251825501 -0.12232755551018362 -0.0060195491611314293 0.11493608124392868 -0.13189159578219189 0.11135442953631905 0.0023436742133306912 0.020195717855688116 -0.13425303181678519 -0.074391519268061687 0.11032694988803388 0.1273485221760341 0.084606541899273469 -0.064292323945763133 -0.069662530906149989 0.010115273407720796 -0.031891863004689096 0.022419512925871299 -0.12786634634282534 -0.12829419161025218 0.10687225149222393
leaf_count=2246 885 566 190 187 444 1236 95 833 182 41 768 359 2069 27 57 115 319 64 36 489 251 219 88 131 40 566 691 33 67 39
internal_value=0 -0.329524 -0.560935 -0.78897 -0.846639 -0.640683 0.886782 0.0560025 0.425281 -0.935713 -0.680398 0.410081 0.954442 0.441286 -0.0712635 0.740501 0.000112553 -0.649908 0.695096 0.813548 0.903371 0.574874 -0.115308 -0.24132 1.12452 -0.0981982 -0.0176893 -1.10765 -0.545518 0.0325469
internal_count=13333 9552 6526 5471 5257 2872 3781 3026 879 2428 1192 1055 3598 214 2147 1489 424 105 696 1374 506 255 183 313 2109 2090 1524 2385 139 72
shrinkage=0.1


Tree=10
num_leaves=31
num_cat=0
split_feature=12 7 6 18 19 14 16 8 11 19 7 9 0 11 11 16 16 11 7 19 16 6 6 7 12 1 16 16 10 9
split_gain=639.693 146.734 225.868 58.8422 43.8239 187.807 42.7552 30.0186 74.8405 27.6828 45.1254 26.9669 24.6849 17.677 14.2336 14.1426 12.6647 11.3955 13.2216 9.87139 22.8772 19.6921 12.2354 8.99623 8.884 8.42363 10.0367 16.3987 8.38279 10.4536
threshold=0.00011789951492906289 0.010105000000000001 1.0000000180025095e-35 1.0000000180025095e-35 1.0000000180025095e-35 1.0000000180025095e-35 3557451.0000000005 -2.8767592589999998e-06 0.0099994662841666679 1.0000000180025095e-35 0.59468510901512117 1.3392251297818067 3.5000000000000004 0.00060017361111100009 0.74277412313142865 4713.5000000000009 3557451.0000000005 0.00020150000000000002 0.00019950000000000005 1.0000000180025095e-35 10272.000000000002 0.099870325000000024 0.010536948833033502 21.329713673023484 0.40163053921059072 3.5000000000000004 3270976.0000000005 1071313.5000000002 2.1154274877832573 6.3166666666666673
decision_type=2 2 2 2 2 2 2 2 2 2 2 2 2 2 2 2 2 2 2 2 2 2 2 2 2 2 2 2 2 2
left_child=1 2 3 4 25 -6 12 8 17 10 -3 16 14 -5 -2 -11 19 18 -7 20 22 -21 -4 -12 -16 -1 27 -27 -13 -30
right_child=6 9 11 13 5 7 -8 -9 -10 15 23 28 -14 -15 24 -17 -18 -19 -20 21 -22 -23 -24 -25 -26 26 -28 -29 29 -31
leaf_value=-0.11094884223626277 0.080816665043840955 0.081415204012078066 0.084620035963056603 -0.058788742365087757 0.076418915126206688 0.022743934935600549 -0.0004831981378162905 -0.11954295211430571 -0.11913665075785738 -0.0088686975566639997 -0.0094679814130170376 -0.072382370223857836 0.11010096566847474 0.083812466586070819 -0.085876464967182875 0.10515281411835682 -0.062874405608632153 0.018209377137646292 -0.12747137436902192 -0.069421825606473364 0.081026545425538263 0.1191812418770819 -0.037450640219386176 -0.12330772697114573 0.038521585842831225 -0.12204107581074955 -0.12489036232348763 0.09267867509221861 0.10091759545516249 -0.059164900993140729
leaf_count=2246 1222 566 44 57 444 48 235 1229 768 2090 273 104 2077 157 27 57 40 319 64 26 346 274 151 40 220 33 67 39 36 34
internal_value=0 -0.308821 -0.53406 -0.756354 -0.81276 -0.612546 0.841318 -0.897097 -0.643828 0.0511974 0.395155 0.378761 0.917883 0.409051 0.695148 -0.0643732 0.547589 -0.007707 -0.611747 0.608358 0.444971 0.966994 -0.0961403 -0.219762 0.233938 -1.06912 -0.51173 0.0267974 -0.353993 0.201294
internal_count=13333 9552 6526 5471 5257 2872 3781 2428 1199 3026 879 1055 3546 214 1469 2147 881 431 112 841 541 300 195 313 247 2385 139 72 174 70
shrinkage=0.1


Tree=11
num_leaves=31
num_cat=0
split_feature=12 7 6 18 19 14 16 11 11 5 11 18 9 11 11 18 19 6 16 11 11 11 16 6 12 11 10 9 19 0
split_gain=546.157 128.974 196.136 52.0512 39.9385 161.745 36.4392 29.6264 69.7416 24.024 23.4904 42.8915 22.6269 16.8236 14.4313 12.1608 10.4494 16.3803 12.5981 10.3525 13.9683 11.2227 10.0684 9.26545 9.03695 8.79783 8.5484 9.69202 8.50231 12.7903
threshold=0.00024272439052259605 0.010105000000000001 1.0000000180025095e-35 1.0000000180025095e-35 1.0000000180025095e-35 1.0000000180025095e-35 3557451.0000000005 2.2174093220000003e-06 0.0099994662841666679 5.5000000000000009 1.7600102477120916 1.0000000180025095e-35 1.6676882836809974 0.00020150000000000002 2.2058592132505184 1.5000000000000002 1.0000000180025095e-35 0.099870325000000024 10272.000000000002 0.0051536313168126522 0.0047951047188406438 0.00096804360349850012 3557451.0000000005 0.010536948833033502 0.0204485751345404 0.37449489032901273 2.7163461589637277 6.3166666666666673 1.5000000000000002 7.5000000000000009
decision_type=2 2 2 2 2 2 2 2 2 2 2 2 2 2 2 2 2 2 2 2 2 2 2 2 2 2 2 2 2 2
left_child=1 2 3 4 -1 -6 9 -7 19 14 11 -3 16 -5 15 -2 18 -18 23 20 21 -9 -20 -4 -8 -13 -14 -28 -26 -30
right_child=6 10 12 13 5 7 24 8 -10 -11 -12 25 26 -15 -16 -17 17 -19 22 -21 -22 -23 -24 -25 28 -27 27 -29 29 -31
leaf_value=-0.10337375826865501 0.058530519928779036 -0.0016723636553059682 0.077542670187759621 -0.086713934690177796 0.071743230259680393 -0.11671547498506724 0.061843973901585018 -0.034595552349644544 -0.11631994927477346 0.10840151398359894 -0.039472106046321488 0.079994437135750759 -0.07450455898104455 0.071001833703944806 2.9333244999329365e-05 0.10329332648184351 -0.061727502999876283 0.1099006170161186 0.072106935563729269 0.069100603116163936 -0.1391757448390494 0.044722299861096826 -0.046257120580198506 -0.028931086421493158 0.079612154314812417 0.020305369390262829 0.11320024707878079 -0.050665578431775118 -0.1140632972796126 0.014817753713151326
leaf_count=2385 958 1895 44 42 444 1236 73 191 768 1875 453 536 97 177 127 572 26 277 354 77 33 131 37 157 28 145 30 33 65 67
internal_value=0 -0.288483 -0.508047 -0.723891 -0.779751 -0.584268 0.800292 -0.857629 -0.602838 0.874687 0.0474544 0.124321 0.351285 0.378658 0.673789 0.747295 0.501416 0.883942 0.345525 0.00118376 -0.15016 -0.0118153 0.597033 -0.0568255 0.0172895 0.640814 -0.35868 0.238419 -0.259669 -0.47639
internal_count=13333 9568 6539 5484 5265 2880 3765 2436 1200 3532 3029 2576 1055 219 1657 1530 895 303 592 432 355 322 391 201 233 681 160 63 160 132
shrinkage=0.1


Tree=12
num_leaves=31
num_cat=0
split_feature=12 8 6 18 19 14 16 7 11 0 11 19 9 11 12 6 8 7 16 11 16 16 12 7 8 7 11 8 16 16
split_gain=466.516 113.425 168.428 51.375 37.4752 137.348 34.6644 31.2574 46.9206 24.1252 20.9482 34.4508 19.5001 16.845 15.2412 14.0842 12.2701 9.54115 9.44764 9.44428 9.11413 11.9576 9.06953 8.80975 10.8544 8.62262 9.4126 8.8269 8.47831 8.35568
threshold=0.00011789951492906289 -0.012165187915359497 1.0000000180025095e-35 1.0000000180025095e-35 1.0000000180025095e-35 1.0000000180025095e-35 3557451.0000000005 1.0000000180025095e-35 0.0099994662841666679 3.5000000000000004 0.89950000000000008 1.0000000180025095e-35 0.10001301113064502 0.00020150000000000002 2.4794887531166467e-17 0.099870325000000024 -2.4613367855705062 62.044000000000004 1099404.5000000002 17.573520802440274 9422.5000000000018 3119959.5000000005 0.72195670129747802 0.010105000000000001 -0.011990116862656998 0.10002034888515952 0.14513138253109406 -0.097920822274999986 3358.5000000000005 2582177.5000000005
decision_type=2 2 2 2 2 2 2 2 2 2 2 2 2 2 2 2 2 2 2 2 2 2 2 2 2 2 2 2 2 2
left_child=1 10 3 4 20 -6 9 -7 13 16 11 -1 15 -9 -5 -4 18 -11 22 -12 -3 -22 -2 -10 -25 27 -27 -13 -18 -14
right_child=6 2 12 14 5 7 -8 8 23 17 19 25 29 -15 -16 -17 28 -19 -20 -21 21 -23 -24 24 -26 26 -28 -29 -30 -31
leaf_value=0.067241003685633002 -0.087651820698844876 -0.1079834052519469 0.019374373413706167 0.063858758088809892 0.067314065821060795 -0.11743144032549238 -0.00057245332882729797 -0.0661781915041674 -0.11380815546559356 0.10595826245526581 -0.017883950087587152 -0.11458870442189124 0.010678365382217874 0.015968259035737252 -0.122024092510801 0.092989988045532865 -0.00099318159193705958 -0.0089794513666658481 -0.10974003064400967 -0.094779596639817471 -0.030028518574933008 -0.11945360301889879 0.049730392253333255 -0.14629068668957546 0.0087056384703533777 0.050803050318948696 0.0032472171734860607 -0.0090543307932418899 0.076732716412680271 -0.084413225642882062
leaf_count=585 25 1953 190 201 444 1116 235 225 768 2039 593 35 404 320 27 416 77 38 24 91 250 182 166 31 63 235 648 729 1177 46
internal_value=0 -0.270902 -0.479517 -0.683764 -0.741312 -0.553634 0.75727 -0.803196 -0.577263 0.833265 0.0516835 0.150955 0.326146 -0.113714 0.409551 0.623096 0.607961 1.03022 0.137454 -0.267116 -0.998727 -0.655171 0.30566 -1.01409 -0.418517 0.0200639 0.155777 -0.137408 0.7108 0.0089153
internal_count=13333 9552 6636 5580 5352 2967 3781 2523 1407 3546 2916 2232 1056 545 228 606 1469 2077 215 684 2385 432 191 862 94 1647 883 764 1254 450
shrinkage=0.1


Tree=13
num_leaves=31
num_cat=0
split_feature=12 7 6 18 19 14 16 7 11 5 6 19 7 11 11 19 6 16 11 16 18 6 1 16 16 16 12 7 11 7
split_gain=398.505 99.4994 149.215 39.4807 32.38 120.997 29.4256 28.159 51.1467 23.5477 17.6563 16.5329 28.6052 13.907 12.9067 12.6306 16.0907 13.6587 12.1231 11.8981 11.8674 9.56275 9.22636 9.50671 14.5395 8.00315 7.77762 7.05528 6.91588 14.0462
threshold=0.00024272439052259605 0.010105000000000001 1.0000000180025095e-35 1.0000000180025095e-35 1.0000000180025095e-35 1.0000000180025095e-35 3557451.0000000005 1.0000000180025095e-35 0.0099994662841666679 5.5000000000000009 3.5836960065724499 1.0000000180025095e-35 0.59468510901512117 0.00020150000000000002 0.00020150000000000002 1.0000000180025095e-35 0.099870325000000024 500.50000000000006 2.2058592132505184 4713.5000000000009 1.5000000000000002 0.010536948833033502 3.5000000000000004 3270976.0000000005 725910.50000000012 12337228.500000002 0.0204485751345404 21.329713673023484 0.01500984017247743 0.017929000545254505
decision_type=2 2 2 2 2 2 2 2 2 2 2 2 2 2 2 2 2 2 2 2 2 2 2 2 2 2 2 2 2 2
left_child=1 2 3 4 22 -6 9 -7 13 18 15 12 -3 -9 -5 17 -17 21 20 28 -2 -4 -1 24 -24 26 -8 -14 -13 -30
right_child=6 11 10 14 5 7 25 8 -10 -11 -12 19 27 -15 -16 16 -18 -19 -20 -21 -22 -23 23 -25 -26 -27 -28 -29 29 -31
leaf_value=-0.10149677766041586 0.049961900085033067 0.068372088358730904 0.069596260458315365 -0.079758239896440264 0.063102737465381614 -0.11550006287364695 0.07931994082876237 -0.061729361089210226 -0.11154550886173867 0.10201688132096487 -0.028397083308654533 -0.047533053608393848 -0.0061718528484501073 0.013593458986438321 0.06252119922510864 -0.057145368987712289 0.11408955908775922 0.05471490964967201 -0.0028312658874288087 0.099176414015287664 0.096327568036394084 -0.040400435311344504 -0.12841284787397986 -0.11758487478950037 0.090047174136891964 -0.083502570490635322 -0.0099018966239754428 -0.11327621139569635 0.11001436604570139 -0.0062244201905259653
leaf_count=2246 958 566 44 42 444 1116 63 225 768 1875 186 169 273 327 177 26 273 380 127 60 572 146 29 67 43 39 131 40 43 1878
internal_value=0 -0.252715 -0.46126 -0.667208 -0.72037 -0.535299 0.720727 -0.79087 -0.558615 0.794445 0.299413 0.039659 0.319365 -0.106799 0.323608 0.448551 0.898009 0.274673 0.591047 -0.0473437 0.663599 -0.155481 -0.966317 -0.345447 0.170346 0.0161696 0.191378 -0.167707 -0.0694402 -0.0358601
internal_count=13333 9568 6539 5484 5265 2880 3765 2436 1320 3532 1055 3029 879 552 219 869 299 570 1657 2150 1530 190 2385 139 72 233 194 313 2090 1921
shrinkage=0.1


Tree=14
num_leaves=31
num_cat=0
split_feature=12 7 6 18 19 14 7 8 16 0 7 11 18 9 11 7 7 16 18 16 16 16 0 11 8 11 8 19 6 16
split_gain=340.798 90.0153 129.329 33.6036 30.3212 103.367 28.743 49.2113 27.5494 22.1435 18.547 15.8843 28.4263 14.9662 14.4507 11.0363 9.73545 9.18677 9.13985 9.0833 11.263 8.59985 7.89384 7.86809 9.74721 7.61161 7.53727 7.25361 13.205 12.9047
threshold=0.00072553032450233706 0.010105000000000001 1.0000000180025095e-35 1.0000000180025095e-35 1.0000000180025095e-35 1.0000000180025095e-35 1.0000000180025095e-35 -0.0096192342285524989 3557451.0000000005 3.5000000000000004 0.0053235797814190008 0.89950000000000008 1.0000000180025095e-35 1.8731475000000002 0.00074311275285433344 2.6139909742988459 62.044000000000004 3557451.0000000005 1.5000000000000002 9422.5000000000018 3119959.5000000005 938531.00000000012 2.5000000000000004 0.10001345762711843 -0.097920822274999986 22.650240224362069 -0.10798293757269048 1.0000000180025095e-35 0.099870325000000024 10272.000000000002
decision_type=2 2 2 2 2 2 2 2 2 2 2 2 2 2 2 2 2 2 2 2 2 2 2 2 2 2 2 2 2 2
left_child=1 2 3 4 19 -6 -7 -8 9 15 -9 12 22 17 -5 18 -11 27 -2 -1 -21 -17 23 24 -3 -13 -25 29 -29 -4
right_child=8 11 13 14 5 6 7 10 -10 16 -12 25 -14 -15 -16 21 -18 -19 -20 20 -22 -23 -24 26 -26 -27 -28 28 -30 -31
leaf_value=-0.10252865737646154 0.049595512310402511 -0.11704784272790243 -0.0066580177049678953 -0.053325193251563222 0.059088658730552371 -0.11380932986674935 -0.10695535019677338 -0.02452542209075792 -0.00024745617029800173 0.10137201218413577 0.08970571870025941 -0.017012402643212816 0.061168780757582898 -0.031777099033199682 0.072311090469408618 0.026608178446536124 -0.017140983337767871 -0.059124593683061458 0.096758152464386238 -0.023228200452582067 -0.11550314106464298 -0.10450219428494492 0.10278276123678146 0.0080747514049668307 -0.0096622254751663889 -0.096172869799612135 0.08300765337121091 -0.051080151484464591 0.10429759239050335 0.061964047838210093
leaf_count=1953 782 39 204 77 444 1116 792 484 223 1989 79 612 620 154 159 180 38 41 432 250 182 25 50 801 819 73 59 26 274 356
internal_value=0 -0.232298 -0.437546 -0.636022 -0.68844 -0.507246 -0.74868 -0.517739 0.69655 0.771582 -0.0732289 0.0430189 0.126171 0.276459 0.261698 0.546938 0.979388 0.403337 0.652359 -0.936459 -0.577447 0.0876517 0.0146286 -0.00362432 -0.142466 -0.237758 0.131533 0.459805 0.809639 0.325852
internal_count=13333 9664 6591 5536 5300 2915 2471 1355 3669 3446 563 3073 2388 1055 236 1419 2027 901 1214 2385 432 205 1768 1718 858 685 860 860 300 560
shrinkage=0.1


Tree=15
num_leaves=31
num_cat=0
split_feature=12 7 6 18 19 14 11 8 16 0 11 18 6 7 11 19 6 1 8 7 7 1 16 16 8 7 18 11 12 8
split_gain=290.715 78.5518 112.618 29.473 27.6927 89.0281 28.4348 52.2091 24.8778 21.7197 13.7116 24.5845 13.0134 12.3661 12.1752 10.5385 12.7134 9.93507 9.79043 9.63838 9.04766 9.01775 9.78143 10.4146 9.01747 9.58397 8.00614 7.74809 7.73103 7.55525
threshold=0.00072553032450233706 0.010105000000000001 1.0000000180025095e-35 1.0000000180025095e-35 1.0000000180025095e-35 1.0000000180025095e-35 2.2174093220000003e-06 -0.0096192342285524989 3557451.0000000005 3.5000000000000004 0.35270771182100252 1.0000000180025095e-35 3.5836960065724499 0.0053235797814190008 0.00074311275285433344 1.0000000180025095e-35 0.099870325000000024 3.5000000000000004 -2.4613367855705062 0.10002034888515952 62.044000000000004 1.5000000000000002 3206079.5000000005 725910.50000000012 -0.010999499999999999 0.011010027201988003 1.5000000000000002 17.573520802440274 0.72195670129747802 -0.011990116862656998
decision_type=2 2 2 2 2 2 2 2 2 2 2 2 2 2 2 2 2 2 2 2 2 2 2 2 2 2 2 2 2 2
left_child=1 2 3 4 21 -6 -7 -8 9 18 11 19 15 -9 -5 17 -17 -4 28 24 -11 -1 23 -23 25 -3 -20 -12 -2 -27
right_child=8 10 12 14 5 6 7 13 -10 20 27 -13 -14 -15 -16 16 -18 -19 26 -21 -22 22 -24 -25 -26 29 -28 -29 -30 -31
leaf_value=-0.098058739370348202 -0.08745232228303286 -0.14216051393739984 0.0048448900426909039 -0.048233607406153275 0.055257329799806902 -0.10861969115837888 -0.1043539472723134 -0.01221602256013854 -0.0002227103401085596 0.098637865801023031 -0.010662595659539316 0.064781341487390662 -0.024573945710501609 0.083599299173502062 0.068225356674155788 -0.045757937273436571 0.10726768125410993 0.071090139850907327 0.046938298441473326 0.022539164729323869 -0.015297225622817304 -0.075157024659378333 -0.11384479571497069 0.057123446934489501 0.13711928658648875 -0.012998013159444703 0.092562909806764487 -0.082466092764548152 0.027145108641297572 0.11180040680146359
leaf_count=2101 31 27 380 77 444 1236 792 364 223 1989 934 543 186 79 159 26 273 190 777 620 38 92 124 68 21 814 427 91 184 23
internal_value=0 -0.216845 -0.415713 -0.609032 -0.660309 -0.483379 -0.715681 -0.461714 0.660268 0.735301 0.0391864 0.143342 0.25519 0.038783 0.243659 0.388939 0.827554 0.23221 0.510936 0.0325287 0.950639 -0.906467 -0.448912 -0.0662302 -0.106071 -0.135166 0.616542 -0.156004 0.0898477 -0.0989567
internal_count=13333 9664 6591 5536 5300 2915 2471 1235 3669 3446 3073 2048 1055 443 236 869 299 570 1419 1505 2027 2385 284 160 885 864 1204 1025 215 837
shrinkage=0.1


Tree=16
num_leaves=31
num_cat=0
split_feature=12 7 6 18 19 14 7 11 18 11 16 16 9 16 7 19 11 6 11 8 16 16 16 16 0 1 18 12 16 6
split_gain=247.75 68.505 98.2439 25.8942 25.3068 76.7667 27.9038 42.2122 23.8361 20.0789 23.1281 12.1619 11.5168 11.285 11.0489 19.8849 10.2534 9.87205 9.4886 8.9738 8.94202 10.349 7.96571 7.48558 7.30987 7.28251 6.76509 6.97143 6.64958 6.6065
threshold=0.00072553032450233706 0.010105000000000001 1.0000000180025095e-35 1.0000000180025095e-35 1.0000000180025095e-35 1.0000000180025095e-35 1.0000000180025095e-35 0.0099994662841666679 3.5000000000000004 0.25325544191250104 2307942.5000000005 4713.5000000000009 0.10001301113064502 8185651.0000000009 2.848233200607496 1.0000000180025095e-35 0.00074311275285433344 0.099870325000000024 0.00020150000000000002 -0.09997628503437149 9422.5000000000018 3119959.5000000005 4186423.0000000005 8020.0000000000009 1.5000000000000002 22.500000000000004 1.5000000000000002 0.0020441185079544664 3038353.5000000005 144.50000000000003
decision_type=2 2 2 2 2 2 2 2 2 2 2 2 2 2 2 2 2 2 2 2 2 2 2 2 2 2 2 2 2 2
left_child=1 2 3 4 20 -6 -7 18 9 13 23 14 17 24 15 19 -5 -4 -8 -3 -1 -22 -10 -11 26 -19 27 -2 -12 -14
right_child=8 11 12 16 5 6 7 -9 22 10 28 -13 29 -15 -16 -17 -18 25 -20 -21 21 -23 -24 -25 -26 -27 -28 -29 -30 -31
leaf_value=-0.09755726073625591 -0.099875269024793378 0.02081863903193619 0.013930070753543265 -0.043628111406527753 0.051598774738782764 -0.11105535816357887 -0.052705020048959106 -0.10592550247478164 0.10759662781463755 -0.038354805389935513 -0.21367132489038318 0.087602074430021298 0.0052152244253065531 -0.036952141524013417 -0.035739019578150066 -0.0032338991573951526 0.064296553677034379 0.089112070144488881 0.010695347768666709 0.078049003925969127 -0.018214498272880349 -0.11238872716652118 -0.0018550675658877064 0.046267459022474824 0.081775998759376356 -0.070279951229672774 0.096393947089672638 0.036454167227933952 -0.058609232791468513 -0.11919964784663575
leaf_count=1953 27 387 190 77 444 1116 225 768 1066 64 20 112 430 44 340 1920 159 395 362 314 250 182 30 510 1349 20 144 341 74 20
internal_value=0 -0.20222 -0.394756 -0.583526 -0.633779 -0.460945 -0.684908 -0.455228 0.625169 0.495881 0.141454 0.0355973 0.234736 0.654281 0.0139776 0.05957 0.226603 0.486892 -0.0782667 0.431818 -0.878271 -0.507745 1.01137 0.351075 0.698874 0.792599 0.439289 0.265987 -0.857306 -0.00472789
internal_count=13333 9664 6591 5536 5300 2915 2471 1355 3669 2573 668 3073 1055 1905 2961 2621 236 605 587 701 2385 432 1096 574 1861 415 512 368 94 450
shrinkage=0.1


Tree=17
num_leaves=31
num_cat=0
split_feature=12 7 6 18 18 19 14 7 11 16 11 16 9 7 19 6 16 16 19 0 16 19 16 12 11 8 12 11 7 19
split_gain=210.892 59.6499 85.6062 23.0617 22.7235 23.0203 66.1493 27.2599 39.1019 19.399 16.6329 10.447 9.8356 9.2354 17.3009 8.99051 8.82549 9.78607 8.77295 8.35079 12.6841 8.24858 7.96728 7.95946 7.92927 7.05319 7.0312 6.64147 12.1137 6.6125
threshold=0.00072553032450233706 0.010105000000000001 1.0000000180025095e-35 4.5000000000000009 1.0000000180025095e-35 1.0000000180025095e-35 1.0000000180025095e-35 1.0000000180025095e-35 0.0099994662841666679 5540897.5000000009 0.74277412313142865 4713.5000000000009 0.10001301113064502 1.7701460957509336 1.0000000180025095e-35 0.099870325000000024 9422.5000000000018 3119959.5000000005 1.0000000180025095e-35 1.5000000000000002 1150766.5000000002 9.5000000000000018 1099404.5000000002 0.16148757689186805 0.00020150000000000002 -0.09997628503437149 0.76194510456892661 0.03158951913364403 0.039872546910859001 1.0000000180025095e-35
decision_type=2 2 2 2 2 2 2 2 2 2 2 2 2 2 2 2 2 2 2 2 2 2 2 2 2 2 2 2 2 2
left_child=1 2 4 9 5 16 -7 -8 24 10 19 13 15 14 25 -4 -1 -18 -6 20 -2 -11 26 -22 -9 -3 -12 -16 -29 -17
right_child=3 11 12 -5 18 6 7 8 -10 21 22 -13 -14 -15 27 29 17 -19 -20 -21 23 -23 -24 -25 -26 -27 -28 28 -30 -31
leaf_value=-0.09515470034102147 0.053930422281149026 0.021264968750449753 0.012584571398077929 0.10318104571911724 0.041788889677038241 0.048106341609158672 -0.10989332133554192 -0.048943581625060018 -0.10426734760231232 -0.073022594624942302 -0.04795116314305703 0.083185961299128197 -0.00043527323874778572 -0.027438157386948953 -0.025713790987349439 0.036876009549616888 -0.016583903151803768 -0.11107201624940428 -0.095996325591032536 0.077075176692813482 -0.0094921237370019854 0.044494612553792848 -0.055007145147836181 -0.20252886585097932 0.009641598903370581 0.074110975593904158 0.046212059844033371 0.081207254202727897 -0.00041866834174747816 0.11220674331306207
leaf_count=1953 520 352 190 939 202 444 1116 225 768 79 49 112 450 449 401 166 250 182 34 1666 54 38 77 20 362 314 227 78 1367 249
internal_value=0 -0.188235 -0.374224 0.591221 -0.55831 -0.607489 -0.439145 -0.654895 -0.427442 0.476442 0.542113 0.0324282 0.215411 0.0127696 0.062342 0.453922 -0.849561 -0.476091 0.210467 0.652361 0.390168 -0.340067 0.0915581 -0.626127 -0.0713477 0.428851 0.28019 -0.0229764 0.0402203 0.75846
internal_count=13333 9664 6591 3669 5536 5300 2915 2471 1355 2730 2613 3073 1055 2961 2512 605 2385 432 236 2260 594 117 353 74 587 666 276 1846 1445 415
shrinkage=0.1


Tree=18
num_leaves=31
num_cat=0
split_feature=12 7 6 18 11 11 16 14 19 11 16 16 11 16 19 8 1 9 16 16 11 0 16 16 10 16 19 7 7 16
split_gain=179.266 51.771 74.4925 21.874 20.2338 49.8693 16.4958 15.9816 77.4513 14.874 10.0326 9.14561 9.05702 9.20665 9.70429 11.1602 9.0151 8.8659 8.37041 8.34711 8.25138 7.57002 8.23773 7.26708 7.21449 7.49878 6.74955 5.77414 6.11184 5.60044
threshold=0.00072553032450233706 0.010105000000000001 1.0000000180025095e-35 4.5000000000000009 2.2174093220000003e-06 0.0099994662841666679 5540897.5000000009 1.0000000180025095e-35 1.0000000180025095e-35 0.42413255744875356 1099404.5000000002 8020.0000000000009 17.573520802440274 1.0000000180025095e-35 1.0000000180025095e-35 -0.09997628503437149 1.5000000000000002 1.8731475000000002 3206079.5000000005 725910.50000000012 0.00096804360349850012 1.5000000000000002 955501.50000000012 3557451.0000000005 2.7163461589637277 52520.500000000007 9.5000000000000018 0.00014515725576700003 0.00020150000000000002 1666457.5000000002
decision_type=2 2 2 2 2 2 2 2 2 2 2 2 2 2 2 2 2 2 2 2 2 2 2 2 2 2 2 2 2 2
left_child=1 2 4 6 7 20 9 8 16 21 11 -11 13 14 15 -3 -1 23 19 -18 27 22 -2 29 -19 -26 -8 -6 -29 -4
right_child=3 12 17 -5 5 -7 26 -9 -10 10 -12 -13 -14 -15 -16 -17 18 24 -20 -21 -22 -23 -24 -25 25 -27 -28 28 -30 -31
leaf_value=-0.091190281711613252 0.051830609112518015 0.0075920972815659658 0.028536722366025044 0.10058312364997207 0.053610679679695905 -0.1022151518509184 -0.066416815082430788 -0.10118589024292229 0.044775719914949275 -0.055274559829054985 -0.0479046799600715 0.05033019157789137 -0.07410890654162916 0.076169915222870352 -0.0037633089548795777 0.070293348489273072 -0.067419298263996952 -0.063234761941116477 -0.10988188349006796 0.05438687024763339 0.028733805178645485 0.075482923345319211 -0.037559030714011461 -0.058493110747529477 0.11557011084050657 -0.033652337824410648 0.040166020089610809 -0.097294757434785717 -0.014440432243720736 0.091036976675410997
leaf_count=2099 466 506 753 939 42 770 79 1260 444 48 112 331 91 122 2040 314 92 93 124 68 403 1571 85 41 26 35 38 69 165 107
internal_value=0 -0.174965 -0.353996 0.55839 -0.533162 -0.268876 0.446297 -0.667693 -0.544561 0.508951 0.141372 0.338479 0.0295283 0.0473329 0.0273579 0.265257 -0.825573 0.197433 -0.343131 -0.00598654 0.0759888 0.634606 0.372236 0.302296 -0.259818 0.301619 -0.308621 -0.220494 -0.359751 0.356752
internal_count=13333 9664 6591 3669 5536 1449 2730 4087 2827 2613 491 379 3073 2982 2860 820 2383 1055 284 160 679 2122 551 901 154 61 117 276 234 860
shrinkage=0.1


Tree=19
num_leaves=31
num_cat=0
split_feature=12 7 6 11 11 18 14 19 5 16 11 16 12 11 16 16 16 12 9 6 11 19 8 19 9 6 12 1 16 16
split_gain=152.953 43.7659 63.3262 20.9621 46.7344 19.6115 15.0815 67.8059 14.1554 19.9632 13.1142 10.1523 10.1377 8.79634 8.77499 8.9169 8.72219 16.012 7.70514 8.30209 7.5683 8.01909 10.0557 6.82781 6.77161 8.00281 6.4589 6.29178 6.20177 6.05819
threshold=0.0015846420731063734 0.010105000000000001 1.0000000180025095e-35 2.2174093220000003e-06 0.0099994662841666679 1.5000000000000002 1.0000000180025095e-35 1.0000000180025095e-35 8.5000000000000018 2460629.5000000005 4.441508438343611 2134.0000000000005 0.012722485264615677 0.00096804360349850012 9422.5000000000018 3119959.5000000005 345364.00000000006 4.6314313838445612e-05 0.10001301113064502 0.099870325000000024 22.650240224362069 1.0000000180025095e-35 -0.09997628503437149 1.0000000180025095e-35 0.073309942906528147 0.36100161359855004 8.0511375041786106 1.5000000000000002 4186423.0000000005 2582177.5000000005
decision_type=2 2 2 2 2 2 2 2 2 2 2 2 2 2 2 2 2 2 2 2 2 2 2 2 2 2 2 2 2 2
left_child=1 2 3 6 13 8 7 14 9 11 28 -2 -11 -5 -1 -16 17 20 19 27 21 22 -3 24 -21 -26 -12 -4 -7 -20
right_child=5 16 18 4 -6 10 -8 -9 -10 12 26 -13 -14 -15 15 -17 -18 -19 29 23 -22 -23 -24 -25 25 -27 -28 -29 -30 -31
leaf_value=-0.091130965018191082 -0.056117998555509224 0.0072950134235570778 -0.014293291628425575 -0.022304269695831283 -0.1006299026824003 0.093099894086942414 -0.099442167732572154 0.041604077067098816 0.075176571717025575 0.05448995789846544 -0.11487283190432192 0.042617438975389325 -0.093021718860021085 0.029701494622406718 -0.012523401137992593 -0.10893217834573353 0.072221241353508395 -0.23810296773048961 0.0070791598918406307 0.066115769066459565 -0.079970097273565355 -0.0027045188184453475 0.067325697416607086 0.11060414191779547 -0.15631982649638643 0.077985880543846378 0.043596668226684253 0.072563810769143727 0.0098358818858909017 -0.075968268308164499
leaf_count=1951 62 519 135 280 770 1551 1260 444 636 33 23 1061 105 431 250 182 165 22 404 123 73 2071 319 249 23 20 28 55 42 46
internal_value=0 -0.159532 -0.329421 -0.500617 -0.232853 0.539189 -0.644745 -0.522601 0.35727 0.207976 0.8058 0.350943 -0.592863 0.0850593 -0.798641 -0.413509 0.0256314 0.00682242 0.180393 0.398654 0.0171672 0.0315223 0.247393 0.709581 0.30814 -0.59174 -0.282111 0.0871815 0.879304 -0.0131537
internal_count=13333 9792 6623 5568 1481 3541 4087 2827 1897 1261 1644 1123 138 711 2383 432 3169 3004 1055 605 2982 2909 838 415 166 43 51 190 1593 450
shrinkage=0.1


Tree=20
num_leaves=31
num_cat=0
split_feature=12 7 6 11 11 18 11 14 19 16 16 16 16 8 7 16 11 19 7 11 6 19 6 10 9 19 8 8 16 8
split_gain=129.665 37.8871 55.0063 19.3555 42.0097 18.7764 15.566 14.2797 59.2351 13.7467 8.57246 8.37678 8.30899 8.13503 9.79285 7.52334 7.38603 11.1859 8.28936 7.19814 7.06313 7.2675 10.6007 8.37338 9.42287 7.02766 6.88567 9.64533 6.1417 6.13506
threshold=0.0015846420731063734 0.010105000000000001 1.0000000180025095e-35 2.2174093220000003e-06 0.0099994662841666679 3.5000000000000004 0.25325544191250104 1.0000000180025095e-35 1.0000000180025095e-35 2307942.5000000005 9422.5000000000018 3119959.5000000005 8185651.0000000009 -0.010999499999999999 0.011010027201988003 4186423.0000000005 0.35270771182100252 1.0000000180025095e-35 0.10002034888515952 0.00096804360349850012 3.5836960065724499 1.0000000180025095e-35 0.099870325000000024 0.0099031316673040774 0.00072500000000000006 1.5000000000000002 -0.011990116862656998 -0.012165187915359497 57424.500000000007 -0.097920822274999986
decision_type=2 2 2 2 2 2 2 2 2 2 2 2 2 2 2 2 2 2 2 2 2 2 2 2 2 2 2 2 2 2
left_child=1 2 3 7 19 6 12 8 10 -8 -1 -12 -2 14 -3 28 17 -16 26 -5 21 23 -23 24 -4 -11 27 29 -7 -19
right_child=5 13 20 4 -6 15 9 -9 -10 25 11 -13 -14 -15 16 -17 -18 18 -20 -21 -22 22 -24 -25 -26 -27 -28 -29 -30 -31
leaf_value=-0.088831570824905073 0.059966670631203589 -0.13530088961410078 0.12861102757238566 -0.020154041860709071 -0.099078912906349292 -0.065141761733681955 0.024788352603017951 -0.097731680502217436 0.038589536766372196 0.040160996899344686 -0.011361812385866739 -0.10801044918949279 -0.034632775854501918 0.12073841059742461 0.048194266213534225 -0.0096515211937303232 -0.01202315755259936 -0.096383066219871763 0.020901451327818704 0.027052152306054705 -0.020434192803899017 -0.045241468293330256 0.098125155483890447 0.044354835682690295 -0.0233278724669491 -0.10319438589632234 0.10284512310040178 -0.13290411866564061 0.10485487540963462 -0.0052272335731446684
leaf_count=1951 1768 27 20 280 770 21 573 1260 444 20 250 182 43 37 527 29 1025 35 646 431 186 26 273 322 228 74 27 34 1013 811
internal_value=0 -0.147722 -0.310789 -0.476788 -0.217152 0.508048 0.38959 -0.621349 -0.500248 0.0727474 -0.770698 -0.38582 0.553065 0.0233652 0.0129977 0.91702 0.02391 0.102531 0.0326224 0.0772685 0.165781 0.27202 0.690936 0.147717 -0.115267 -0.694646 -0.0993408 -0.129312 1.00229 -0.0887975
internal_count=13333 9792 6623 5568 1481 3541 2478 4087 2827 667 2383 432 1811 3169 3132 1063 3105 2080 1553 711 1055 869 299 570 248 94 907 880 1034 846
shrinkage=0.1


Tree=21
num_leaves=31
num_cat=0
split_feature=12 7 6 5 11 11 16 14 19 19 16 16 7 12 7 18 1 12 16 12 16 16 6 11 7 8 11 7 19 8
split_gain=109.823 32.6854 47.6481 18.1654 17.8163 37.7501 16.8702 13.5225 51.7007 13.3274 10.6612 9.91543 9.86759 11.8578 9.22289 9.14524 8.55508 8.51943 7.31178 11.314 6.98278 6.59652 6.53326 6.27561 5.88902 8.22101 7.63619 5.8411 5.74179 7.87974
threshold=0.0015846420731063734 0.010105000000000001 1.0000000180025095e-35 7.5000000000000009 2.2174093220000003e-06 0.0099994662841666679 2460629.5000000005 1.0000000180025095e-35 1.0000000180025095e-35 1.5000000000000002 8185651.0000000009 2134.0000000000005 12.860261692488086 4.3973665862485651 62.044000000000004 1.0000000180025095e-35 1.5000000000000002 0.012722485264615677 345364.00000000006 4.6314313838445612e-05 3206079.5000000005 725910.50000000012 144.50000000000003 22.650240224362069 0.0048129537855255006 -0.0046292411198934989 0.00096804360349850012 0.00014515725576700003 1.0000000180025095e-35 -0.09997628503437149
decision_type=2 2 2 2 2 2 2 2 2 2 2 2 2 2 2 2 2 2 2 2 2 2 2 2 2 2 2 2 2 2
left_child=1 2 4 6 7 24 11 8 16 -8 14 -2 15 -14 -5 -13 -1 -11 19 23 21 -18 -4 28 25 -6 27 -27 29 -3
right_child=3 18 22 10 5 -7 9 -9 -10 17 -12 12 13 -15 -16 -17 20 -19 -20 -21 -22 -23 -24 -25 -26 26 -28 -29 -30 -31
leaf_value=-0.084085380151615124 -0.0428563102318648 0.0061383994943850495 0.018239931568756477 0.092154753629224623 -0.11964594371317955 -0.09754496728912071 0.062346713697777424 -0.096037959909055087 0.035730569839466125 0.043067463127983492 -0.023260815078270297 0.031088092496786963 -0.17538863194210103 0.024124493748979122 -0.038863903899102395 0.076038455451319861 -0.060436826148374791 -0.10776513225774481 0.068000074123864648 -0.18666994963394271 -0.10712743904038452 0.050702338706655393 -0.10773408295853504 -0.075195075820876145 0.041996975298241541 0.052271322283891863 0.035151498584292798 -0.038090798324833815 -0.0022547893363252117 0.060976651874068734
leaf_count=2099 71 519 1035 1460 27 770 54 1260 444 28 42 753 23 56 33 921 92 100 165 22 124 68 20 73 206 42 213 223 2071 319
internal_value=0 -0.136879 -0.292886 0.477995 -0.453301 -0.202184 0.315912 -0.597962 -0.478058 -0.351003 0.77928 0.420497 0.476351 -0.302277 0.860251 0.540951 -0.742745 -0.768127 0.021152 0.00430166 -0.251654 0.0364943 0.152333 0.013718 0.0701467 -0.0568339 0.0173308 -0.23288 0.0265453 0.212652
internal_count=13333 9792 6623 3541 5568 1481 2006 4087 2827 182 1535 1824 1753 79 1493 1674 2383 128 3169 3004 284 160 1055 2982 711 505 478 265 2909 838
shrinkage=0.1


Tree=22
num_leaves=31
num_cat=0
split_feature=0 11 6 18 7 11 19 14 7 11 16 11 7 7 11 18 11 12 16 16 16 11 11 8 2 19 16 6 16 10
split_gain=93.4869 32.658 38.4328 30.1425 18.794 14.4614 13.6818 31.0671 24.3462 20.3748 13.5325 12.5312 9.93476 11.6988 9.63815 9.75364 8.78308 8.0214 7.7827 7.53988 6.54377 6.45652 10.6483 6.33867 6.28664 7.34612 10.0946 7.49207 6.02695 7.14872
threshold=1.5000000000000002 0.01500984017247743 1.0000000180025095e-35 1.0000000180025095e-35 0.0053235797814190008 0.017632191302223044 1.0000000180025095e-35 1.0000000180025095e-35 1.0000000180025095e-35 0.0097487551867901506 3557451.0000000005 0.52260118059928895 0.020003661906182 0.019983090508267503 2.8739404021870736 1.0000000180025095e-35 0.010000000050000001 0.0066693462739421906 9422.5000000000018 3119959.5000000005 814432.00000000012 0.0051536313168126522 0.0047951047188406438 -0.014989370985727498 1.5000000000000002 1.0000000180025095e-35 11224.500000000002 0.010536948833033502 4367932.0000000009 0.029942598935271816
decision_type=2 2 2 2 2 2 2 2 2 2 2 2 2 2 2 2 2 2 2 2 2 2 2 2 2 2 2 2 2 2
left_child=1 2 3 6 -2 -3 18 -8 -9 21 11 20 13 -7 15 -14 -11 -12 -1 -20 -6 22 -10 -18 25 26 27 -4 29 -28
right_child=4 5 24 -5 10 12 7 8 9 16 17 -13 14 -15 -16 -17 23 -19 19 -21 -22 -23 -24 -25 -26 -27 28 -29 -30 -31
leaf_value=-0.083104046751000402 -0.080739231232002398 0.1059529712411693 0.057725660702670704 0.040167494212277791 0.052615675008284103 0.042380419837500322 0.033025665511157466 -0.10597491389034963 -0.0023573843712796612 -0.099083492283632613 0.090888261156867933 0.019137884549468503 0.0016308936698682421 -0.14441165551375543 -0.028922095837474709 0.033020039451715 -0.12983892989047174 -0.016641416262233269 -0.0081413716501512381 -0.10651123347977252 0.091123670972983142 0.051572497126982891 -0.12128272346158864 -0.017784444392994304 -0.088928239440122805 0.059552969046392235 -0.02009653439770202 -0.037718810230765641 -0.050386870023073231 0.058963401833467877
leaf_count=1954 69 70 44 327 808 29 444 1116 446 754 44 348 1939 39 386 913 31 163 250 182 1651 102 35 178 29 311 80 227 38 326
internal_value=0 -0.111722 -0.265514 -0.404315 0.513087 0.0438314 -0.477542 -0.350348 -0.501821 -0.324789 0.562094 0.656201 0.0228527 -0.789324 0.0412485 0.0861024 -0.687917 0.048573 -0.707297 -0.330302 0.770118 -0.0249292 -0.141452 -0.345311 0.137848 0.172675 0.0704703 -0.227351 0.318072 0.416169
internal_count=13333 10250 6874 5819 3083 3376 5492 3106 2662 1546 3014 2807 3306 68 3238 2852 963 207 2386 432 2459 583 481 209 1055 1026 715 271 444 406
shrinkage=0.1


Tree=23
num_leaves=31
num_cat=0
split_feature=5 7 6 18 7 11 14 19 16 16 13 7 16 11 11 6 6 7 16 7 7 8 11 16 10 12 19 7 19 11
split_gain=82.319 45.5376 25.4133 18.4289 15.8068 27.9367 15.032 42.7822 12.045 11.2237 8.90296 8.65878 8.09171 7.97814 7.17046 6.64558 11.4045 6.24915 5.95574 5.91407 5.51671 5.45995 13.9536 5.20071 5.1997 4.81656 4.92133 4.66129 6.42901 4.8882
threshold=5.5000000000000009 0.010105000000000001 1.0000000180025095e-35 1.5000000000000002 1.0000000180025095e-35 0.0099994662841666679 1.0000000180025095e-35 1.0000000180025095e-35 8185651.0000000009 3728511.5000000005 30.500000000000004 12.860261692488086 23051.000000000004 22.650240224362069 0.00096804360349850012 0.14727214571050004 0.099870325000000024 62.044000000000004 3358.5000000000005 0.00090832684010100004 0.0263182329365555 -0.010999499999999999 0.011002766927083253 371927.00000000006 0.66216395490342495 0.00042650979837587332 6.5000000000000009 0.74585206057765918 1.0000000180025095e-35 0.10001345762711843
decision_type=2 2 2 2 2 2 2 2 2 2 2 2 2 2 2 2 2 2 2 2 2 2 2 2 2 2 2 2 2 2
left_child=1 2 4 9 6 14 7 -1 10 13 12 -5 -2 18 19 16 -4 20 21 -6 25 22 -3 24 -17 -14 -27 28 -24 -30
right_child=8 3 15 11 5 -7 -8 -9 -10 -11 -12 -13 17 -15 -16 23 -18 -19 -20 -21 -22 -23 27 -25 -26 26 -28 -29 29 -31
leaf_value=-0.074123656133115487 -0.047271971555468202 -0.13364782208303499 -0.00057452409751797956 0.071425807103540767 -0.011566260051963439 -0.094563818739668459 -0.10537411733773026 0.030473092607564568 -0.027728088496196113 -0.089396862215194606 -0.093300002211917699 -0.039871798655527396 0.056655302061598134 -0.079549516411550655 0.020024731514700064 -0.014884767578539621 0.09101940162874185 -0.020013536575485397 0.025906807208208267 -0.095522416674471478 0.086859061437008722 0.11065696750517487 0.034712819388474973 -0.067196886158646219 0.053059031456078556 0.058987360565354231 -0.15805203957890723 -0.013100076779507303 -0.0095822377147424739 0.01268829418744416
leaf_count=2290 48 41 171 590 349 770 1116 444 89 64 23 37 275 79 474 252 272 40 905 49 1836 24 571 77 69 28 27 691 802 830
internal_value=0 -0.0880137 -0.304283 0.0611811 -0.423846 -0.19989 -0.586053 -0.458686 0.590874 0.0183107 0.658722 0.575899 0.688213 0.0342687 0.00507206 0.0646382 0.319138 0.725642 0.0469584 -0.251181 0.76306 0.00933387 0.00148327 -0.120531 -0.00499226 0.461569 -0.558961 0.0180544 0.0683598 0.0187407
internal_count=13333 10967 6333 4634 5492 1642 3850 2734 2366 4007 2277 627 2254 3943 872 841 443 2206 3864 398 2166 2959 2935 398 321 330 55 2894 2203 1632
shrinkage=0.1


Tree=24
num_leaves=31
num_cat=0
split_feature=0 7 6 18 7 11 14 19 16 16 16 16 7 16 11 11 6 7 8 7 7 19 11 8 16 19 16 16 6 10
split_gain=70.8572 31.7867 31.4903 15.7692 13.1191 25.2326 15.8229 34.3562 9.50041 8.45281 7.79025 7.69028 7.52709 7.19828 6.64549 5.83935 5.55578 5.3154 5.12355 5.35831 4.63263 6.35042 5.60183 13.0931 4.24908 4.90555 10.2718 8.25407 5.98986 5.72715
threshold=4.5000000000000009 0.010105000000000001 1.0000000180025095e-35 1.5000000000000002 1.0000000180025095e-35 0.0099994662841666679 1.0000000180025095e-35 1.0000000180025095e-35 1300295.5000000002 8185651.0000000009 9422.5000000000018 3358.5000000000005 24.49881611608474 3119959.5000000005 1.8705911928137338 0.00096804360349850012 144.50000000000003 9.300000000000001e-07 -2.8767592589999998e-06 0.00090832684010100004 0.74585206057765918 1.0000000180025095e-35 0.012372125882381501 -0.011990116862656998 3557451.0000000005 1.0000000180025095e-35 11224.500000000002 500.50000000000006 0.010536948833033502 0.029942598935271816
decision_type=2 2 2 2 2 2 2 2 2 2 2 2 2 2 2 2 2 2 2 2 2 2 2 2 2 2 2 2 2 2
left_child=1 2 4 8 6 15 7 10 11 14 -1 20 -5 -12 -2 17 24 -6 19 -19 21 -3 23 -23 25 26 28 -27 -4 -28
right_child=9 3 16 12 5 -7 -8 -9 -10 -11 13 -13 -14 -15 -16 -17 -18 18 -20 -21 -22 22 -24 -25 -26 27 29 -29 -30 -31
leaf_value=-0.079804433134643915 0.077992985846558949 0.032974527944439093 0.053108279158003514 0.064561753014134693 0.081612260125622046 -0.093002273500296495 -0.10483663690574702 0.028070665479610693 -0.053264938051913603 -0.014194689273116188 -0.0036361091184180534 0.030479320343662998 -0.065273084887546323 -0.10556042788926814 -0.0043837152317320136 0.018182531485260486 -0.10334272312918209 -0.003722255080708801 -0.11279321164388603 -0.085159229100445544 -0.014401032396409733 -0.13411133726315047 0.0031133519795381536 0.018321212788198721 -0.046327951398924358 0.074120364097903943 -0.017582881693476063 -0.065852121691491461 -0.03304828108559648 0.054738041439861142
leaf_count=1951 1925 579 44 605 47 770 1116 444 192 59 250 785 22 182 74 474 20 215 87 49 763 51 1575 63 52 296 78 25 225 315
internal_value=0 -0.071198 -0.246627 0.0558591 -0.391496 -0.184741 -0.539712 -0.414959 0.0167365 0.646917 -0.661591 0.0393235 0.543211 -0.275403 0.717387 0.00466086 0.116254 -0.226586 -0.309035 -0.19984 -6.94538e-05 0.0501908 0.00232954 -0.47758 0.144529 0.186439 0.0948771 0.529775 -0.195806 0.381718
internal_count=13333 11275 6640 4635 5585 1642 3943 2827 4008 2058 2383 3816 627 432 1999 872 1055 398 351 264 3031 2268 1689 114 1035 983 662 321 269 393
shrinkage=0.1


Tree=25
num_leaves=31
num_cat=0
split_feature=0 7 6 18 7 11 14 19 16 16 1 11 12 16 11 11 18 16 7 12 6 2 10 16 0 11 16 8 7 7
split_gain=60.7084 26.9462 27.034 13.4454 12.0082 22.7316 15.2818 29.8381 8.20103 7.83206 7.43126 6.86409 6.75992 6.73772 6.51305 6.1542 6.63454 5.66661 5.44523 5.21936 5.05407 5.24489 6.19618 5.32739 5.02996 4.77816 4.7486 4.66981 7.52107 4.59221
threshold=4.5000000000000009 0.010105000000000001 1.0000000180025095e-35 1.5000000000000002 1.0000000180025095e-35 0.0099994662841666679 1.0000000180025095e-35 1.0000000180025095e-35 3728511.5000000005 3387740.0000000005 1.5000000000000002 2.8739404021870736 5.2393268146721139 23051.000000000004 22.650240224362069 0.13025711720688965 1.0000000180025095e-35 3206079.5000000005 62.044000000000004 1.3251050672980569 1.4405919619090006 1.0000000180025095e-35 2.7163461589637277 52520.500000000007 2.5000000000000004 0.00096804360349850012 725910.50000000012 -0.010999499999999999 0.011010027201988003 0.0263182329365555
decision_type=2 2 2 2 2 2 2 2 2 2 2 2 2 2 2 2 2 2 2 2 2 2 2 2 2 2 2 2 2 2
left_child=1 2 4 8 6 25 7 10 14 13 -1 -5 -13 -2 24 16 -11 26 29 -17 -4 22 -22 -24 27 -6 -12 28 -3 -15
right_child=9 3 20 11 5 -7 -8 -9 -10 15 17 12 -14 18 -16 19 -18 -19 -20 -21 21 -23 23 -25 -26 -27 -28 -29 -30 -31
leaf_value=-0.074474829465590003 -0.059961516329722499 -0.12693000784681785 0.023038836141973013 0.066809827431218119 -0.020558314253525781 -0.091404208178209448 -0.10435525406122195 0.025815597177314849 -0.077676593617317422 0.086576187871932081 -0.051128086503860339 -0.11633315870178303 0.046961851546761205 0.0037005356350765825 -0.074082276431250815 -0.092104025418504848 -0.055022678693427363 -0.1049785685065646 -0.02238889775248027 0.042921370639223133 -0.021640262388693817 -0.099866925910367832 0.14181283444045034 0.0024298033846391785 0.047375820379470968 0.016498190632805308 0.046938364490169138 0.098029059999599377 0.0025774010262408368 0.08839620755339847
leaf_count=2099 33 27 772 579 398 770 1116 444 64 72 92 20 28 82 79 38 25 124 31 22 202 29 23 29 245 474 68 28 3565 1755
internal_value=0 -0.0657139 -0.231 0.0508162 -0.369341 -0.170884 -0.516773 -0.393577 0.0151849 0.61546 -0.633471 0.510703 -0.228437 0.735472 0.0287833 0.163316 0.52909 -0.154745 0.779717 -0.392425 0.106806 -0.136517 -0.0290566 0.627978 0.0400871 0.0039692 0.0858907 0.0243674 0.0175064 0.828861
internal_count=13333 11275 6640 4635 5585 1642 3943 2827 4008 2058 2383 627 48 1901 3944 157 97 284 1868 60 1055 283 254 52 3865 872 160 3620 3592 1837
shrinkage=0.1


Tree=26
num_leaves=31
num_cat=0
split_feature=5 7 6 7 11 14 19 18 16 16 1 16 19 5 12 16 7 9 16 5 5 16 6 10 19 6 16 6 19 16
split_gain=52.891 28.4508 15.5191 12.3015 20.4507 13.6102 28.5347 11.506 9.69809 9.71003 7.87155 6.88007 6.21694 9.70031 13.5635 6.61617 6.19969 5.95726 5.95433 5.40365 7.3781 10.8238 5.37992 5.9614 5.45309 8.9269 5.09745 4.90111 4.65135 4.37555
threshold=5.5000000000000009 0.010105000000000001 1.0000000180025095e-35 1.0000000180025095e-35 0.0099994662841666679 1.0000000180025095e-35 1.0000000180025095e-35 1.5000000000000002 2487637.5000000005 1404286.0000000002 8.5000000000000018 1300295.5000000002 6.5000000000000009 10.500000000000002 0.012053014835519646 123163.50000000001 12.860261692488086 0.020004185576015004 3358.5000000000005 41.500000000000007 7.5000000000000009 4186423.0000000005 2.2273889091695396 3.3136298985658508 1.0000000180025095e-35 0.099870325000000024 4186423.0000000005 19.992100000000004 1.0000000180025095e-35 19287.000000000004
decision_type=2 2 2 2 2 2 2 2 2 2 2 2 2 2 2 2 2 2 2 2 2 2 2 2 2 2 2 2 2 2
left_child=1 2 3 5 -5 6 -1 11 9 10 12 18 15 14 -14 28 -9 -12 -3 20 21 -10 24 29 -4 -26 -21 -25 -2 -24
right_child=8 7 22 4 -6 -7 -8 16 19 -11 17 -13 13 -15 -16 -17 -18 -19 -20 26 -22 -23 23 27 25 -27 -28 -29 -30 -31
leaf_value=-0.06595776102737734 -0.0796927373436572 -0.00014828442714681455 0.0016977466405659444 0.00035996526110058572 -0.08975914701818799 -0.10392368056466317 0.023704549662107565 0.061577274070125088 -0.20994191879460844 0.094218200757252554 -0.16052514977181132 -0.045454001450931744 -0.28500681156795094 0.065620693327776786 0.0014443141212920195 0.10683608455295034 -0.033259667766420004 0.025228123709767611 0.027045838234425537 0.073603296000505233 0.048709788419549455 0.027714504600917553 -0.031087052393248573 0.12169116971074906 -0.049572475657377629 0.089101685160448085 -0.09472936946461312 -0.030947986302002867 0.080838008752800464 -0.12716440477694405
leaf_count=2290 27 3031 401 872 770 1116 444 590 27 1031 21 192 29 185 103 352 37 25 784 35 410 40 77 20 25 265 37 20 44 33
internal_value=0 -0.070455 -0.253629 -0.356869 -0.157773 -0.51847 -0.394633 0.0459342 0.508367 0.669178 0.37569 0.0135287 0.510367 0.0990596 -0.712945 0.804001 0.481055 -0.62507 0.0328833 0.171545 0.306827 -0.539151 0.0362899 -0.327265 0.144979 0.551425 -0.518808 0.389081 -0.0292855 -0.592838
internal_count=13333 10967 6333 5492 1642 3850 2734 4634 2366 1817 786 4007 740 317 132 423 627 46 3815 549 477 67 841 150 691 290 72 40 71 110
shrinkage=0.1


Tree=27
num_leaves=31
num_cat=0
split_feature=5 11 6 18 11 16 16 1 19 5 12 9 11 8 19 7 8 7 11 11 8 7 16 14 19 7 7 16 12 6
split_gain=44.92 24.1874 21.3325 12.3678 11.6003 8.90318 9.11161 7.116 6.00111 7.95195 9.28191 5.48507 5.18399 6.8764 6.17815 4.94974 12.2 10.0473 7.46608 14.5669 8.27117 14.1408 7.01532 4.84714 24.8002 9.47522 9.37673 4.57167 4.45558 4.40757
threshold=5.5000000000000009 0.00020150000000000002 1.0000000180025095e-35 1.0000000180025095e-35 3.0002500000000007 2487637.5000000005 1370913.5000000002 7.5000000000000009 6.5000000000000009 10.500000000000002 0.012053014835519646 0.020004185576015004 0.18377753275763639 -0.011990116862656998 5.5000000000000009 0.030041321359174002 -0.029998398852499997 0.039872546910859001 0.0047951047188406438 0.0048363731866629478 -0.0096192342285524989 0.010000000050000001 3728511.5000000005 1.0000000180025095e-35 1.0000000180025095e-35 1.0000000180025095e-35 0.00019950000000000005 123163.50000000001 5.2393268146721139 2.2273889091695396
decision_type=2 2 2 2 2 2 2 2 2 2 2 2 2 2 2 2 2 2 2 2 2 2 2 2 2 2 2 2 2 2
left_child=1 2 23 15 -5 6 7 8 27 10 -10 -9 13 -7 -14 16 -3 -17 -18 -20 21 -21 -19 24 -1 -25 -27 -2 -6 -4
right_child=5 3 29 4 28 12 -8 11 9 -11 -12 -13 14 -15 -16 17 18 22 19 20 -22 -23 -24 25 -26 26 -28 -29 -30 -31
leaf_value=-0.063106386422306135 0.0088998683632647187 -0.16304107856946753 0.013248489352494237 0.031494137365657114 -0.043024842368437594 0.061071274653381941 0.090873297961516455 -0.15088936803475009 -0.23984889142601556 0.061044857343524765 -0.0029996843111114654 0.019474630280820037 0.089579730485171816 -0.023703802549435243 -0.071337413281024706 0.060970331442200189 0.01642710017831037 -0.0011998683710197963 -0.17988736890989729 -0.086325759631958154 0.053859857120116622 -0.0081447415357925254 -0.10845572018510459 -0.10353637852182261 0.021733543938349236 0.0064459105254917664 -0.1122678260131387 0.10415222839489749 0.046251132549940815 -0.029707212648869975
leaf_count=2290 68 23 691 1742 181 335 1057 22 25 179 99 30 24 116 74 120 297 2272 24 755 72 460 35 1116 444 199 64 337 32 150
internal_value=0 -0.0645904 -0.282949 0.0196018 0.216642 0.478748 0.639475 0.344611 0.49023 0.0809902 -0.657095 -0.547499 0.156804 0.329148 -0.368191 -0.0465011 -0.175928 0.00728578 -0.135744 -0.258258 -0.192701 -0.274456 -0.0259191 -0.467088 -0.373169 -0.690086 -0.289975 0.80163 -0.278089 0.0334796
internal_count=13333 10967 4954 6013 1955 2366 1817 760 708 303 124 52 549 451 98 4058 1631 2427 1608 1311 1287 1215 2307 4113 2734 1379 263 405 213 841
shrinkage=0.1


Tree=28
num_leaves=31
num_cat=0
split_feature=0 7 6 11 11 14 19 18 16 11 16 16 7 16 7 16 11 18 17 12 11 11 18 11 11 7 8 7 7 6
split_gain=38.5579 16.3976 17.1813 9.08724 17.3566 9.49589 19.493 8.88364 7.02341 6.63739 6.40838 6.25251 5.39937 5.34431 5.33965 7.49608 5.23396 4.8478 4.68867 4.67564 4.58683 7.05729 5.64536 5.26106 6.82413 4.89444 4.61937 4.27006 8.76773 4.00702
threshold=4.5000000000000009 0.010105000000000001 1.0000000180025095e-35 2.2174093220000003e-06 0.0099994662841666679 1.0000000180025095e-35 1.0000000180025095e-35 1.5000000000000002 2134.0000000000005 0.60967832730542093 3119959.5000000005 3387740.0000000005 24.49881611608474 3728511.5000000005 0.047433396869419005 725910.50000000012 22.650240224362069 1.0000000180025095e-35 1.0000000180025095e-35 4.3973665862485651 0.35270771182100252 0.35981838359446011 1.0000000180025095e-35 0.10001345762711843 0.097699308099257753 0.37968379629629506 -0.10798293757269048 1.0000000180025095e-35 9.300000000000001e-07 101.42364836995004
decision_type=2 2 2 2 2 2 2 2 2 2 2 2 2 2 2 2 2 2 2 2 2 2 2 2 2 2 2 2 2 2
left_child=1 2 3 5 -5 6 8 13 -1 11 -10 14 -9 16 15 -2 18 -13 19 20 22 -22 23 24 -3 -23 -25 -7 -29 -4
right_child=9 7 29 4 -6 27 -8 12 10 -11 -12 17 -14 -15 -16 -17 -18 -19 -20 -21 21 25 -24 26 -26 -27 -28 28 -30 -31
leaf_value=-0.071109079464530697 -0.15408299938023623 -0.0031281583915074881 0.010822759033515181 0.0028575535119959973 -0.086522405809772121 -0.10318855571119699 0.019898027500801524 0.053402406993663457 0.0031555215746821279 -0.0012317418782631091 -0.10417560337741601 0.048211307435441685 -0.057132847597824159 -0.064521665881072679 0.085765392471582547 0.053660973217155329 -0.068815901913013289 -0.049018993052512561 0.1010253392820276 0.10013280579801392 -0.13058523789468451 0.085613930750124537 0.033597819111470112 0.01166892704244462 -0.092530111902826506 -0.0090500180615357955 0.071637390103571938 0.071134673250757507 -0.1080391112553627 -0.08300525084248038
leaf_count=1918 22 1172 1031 729 770 1116 444 605 283 184 182 89 22 64 1593 127 79 43 24 26 22 24 675 702 45 1116 59 47 96 24
internal_value=0 -0.0512205 -0.188072 -0.308591 -0.123585 -0.442941 -0.333594 0.0383698 -0.552496 0.530712 -0.178779 0.628924 0.433093 0.0105256 0.760879 0.0837008 0.02132 0.179332 0.0312517 0.0247138 0.0181346 -0.0921977 0.0756501 0.0300088 -0.0642803 -0.0687204 0.168033 -0.852968 -0.317741 0.0813448
internal_count=13333 11275 6640 5585 1499 4086 2827 4635 2383 2058 465 1874 627 4008 1742 149 3944 132 3865 3841 3815 1162 2653 1978 1217 1140 761 1259 143 1055
shrinkage=0.1


Tree=29
num_leaves=31
num_cat=0
split_feature=5 11 6 18 11 18 18 16 13 16 16 11 14 19 7 7 7 7 16 11 11 12 16 17 16 12 16 16 9 11
split_gain=33.1299 17.8969 16.0794 8.84903 8.82501 8.09436 7.97929 7.32139 6.53447 6.21532 6.26226 5.16652 4.15053 18.6854 9.01489 8.53494 4.1402 6.32834 3.96284 3.9507 4.09936 4.58413 3.93181 4.33096 3.89561 3.68967 3.68497 5.32503 5.06614 4.32575
threshold=5.5000000000000009 0.00020150000000000002 1.0000000180025095e-35 1.0000000180025095e-35 0.39380475723824604 3.5000000000000004 1.0000000180025095e-35 1830520.0000000002 30.500000000000004 4186423.0000000005 82060.500000000015 0.60967832730542093 1.0000000180025095e-35 1.0000000180025095e-35 1.0000000180025095e-35 0.00019950000000000005 1.8499422183500003e-05 9.300000000000001e-07 1.0000000180025095e-35 0.49603866984000006 3.0002500000000007 0.81601269160784418 5540897.5000000009 1.0000000180025095e-35 244198.00000000003 5.2393268146721139 1635375.0000000002 8185651.0000000009 0.25007692307692314 0.0069773522680755193
decision_type=2 2 2 2 2 2 2 2 2 2 2 2 2 2 2 2 2 2 2 2 2 2 2 2 2 2 2 2 2 2
left_child=1 2 12 22 -5 6 8 -8 11 10 -7 26 13 18 -14 16 17 -16 -1 -6 21 24 23 -3 -21 -22 -2 28 -28 -29
right_child=5 3 -4 4 19 9 7 -9 -10 -11 -12 -13 14 -15 15 -17 -18 -19 -20 20 25 -23 -24 -25 -26 -27 27 29 -30 -31
leaf_value=-0.069470424802210232 0.021802961490835007 -0.0038162074750636094 0.0021156331645145045 0.03515233694296744 -0.090225575690666346 -0.095532494091963044 0.025618918081495468 -0.21850964383739516 -0.086097033324926173 -0.014934149757987345 0.09915518472097673 -0.028005208684057533 -0.10287593721217375 0.018192970797332262 0.060752011908461183 -0.10916347821717519 0.060391914890477544 -0.081771555449672351 -0.024852245068065708 0.011904554504802992 -0.038545123248197338 0.080906227522395457 -0.079147287687121426 0.091609671843034826 -0.11878230072489362 0.043477063194429864 0.086501120412120727 -0.12285797365947851 -0.028502600387917833 0.035174244580559913
leaf_count=1833 469 3997 841 1417 38 20 48 21 33 28 984 78 1116 444 47 64 44 108 457 187 181 80 36 25 20 32 606 26 22 31
internal_value=0 -0.0552011 -0.250014 0.016629 0.186777 0.428555 0.280069 -0.965722 0.337751 0.770994 0.911254 0.389115 -0.42212 -0.332333 -0.641446 -0.261253 0.0714444 -0.281073 -0.575298 -0.0457989 0.00250259 0.186073 -0.0390289 -0.0316076 0.0441909 -0.244518 0.464983 0.628233 0.760969 -0.100812
internal_count=13333 10967 4954 6013 1955 2366 1334 69 1265 1032 1004 1232 4113 2734 1379 263 199 155 2290 538 500 287 4058 4022 207 213 1154 685 628 57
shrinkage=0.1


Tree=30
num_leaves=31
num_cat=0
split_feature=0 7 6 11 11 18 16 16 11 18 0 7 19 16 12 5 0 16 16 19 14 19 7 7 16 16 12 11 12 12
split_gain=28.2123 12.1824 13.0276 8.47164 14.7022 6.58005 6.18734 7.34669 5.75644 6.4311 5.64308 5.16484 4.98674 9.16447 7.81556 10.6031 4.47601 4.35307 5.62002 5.33352 4.27354 14.6374 8.83091 7.56546 5.79103 5.95584 3.70055 3.55649 5.63381 3.54595
threshold=4.5000000000000009 0.010105000000000001 1.0000000180025095e-35 0.0099994662841666679 0.00020150000000000002 1.5000000000000002 2487637.5000000005 983399.00000000012 0.13025711720688965 4.5000000000000009 14.500000000000002 0.22343776040533303 6.5000000000000009 131074.00000000003 0.080221064344778506 18.500000000000004 20.500000000000004 1300295.5000000002 775829.00000000012 2.5000000000000004 1.0000000180025095e-35 1.0000000180025095e-35 1.0000000180025095e-35 0.00019950000000000005 9422.5000000000018 3119959.5000000005 0.090258370812455704 0.014285431644850625 0.0071062293879097602 0.099434026740205642
decision_type=2 2 2 2 2 2 2 2 2 2 2 2 2 2 2 2 2 2 2 2 2 2 2 2 2 2 2 2 2 2
left_child=1 2 3 4 20 17 7 12 27 10 -10 -7 -2 -14 15 -15 -11 18 -3 -20 21 24 -22 -24 -1 -26 -13 28 -8 -19
right_child=6 5 -4 -5 -6 11 8 -9 9 16 -12 26 13 14 -16 -17 -18 29 19 -21 22 -23 23 -25 25 -27 -28 -29 -30 -31
leaf_value=-0.065453295409840545 0.071505489213877532 0.001108717205264817 0.0068887070918274389 -0.084663389122071664 0.0070724084257182936 0.078911284403075613 0.050475992314310207 0.090661873156447581 -0.13416753748507684 0.13685499814953322 0.012573254135707502 -0.067822323636924545 0.063268515236799355 -0.32127437088743871 -0.0060079047339498676 0.10430549257427424 -0.054066816067003191 -0.0049217627629492156 -0.010337758420057321 0.097486137363638634 -0.10259477671755034 0.016612864086389303 0.0063005223700669487 -0.10620605243049486 0.0055655770523588928 -0.10369537375710697 0.027840987244578865 0.077204938724811711 -0.10896036134455139 -0.074303636322213304
leaf_count=1951 257 3638 1055 770 609 300 89 1111 43 31 33 70 116 36 74 20 20 110 58 120 1116 444 199 64 250 182 257 203 25 82
internal_value=0 -0.0430792 -0.16449 -0.274803 -0.231688 0.0337985 0.476865 0.654487 0.169757 -0.301227 -0.73877 0.383989 0.249019 -0.139331 -0.929177 -2.13969 0.618806 0.0102866 0.0257817 0.557578 -0.383842 -0.297284 -0.616103 -0.242749 -0.501251 -0.149907 0.130435 0.463817 0.0128831 -0.364847
internal_count=13333 11275 6640 5585 4815 4635 2058 1614 444 127 76 627 503 246 130 56 51 4008 3816 178 4206 2827 1379 263 2383 432 327 317 114 192
shrinkage=0.1


Tree=31
num_leaves=31
num_cat=0
split_feature=5 11 6 18 11 18 19 16 16 18 16 16 1 12 16 16 11 11 12 7 11 5 11 0 11 11 16 11 11 11
split_gain=24.3011 13.1005 10.4575 7.34663 8.42246 6.82174 5.42992 5.65291 5.12827 12.561 6.72906 5.10054 4.60421 4.3639 6.74007 8.54621 8.43129 7.21086 6.48554 4.82664 4.00919 6.19979 4.86878 4.13939 3.62989 15.1893 5.76064 5.44322 12.3792 4.57387
threshold=5.5000000000000009 0.00096804360349850012 1.0000000180025095e-35 1.0000000180025095e-35 0.075031867528216681 4.5000000000000009 12.500000000000002 149729.00000000003 2641075.5000000005 1.0000000180025095e-35 1635375.0000000002 3179037.5000000005 15.500000000000002 0.090258370812455704 865035.50000000012 3323050.0000000005 6.9278606431223135 0.16004860364688003 0.058492094677140623 1.0186013183820286 0.13025711720688965 58.500000000000007 0.018266637824984513 15.500000000000002 0.0047951047188406438 0.0048363731866629478 3728511.5000000005 0.012372125882381501 0.0097487551867901506 0.010000000050000001
decision_type=2 2 2 2 2 2 2 2 2 2 2 2 2 2 2 2 2 2 2 2 2 2 2 2 2 2 2 2 2 2
left_child=1 2 -1 24 -5 8 7 -7 10 20 12 -8 -2 18 16 17 -15 -16 -6 -19 21 22 -10 -22 -3 -26 27 28 -27 -30
right_child=5 3 -4 4 13 6 11 -9 9 -11 -12 -13 -14 14 15 -17 -18 19 -20 -21 23 -23 -24 -25 25 26 -28 -29 29 -31
leaf_value=-0.034185880664956099 0.02709187567454251 0.027075155569792522 0.0012180134398983933 0.045355911813633021 -0.0028942654881934861 -0.080584116315027515 0.10509099552374009 0.098198156592856509 0.021265090077251553 -0.20297294520322662 0.080169502523004366 -0.10950630209763208 -0.08637547995870859 0.083158573707284508 0.10939548242122435 0.076433859526632134 -0.057537888126569042 -0.26571928280594326 -0.15018300492964287 -0.079361385978657328 -0.10969222302970379 -0.1114317429150523 0.12578686757979374 0.03218100650876056 -0.1672260184177137 0.034360596318072471 -0.093119353829296231 0.00062659573058322562 -0.087157771688244234 -0.024985135000231473
leaf_count=4248 589 200 841 857 645 24 49 850 152 20 496 20 27 248 21 26 24 22 38 36 30 22 64 23 24 130 42 2660 756 149
internal_value=0 -0.046672 -0.209006 0.0177629 0.177995 0.381345 0.743508 0.883062 0.254385 -0.0480022 0.408768 -0.266866 0.17328 0.0370911 0.312679 -0.308016 0.577322 -0.957783 -0.0732355 -1.41795 0.122713 0.317643 0.485333 -0.478952 -0.0333763 -0.0509372 -0.0363572 -0.0262482 -0.292101 -0.575874
internal_count=13333 10967 5089 5878 1917 2366 943 874 1423 311 1112 69 616 1060 377 105 272 79 683 58 291 238 216 53 3961 3761 3737 3695 1035 905
shrinkage=0.1


Tree=32
num_leaves=31
num_cat=0
split_feature=0 7 8 7 6 8 14 19 8 11 7 11 7 16 16 16 16 7 7 11 11 8 7 8 8 8 11 12 11 0
split_gain=20.7171 8.58175 10.2992 13.7822 8.38237 7.0375 8.35037 13.3355 6.44764 6.18326 7.94972 6.06399 14.2241 5.09471 5.23216 4.97479 7.05203 5.27473 4.89603 11.9058 4.87128 4.80403 4.5647 6.93636 5.24652 5.1725 4.55035 4.08563 4.33799 5.57353
threshold=4.5000000000000009 0.015320166051214501 -0.018887317116449493 0.020003661906182 1.0000000180025095e-35 -2.8767592589999998e-06 1.0000000180025095e-35 1.0000000180025095e-35 -0.019983090508267496 0.0099994662841666679 0.010000000050000001 0.046555727686630348 0.05007556618000001 2134.0000000000005 3119959.5000000005 2487637.5000000005 814432.00000000012 0.047433396869419005 0.031718712491791014 0.029923644143620882 0.60967832730542093 -0.010999499999999999 0.011010027201988003 -0.011990116862656998 -0.012165187915359497 -0.012780422013415999 22.650240224362069 5.2393268146721139 0.27620771081800854 3.5000000000000004
decision_type=2 2 2 2 2 2 2 2 2 2 2 2 2 2 2 2 2 2 2 2 2 2 2 2 2 2 2 2 2 2
left_child=1 4 3 8 5 9 7 13 -3 -1 -11 18 -13 -7 -15 16 17 -2 19 -5 -19 22 -12 24 25 -24 27 28 -14 -30
right_child=15 2 -4 11 -6 6 -8 -9 -10 10 21 12 26 14 -16 -17 -18 20 -20 -21 -22 -23 23 -25 -26 -27 -28 -29 29 -31
leaf_value=0.0040502081521266876 -0.12214167489781391 -0.13405724792412924 0.085139857693706633 0.024800120255162324 0.0057914972014104591 -0.061884255511590269 -0.079904630140930619 0.01813946205742965 0.012937889096279307 -0.087315946401151798 -0.12280996337885622 -0.10557024093747532 0.011318874804002276 0.0038479066961945468 -0.10328015565236517 0.014930007791776809 0.084447220460692848 0.060214615341788708 0.041187865606856298 -0.10022267837243848 -0.053509486440284304 0.075576313198679579 -0.034128754975167402 0.096293228532079098 -0.1217510611551898 0.089107679866512607 -0.05973647895938046 0.073136597907029977 -0.0079345499856855826 0.10208933792786451
leaf_count=815 23 46 99 239 1055 1918 1250 444 29 739 27 59 1629 283 182 444 1182 358 570 44 51 55 86 25 32 23 88 44 1448 46
internal_value=0 -0.0357943 0.0335397 0.0166668 -0.132302 -0.214488 -0.355272 -0.252022 -0.934466 -0.0809802 -0.345833 0.0364825 -0.00425495 -0.460133 -0.138753 0.428453 0.599955 0.151889 0.244285 -0.00453004 0.320907 -0.0963603 -0.233791 -0.103831 -0.311958 -0.0903285 0.0183327 0.0309376 0.0207854 -0.062107
internal_count=13333 11275 4341 4242 6934 5879 4077 2827 75 1802 987 4167 3314 2383 465 2058 1614 432 853 283 409 248 193 166 141 109 3255 3167 3123 1494
shrinkage=0.1


Tree=33
num_leaves=31
num_cat=0
split_feature=18 16 16 11 8 11 7 5 16 8 19 10 6 19 8 14 19 8 19 0 16 1 16 16 16 1 16 16 5 11
split_gain=18.3792 9.50796 10.3965 8.93623 14.1798 10.0499 7.67477 6.79491 8.29014 6.04193 4.96626 4.80902 6.75629 13.0637 6.86055 8.23634 10.6486 5.39908 5.62334 4.67315 4.75392 5.6722 5.95025 5.67114 6.72353 4.88547 4.63014 4.56629 4.52087 4.22037
threshold=4.5000000000000009 4713.5000000000009 2416228.0000000005 0.01500984017247743 -0.014989370985727498 0.018266637824984513 0.020003661906182 7.5000000000000009 2736482.5000000005 -0.019983090508267496 12.500000000000002 0.0057876189195782283 0.099870325000000024 1.0000000180025095e-35 -2.8767592589999998e-06 1.0000000180025095e-35 1.0000000180025095e-35 -5.4808480562999999e-05 1.0000000180025095e-35 2.5000000000000004 60752.500000000007 3.5000000000000004 1099404.5000000002 1456799.0000000002 1351265.0000000002 3.5000000000000004 67561.000000000015 12337228.500000002 58.500000000000007 6.011220586263164
decision_type=2 2 2 2 2 2 2 2 2 2 2 2 2 2 2 2 2 2 2 2 2 2 2 2 2 2 2 2 2 2
left_child=1 3 19 4 -1 -5 9 8 -4 -7 26 12 14 -14 17 16 -16 18 -6 20 25 22 -22 24 -24 29 -2 -10 -9 -3
right_child=10 2 7 5 11 6 -8 28 27 -11 -12 -13 13 -15 15 -17 -18 -19 -20 -21 21 -23 23 -25 -26 -27 -28 -29 -30 -31
leaf_value=-0.16725458659532888 -0.059080859990867166 0.057380042407609938 -0.18275909843935312 0.091340542178634687 0.034853066576493417 -0.12300242163496418 0.0006300944405791876 0.028972760543772111 -0.018719837786291198 0.019383606512354046 -0.028194160510404034 -0.10184680566525506 -0.01892171015925859 0.082858427198962942 -0.046481752498021715 -0.080419269731030557 0.011154261346534352 0.11118441212894817 -0.016778575777857855 0.043945477294271333 0.0065459129764057064 0.045047223326891594 -0.048530491065518169 -0.0080055707030006352 -0.21986682412867464 -0.068996436940152839 0.095127757324861895 -0.11607348729944547 -0.079194479416215824 -0.043348249887677638
leaf_count=34 20 394 33 59 221 39 2721 304 303 26 69 31 155 276 2010 1244 467 21 1324 1250 885 208 67 117 25 25 877 73 33 22
